{"learner":{"attributes":{"best_iteration":"98","best_score":"0.02948976914472074"},"feature_names":[],"feature_types":[],"gradient_booster":{"model":{"gbtree_model_param":{"num_parallel_tree":"1","num_trees":"100"},"iteration_indptr":[0,1,2,3,4,5,6,7,8,9,10,11,12,13,14,15,16,17,18,19,20,21,22,23,24,25,26,27,28,29,30,31,32,33,34,35,36,37,38,39,40,41,42,43,44,45,46,47,48,49,50,51,52,53,54,55,56,57,58,59,60,61,62,63,64,65,66,67,68,69,70,71,72,73,74,75,76,77,78,79,80,81,82,83,84,85,86,87,88,89,90,91,92,93,94,95,96,97,98,99,100],"tree_info":[0,0,0,0,0,0,0,0,0,0,0,0,0,0,0,0,0,0,0,0,0,0,0,0,0,0,0,0,0,0,0,0,0,0,0,0,0,0,0,0,0,0,0,0,0,0,0,0,0,0,0,0,0,0,0,0,0,0,0,0,0,0,0,0,0,0,0,0,0,0,0,0,0,0,0,0,0,0,0,0,0,0,0,0,0,0,0,0,0,0,0,0,0,0,0,0,0,0,0,0],"trees":[{"base_weights":[-4.5351475E-3,-2.371988E-1,6.9772726E-1,-2.49226E-2,1.75E-1,2.1428572E-1,7.235577E-1,-2.0000001E-2,4.5833334E-1,5.6250002E-2,-1.875E-2,7.326733E-2,3.125E-1,6.0000002E-2,-1.25E-2,5E-2,-1.25E-2],"categories":[],"categories_nodes":[],"categories_segments":[],"categories_sizes":[],"default_left":[0,0,0,0,0,0,0,0,0,0,0,0,0,0,0,0,0],"id":0,"left_children":[1,3,5,-1,7,9,11,-1,13,-1,-1,-1,15,-1,-1,-1,-1],"loss_changes":[7.22209E1,1.689537E0,1.2185783E0,0E0,1.1541667E0,1.0848215E0,1.6073227E-1,0E0,5.708333E-1,0E0,0E0,0E0,3.90625E-1,0E0,0E0,0E0,0E0],"parents":[2147483647,0,0,1,1,2,2,4,4,5,5,6,6,8,8,12,12],"right_children":[2,4,6,-1,8,10,12,-1,14,-1,-1,-1,16,-1,-1,-1,-1],"split_conditions":[9.215187E-1,9.4017535E-1,9.2679226E-1,-4.7917992E-2,-9.498483E-1,1.0932125E0,2.4689603E0,-9.029791E-4,9.2129904E-1,1.9383913E-2,-3.6119224E-4,3.4252938E-2,1.2419244E0,1.1618304E-2,-2.6888668E-3,4.0814575E-2,-6.140244E-3],"split_indices":[0,26,26,0,27,3,29,0,1,0,0,0,23,0,0,0,0],"split_type":[0,0,0,0,0,0,0,0,0,0,0,0,0,0,0,0,0],"sum_hessian":[4.4E2,3.31E2,1.09E2,3.22E2,9E0,6E0,1.03E2,4E0,5E0,3E0,3E0,1E2,3E0,4E0,1E0,2E0,1E0],"tree_param":{"num_deleted":"0","num_feature":"31","num_nodes":"17","size_leaf_vector":"1"}},{"base_weights":[-6.9284067E-3,-2.3404256E-1,7.047619E-1,-2.4309815E-1,5.6250002E-2,-1.25E-2,7.139423E-1,-2.4920635E-2,-6.25E-2,-1.25E-2,7.23301E-1,3.75E-2,-1.3636364E-1,7.325E-2,3.125E-1,-2.2499999E-2,3.75E-2,5E-2,-1.25E-2],"categories":[],"categories_nodes":[],"categories_segments":[],"categories_sizes":[],"default_left":[0,0,0,0,0,0,0,0,0,0,0,0,0,0,0,0,0,0,0],"id":1,"left_children":[1,3,5,7,-1,-1,9,-1,11,-1,13,-1,15,-1,17,-1,-1,-1,-1],"loss_changes":[7.015288E1,2.5098782E0,8.8908386E-1,3.4404373E-1,0E0,0E0,9.069557E-1,0E0,4.3892044E-1,0E0,1.6032791E-1,0E0,5.829546E-1,0E0,3.90625E-1,0E0,0E0,0E0,0E0],"parents":[2147483647,0,0,1,1,2,2,3,3,6,6,8,8,10,10,12,12,14,14],"right_children":[2,4,6,8,-1,-1,10,-1,12,-1,14,-1,16,-1,18,-1,-1,-1,-1],"split_conditions":[9.840058E-1,1.023029E0,-2.5939178E0,9.2679226E-1,1.427306E-2,-4.1537287E-4,7.928039E-1,-4.26446E-2,6.667635E-1,-1.18831815E-2,2.4689603E0,5.2192095E-3,1.4272233E0,3.3054985E-2,1.2419244E0,-1.4096498E-3,7.8859925E-4,3.6733117E-2,-5.526221E-3],"split_indices":[0,26,20,26,0,0,26,0,0,0,29,0,23,0,23,0,0,0,0],"split_type":[0,0,0,0,0,0,0,0,0,0,0,0,0,0,0,0,0,0,0],"sum_hessian":[4.32E2,3.28E2,1.04E2,3.25E2,3E0,1E0,1.03E2,3.14E2,1.1E1,1E0,1.02E2,1E0,1E1,9.9E1,3E0,9E0,1E0,2E0,1E0],"tree_param":{"num_deleted":"0","num_feature":"31","num_nodes":"19","size_leaf_vector":"1"}},{"base_weights":[-1.3856813E-2,-2.4920128E-2,5.9504133E-1,2.0689656E-1,7.096774E-1,-1.4583333E-1,4.3055555E-1,-1.25E-2,7.201087E-1,-2.2727273E-2,3.75E-2,5.6666666E-1,-1.875E-2,7.3076926E-2,-1.25E-2,6.25E-2,-1.25E-2],"categories":[],"categories_nodes":[],"categories_segments":[],"categories_sizes":[],"default_left":[0,0,0,0,0,0,0,0,0,0,0,0,0,0,0,0,0],"id":2,"left_children":[1,-1,3,5,7,9,11,-1,13,-1,-1,15,-1,-1,-1,-1,-1],"loss_changes":[6.2197536E1,0E0,5.237114E0,2.3506346E0,8.997421E-1,5.942235E-1,1.620486E0,0E0,9.2020035E-1,0E0,0E0,6.833334E-1,0E0,0E0,0E0,0E0,0E0],"parents":[2147483647,0,0,2,2,3,3,4,4,5,5,6,6,8,8,11,11],"right_children":[2,-1,4,6,8,10,12,-1,14,-1,-1,16,-1,-1,-1,-1,-1],"split_conditions":[8.7330353E-1,-3.8500536E-2,1.0176528E0,-7.1199477E-1,-6.669245E-1,1.1239481E0,1.1625758E0,-2.9984831E-3,2.4019074E0,-2.0763488E-3,7.097423E-4,1.0892454E0,-3.7383437E-4,2.8846512E-2,-4.9735964E-3,1.1810339E-2,-2.2790134E-3],"split_indices":[26,0,0,27,23,4,3,0,29,0,0,1,0,0,0,0,0],"split_type":[0,0,0,0,0,0,0,0,0,0,0,0,0,0,0,0,0],"sum_hessian":[4.32E2,3.12E2,1.2E2,2.8E1,9.2E1,1.1E1,1.7E1,1E0,9.1E1,1E1,1E0,1.4E1,3E0,9E1,1E0,1.3E1,1E0],"tree_param":{"num_deleted":"0","num_feature":"31","num_nodes":"17","size_leaf_vector":"1"}},{"base_weights":[-2.5959369E-2,-2.49226E-2,5.7024795E-1,2.8125E-1,7.042683E-1,-4.6875E-2,4.8E-1,7.160494E-1,-1.25E-2,5E-2,-1.6071428E-1,6.125E-1,-4.1666668E-2,7.278481E-2,1.6666667E-1,-2.3076924E-2,3.75E-2,-1.25E-2,6.5789476E-2,-2.0000001E-2,3.75E-2,-1.25E-2,3.75E-2],"categories":[],"categories_nodes":[],"categories_segments":[],"categories_sizes":[],"default_left":[0,0,0,0,0,0,0,0,0,0,0,0,0,0,0,0,0,0,0,0,0,0,0],"id":3,"left_children":[1,-1,3,5,7,9,11,13,-1,-1,15,17,19,-1,21,-1,-1,-1,-1,-1,-1,-1,-1],"loss_changes":[5.9111263E1,0E0,4.488449E0,2.631094E0,8.906212E-1,1.0764508E0,1.7535415E0,4.037323E-1,0E0,0E0,6.119506E-1,7.518091E-1,4.7083333E-1,0E0,2.2916666E-1,0E0,0E0,0E0,0E0,0E0,0E0,0E0,0E0],"parents":[2147483647,0,0,2,2,3,3,4,4,5,5,6,6,7,7,10,10,11,11,12,12,14,14],"right_children":[2,-1,4,6,8,10,12,14,-1,-1,16,18,20,-1,22,-1,-1,-1,-1,-1,-1,-1,-1],"split_conditions":[7.928039E-1,-3.5613656E-2,1.0897533E0,-3.7164924E-1,1.6085294E0,3.9286262E-1,1.1378143E0,2.4019074E0,-1.3080478E-3,3.516251E-3,1.3046498E0,-1.57364E0,1.0208572E0,2.9934958E-2,1.1258035E0,-8.0639124E-4,1.073165E-2,-1.0420913E-2,1.02207055E-2,-1.9609095E-3,1.8918633E-2,-4.4762376E-3,3.3557165E-2],"split_indices":[26,0,0,28,8,19,15,29,0,0,6,27,0,0,0,0,0,0,0,0,0,0,0],"split_type":[0,0,0,0,0,0,0,0,0,0,0,0,0,0,0,0,0,0,0,0,0,0,0],"sum_hessian":[4.42E2,3.22E2,1.2E2,3.9E1,8.1E1,1.5E1,2.4E1,8E1,1E0,2E0,1.3E1,1.9E1,5E0,7.8E1,2E0,1.2E1,1E0,1E0,1.8E1,4E0,1E0,1E0,1E0],"tree_param":{"num_deleted":"0","num_feature":"31","num_nodes":"23","size_leaf_vector":"1"}},{"base_weights":[-2.2577092E-2,-2.1257062E-1,6.4356434E-1,-2.460815E-1,9.0277776E-2,6.701031E-1,-0E0,-2.4920886E-2,6.25E-2,-1.6129032E-2,6.25E-2,-1.25E-2,6.796875E-1,-1.875E-2,3.75E-2,-1.6666668E-2,3.75E-2,5E-1,-1.6E-1,6.894737E-1,-1.25E-2,-1.25E-2,6.25E-2,3.75E-2,-1.9791668E-2,-1.25E-2,6.994681E-2],"categories":[],"categories_nodes":[],"categories_segments":[],"categories_sizes":[],"default_left":[0,0,0,0,0,0,0,0,0,0,0,0,0,0,0,0,0,0,0,0,0,0,0,0,0,0,0],"id":4,"left_children":[1,3,5,7,9,11,13,-1,15,17,-1,-1,19,-1,-1,-1,-1,21,23,25,-1,-1,-1,-1,-1,-1,-1],"loss_changes":[5.7596207E1,3.6148624E0,1.7250175E0,3.234253E-1,2.0584116E0,8.241577E-1,4.21875E-1,0E0,3.4895834E-1,2.3819354E0,0E0,0E0,8.421669E-1,0E0,0E0,0E0,0E0,6.25E-1,5.8135426E-1,8.607521E-1,0E0,0E0,0E0,0E0,0E0,0E0,0E0],"parents":[2147483647,0,0,1,1,2,2,3,3,4,4,5,5,6,6,8,8,9,9,12,12,17,17,18,18,19,19],"right_children":[2,4,6,8,10,12,14,-1,16,18,-1,-1,20,-1,-1,-1,-1,22,24,26,-1,-1,-1,-1,-1,-1,-1],"split_conditions":[1.023029E0,6.78787E-1,1.4772294E0,1.2425756E0,9.3534344E-1,7.5357133E-1,1.2123241E0,-3.446023E-2,5.8985627E-1,3.090819E-1,9.670481E-3,-4.7539654E-3,1.6063706E0,-1.1772395E-3,2.3871338E-2,-1.4474339E-2,2.1404445E-3,5.9160423E-1,5.9546405E-1,4.597205E-1,-1.593554E-3,-2.4346411E-3,1.6145498E-3,6.956816E-4,-1.970476E-3,-5.050182E-4,2.4834508E-2],"split_indices":[26,26,9,13,30,3,0,0,0,16,0,0,11,0,0,0,0,5,0,15,0,0,0,0,0,0,0],"split_type":[0,0,0,0,0,0,0,0,0,0,0,0,0,0,0,0,0,0,0,0,0,0,0,0,0,0,0],"sum_hessian":[4.53E2,3.53E2,1E2,3.18E2,3.5E1,9.6E1,4E0,3.15E2,3E0,3E1,5E0,1E0,9.5E1,3E0,1E0,2E0,1E0,6E0,2.4E1,9.4E1,1E0,1E0,5E0,1E0,2.3E1,1E0,9.3E1],"tree_param":{"num_deleted":"0","num_feature":"31","num_nodes":"27","size_leaf_vector":"1"}},{"base_weights":[-3.6732458E-2,-2.1549296E-1,5.857843E-1,-2.431611E-1,1.2962963E-1,3.3552632E-1,7.2307694E-1,-2.4616565E-1,6.25E-2,-2.2727273E-2,3.529412E-1,-2.1875E-2,4.6774194E-1,1.6666667E-1,7.380953E-2,-2.4921875E-2,-7.1428575E-2,3.75E-2,-1.6666668E-2,5.9090906E-1,-7.1428575E-2,5.673077E-1,-4.1666668E-2,-1.25E-2,3.75E-2,3.75E-2,-2.0833334E-2,6.75E-2,-1.25E-2,-2.0833334E-2,3.75E-2,6.25E-3,6.304348E-2,-2.0000001E-2,3.75E-2],"categories":[],"categories_nodes":[],"categories_segments":[],"categories_sizes":[],"default_left":[0,0,0,0,0,0,0,0,0,0,0,0,0,0,0,0,0,0,0,0,0,0,0,0,0,0,0,0,0,0,0,0,0,0,0],"id":5,"left_children":[1,3,5,7,9,11,13,15,17,-1,19,-1,21,23,-1,-1,25,-1,-1,27,29,31,33,-1,-1,-1,-1,-1,-1,-1,-1,-1,-1,-1,-1],"loss_changes":[5.0870556E1,3.421381E0,3.261963E0,3.1752968E-1,2.2321253E0,2.8871102E0,4.2014694E-1,1.5611649E-1,3.4895834E-1,0E0,1.7589762E0,0E0,1.5959473E0,2.2916666E-1,0E0,0E0,5.0595236E-1,0E0,0E0,7.465911E-1,5.0595236E-1,7.891407E-1,4.7083333E-1,0E0,0E0,0E0,0E0,0E0,0E0,0E0,0E0,0E0,0E0,0E0,0E0],"parents":[2147483647,0,0,1,1,2,2,3,3,4,4,5,5,6,6,7,7,8,8,10,10,12,12,13,13,16,16,19,19,20,20,21,21,22,22],"right_children":[2,4,6,8,10,12,14,16,18,-1,20,-1,22,24,-1,-1,26,-1,-1,28,30,32,34,-1,-1,-1,-1,-1,-1,-1,-1,-1,-1,-1,-1],"split_conditions":[1.0176528E0,7.82601E-1,1.1500775E0,1.2520463E0,-7.1199477E-1,-3.377398E-1,-1.0498661E0,7.0616776E-1,4.6206355E-1,-1.6867489E-3,1.0699795E0,-1.0595203E-3,6.5740895E-1,1.2483743E0,2.7287338E-2,-3.173659E-2,6.1899555E-1,1.9263983E-3,-1.2280441E-2,1.0892454E0,1.2093014E0,-6.5461266E-1,1.1458315E0,-4.2772295E-5,1.5127242E-2,5.342245E-4,-2.5755763E-3,8.100203E-3,-1.773429E-3,-1.681596E-3,1.9333303E-3,7.1810484E-3,5.503431E-3,-7.509619E-4,1.0953486E-2],"split_indices":[0,26,26,13,27,27,24,26,2,0,12,0,29,0,0,0,1,0,0,1,6,23,0,0,0,0,0,0,0,0,0,0,0,0,0],"split_type":[0,0,0,0,0,0,0,0,0,0,0,0,0,0,0,0,0,0,0,0,0,0,0,0,0,0,0,0,0,0,0,0,0,0,0],"sum_hessian":[4.55E2,3.54E2,1.01E2,3.28E2,2.6E1,3.7E1,6.4E1,3.25E2,3E0,1E1,1.6E1,7E0,3E1,2E0,6.2E1,3.19E2,6E0,1E0,2E0,1E1,6E0,2.5E1,5E0,1E0,1E0,1E0,5E0,9E0,1E0,5E0,1E0,3E0,2.2E1,4E0,1E0],"tree_param":{"num_deleted":"0","num_feature":"31","num_nodes":"35","size_leaf_vector":"1"}},{"base_weights":[-3.9503384E-2,-2.1729651E-1,5.725E-1,-2.4918567E-2,4.605263E-2,6.722973E-1,2.777778E-1,-1.2E-1,3.392857E-1,3.90625E-1,7.3728815E-2,4.1666668E-2,6.75E-2,3.125E-1,-1.9318181E-1,-1.875E-2,5E-1,6.666667E-2,3.125E-2,-8.928572E-2,4E-1,5E-2,-1.25E-2,-2.3684211E-2,6.25E-3,6.666667E-2,-1.6666668E-2,-2.0833334E-2,5E-2,-2.2499999E-2,2.0000001E-2,-1.25E-2,5.6250002E-2],"categories":[],"categories_nodes":[],"categories_segments":[],"categories_sizes":[],"default_left":[0,0,0,0,0,0,0,0,0,0,0,0,0,0,0,0,0,0,0,0,0,0,0,0,0,0,0,0,0,0,0,0,0],"id":6,"left_children":[1,3,5,-1,7,9,11,13,15,17,-1,19,-1,21,23,-1,25,-1,27,29,31,-1,-1,-1,-1,-1,-1,-1,-1,-1,-1,-1,-1],"loss_changes":[4.832723E1,2.900381E0,2.7544975E0,0E0,1.891015E0,1.0666504E0,2.5041668E0,8.5164773E-1,1.2790178E0,1.5664062E0,0E0,8.8035715E-1,0E0,3.90625E-1,2.603917E-1,0E0,1.3333335E0,0E0,1.0026041E0,5.946429E-1,4.96875E-1,0E0,0E0,0E0,0E0,0E0,0E0,0E0,0E0,0E0,0E0,0E0,0E0],"parents":[2147483647,0,0,1,1,2,2,4,4,5,5,6,6,7,7,8,8,9,9,11,11,13,13,14,14,16,16,18,18,19,19,20,20],"right_children":[2,4,6,-1,8,10,12,14,16,18,-1,20,-1,22,24,-1,26,-1,28,30,32,-1,-1,-1,-1,-1,-1,-1,-1,-1,-1,-1,-1],"split_conditions":[1.0224594E0,6.742192E-1,5.0872594E-1,-2.765995E-2,-3.764715E-2,1.0805687E0,1.2651979E0,-1.5865698E0,5.319522E-1,1.1127452E0,2.2130592E-2,6.3329214E-1,3.0819237E-2,9.359388E-1,7.405338E-1,-3.6390186E-3,9.695857E-1,7.800359E-3,8.3974403E-1,1.825937E-1,1.0512996E0,3.7997724E-3,-1.8312216E-3,-1.2838751E-3,5.278349E-3,7.6144277E-3,-1.9583225E-3,-2.6497245E-4,4.4635534E-3,-3.9891602E-4,7.622767E-3,-3.767252E-4,9.858131E-3],"split_indices":[0,26,29,0,27,26,0,29,5,2,0,27,0,0,28,0,0,0,28,20,0,0,0,0,0,0,0,0,0,0,0,0,0],"split_type":[0,0,0,0,0,0,0,0,0,0,0,0,0,0,0,0,0,0,0,0,0,0,0,0,0,0,0,0,0,0,0,0,0],"sum_hessian":[4.42E2,3.43E2,9.9E1,3.06E2,3.7E1,7.3E1,2.6E1,2.4E1,1.3E1,1.5E1,5.8E1,1.7E1,9E0,3E0,2.1E1,3E0,1E1,8E0,7E0,1.3E1,4E0,2E0,1E0,1.8E1,3E0,8E0,2E0,5E0,2E0,9E0,4E0,1E0,3E0],"tree_param":{"num_deleted":"0","num_feature":"31","num_nodes":"33","size_leaf_vector":"1"}},{"base_weights":[-4.408482E-2,-2.0535715E-1,6.4705884E-1,-2.491554E-2,-1.4492754E-2,7.107143E-1,3.28125E-1,3.28125E-1,-1.1574074E-1,7.246377E-1,-1.25E-2,-2.0000001E-2,5.208333E-1,5.208333E-1,-2.0000001E-2,-1.4903846E-1,5E-2,-1.25E-2,7.389706E-2,6.75E-2,-1.6666668E-2,-1.6666668E-2,6.75E-2,3.125E-2,-1.8367348E-2],"categories":[],"categories_nodes":[],"categories_segments":[],"categories_sizes":[],"default_left":[0,0,0,0,0,0,0,0,0,0,0,0,0,0,0,0,0,0,0,0,0,0,0,0,0],"id":7,"left_children":[1,3,5,-1,7,9,11,13,15,17,-1,-1,19,21,-1,23,-1,-1,-1,-1,-1,-1,-1,-1,-1],"loss_changes":[5.006801E1,3.039257E0,1.4924583E0,0E0,2.431543E0,9.0509796E-1,1.732552E0,1.732552E0,1.1816685E0,9.3263626E-1,0E0,0E0,1.3843753E0,1.3843753E0,0E0,8.8863826E-1,0E0,0E0,0E0,0E0,0E0,0E0,0E0,0E0,0E0],"parents":[2147483647,0,0,1,1,2,2,4,4,5,5,6,6,7,7,8,8,9,9,12,12,13,13,15,15],"right_children":[2,4,6,-1,8,10,12,14,16,18,-1,-1,20,22,-1,24,-1,-1,-1,-1,-1,-1,-1,-1,-1],"split_conditions":[1.1089801E0,6.356696E-1,1.0698605E0,-2.7000902E-2,-9.430451E-1,1.6085294E0,-7.7269757E-1,1.084447E0,1.2515405E0,-6.572116E-1,-9.136796E-4,-1.7018587E-3,1.3433689E0,-5.929053E-1,-1.3211251E-3,5.0083363E-1,5.677664E-3,-4.974723E-4,2.1261966E-2,1.3048899E-2,-4.0937663E-4,-3.23025E-3,7.0964037E-3,4.496038E-4,-7.97306E-4],"split_indices":[0,26,29,0,29,8,28,1,27,23,0,0,15,24,0,3,0,0,0,0,0,0,0,0,0],"split_type":[0,0,0,0,0,0,0,0,0,0,0,0,0,0,0,0,0,0,0,0,0,0,0,0,0],"sum_hessian":[4.47E2,3.63E2,8.4E1,2.95E2,6.8E1,6.9E1,1.5E1,1.5E1,5.3E1,6.8E1,1E0,4E0,1.1E1,1.1E1,4E0,5.1E1,2E0,1E0,6.7E1,9E0,2E0,2E0,9E0,3E0,4.8E1],"tree_param":{"num_deleted":"0","num_feature":"31","num_nodes":"25","size_leaf_vector":"1"}},{"base_weights":[-5.4756638E-2,-1.8550532E-1,5.8441556E-1,-2.4562937E-1,5.4945056E-3,-1.875E-2,6.182432E-1,-2.4908759E-2,-1.5384616E-1,-1.1971831E-1,4.2857143E-1,2.9411766E-1,7.0258623E-1,3.75E-2,-2.2916667E-2,1.764706E-1,-2.090909E-1,5.416667E-1,-1.875E-2,4.6153846E-1,-2.0000001E-2,-1.25E-2,7.1929824E-1,-1.1111111E-2,4.4444446E-2,-2.264151E-2,1.6666668E-2,-1.6666668E-2,6.40625E-2,-0E0,6.666667E-2,1.6666668E-2,7.363637E-2],"categories":[],"categories_nodes":[],"categories_segments":[],"categories_sizes":[],"default_left":[0,0,0,0,0,0,0,0,0,0,0,0,0,0,0,0,0,0,0,0,0,0,0,0,0,0,0,0,0,0,0,0,0],"id":8,"left_children":[1,3,5,7,9,-1,11,-1,13,15,17,19,21,-1,-1,23,25,27,-1,29,-1,-1,31,-1,-1,-1,-1,-1,-1,-1,-1,-1,-1],"loss_changes":[3.788247E1,4.319213E0,2.1265507E0,5.245781E-2,4.8720016E0,0E0,1.816349E0,0E0,6.0376596E-1,1.9163517E0,1.5647321E0,1.4986427E0,8.9208984E-1,0E0,0E0,1.3594772E0,3.9576888E-1,1.3684897E0,0E0,1.2307692E0,0E0,0E0,4.1483307E-1,0E0,0E0,0E0,0E0,0E0,0E0,0E0,0E0,0E0,0E0],"parents":[2147483647,0,0,1,1,2,2,3,3,4,4,6,6,8,8,9,9,10,10,11,11,12,12,15,15,16,16,17,17,19,19,22,22],"right_children":[2,4,6,8,10,-1,12,-1,14,16,18,20,22,-1,-1,24,26,28,-1,30,-1,-1,32,-1,-1,-1,-1,-1,-1,-1,-1,-1,-1],"split_conditions":[1.0956223E0,5.8985627E-1,7.452911E-1,5.2015907E-1,9.1900605E-1,-7.698536E-4,1.1640656E0,-2.9518014E-2,5.2256244E-1,-4.979279E-1,1.1132379E0,3.728766E-1,-5.4911983E-1,9.825528E-4,-6.3327732E-3,-2.3844302E-1,1.2162622E0,4.6157393E-1,-4.4772626E-4,-1.0156115E0,-4.8190655E-4,-2.0798563E-3,-1.0498661E0,-5.28498E-4,5.5933804E-3,-1.1054308E-3,2.0706893E-3,-2.6293576E-3,6.204057E-3,-2.902806E-4,6.16422E-3,9.275258E-3,2.0777559E-2],"split_indices":[26,0,12,0,30,0,26,0,0,29,1,29,23,0,0,24,23,14,0,30,0,0,24,0,0,0,0,0,0,0,0,0,0],"split_type":[0,0,0,0,0,0,0,0,0,0,0,0,0,0,0,0,0,0,0,0,0,0,0,0,0,0,0,0,0,0,0,0,0],"sum_hessian":[4.51E2,3.75E2,7.6E1,2.85E2,9E1,3E0,7.3E1,2.73E2,1.2E1,7E1,2E1,1.6E1,5.7E1,1E0,1.1E1,1.6E1,5.4E1,1.7E1,3E0,1.2E1,4E0,1E0,5.6E1,8E0,8E0,5.2E1,2E0,2E0,1.5E1,4E0,8E0,2E0,5.4E1],"tree_param":{"num_deleted":"0","num_feature":"31","num_nodes":"33","size_leaf_vector":"1"}},{"base_weights":[-6.599553E-2,-2.127809E-1,5.027174E-1,-2.3423423E-1,9.375E-2,9.52381E-2,6.145833E-1,1.25E-1,-2.4009146E-1,-2.2499999E-2,3E-1,-5.882353E-2,6.0000002E-2,-1.875E-2,6.5217394E-1,-1.875E-2,5E-2,-2.490942E-2,-1.8867925E-1,5E-1,-2.0000001E-2,-1.6666667E-1,5E-2,6.780303E-1,6.25E-2,-2.4418605E-2,4.545455E-3,5.75E-2,-1.25E-2,-2.3214286E-2,3.75E-2,6.923077E-2,-1.25E-2,-1.6666668E-2,3.75E-2],"categories":[],"categories_nodes":[],"categories_segments":[],"categories_sizes":[],"default_left":[0,0,0,0,0,0,0,0,0,0,0,0,0,0,0,0,0,0,0,0,0,0,0,0,0,0,0,0,0,0,0,0,0,0,0],"id":9,"left_children":[1,3,5,7,9,11,13,15,17,-1,19,21,-1,-1,23,-1,-1,-1,25,27,-1,29,-1,31,33,-1,-1,-1,-1,-1,-1,-1,-1,-1,-1],"loss_changes":[3.7421963E1,2.3630543E0,4.135109E0,7.306843E-1,1.6453125E0,1.6683474E0,2.2931385E0,7.96875E-1,1.0481644E-1,0E0,1.6E0,1.107843E0,0E0,0E0,1.009655E0,0E0,0E0,0E0,6.998882E-1,5.875001E-1,0E0,6.1904764E-1,0E0,8.4324074E-1,3.4895834E-1,0E0,0E0,0E0,0E0,0E0,0E0,0E0,0E0,0E0,0E0],"parents":[2147483647,0,0,1,1,2,2,3,3,4,4,5,5,6,6,7,7,8,8,10,10,11,11,14,14,18,18,19,19,21,21,23,23,24,24],"right_children":[2,4,6,8,10,12,14,16,18,-1,20,22,-1,-1,24,-1,-1,-1,26,28,-1,30,-1,32,34,-1,-1,-1,-1,-1,-1,-1,-1,-1,-1],"split_conditions":[1.0557795E0,9.4795555E-1,1.0191867E0,-2.304335E0,4.9601358E-1,1.1592433E0,7.4536586E-1,-2.8309128E0,5.2015907E-1,-9.1815594E-4,1.0205032E0,3.1848243E-1,2.328217E-3,-2.791524E-4,1.4765973E0,-1.6154171E-3,2.1508157E-3,-2.7128065E-2,7.1815014E-1,1.2462902E0,-1.1954904E-4,1.21998E0,1.9438505E-3,1.6048286E0,1.0344762E0,-1.6391323E-3,8.538753E-4,5.2963975E-3,-1.5722156E-3,-7.3061587E-4,5.4038763E-3,1.8459007E-2,-3.2024385E-4,-9.528041E-4,6.7038774E-3],"split_indices":[26,0,9,29,27,6,13,29,0,0,26,28,0,0,10,0,0,0,27,3,0,3,0,13,0,0,0,0,0,0,0,0,0,0,0],"split_type":[0,0,0,0,0,0,0,0,0,0,0,0,0,0,0,0,0,0,0,0,0,0,0,0,0,0,0,0,0,0,0,0,0,0,0],"sum_hessian":[4.46E2,3.55E2,9.1E1,3.32E2,2.3E1,2E1,7.1E1,5E0,3.27E2,9E0,1.4E1,1.6E1,4E0,3E0,6.8E1,3E0,2E0,2.75E2,5.2E1,1E1,4E0,1.4E1,2E0,6.5E1,3E0,4.2E1,1E1,9E0,1E0,1.3E1,1E0,6.4E1,1E0,2E0,1E0],"tree_param":{"num_deleted":"0","num_feature":"31","num_nodes":"35","size_leaf_vector":"1"}},{"base_weights":[-7.914847E-2,-1.8387909E-1,5.927419E-1,-2.4269481E-1,1.9444445E-2,-1.875E-2,6.3559324E-1,-2.4906015E-2,-1.9767442E-1,3.8541666E-1,-1.119403E-1,6.508621E-1,-1.25E-2,1.25E-1,-2.4342105E-2,4.5454547E-2,6.25E-1,-1.8627451E-1,1.1764706E-1,7.1276593E-1,3.5416666E-1,5E-2,-1.875E-2,2.9166667E-2,-2.0833334E-2,-1.25E-2,6.923077E-2,-2.05E-2,3.75E-2,5E-2,-1.3636365E-2,-1.25E-2,7.336956E-2,-4.166667E-3,6.428572E-2],"categories":[],"categories_nodes":[],"categories_segments":[],"categories_sizes":[],"default_left":[0,0,0,0,0,0,0,0,0,0,0,0,0,0,0,0,0,0,0,0,0,0,0,0,0,0,0,0,0,0,0,0,0,0,0],"id":10,"left_children":[1,3,5,7,9,-1,11,-1,13,15,17,19,-1,21,-1,23,25,27,29,31,33,-1,-1,-1,-1,-1,-1,-1,-1,-1,-1,-1,-1,-1,-1],"loss_changes":[3.2337307E1,4.7522907E0,2.1921043E0,3.9030075E-2,4.370629E0,0E0,7.6654816E-1,0E0,6.651623E-1,1.9263732E0,1.16535E0,8.1282425E-1,0E0,7.96875E-1,0E0,7.481061E-1,7.9326916E-1,6.1289203E-1,1.7192514E0,9.1581917E-1,1.3980654E0,0E0,0E0,0E0,0E0,0E0,0E0,0E0,0E0,0E0,0E0,0E0,0E0,0E0,0E0],"parents":[2147483647,0,0,1,1,2,2,3,3,4,4,6,6,8,8,9,9,10,10,11,11,13,13,15,15,16,16,17,17,18,18,19,19,20,20],"right_children":[2,4,6,8,10,-1,12,-1,14,16,18,20,-1,22,-1,24,26,28,30,32,34,-1,-1,-1,-1,-1,-1,-1,-1,-1,-1,-1,-1,-1,-1],"split_conditions":[1.164257E0,6.4673555E-1,-3.5431424E-1,4.6671662E-1,-6.7151105E-1,-1.1618615E-3,1.6112359E0,-2.9792989E-2,3.004277E-1,-1.160965E0,6.784607E-1,8.775792E-1,-6.8027974E-4,3.4583786E-1,-3.1154603E-3,-1.5865698E0,-1.0103791E0,1.1716192E0,6.874839E-1,8.6619365E-1,1.2842526E-1,7.9891086E-4,-4.602313E-3,2.045378E-3,-6.289482E-4,-6.948179E-3,6.1044665E-3,-5.3256156E-4,4.863489E-3,4.233399E-3,-1.784131E-4,-1.9868613E-4,1.7499661E-2,8.389962E-3,1.10282395E-2],"split_indices":[0,0,23,26,29,0,4,0,16,30,28,29,0,5,0,29,28,1,7,11,30,0,0,0,0,0,0,0,0,0,0,0,0,0,0],"split_type":[0,0,0,0,0,0,0,0,0,0,0,0,0,0,0,0,0,0,0,0,0,0,0,0,0,0,0,0,0,0,0,0,0,0,0],"sum_hessian":[4.57E2,3.96E2,6.1E1,3.07E2,8.9E1,3E0,5.8E1,2.65E2,4.2E1,2.3E1,6.6E1,5.7E1,1E0,5E0,3.7E1,1E1,1.3E1,5E1,1.6E1,4.6E1,1.1E1,2E0,3E0,5E0,5E0,1E0,1.2E1,4.9E1,1E0,6E0,1E1,1E0,4.5E1,5E0,6E0],"tree_param":{"num_deleted":"0","num_feature":"31","num_nodes":"35","size_leaf_vector":"1"}},{"base_weights":[-9.3380615E-2,-1.897019E-1,5.5454546E-1,-2.4213287E-1,-8.928572E-3,1.40625E-1,7.0625E-1,-2.455986E-2,1.6666667E-1,-9.92647E-2,3.529412E-1,-2.2222223E-2,5.3125E-1,7.302632E-2,1.6666667E-1,3.75E-2,-1.25E-2,1.6666667E-1,-1.712963E-1,-2.0000001E-2,5.3846157E-1,-1.25E-2,6.428572E-2,-1.25E-2,3.75E-2,5E-2,-1.1111111E-2,3.75E-2,-1.8867925E-2,6.818182E-2,-1.6666668E-2],"categories":[],"categories_nodes":[],"categories_segments":[],"categories_sizes":[],"default_left":[0,0,0,0,0,0,0,0,0,0,0,0,0,0,0,0,0,0,0,0,0,0,0,0,0,0,0,0,0,0,0],"id":11,"left_children":[1,3,5,7,9,11,13,-1,15,17,19,-1,21,-1,23,-1,-1,25,27,-1,29,-1,-1,-1,-1,-1,-1,-1,-1,-1,-1],"loss_changes":[2.6504236E1,3.495264E0,3.354332E0,4.4613647E-1,2.7809875E0,2.3858507E0,3.9657402E-1,0E0,2.2916666E-1,1.3311207E0,1.8515837E0,0E0,6.662946E-1,0E0,2.2916666E-1,0E0,0E0,1.4444445E0,5.8355165E-1,0E0,1.4277391E0,0E0,0E0,0E0,0E0,0E0,0E0,0E0,0E0,0E0,0E0],"parents":[2147483647,0,0,1,1,2,2,3,3,4,4,5,5,6,6,8,8,9,9,10,10,12,12,14,14,17,17,18,18,20,20],"right_children":[2,4,6,8,10,12,14,-1,16,18,20,-1,22,-1,24,-1,-1,26,28,-1,30,-1,-1,-1,-1,-1,-1,-1,-1,-1,-1],"split_conditions":[1.1774142E0,6.4673555E-1,4.0403286E-1,6.742192E-1,7.405338E-1,-3.344196E-1,1.8338588E0,-1.758326E-2,5.9546405E-1,-6.7151105E-1,-8.931782E-2,-9.3036296E-4,1.0881182E0,2.0251542E-2,1.341304E0,2.24728E-3,-2.3789108E-3,9.6846914E-1,1.7038976E-1,-1.4605075E-4,1.2286879E0,-3.4536242E-3,5.937341E-3,-6.111598E-3,3.7075996E-3,8.7331235E-4,-4.724592E-4,3.9696693E-6,-1.0019199E-3,5.3876312E-3,-2.2560358E-4],"split_indices":[2,0,23,26,28,28,29,0,0,29,27,0,4,0,0,0,0,9,17,0,5,0,0,0,0,0,0,0,0,0,0],"split_type":[0,0,0,0,0,0,0,0,0,0,0,0,0,0,0,0,0,0,0,0,0,0,0,0,0,0,0,0,0,0,0],"sum_hessian":[4.22E2,3.68E2,5.4E1,2.85E2,8.3E1,1.5E1,3.9E1,2.83E2,2E0,6.7E1,1.6E1,8E0,7E0,3.7E1,2E0,1E0,1E0,1.4E1,5.3E1,4E0,1.2E1,1E0,6E0,1E0,1E0,6E0,8E0,1E0,5.2E1,1E1,2E0],"tree_param":{"num_deleted":"0","num_feature":"31","num_nodes":"31","size_leaf_vector":"1"}},{"base_weights":[-8.690745E-2,-1.7302799E-1,5.7843137E-1,-2.4204947E-1,4.5045046E-3,1.3636364E-1,6.8292683E-1,-2.4901574E-2,-1.75E-1,-6.842105E-2,4.117647E-1,6.0000002E-2,-2.1428572E-2,7.0625E-1,-1.25E-2,3.125E-1,-2.4074076E-2,-1.0755814E-1,2.75E-1,5.9090906E-1,7.1428575E-2,7.2972976E-2,3.125E-1,-1.25E-2,5E-2,5E-2,-1.2797619E-2,4.0625002E-2,-1.6666668E-2,-1.25E-2,6.75E-2,5E-2,-2.0000001E-2,-1.25E-2,5E-2],"categories":[],"categories_nodes":[],"categories_segments":[],"categories_sizes":[],"default_left":[0,0,0,0,0,0,0,0,0,0,0,0,0,0,0,0,0,0,0,0,0,0,0,0,0,0,0,0,0,0,0,0,0,0,0],"id":12,"left_children":[1,3,5,7,9,11,13,-1,15,17,19,-1,-1,21,-1,23,-1,25,27,29,31,-1,33,-1,-1,-1,-1,-1,-1,-1,-1,-1,-1,-1,-1],"loss_changes":[2.5483692E1,4.816738E0,2.2627716E0,8.860779E-2,3.3248374E0,1.916883E0,8.608608E-1,0E0,1.0366898E0,1.3064259E0,9.9427056E-1,0E0,0E0,1.417656E-1,0E0,3.90625E-1,0E0,1.1308312E0,6.4739585E-1,7.465911E-1,9.142857E-1,0E0,3.90625E-1,0E0,0E0,0E0,0E0,0E0,0E0,0E0,0E0,0E0,0E0,0E0,0E0],"parents":[2147483647,0,0,1,1,2,2,3,3,4,4,5,5,6,6,8,8,9,9,10,10,13,13,15,15,17,17,18,18,19,19,20,20,22,22],"right_children":[2,4,6,8,10,12,14,-1,16,18,20,-1,-1,22,-1,24,-1,26,28,30,32,-1,34,-1,-1,-1,-1,-1,-1,-1,-1,-1,-1,-1,-1],"split_conditions":[1.1930974E0,5.8985627E-1,4.0046796E-1,4.6671662E-1,8.6849546E-1,-1.8331663E-1,1.7288442E0,-2.4734309E-2,3.004277E-1,1.3238059E0,2.9980725E-1,9.075913E-3,-4.7445894E-4,1.8338588E0,-7.024527E-4,4.3491852E-1,-5.3694146E-3,2.0759168E-1,1.1884139E0,4.5698324E-1,6.669802E-1,1.837035E-2,1.341304E0,-9.4346255E-3,2.477342E-3,4.48823E-6,-2.902329E-4,3.1424405E-3,-5.2698853E-4,-2.1410228E-3,4.2581856E-3,2.997756E-3,-2.7137698E-4,-5.500436E-3,1.5205192E-2],"split_indices":[0,0,23,26,28,29,23,0,16,19,29,0,0,29,0,2,0,16,1,3,1,0,0,0,0,0,0,0,0,0,0,0,0,0,0],"split_type":[0,0,0,0,0,0,0,0,0,0,0,0,0,0,0,0,0,0,0,0,0,0,0,0,0,0,0,0,0,0,0,0,0,0,0],"sum_hessian":[4.42E2,3.92E2,5E1,2.82E2,1.1E2,1E1,4E1,2.53E2,2.9E1,9.4E1,1.6E1,4E0,6E0,3.9E1,1E0,3E0,2.6E1,8.5E1,9E0,1E1,6E0,3.6E1,3E0,1E0,2E0,2E0,8.3E1,7E0,2E0,1E0,9E0,2E0,4E0,1E0,2E0],"tree_param":{"num_deleted":"0","num_feature":"31","num_nodes":"35","size_leaf_vector":"1"}},{"base_weights":[-8.00464E-2,-1.5772252E-1,5.15E-1,-2.340824E-1,1.9396551E-2,7.692308E-2,6.513158E-1,-2.4885321E-2,-1.65E-1,-4.950495E-2,4.53125E-1,6.0000002E-2,-2.2222223E-2,-1.25E-2,6.756757E-1,1.5625E-2,-2.4285715E-2,3.529412E-1,-1.2941177E-1,6.875E-2,-2.0000001E-2,7E-1,1.6666667E-1,-1.4583333E-2,4.0000003E-2,-2.0000001E-2,5.3846158E-2,5.6250002E-2,-1.6158536E-2,3.125E-2,7.265625E-2,3.75E-2,-1.25E-2],"categories":[],"categories_nodes":[],"categories_segments":[],"categories_sizes":[],"default_left":[0,0,0,0,0,0,0,0,0,0,0,0,0,0,0,0,0,0,0,0,0,0,0,0,0,0,0,0,0,0,0,0,0],"id":13,"left_children":[1,3,5,7,9,11,13,-1,15,17,19,-1,-1,-1,21,23,-1,25,27,-1,-1,29,31,-1,-1,-1,-1,-1,-1,-1,-1,-1,-1],"loss_changes":[2.000243E1,5.17101E0,2.9357395E0,2.3138714E-1,3.4890387E0,2.1675212E0,8.030758E-1,0E0,7.0694196E-1,3.2936518E0,2.5867186E0,0E0,0E0,0E0,3.414421E-1,1.0513021E0,0E0,1.8515837E0,1.9831016E0,0E0,0E0,1.332035E-1,2.2916666E-1,0E0,0E0,0E0,0E0,0E0,0E0,0E0,0E0,0E0,0E0],"parents":[2147483647,0,0,1,1,2,2,3,3,4,4,5,5,6,6,8,8,9,9,10,10,14,14,15,15,17,17,18,18,21,21,22,22],"right_children":[2,4,6,8,10,12,14,-1,16,18,20,-1,-1,-1,22,24,-1,26,28,-1,-1,30,32,-1,-1,-1,-1,-1,-1,-1,-1,-1,-1],"split_conditions":[1.1930974E0,4.9328324E-1,4.0403286E-1,4.03196E-1,7.995957E-1,-1.8331663E-1,8.659878E-1,-2.8842581E-2,2.6597565E-1,-9.092409E-1,1.1007695E0,8.168325E-3,-5.6178274E-4,-2.6671886E-3,1.4440292E0,4.4667256E-1,-5.025845E-3,-1.0962489E0,2.7887267E-1,2.6979805E-3,-3.959656E-4,-1.7505171E0,1.4166089E0,-2.515775E-3,1.4563486E-3,-1.01251E-3,2.7770908E-3,5.155802E-6,-4.783809E-4,1.4698744E-2,1.3684678E-2,1.6677309E-2,-6.3220266E-4],"split_indices":[0,26,23,0,27,29,3,0,18,29,2,0,0,0,4,12,0,27,17,0,0,28,0,0,0,0,0,0,0,0,0,0,0],"split_type":[0,0,0,0,0,0,0,0,0,0,0,0,0,0,0,0,0,0,0,0,0,0,0,0,0,0,0,0,0,0,0,0,0],"sum_hessian":[4.3E2,3.81E2,4.9E1,2.66E2,1.15E2,1.2E1,3.7E1,2.17E2,4.9E1,1E2,1.5E1,4E0,8E0,1E0,3.6E1,1.5E1,3.4E1,1.6E1,8.4E1,1.1E1,4E0,3.4E1,2E0,1.1E1,4E0,4E0,1.2E1,3E0,8.1E1,3E0,3.1E1,1E0,1E0],"tree_param":{"num_deleted":"0","num_feature":"31","num_nodes":"33","size_leaf_vector":"1"}},{"base_weights":[-9.557109E-2,-1.7546174E-1,5E-1,-2.3425926E-1,-2.9545454E-2,-2.0000001E-2,5.638298E-1,-2.4124514E-1,-8.928572E-2,-7.575758E-2,3.5416666E-1,7.1428575E-2,6.3414633E-1,-2.4890352E-2,-1.75E-1,-2.2916667E-2,5E-2,9.090909E-2,-1.5671642E-1,6.428572E-2,-4.1666668E-2,-2.0000001E-2,5E-2,6.5625E-1,-1.25E-2,2.0000001E-2,-2.4038462E-2,-1.6666668E-2,2.8947368E-2,-2.2499999E-2,4.166667E-3,-2.0000001E-2,3.75E-2,6.794872E-2,-1.25E-2],"categories":[],"categories_nodes":[],"categories_segments":[],"categories_sizes":[],"default_left":[0,0,0,0,0,0,0,0,0,0,0,0,0,0,0,0,0,0,0,0,0,0,0,0,0,0,0,0,0,0,0,0,0,0,0],"id":14,"left_children":[1,3,5,7,9,-1,11,13,15,17,19,21,23,-1,25,-1,-1,27,29,-1,31,-1,-1,33,-1,-1,-1,-1,-1,-1,-1,-1,-1,-1,-1],"loss_changes":[2.049979E1,3.2447147E0,2.391489E0,2.5190735E-1,1.9773675E0,0E0,1.5820303E0,8.682537E-2,1.2686011E0,1.3500679E0,1.3980654E0,9.142857E-1,7.700081E-1,0E0,7.836539E-1,0E0,0E0,1.7360446E0,9.1697764E-1,0E0,4.7083333E-1,0E0,0E0,8.110981E-1,0E0,0E0,0E0,0E0,0E0,0E0,0E0,0E0,0E0,0E0,0E0],"parents":[2147483647,0,0,1,1,2,2,3,3,4,4,6,6,7,7,8,8,9,9,10,10,11,11,12,12,14,14,17,17,18,18,20,20,23,23],"right_children":[2,4,6,8,10,-1,12,14,16,18,20,22,24,-1,26,-1,-1,28,30,-1,32,-1,-1,34,-1,-1,-1,-1,-1,-1,-1,-1,-1,-1,-1],"split_conditions":[1.1930974E0,4.98459E-1,-1.0407702E0,2.3663757E0,1.1241357E0,-5.2856206E-4,3.027616E-1,4.5574796E-1,3.2308432E-1,-3.2068726E-1,1.0451449E0,2.5204763E-1,1.6112359E0,-1.8895034E-2,2.1991456E-1,-2.1704296E-2,1.1069179E-3,-2.3844302E-1,5.479745E-1,6.1145993E-3,1.2757155E0,-4.1896405E-4,1.7530322E-3,1.429098E0,-4.1558742E-4,1.3107166E-3,-4.947317E-3,-9.042323E-5,1.5699625E-3,-1.2735784E-3,3.665477E-4,-4.8230737E-4,1.4047147E-3,1.2544379E-2,-1.8818498E-3],"split_indices":[0,26,24,23,30,0,23,26,0,29,10,28,4,0,17,0,0,24,23,0,7,0,0,10,0,0,0,0,0,0,0,0,0,0,0],"split_type":[0,0,0,0,0,0,0,0,0,0,0,0,0,0,0,0,0,0,0,0,0,0,0,0,0,0,0,0,0,0,0,0,0,0,0],"sum_hessian":[4.28E2,3.78E2,5E1,2.69E2,1.09E2,4E0,4.6E1,2.56E2,1.3E1,9.8E1,1.1E1,6E0,4E1,2.27E2,2.9E1,1.1E1,2E0,3.2E1,6.6E1,6E0,5E0,4E0,2E0,3.9E1,1E0,4E0,2.5E1,1.4E1,1.8E1,4.9E1,1.7E1,4E0,1E0,3.8E1,1E0],"tree_param":{"num_deleted":"0","num_feature":"31","num_nodes":"35","size_leaf_vector":"1"}},{"base_weights":[-8.9527026E-2,-1.3855422E-1,5.9166664E-1,-2.2632575E-1,1.4802632E-2,6.851852E-1,-1.875E-2,-2.444934E-1,-1.118421E-1,1.8867925E-1,-7.75E-2,-1.25E-2,7.2115384E-2,-2.488263E-2,-1.6666667E-1,-2.0967741E-1,2.8125E-1,-8.333334E-3,4.2708334E-1,-2.4242425E-2,3.6764706E-3,6.25E-3,-2.2916667E-2,-2.4137931E-2,1.6666668E-2,6.0000002E-2,-1.875E-2,-1.5217391E-2,4.0625002E-2,5.78125E-2,1.1111111E-2,-8.163265E-3,2.125E-2],"categories":[],"categories_nodes":[],"categories_segments":[],"categories_sizes":[],"default_left":[0,0,0,0,0,0,0,0,0,0,0,0,0,0,0,0,0,0,0,0,0,0,0,0,0,0,0,0,0,0,0,0,0],"id":15,"left_children":[1,3,5,7,9,11,-1,13,15,17,19,-1,-1,-1,21,23,25,27,29,-1,31,-1,-1,-1,-1,-1,-1,-1,-1,-1,-1,-1,-1],"loss_changes":[1.4910253E1,5.589403E0,2.3144674E0,5.2174854E-1,2.4541116E0,8.7695885E-1,0E0,3.5077095E-2,1.5203868E0,2.492895E0,1.3396881E0,0E0,0E0,0E0,2.2916666E-1,4.1008532E-1,1.3078125E0,1.850838E0,1.0811634E0,0E0,1.2287365E0,0E0,0E0,0E0,0E0,0E0,0E0,0E0,0E0,0E0,0E0,0E0,0E0],"parents":[2147483647,0,0,1,1,2,2,3,3,4,4,5,5,7,7,8,8,9,9,10,10,14,14,15,15,16,16,17,17,18,18,20,20],"right_children":[2,4,6,8,10,12,-1,14,16,18,20,-1,-1,-1,22,24,26,28,30,-1,32,-1,-1,-1,-1,-1,-1,-1,-1,-1,-1,-1,-1],"split_conditions":[1.3066622E0,4.9328324E-1,1.4320859E0,9.9247015E-1,-3.4323406E-1,1.0017915E0,-5.460262E-4,4.990338E-1,3.1540903E-1,-3.399433E-2,-3.9132375E-1,-1.0919332E-3,1.5845228E-2,-1.9493734E-2,3.0723703E-1,4.7545198E-1,9.291798E-1,1.184881E0,1.1007695E0,-8.041352E-4,5.706488E-1,9.704829E-5,-2.0000488E-3,-1.06584225E-2,1.8768251E-3,1.5565291E-3,-3.8206576E-6,-3.9083065E-4,2.393484E-3,2.189076E-3,6.366834E-3,-3.047347E-4,1.8167257E-3],"split_indices":[26,26,4,27,29,8,0,1,6,28,28,0,0,0,7,13,30,11,2,0,23,0,0,0,0,0,0,0,0,0,0,0,0],"split_type":[0,0,0,0,0,0,0,0,0,0,0,0,0,0,0,0,0,0,0,0,0,0,0,0,0,0,0,0,0,0,0,0,0],"sum_hessian":[4.43E2,4.14E2,2.9E1,2.63E2,1.51E2,2.6E1,3E0,2.26E2,3.7E1,5.2E1,9.9E1,1E0,2.5E1,2.12E2,1.4E1,3E1,7E0,2.9E1,2.3E1,3.2E1,6.7E1,3E0,1.1E1,2.8E1,2E0,4E0,3E0,2.2E1,7E0,1.5E1,8E0,4.8E1,1.9E1],"tree_param":{"num_deleted":"0","num_feature":"31","num_nodes":"33","size_leaf_vector":"1"}},{"base_weights":[-8.433014E-2,-1.498656E-1,4.3617022E-1,-2.4355671E-1,-4.7486033E-2,2.7586207E-1,6.5789473E-1,-2.486702E-2,-7.1428575E-2,2.5625E-1,-1.3392857E-1,1.5625E-2,5.535714E-1,-1.25E-2,7.083333E-2,-2.0833334E-2,3.75E-2,-2.2499999E-2,4.032258E-1,-1.5257353E-1,4E-1,4E-1,-1.4583333E-1,6.875E-2,-1.6666668E-2,6.052632E-2,7.692308E-3,-2.2916667E-2,-9.09091E-3,-1.25E-2,5.6250002E-2,-1.25E-2,5.6250002E-2,-2.2727273E-2,3.75E-2],"categories":[],"categories_nodes":[],"categories_segments":[],"categories_sizes":[],"default_left":[0,0,0,0,0,0,0,0,0,0,0,0,0,0,0,0,0,0,0,0,0,0,0,0,0,0,0,0,0,0,0,0,0,0,0],"id":16,"left_children":[1,3,5,7,9,11,13,-1,15,17,19,21,23,-1,-1,-1,-1,-1,25,27,29,31,33,-1,-1,-1,-1,-1,-1,-1,-1,-1,-1,-1,-1],"loss_changes":[1.432386E1,3.5566778E0,1.4890919E0,1.529932E-1,4.7340918E0,2.0871885E0,8.388157E-1,0E0,5.0595236E-1,2.92001E0,1.45474E0,1.0513021E0,1.4650297E0,0E0,0E0,0E0,0E0,0E0,1.9971266E0,6.215048E-1,4.96875E-1,4.96875E-1,5.942235E-1,0E0,0E0,0E0,0E0,0E0,0E0,0E0,0E0,0E0,0E0,0E0,0E0],"parents":[2147483647,0,0,1,1,2,2,3,3,4,4,5,5,6,6,8,8,9,9,10,10,11,11,12,12,18,18,19,19,20,20,21,21,22,22],"right_children":[2,4,6,8,10,12,14,-1,16,18,20,22,24,-1,-1,-1,-1,-1,26,28,30,32,34,-1,-1,-1,-1,-1,-1,-1,-1,-1,-1,-1,-1],"split_conditions":[1.2271669E0,3.543279E-1,1.3530184E0,2.4827664E0,-5.966255E-1,-2.3414206E-2,1.0010737E0,-2.805903E-2,-5.8297896E-1,-7.097852E-1,1.9846036E0,1.1722683E0,4.6122462E-1,-2.771616E-5,1.4180446E-2,-1.01982765E-1,5.9544743E-4,-1.6961873E-3,4.1468602E-1,9.897131E-2,2.0629077E-1,1.1306102E0,9.046587E-1,8.989108E-3,-7.761121E-4,2.1745085E-3,1.3538301E-3,-1.9463539E-3,-3.2990277E-4,-1.1819923E-2,2.6031733E-3,-5.52547E-4,5.025983E-4,-2.8946996E-4,6.481409E-4],"split_indices":[26,0,26,28,29,27,13,0,0,28,27,0,29,0,0,0,0,0,20,30,8,0,20,0,0,0,0,0,0,0,0,0,0,0,0],"split_type":[0,0,0,0,0,0,0,0,0,0,0,0,0,0,0,0,0,0,0,0,0,0,0,0,0,0,0,0,0,0,0,0,0,0,0],"sum_hessian":[4.17E2,3.71E2,4.6E1,1.93E2,1.78E2,2.8E1,1.8E1,1.87E2,6E0,3.9E1,1.39E2,1.5E1,1.3E1,1E0,1.7E1,5E0,1E0,9E0,3E1,1.35E2,4E0,4E0,1.1E1,1.1E1,2E0,1.8E1,1.2E1,5.9E1,7.6E1,1E0,3E0,1E0,3E0,1E1,1E0],"tree_param":{"num_deleted":"0","num_feature":"31","num_nodes":"35","size_leaf_vector":"1"}},{"base_weights":[-9.860789E-2,-1.4019851E-1,4.827586E-1,-2.346698E-1,-3.515625E-2,3.125E-2,6.25E-1,-2.3928571E-1,1.6666667E-1,-1.9298245E-1,3.125E-2,3.125E-1,-2.0000001E-2,7.105263E-2,6.25E-2,-2.4390244E-1,-4.1666668E-2,3.75E-2,-1.25E-2,-2.0982143E-1,3.75E-2,1.5357143E-1,-9.701493E-2,-1.25E-2,5E-2,-1.6666668E-2,3.75E-2,-2.4875622E-2,-0E0,-2.0000001E-2,3.75E-2,-2.4489796E-2,3.125E-3,-2.3076924E-2,2.3706896E-2,-1.5454546E-2,1.5384616E-2],"categories":[],"categories_nodes":[],"categories_segments":[],"categories_sizes":[],"default_left":[0,0,0,0,0,0,0,0,0,0,0,0,0,0,0,0,0,0,0,0,0,0,0,0,0,0,0,0,0,0,0,0,0,0,0,0,0],"id":17,"left_children":[1,3,5,7,9,11,13,15,17,19,21,23,-1,-1,25,27,29,-1,-1,31,-1,33,35,-1,-1,-1,-1,-1,-1,-1,-1,-1,-1,-1,-1,-1,-1],"loss_changes":[1.0489E1,3.9909115E0,1.8429418E0,4.326172E-1,2.0183148E0,5.828125E-1,1.0139799E0,1.8143177E-1,2.2916666E-1,6.2384486E-1,2.1486773E0,3.90625E-1,0E0,0E0,3.4895834E-1,2.4268913E-1,4.7083333E-1,0E0,0E0,4.8118615E-1,0E0,2.3011131E0,9.907317E-1,0E0,0E0,0E0,0E0,0E0,0E0,0E0,0E0,0E0,0E0,0E0,0E0,0E0,0E0],"parents":[2147483647,0,0,1,1,2,2,3,3,4,4,5,5,6,6,7,7,8,8,9,9,10,10,11,11,14,14,15,15,16,16,19,19,21,21,22,22],"right_children":[2,4,6,8,10,12,14,16,18,20,22,24,-1,-1,26,28,30,-1,-1,32,-1,34,36,-1,-1,-1,-1,-1,-1,-1,-1,-1,-1,-1,-1,-1,-1],"split_conditions":[1.278785E0,4.0157688E-1,-7.035528E-1,4.9933004E-1,-4.768874E-1,1.350762E0,1.0698605E0,2.2357662E0,5.05739E-1,1.0915895E0,1.268143E-1,1.2907811E0,-2.0320415E-4,1.2947253E-2,1.4286257E0,1.9775449E0,-1.1285396E0,1.0295988E-3,-2.5068855E-2,7.781456E-1,1.2770892E-4,-7.097852E-1,7.311574E-1,-1.2327553E-3,6.0402276E-3,-1.7398834E-3,8.059216E-3,-2.2911046E-2,-2.4169553E-2,-1.517428E-1,1.4288247E-3,-2.7091042E-3,2.710283E-4,-7.493764E-4,1.2109102E-3,-6.6843035E-4,1.5163571E-3],"split_indices":[1,26,30,0,27,1,29,30,0,24,29,1,0,0,0,28,0,0,0,28,0,28,23,0,0,0,0,0,0,0,0,0,0,0,0,0,0],"split_type":[0,0,0,0,0,0,0,0,0,0,0,0,0,0,0,0,0,0,0,0,0,0,0,0,0,0,0,0,0,0,0,0,0,0,0,0,0],"sum_hessian":[4.3E2,4.02E2,2.8E1,2.11E2,1.91E2,7E0,2.1E1,2.09E2,2E0,5.6E1,1.35E2,3E0,4E0,1.8E1,3E0,2.04E2,5E0,1E0,1E0,5.5E1,1E0,6.9E1,6.6E1,1E0,2E0,2E0,1E0,2E2,4E0,4E0,1E0,4.8E1,7E0,1.2E1,5.7E1,5.4E1,1.2E1],"tree_param":{"num_deleted":"0","num_feature":"31","num_nodes":"37","size_leaf_vector":"1"}},{"base_weights":[-9.131403E-2,-1.3882063E-1,3.604651E-1,-2.4864865E-2,-4.7085203E-2,6.527778E-1,1.4423077E-1,-1.0733695E-1,2.3125E-1,-1.25E-2,7.058824E-2,-7.8947365E-2,6.5625004E-2,-1.3939394E-1,1.625E-1,5.6666666E-1,2.8846154E-2,-1.764706E-1,5E-2,3.125E-2,-1.4969136E-2,4.4444446E-2,-6.25E-3,-1.25E-2,6.25E-2,5E-2,-1.3750001E-2,3.75E-2,-2.34375E-2],"categories":[],"categories_nodes":[],"categories_segments":[],"categories_sizes":[],"default_left":[0,0,0,0,0,0,0,0,0,0,0,0,0,0,0,0,0,0,0,0,0,0,0,0,0,0,0,0,0],"id":18,"left_children":[1,3,5,-1,7,9,11,13,15,-1,-1,17,-1,19,21,23,25,27,-1,-1,-1,-1,-1,-1,-1,-1,-1,-1,-1],"loss_changes":[9.6867E0,4.0888658E0,2.623795E0,0E0,3.7645729E0,8.3169985E-1,3.0228682E0,1.6142807E0,2.6992388E0,0E0,0E0,1.1609907E0,0E0,8.145797E-1,1.2965279E0,6.833334E-1,2.1064904E0,6.3074446E-1,0E0,0E0,0E0,0E0,0E0,0E0,0E0,0E0,0E0,0E0,0E0],"parents":[2147483647,0,0,1,1,2,2,4,4,5,5,6,6,7,7,8,8,11,11,13,13,14,14,15,15,16,16,17,17],"right_children":[2,4,6,-1,8,10,12,14,16,-1,-1,18,-1,20,22,24,26,28,-1,-1,-1,-1,-1,-1,-1,-1,-1,-1,-1],"split_conditions":[1.2664768E0,3.161E-1,1.104159E0,-3.9637E-2,7.8122854E-1,1.0019183E0,1.3870952E0,1.0067633E0,-5.6992567E-1,-6.316543E-4,1.1526364E-2,3.3096063E-1,2.1702493E-2,-2.1815653E0,5.1855683E-1,-8.897098E-1,4.9061498E-1,1.1390918E0,4.120171E-3,6.315261E-4,-6.47834E-4,1.2337863E-3,-6.910563E-5,-2.1980226E-3,2.564326E-3,2.1628148E-3,-4.0661098E-4,5.562186E-4,-4.421592E-4],"split_indices":[26,26,18,0,28,6,26,27,29,0,0,27,0,29,0,24,9,2,0,0,0,0,0,0,0,0,0,0,0],"split_type":[0,0,0,0,0,0,0,0,0,0,0,0,0,0,0,0,0,0,0,0,0,0,0,0,0,0,0,0,0],"sum_hessian":[4.48E2,4.06E2,4.2E1,1.84E2,2.22E2,1.7E1,2.5E1,1.83E2,3.9E1,1E0,1.6E1,1.8E1,7E0,1.64E2,1.9E1,1.4E1,2.5E1,1.6E1,2E0,3E0,1.61E2,8E0,1.1E1,1E0,1.3E1,6E0,1.9E1,1E0,1.5E1],"tree_param":{"num_deleted":"0","num_feature":"31","num_nodes":"29","size_leaf_vector":"1"}},{"base_weights":[-1.033105E-1,-1.3801453E-1,4.5192307E-1,-2.4375E-1,-3.85514E-2,-2.0000001E-2,5.7954544E-1,-1.1111111E-1,-2.4869792E-2,-8.285714E-2,1.5625E-1,-0E0,7.083333E-2,-2.1875E-2,3.75E-2,-1.9480519E-1,5.050505E-3,-2.1428572E-2,2.2794117E-1,-1.875E-2,3.75E-2,1.6666668E-2,-2.0666666E-2,3.0208334E-2,-8.881579E-3,4.4736844E-2,-4.6875E-3],"categories":[],"categories_nodes":[],"categories_segments":[],"categories_sizes":[],"default_left":[0,0,0,0,0,0,0,0,0,0,0,0,0,0,0,0,0,0,0,0,0,0,0,0,0,0,0],"id":19,"left_children":[1,3,5,7,9,-1,11,13,-1,15,17,19,-1,-1,-1,21,23,-1,25,-1,-1,-1,-1,-1,-1,-1,-1],"loss_changes":[8.502123E0,4.334034E0,2.279108E0,1.0362339E-1,1.8599418E0,0E0,1.6420455E0,5.529514E-1,0E0,1.7231747E0,1.1114101E0,4.21875E-1,0E0,0E0,0E0,3.6458874E-1,2.7870855E0,0E0,2.0712438E0,0E0,0E0,0E0,0E0,0E0,0E0,0E0,0E0],"parents":[2147483647,0,0,1,1,2,2,3,3,4,4,6,6,7,7,9,9,10,10,11,11,15,15,16,16,18,18],"right_children":[2,4,6,8,10,-1,12,14,-1,16,18,20,-1,-1,-1,22,24,-1,26,-1,-1,-1,-1,-1,-1,-1,-1],"split_conditions":[1.3084582E0,3.543279E-1,-3.50359E-1,-1.761417E0,7.386843E-1,-8.798629E-4,1.1049823E0,3.408398E-1,-2.1165466E-2,-2.3414206E-2,-1.207413E0,1.4275376E0,1.2658578E-2,-1.1483431E-1,2.752775E-3,2.0812294E-1,-4.7825998E-1,-5.168289E-4,9.2129904E-1,-3.1894445E-4,1.1195612E-2,3.0079484E-4,-6.958336E-4,1.961869E-3,-1.9000769E-4,1.3152845E-3,-2.2650957E-4],"split_indices":[0,0,20,29,28,0,14,9,0,27,23,1,0,0,0,17,29,0,1,0,0,0,0,0,0,0,0],"split_type":[0,0,0,0,0,0,0,0,0,0,0,0,0,0,0,0,0,0,0,0,0,0,0,0,0,0,0],"sum_hessian":[4.37E2,4.12E2,2.5E1,1.99E2,2.13E2,4E0,2.1E1,8E0,1.91E2,1.74E2,3.9E1,4E0,1.7E1,7E0,1E0,7.6E1,9.8E1,6E0,3.3E1,3E0,1E0,2E0,7.4E1,2.3E1,7.5E1,1.8E1,1.5E1],"tree_param":{"num_deleted":"0","num_feature":"31","num_nodes":"27","size_leaf_vector":"1"}},{"base_weights":[-9.59368E-2,-1.3559322E-1,4.3548387E-1,-2.48503E-2,-5.8704454E-2,-7.1428575E-2,5.6E-1,-1.1014851E-1,1.6847827E-1,3.75E-2,-2.0833334E-2,7.105263E-2,7.1428575E-2,-1.4185393E-1,1.2E-1,5E-1,7.8125E-3,5E-2,-2.0000001E-2,1.6129032E-3,-1.7398648E-2,6.0000002E-2,-0E0,6.1538465E-2,-1.6666668E-2,3.3333335E-2,-1.1458334E-2],"categories":[],"categories_nodes":[],"categories_segments":[],"categories_sizes":[],"default_left":[0,0,0,0,0,0,0,0,0,0,0,0,0,0,0,0,0,0,0,0,0,0,0,0,0,0,0],"id":20,"left_children":[1,3,5,-1,7,9,11,13,15,-1,-1,-1,17,19,21,23,25,-1,-1,-1,-1,-1,-1,-1,-1,-1,-1],"loss_changes":[9.3949375E0,3.570868E0,1.9966822E0,0E0,2.9052963E0,5.0595236E-1,1.7878189E0,1.4910076E0,2.4462466E0,0E0,0E0,0E0,9.142857E-1,9.06405E-1,1.4399999E0,1.2564106E0,1.313151E0,0E0,0E0,0E0,0E0,0E0,0E0,0E0,0E0,0E0,0E0],"parents":[2147483647,0,0,1,1,2,2,4,4,5,5,6,6,7,7,8,8,12,12,13,13,14,14,15,15,16,16],"right_children":[2,4,6,-1,8,10,12,14,16,-1,-1,-1,18,20,22,24,26,-1,-1,-1,-1,-1,-1,-1,-1,-1,-1],"split_conditions":[1.2916347E0,2.6194206E-1,1.1047366E0,-9.235727E-2,7.8122854E-1,1.1845996E0,1.394683E0,9.481643E-1,-5.6992567E-1,1.4234531E-2,-6.5937045E-4,8.858985E-3,1.347992E0,-8.0921495E-1,2.1937558E-1,1.1258035E0,4.6079242E-1,2.5730992E-2,-1.7359554E-4,1.1521429E-4,-1.0520101E-3,4.813151E-3,6.968528E-5,4.1931393E-3,-1.3032317E-3,1.6538277E-3,-3.4329892E-4],"split_indices":[0,26,15,0,28,2,22,27,29,0,0,0,5,29,5,0,18,0,0,0,0,0,0,0,0,0,0],"split_type":[0,0,0,0,0,0,0,0,0,0,0,0,0,0,0,0,0,0,0,0,0,0,0,0,0,0,0],"sum_hessian":[4.42E2,4.12E2,3E1,1.66E2,2.46E2,6E0,2.4E1,2.01E2,4.5E1,1E0,5E0,1.8E1,6E0,1.77E2,2.4E1,1.4E1,3.1E1,2E0,4E0,3E1,1.47E2,4E0,2E1,1.2E1,2E0,8E0,2.3E1],"tree_param":{"num_deleted":"0","num_feature":"31","num_nodes":"27","size_leaf_vector":"1"}},{"base_weights":[-7.1666665E-2,-2.2543353E-1,2.4280576E-2,-2.4242425E-1,1.1111111E-1,-5.6490384E-2,2.6056337E-1,-2.483871E-2,-1.3636364E-1,4E-1,-2.0000001E-2,-1.7032968E-1,3.177966E-2,3.90625E-2,4.3125E-1,-2.2499999E-2,3.75E-2,-1.25E-2,5.6250002E-2,-2.122093E-1,4.5833334E-1,-1.75E-2,2.8947368E-1,-1.14583336E-1,4.4444445E-1,5.869565E-1,2.0833333E-1,-2.347561E-2,2.0000001E-2,6.0000002E-2,-1.25E-2,2.638889E-2,-7.831326E-3,-2.5000002E-3,5.75E-2,2.1428572E-2,-2.3611112E-2,-1.6666668E-2,6.428572E-2,-1.25E-2,6.25E-2,6.25E-2,-0E0],"categories":[],"categories_nodes":[],"categories_segments":[],"categories_sizes":[],"default_left":[0,0,0,0,0,0,0,0,0,0,0,0,0,0,0,0,0,0,0,0,0,0,0,0,0,0,0,0,0,0,0,0,0,0,0,0,0,0,0,0,0,0,0],"id":21,"left_children":[1,3,5,7,9,11,13,-1,15,17,-1,19,21,23,25,-1,-1,-1,-1,27,29,31,33,35,37,39,41,-1,-1,-1,-1,-1,-1,-1,-1,-1,-1,-1,-1,-1,-1,-1,-1],"loss_changes":[6.6445513E0,1.0161734E0,5.320291E0,7.047844E-2,8.888889E-1,2.0955215E0,2.667468E0,0E0,5.829546E-1,4.96875E-1,0E0,2.4931266E0,1.5035565E0,2.0440538E0,1.2661004E0,0E0,0E0,0E0,0E0,8.4623504E-1,5.708333E-1,1.7318834E0,1.7203947E0,1.0097966E0,1.1984125E0,7.01087E-1,1.5625E0,0E0,0E0,0E0,0E0,0E0,0E0,0E0,0E0,0E0,0E0,0E0,0E0,0E0,0E0,0E0,0E0],"parents":[2147483647,0,0,1,1,2,2,3,3,4,4,5,5,6,6,8,8,9,9,11,11,12,12,13,13,14,14,19,19,20,20,21,21,22,22,23,23,24,24,25,25,26,26],"right_children":[2,4,6,8,10,12,14,-1,16,18,-1,20,22,24,26,-1,-1,-1,-1,28,30,32,34,36,38,40,42,-1,-1,-1,-1,-1,-1,-1,-1,-1,-1,-1,-1,-1,-1,-1,-1],"split_conditions":[2.9023853E-1,5.065179E-1,6.784607E-1,2.5338715E-1,2.1592414E-1,-3.8005656E-1,-1.4585688E-2,-9.8244764E-2,5.780102E-1,5.1505674E-2,-4.8968457E-3,1.4083123E0,1.2571623E0,1.2219375E0,2.5611445E-1,-8.49229E-3,5.1103863E-3,-4.917671E-3,7.7647627E-3,1.6013623E0,1.3771536E0,3.0573386E-1,4.7021905E-1,-5.6992567E-1,-1.1187978E0,1.9866459E-1,5.05739E-1,-8.721918E-4,5.6491944E-4,5.920005E-3,-1.0495782E-3,1.8859968E-3,-3.5717338E-4,-1.13561755E-5,6.0198875E-3,1.7871701E-3,-7.8741316E-4,-8.373737E-4,1.0872754E-2,-4.943085E-3,4.3499293E-3,4.305938E-3,7.100314E-4],"split_indices":[0,14,28,0,1,28,27,0,20,0,0,13,23,0,29,0,0,0,0,27,1,19,18,29,27,3,0,0,0,0,0,0,0,0,0,0,0,0,0,0,0,0,0],"split_type":[0,0,0,0,0,0,0,0,0,0,0,0,0,0,0,0,0,0,0,0,0,0,0,0,0,0,0,0,0,0,0,0,0,0,0,0,0,0,0,0,0,0,0],"sum_hessian":[4.49E2,1.72E2,2.77E2,1.64E2,8E0,2.07E2,7E1,1.54E2,1E1,4E0,4E0,9E1,1.17E2,3.1E1,3.9E1,9E0,1E0,1E0,3E0,8.5E1,5E0,9.9E1,1.8E1,2.3E1,8E0,2.2E1,1.7E1,8.1E1,4E0,4E0,1E0,1.7E1,8.2E1,9E0,9E0,6E0,1.7E1,2E0,6E0,1E0,2.1E1,5E0,1.2E1],"tree_param":{"num_deleted":"0","num_feature":"31","num_nodes":"43","size_leaf_vector":"1"}},{"base_weights":[-7.6612905E-2,-2.4829932E-2,1.1284722E-2,-7.614213E-2,1.9836956E-1,8.730159E-2,-1.5185185E-1,1.3855422E-1,6.75E-2,-1.9791667E-1,2.5625E-1,-1.7234848E-1,5.6250002E-2,3.0357143E-1,-2.9761905E-2,3.75E-2,-2.3913044E-2,1.1290322E-2,6.75E-2,5E-2,-1.8653845E-2,4.3382354E-2,-2.2222223E-2,-2.3684211E-2,1.3541668E-2],"categories":[],"categories_nodes":[],"categories_segments":[],"categories_sizes":[],"default_left":[0,0,0,0,0,0,0,0,0,0,0,0,0,0,0,0,0,0,0,0,0,0,0,0,0],"id":22,"left_children":[1,-1,3,5,7,9,11,13,-1,15,17,19,-1,21,23,-1,-1,-1,-1,-1,-1,-1,-1,-1,-1],"loss_changes":[6.552222E0,0E0,4.725701E0,2.4509897E0,2.5293794E0,3.086508E0,2.07359E0,2.3143644E0,0E0,6.563632E-1,2.3248487E0,1.3526297E0,0E0,2.9728062E0,1.4686912E0,0E0,0E0,0E0,0E0,0E0,0E0,0E0,0E0,0E0,0E0],"parents":[2147483647,0,0,2,2,3,3,4,4,5,5,6,6,7,7,9,9,10,10,11,11,13,13,14,14],"right_children":[2,-1,4,6,8,10,12,14,-1,16,18,20,-1,22,24,-1,-1,-1,-1,-1,-1,-1,-1,-1,-1],"split_conditions":[1.4042966E-1,-1.0415216E-1,4.6492133E-1,-4.6993694E-1,1.2700975E0,-1.0970485E0,1.406976E0,-3.3485036E-2,1.1027581E-2,1.7888327E-1,5.427745E-1,-1.0498661E0,1.8994248E-2,1.046859E0,4.6834895E-1,4.5863674E-3,-6.443352E-4,9.4478874E-4,6.567204E-3,9.0004207E-4,-8.037031E-4,2.967389E-3,-1.7093719E-4,-5.093023E-4,9.7445847E-4],"split_indices":[0,0,27,29,26,30,26,29,0,0,23,24,0,1,13,0,0,0,0,0,0,0,0,0,0],"split_type":[0,0,0,0,0,0,0,0,0,0,0,0,0,0,0,0,0,0,0,0,0,0,0,0,0],"sum_hessian":[4.33E2,1.46E2,2.87E2,1.96E2,9.1E1,6.2E1,1.34E2,8.2E1,9E0,2.3E1,3.9E1,1.31E2,3E0,4.1E1,4.1E1,1E0,2.2E1,3E1,9E0,2E0,1.29E2,3.3E1,8E0,1.8E1,2.3E1],"tree_param":{"num_deleted":"0","num_feature":"31","num_nodes":"25","size_leaf_vector":"1"}},{"base_weights":[-7.064018E-2,-2.4823945E-2,1.0416667E-2,2.1875E-1,-7.111111E-2,5.7954544E-1,9.701493E-2,-1.0595238E-1,3.90625E-1,6.1904764E-1,-1.25E-2,-4.6296297E-3,4.8214287E-1,-1.4594595E-1,1.826923E-1,5.9090906E-1,-4.1666668E-2,-1.25E-2,6.6250004E-2,4.0625002E-2,-7.4468083E-3,-1.6666668E-2,6.041667E-2,2.2222223E-2,-1.6384182E-2,4.75E-2,-0E0,6.75E-2,-1.25E-2,3.75E-2,-2.0000001E-2],"categories":[],"categories_nodes":[],"categories_segments":[],"categories_sizes":[],"default_left":[0,0,0,0,0,0,0,0,0,0,0,0,0,0,0,0,0,0,0,0,0,0,0,0,0,0,0,0,0,0,0],"id":23,"left_children":[1,-1,3,5,7,9,11,13,15,17,-1,19,21,23,25,27,29,-1,-1,-1,-1,-1,-1,-1,-1,-1,-1,-1,-1,-1,-1],"loss_changes":[6.5238094E0,0E0,5.3148613E0,3.8088636E0,3.661069E0,6.8966436E-1,2.6250248E0,2.4508886E0,1.4099195E0,7.6175594E-1,0E0,1.5797933E0,1.2090776E0,1.2553165E0,1.3884615E0,7.465911E-1,4.7083333E-1,0E0,0E0,0E0,0E0,0E0,0E0,0E0,0E0,0E0,0E0,0E0,0E0,0E0,0E0],"parents":[2147483647,0,0,2,2,3,3,4,4,5,5,6,6,7,7,8,8,9,9,11,11,12,12,13,13,14,14,15,15,16,16],"right_children":[2,-1,4,6,8,10,12,14,16,18,-1,20,22,24,26,28,30,-1,-1,-1,-1,-1,-1,-1,-1,-1,-1,-1,-1,-1,-1],"split_conditions":[3.8134158E-2,-9.613716E-2,-5.1345015E-1,3.4390295E-1,1.341304E0,5.9890753E-1,1.184881E0,1.1327567E0,1.3351306E0,-1.5623965E0,-4.137337E-3,3.4583786E-1,-1.4536391E0,1.5834253E-1,4.817055E-1,1.4320859E0,1.2859538E0,-6.5002183E-4,5.989313E-3,8.599818E-4,-3.3215733E-4,-8.801818E-4,5.7617906E-3,3.112307E-3,-5.3057674E-4,3.8520873E-3,5.494371E-4,7.4044885E-3,-1.2562632E-3,1.7094826E-2,-6.249547E-5],"split_indices":[26,0,29,2,0,11,11,30,11,20,0,5,30,1,0,4,5,0,0,0,0,0,0,0,0,0,0,0,0,0,0],"split_type":[0,0,0,0,0,0,0,0,0,0,0,0,0,0,0,0,0,0,0,0,0,0,0,0,0,0,0,0,0,0,0],"sum_hessian":[4.52E2,1.41E2,3.11E2,8.7E1,2.24E2,2.1E1,6.6E1,2.09E2,1.5E1,2E1,1E0,5.3E1,1.3E1,1.84E2,2.5E1,1E1,5E0,1E0,1.9E1,7E0,4.6E1,2E0,1.1E1,8E0,1.76E2,9E0,1.6E1,9E0,1E0,1E0,4E0],"tree_param":{"num_deleted":"0","num_feature":"31","num_nodes":"31","size_leaf_vector":"1"}},{"base_weights":[-7.349666E-2,-2.4814814E-2,1.5873016E-3,-7.5E-2,2.0639534E-1,1.953125E-1,-1.1809045E-1,4.6875E-2,3.974359E-1,-5.882353E-2,4.53125E-1,2.1875E-1,-1.6335227E-1,-1.7045455E-2,6.0000002E-2,4.9166667E-1,7.5E-2,3.125E-2,-1.607143E-2,6.875E-2,-2.0000001E-2,-1.5384616E-2,6.041667E-2,-1.7385058E-2,5E-2,1.03448285E-2,-2.34375E-2,7E-2,2.65625E-2,-2.0833334E-2,4.0000003E-2],"categories":[],"categories_nodes":[],"categories_segments":[],"categories_sizes":[],"default_left":[0,0,0,0,0,0,0,0,0,0,0,0,0,0,0,0,0,0,0,0,0,0,0,0,0,0,0,0,0,0,0],"id":24,"left_children":[1,-1,3,5,7,9,11,13,15,17,19,21,23,25,-1,27,29,-1,-1,-1,-1,-1,-1,-1,-1,-1,-1,-1,-1,-1,-1],"loss_changes":[5.888366E0,0E0,4.9564743E0,2.7020788E0,2.6022077E0,2.1232767E0,3.0696895E0,1.7073153E0,1.148077E0,6.934086E-1,2.5867186E0,3.5394635E0,1.312602E0,1.176467E0,0E0,1.2268233E0,1.0041667E0,0E0,0E0,0E0,0E0,0E0,0E0,0E0,0E0,0E0,0E0,0E0,0E0,0E0,0E0],"parents":[2147483647,0,0,2,2,3,3,4,4,5,5,6,6,7,7,8,8,9,9,10,10,11,11,12,12,13,13,15,15,16,16],"right_children":[2,-1,4,6,8,10,12,14,16,18,20,22,24,26,-1,28,30,-1,-1,-1,-1,-1,-1,-1,-1,-1,-1,-1,-1,-1,-1],"split_conditions":[-5.2030957E-1,-9.051227E-2,4.701164E-1,2.8162912E-1,-4.1912407E-1,-6.688523E-1,-1.1112661E0,1.3050425E0,6.217431E-1,1.5914068E-1,7.80452E-1,-1.0970485E0,1.4323432E0,2.7714983E-1,1.2751368E-2,4.7184247E-1,2.5765896E-1,8.142009E-3,-3.451428E-3,4.3083453E-3,-1.0818572E-3,-5.5550935E-4,5.0579547E-3,-6.113768E-4,6.3345074E-3,6.3607324E-4,-5.904496E-4,6.367624E-3,1.6627789E-3,-6.0572027E-4,6.712658E-3],"split_indices":[5,0,27,2,24,30,29,5,29,18,29,30,26,20,0,1,4,0,0,0,0,0,0,0,0,0,0,0,0,0,0],"split_type":[0,0,0,0,0,0,0,0,0,0,0,0,0,0,0,0,0,0,0,0,0,0,0,0,0,0,0,0,0,0,0],"sum_hessian":[4.48E2,1.34E2,3.14E2,2.29E2,8.5E1,3.1E1,1.98E2,4.7E1,3.8E1,1.6E1,1.5E1,2.3E1,1.75E2,4.3E1,4E0,2.9E1,9E0,3E0,1.3E1,1.1E1,4E0,1.2E1,1.1E1,1.73E2,2E0,2.8E1,1.5E1,1.4E1,1.5E1,5E0,4E0],"tree_param":{"num_deleted":"0","num_feature":"31","num_nodes":"31","size_leaf_vector":"1"}},{"base_weights":[-8.2777776E-2,-2.4812032E-2,-1.336478E-2,3.3870968E-1,-5.1215276E-2,4.2592594E-1,-2.0000001E-2,-2.3376623E-1,1.5330189E-2,-1.6666668E-2,4.8E-1,-4.1666668E-2,-2.4652777E-2,-9.9502485E-3,4.375E-1,5.4347824E-2,-1.6666668E-2,-2.0000001E-2,3.75E-2,-1.7391305E-2,7.5187967E-3,6.666667E-2,-1.875E-2],"categories":[],"categories_nodes":[],"categories_segments":[],"categories_sizes":[],"default_left":[0,0,0,0,0,0,0,0,0,0,0,0,0,0,0,0,0,0,0,0,0,0,0],"id":25,"left_children":[1,-1,3,5,7,9,-1,11,13,-1,15,17,-1,19,21,-1,-1,-1,-1,-1,-1,-1,-1],"loss_changes":[5.161298E0,0E0,4.2550764E0,1.5416963E0,3.50219E0,9.4518566E-1,0E0,1.7849207E-1,2.2669525E0,0E0,1.1168118E0,4.7083333E-1,0E0,2.8189356E0,1.84375E0,0E0,0E0,0E0,0E0,0E0,0E0,0E0,0E0],"parents":[2147483647,0,0,2,2,3,3,4,4,5,5,7,7,8,8,10,10,11,11,13,13,14,14],"right_children":[2,-1,4,6,8,10,-1,12,14,-1,16,18,-1,20,22,-1,-1,-1,-1,-1,-1,-1,-1],"split_conditions":[-2.0324951E-1,-7.890463E-2,2.177993E-1,5.0763005E-1,-5.1799905E-1,-1.5207704E0,-1.5579205E-3,-1.5865698E0,1.3693585E0,-3.001675E-3,1.1089875E0,1.0993454E0,-1.0414645E-3,-3.8955274E-1,7.593256E-1,5.5936202E-3,-7.8733417E-4,-8.772343E-4,9.31859E-5,-4.7827067E-4,3.690377E-4,3.6063225E-3,-3.552079E-4],"split_indices":[0,0,3,17,27,27,0,29,15,0,29,8,0,28,29,0,0,0,0,0,0,0,0],"split_type":[0,0,0,0,0,0,0,0,0,0,0,0,0,0,0,0,0,0,0,0,0,0,0],"sum_hessian":[4.49E2,1.32E2,3.17E2,3E1,2.87E2,2.6E1,4E0,7.6E1,2.11E2,2E0,2.4E1,5E0,7.1E1,2E2,1.1E1,2.2E1,2E0,4E0,1E0,6.8E1,1.32E2,8E0,3E0],"tree_param":{"num_deleted":"0","num_feature":"31","num_nodes":"23","size_leaf_vector":"1"}},{"base_weights":[-1.0195853E-1,-1.2620772E-1,3.809524E-1,-2.4801588E-2,-7.266436E-2,4.861111E-1,-1.875E-2,4.8214287E-1,-1.0054348E-1,-0E0,6.25E-1,6.041667E-1,-1.6666668E-2,-2.1022727E-1,-0E0,3.75E-2,-1.875E-2,6.923077E-2,-1.25E-2,6.818182E-2,-1.25E-2,2.0833334E-3,-2.3140496E-2,3.125E-2,-4.9603176E-3],"categories":[],"categories_nodes":[],"categories_segments":[],"categories_sizes":[],"default_left":[0,0,0,0,0,0,0,0,0,0,0,0,0,0,0,0,0,0,0,0,0,0,0,0,0],"id":26,"left_children":[1,3,5,-1,7,9,-1,11,13,15,17,19,-1,21,23,-1,-1,-1,-1,-1,-1,-1,-1,-1,-1],"loss_changes":[5.1303077E0,2.6820936E0,1.3464782E0,0E0,4.5185947E0,1.2152777E0,0E0,1.2090776E0,3.0437255E0,4.21875E-1,7.9326916E-1,7.64678E-1,0E0,6.5074015E-1,2.263145E0,0E0,0E0,0E0,0E0,0E0,0E0,0E0,0E0,0E0,0E0],"parents":[2147483647,0,0,1,1,2,2,4,4,5,5,7,7,8,8,9,9,10,10,11,11,13,13,14,14],"right_children":[2,4,6,-1,8,10,-1,12,14,16,18,20,-1,22,24,-1,-1,-1,-1,-1,-1,-1,-1,-1,-1],"split_conditions":[1.341304E0,-5.236709E-1,1.0698605E0,-7.335785E-2,5.409012E-2,-2.5079408E-1,-2.4938583E-5,1.2745842E0,-1.1467218E-1,1.3469118E0,1.4300771E0,1.4459547E-1,-8.7209046E-4,2.1592414E-1,-9.3248636E-1,3.7020445E-4,-2.9237272E-4,1.2005013E-2,-6.606102E-4,6.3071544E-3,-8.021347E-3,9.5018744E-4,-7.802844E-4,4.2575123E-3,-2.528012E-4],"split_indices":[0,3,29,0,2,30,0,27,27,0,8,4,0,1,29,0,0,0,0,0,0,0,0,0,0],"split_type":[0,0,0,0,0,0,0,0,0,0,0,0,0,0,0,0,0,0,0,0,0,0,0,0,0],"sum_hessian":[4.33E2,4.13E2,2E1,1.25E2,2.88E2,1.7E1,3E0,1.3E1,2.75E2,4E0,1.3E1,1.1E1,2E0,1.31E2,1.44E2,1E0,3E0,1.2E1,1E0,1E1,1E0,1.1E1,1.2E2,1.9E1,1.25E2],"tree_param":{"num_deleted":"0","num_feature":"31","num_nodes":"25","size_leaf_vector":"1"}},{"base_weights":[-9.628009E-2,-1.1104911E-1,5.75E-1,-2.4816176E-2,-5.111821E-2,-1.25E-2,6.666667E-2,2.847222E-1,-9.4424464E-2,5.416667E-1,2.631579E-2,-2.032967E-1,-4.1223403E-2,6.9642864E-2,-0E0,-1.09375E-2,5.6250002E-2,-2.1388888E-2,3.75E-2,-8.179013E-3,2.037037E-2],"categories":[],"categories_nodes":[],"categories_segments":[],"categories_sizes":[],"default_left":[0,0,0,0,0,0,0,0,0,0,0,0,0,0,0,0,0,0,0,0,0],"id":27,"left_children":[1,3,5,-1,7,-1,-1,9,11,13,15,17,19,-1,-1,-1,-1,-1,-1,-1,-1],"loss_changes":[4.5946193E0,3.6686578E0,7.249999E-1,0E0,4.579153E0,0E0,0E0,2.3760052E0,1.6018281E0,1.5089288E0,1.4438734E0,6.376221E-1,1.8846083E0,0E0,0E0,0E0,0E0,0E0,0E0,0E0,0E0],"parents":[2147483647,0,0,1,1,2,2,4,4,7,7,8,8,9,9,10,10,11,11,12,12],"right_children":[2,4,6,-1,8,-1,-1,10,12,14,16,18,20,-1,-1,-1,-1,-1,-1,-1,-1],"split_conditions":[1.4175941E0,-5.424176E-2,1.0208572E0,-6.837386E-2,2.6194206E-1,-9.770871E-4,1.0438628E-2,3.5354844E-1,-3.8005656E-1,1.1089875E0,2.182423E-1,1.4378767E0,9.481643E-1,5.353251E-3,-1.15051495E-4,-5.1475427E-4,3.8830682E-3,-6.5762404E-4,3.3317806E-4,-2.1463484E-4,1.0497511E-3],"split_indices":[18,0,0,0,26,0,0,6,28,29,26,15,27,0,0,0,0,0,0,0,0],"split_type":[0,0,0,0,0,0,0,0,0,0,0,0,0,0,0,0,0,0,0,0,0],"sum_hessian":[4.56E2,4.47E2,9E0,1.35E2,3.12E2,1E0,8E0,3.5E1,2.77E2,1.7E1,1.8E1,9E1,1.87E2,1.3E1,4E0,1.5E1,3E0,8.9E1,1E0,1.61E2,2.6E1],"tree_param":{"num_deleted":"0","num_feature":"31","num_nodes":"21","size_leaf_vector":"1"}},{"base_weights":[-8.468678E-2,-2.4809161E-2,-1.3289036E-2,3.6805555E-1,-6.484962E-2,6.1904764E-1,1.5625E-2,-8.171206E-2,3.75E-1,7.083333E-2,6.25E-2,-8.928572E-2,5E-2,-1.8518518E-1,-3.3898305E-2,-1.875E-2,6.428572E-2,3.75E-2,-1.6666668E-2,3.125E-2,-2.2727273E-2,-2.2E-2,2.1428572E-2,-1.754386E-2,3.3057851E-3],"categories":[],"categories_nodes":[],"categories_segments":[],"categories_sizes":[],"default_left":[0,0,0,0,0,0,0,0,0,0,0,0,0,0,0,0,0,0,0,0,0,0,0,0,0],"id":28,"left_children":[1,-1,3,5,7,9,11,13,15,-1,17,19,-1,21,23,-1,-1,-1,-1,-1,-1,-1,-1,-1,-1],"loss_changes":[5.0250654E0,0E0,5.942236E0,3.174789E0,2.0035472E0,9.9925613E-1,8.577009E-1,1.2652142E0,1.6272321E0,0E0,3.4895834E-1,8.471997E-1,0E0,1.173651E0,1.6832275E0,0E0,0E0,0E0,0E0,0E0,0E0,0E0,0E0,0E0,0E0],"parents":[2147483647,0,0,2,2,3,3,4,4,5,5,6,6,7,7,8,8,10,10,11,11,13,13,14,14],"right_children":[2,-1,4,6,8,10,12,14,16,-1,18,20,-1,22,24,-1,-1,-1,-1,-1,-1,-1,-1,-1,-1],"split_conditions":[-7.6003474E-1,-6.0332514E-2,2.6194206E-1,3.400407E-1,1.4286257E0,1.1089875E0,5.009331E-1,-3.8005656E-1,-1.7511252E-1,4.9740113E-3,1.476397E-1,3.3947498E-1,1.5515715E-3,8.0202526E-1,-4.4621143E-1,-9.894371E-7,1.3102702E-2,8.587688E-5,-6.718159E-4,1.5658215E-3,-4.7813505E-3,-5.277187E-4,3.4021586E-4,-4.128337E-4,1.509294E-4],"split_indices":[22,0,26,6,0,29,5,28,27,0,0,5,0,24,27,0,0,0,0,0,0,0,0,0,0],"split_type":[0,0,0,0,0,0,0,0,0,0,0,0,0,0,0,0,0,0,0,0,0,0,0,0,0],"sum_hessian":[4.3E2,1.3E2,3E2,3.5E1,2.65E2,2E1,1.5E1,2.56E2,9E0,1.7E1,3E0,1.3E1,2E0,8E1,1.76E2,3E0,6E0,1E0,2E0,3E0,1E1,7.4E1,6E0,5.6E1,1.2E2],"tree_param":{"num_deleted":"0","num_feature":"31","num_nodes":"25","size_leaf_vector":"1"}},{"base_weights":[-8.8004485E-2,-2.4818841E-2,-1.618123E-2,3.5119048E-1,-7.369403E-2,-4.5454547E-2,4.765625E-1,-1.0159363E-1,3.1944445E-1,5E-2,-2.2222223E-2,6.1904764E-1,1.875E-1,2.5E-2,-1.4972527E-1,-2.0000001E-2,4.8214287E-1,6.6250004E-2,-1.25E-2,-0E0,5.6250002E-2,-1.54411765E-2,1.891892E-2,-2.2983871E-2,-1.07438015E-2,6.75E-2,-0E0],"categories":[],"categories_nodes":[],"categories_segments":[],"categories_sizes":[],"default_left":[0,0,0,0,0,0,0,0,0,0,0,0,0,0,0,0,0,0,0,0,0,0,0,0,0,0,0],"id":29,"left_children":[1,-1,3,5,7,9,11,13,15,-1,-1,17,19,21,23,-1,25,-1,-1,-1,-1,-1,-1,-1,-1,-1,-1],"loss_changes":[5.127183E0,0E0,6.5546107E0,2.1102462E0,2.9719858E0,1.1717172E0,1.2019157E0,1.5331261E0,1.6176589E0,0E0,0E0,7.6175594E-1,8.4375E-1,2.091236E0,5.918822E-1,0E0,1.3017857E0,0E0,0E0,0E0,0E0,0E0,0E0,0E0,0E0,0E0,0E0],"parents":[2147483647,0,0,2,2,3,3,4,4,5,5,6,6,7,7,8,8,11,11,12,12,13,13,14,14,16,16],"right_children":[2,-1,4,6,8,10,12,14,16,-1,-1,18,20,22,24,-1,26,-1,-1,-1,-1,-1,-1,-1,-1,-1,-1],"split_conditions":[-7.6003474E-1,-5.574402E-2,2.701211E-1,-7.4019307E-1,1.3445084E0,-2.7003786E-2,3.330581E-1,-5.6992567E-1,7.311574E-1,5.445824E-3,-3.4579118E-3,6.2823135E-1,2.3717119E-1,-7.0019555E-1,-3.0970386E-1,-4.0059985E-4,8.775792E-1,4.4632736E-3,-6.5671774E-3,1.4710305E-3,1.4092386E-3,-2.1183044E-4,1.6183465E-3,-2.511868E-3,-3.1971931E-4,1.2153394E-2,3.3837499E-3],"split_indices":[22,0,26,27,0,0,29,29,23,0,0,8,26,30,30,0,29,0,0,0,0,0,0,0,0,0,0],"split_type":[0,0,0,0,0,0,0,0,0,0,0,0,0,0,0,0,0,0,0,0,0,0,0,0,0,0,0],"sum_hessian":[4.45E2,1.37E2,3.08E2,4.1E1,2.67E2,1E1,3.1E1,2.5E2,1.7E1,2E0,8E0,2E1,1.1E1,6.9E1,1.81E2,4E0,1.3E1,1.9E1,1E0,8E0,3E0,3.3E1,3.6E1,6.1E1,1.2E2,9E0,4E0],"tree_param":{"num_deleted":"0","num_feature":"31","num_nodes":"27","size_leaf_vector":"1"}},{"base_weights":[-8.2777776E-2,-2.4796749E-2,-2.057927E-2,2.5657895E-1,-5.670103E-2,3.9166668E-1,-2.2222223E-2,-7.410714E-2,3.5416666E-1,5.625E-1,4.5454547E-2,-1.827957E-1,-1.9946808E-2,-1.875E-2,5.555556E-1,-0E0,7.03125E-2,-2.1875E-2,5.6250002E-2,3.75E-2,-1.9293478E-2,-1.0091743E-2,9.062501E-3,6.5625004E-2,-1.25E-2],"categories":[],"categories_nodes":[],"categories_segments":[],"categories_sizes":[],"default_left":[0,0,0,0,0,0,0,0,0,0,0,0,0,0,0,0,0,0,0,0,0,0,0,0,0],"id":30,"left_children":[1,-1,3,5,7,9,-1,11,13,15,17,19,21,-1,23,-1,-1,-1,-1,-1,-1,-1,-1,-1,-1],"loss_changes":[4.6184464E0,0E0,3.298302E0,2.544883E0,2.1073647E0,1.7487693E0,0E0,1.6446041E0,1.4131943E0,1.5820312E0,1.6257102E0,5.983157E-1,1.6923225E0,0E0,6.987848E-1,0E0,0E0,0E0,0E0,0E0,0E0,0E0,0E0,0E0,0E0],"parents":[2147483647,0,0,2,2,3,3,4,4,5,5,7,7,8,8,9,9,10,10,11,11,12,12,14,14],"right_children":[2,-1,4,6,8,10,-1,12,14,16,18,20,22,-1,24,-1,-1,-1,-1,-1,-1,-1,-1,-1,-1],"split_conditions":[-6.238359E-1,-5.4443717E-2,2.6194206E-1,1.1089875E0,1.3781554E0,2.9433817E-1,-3.0563568E-4,-3.8005656E-1,7.311574E-1,-8.5630125E-1,3.8387054E-1,-1.0498661E0,7.82601E-1,-1.5784263E-3,1.4201506E0,3.6402128E-3,4.9012415E-3,-5.51794E-3,4.2102607E-3,1.883626E-4,-6.0936215E-4,-4.4272095E-4,2.5321246E-4,1.3015294E-2,-3.3926964E-4],"split_indices":[0,0,26,29,0,3,0,28,23,15,1,24,26,0,13,0,0,0,0,0,0,0,0,0,0],"split_type":[0,0,0,0,0,0,0,0,0,0,0,0,0,0,0,0,0,0,0,0,0,0,0,0,0],"sum_hessian":[4.49E2,1.22E2,3.27E2,3.7E1,2.9E2,2.9E1,8E0,2.79E2,1.1E1,1.9E1,1E1,9.2E1,1.87E2,3E0,8E0,4E0,1.5E1,7E0,3E0,1E0,9.1E1,1.08E2,7.9E1,7E0,1E0],"tree_param":{"num_deleted":"0","num_feature":"31","num_nodes":"25","size_leaf_vector":"1"}},{"base_weights":[-1.0212053E-1,-2.4817519E-2,-3.7660256E-2,3.125E-1,-8.303249E-2,4.5192307E-1,-4.5454547E-2,-1.1145833E-1,9.8684214E-2,5.4347825E-1,-1.875E-2,-2.2222223E-2,5E-2,-1.1869748E-1,5E-2,-2.2916667E-2,2.4074075E-1,6.1904766E-2,-1.6666668E-2,5E-2,-1.2605933E-2,-1.25E-2,4.3055557E-2],"categories":[],"categories_nodes":[],"categories_segments":[],"categories_sizes":[],"default_left":[0,0,0,0,0,0,0,0,0,0,0,0,0,0,0,0,0,0,0,0,0,0,0],"id":31,"left_children":[1,-1,3,5,7,9,11,13,15,17,-1,-1,-1,19,-1,-1,21,-1,-1,-1,-1,-1,-1],"loss_changes":[4.208449E0,0E0,4.982864E0,1.8171988E0,1.4418288E0,1.6240072E0,1.1717172E0,1.1216934E0,1.8249573E0,1.3374734E0,0E0,0E0,0E0,1.1470613E0,0E0,0E0,1.9282408E0,0E0,0E0,0E0,0E0,0E0,0E0],"parents":[2147483647,0,0,2,2,3,3,4,4,5,5,6,6,7,7,8,8,9,9,13,13,16,16],"right_children":[2,-1,4,6,8,10,12,14,16,18,-1,-1,-1,20,-1,-1,22,-1,-1,-1,-1,-1,-1],"split_conditions":[-7.6003474E-1,-4.3762073E-2,2.6194206E-1,4.4933346E-1,9.3574876E-1,1.1089875E0,-2.987829E-1,1.4792264E0,-3.9132375E-1,4.743232E-1,-3.3070148E-5,-8.752821E-4,3.0364455E-3,-4.6915334E-2,7.559288E-3,-4.4424535E-4,3.3353308E-1,3.5468277E-3,-4.966146E-3,4.910612E-3,-3.099859E-4,-6.1243476E-4,1.9756288E-3],"split_indices":[22,0,26,7,27,29,20,5,28,6,0,0,0,6,0,0,18,0,0,0,0,0,0],"split_type":[0,0,0,0,0,0,0,0,0,0,0,0,0,0,0,0,0,0,0,0,0,0,0],"sum_hessian":[4.47E2,1.36E2,3.11E2,3.5E1,2.76E2,2.5E1,1E1,2.39E2,3.7E1,2.2E1,3E0,8E0,2E0,2.37E2,2E0,1.1E1,2.6E1,2E1,2E0,2E0,2.35E2,9E0,1.7E1],"tree_param":{"num_deleted":"0","num_feature":"31","num_nodes":"23","size_leaf_vector":"1"}},{"base_weights":[-8.2392775E-2,-2.4796749E-2,-1.8691588E-2,2.5431034E-1,-7.8598484E-2,5.6E-1,2.2058824E-2,-1.01434425E-1,1.904762E-1,6.304348E-1,-1.6666668E-2,-9.259259E-2,4.0625E-1,-2.005814E-1,-4.7169812E-2,4.090909E-1,-4.5454547E-2,-1.25E-2,6.704546E-2,-1.5625E-2,3.125E-2,-1.6666668E-2,6.25E-2,2.1428572E-2,-2.34375E-2,1.7045455E-2,-8.152175E-3,4.75E-2,-1.25E-2,-2.1875E-2,3.125E-2],"categories":[],"categories_nodes":[],"categories_segments":[],"categories_sizes":[],"default_left":[0,0,0,0,0,0,0,0,0,0,0,0,0,0,0,0,0,0,0,0,0,0,0,0,0,0,0,0,0,0,0],"id":32,"left_children":[1,-1,3,5,7,9,11,13,15,17,-1,19,21,23,25,27,29,-1,-1,-1,-1,-1,-1,-1,-1,-1,-1,-1,-1,-1,-1],"loss_changes":[4.667822E0,0E0,5.2698464E0,4.105467E0,1.6414883E0,1.3846369E0,1.5352498E0,1.3033006E0,1.1017315E0,7.7915096E-1,0E0,7.45081E-1,1.1067708E0,1.2559309E0,1.2025505E0,4.4659078E-1,7.5071025E-1,0E0,0E0,0E0,0E0,0E0,0E0,0E0,0E0,0E0,0E0,0E0,0E0,0E0,0E0],"parents":[2147483647,0,0,2,2,3,3,4,4,5,5,6,6,7,7,8,8,9,9,11,11,12,12,13,13,14,14,15,15,16,16],"right_children":[2,-1,4,6,8,10,12,14,16,18,-1,20,22,24,26,28,30,-1,-1,-1,-1,-1,-1,-1,-1,-1,-1,-1,-1,-1,-1],"split_conditions":[-7.14791E-1,-4.442247E-2,2.8322586E-1,-3.0278838E-1,1.1327567E0,4.7292688E-1,4.6642247E-1,4.807036E-1,1.4809169E0,-1.761417E0,-3.4605772E-3,9.7862095E-1,3.9346743E-1,-1.2764724E0,4.597205E-1,1.339341E0,-5.290013E-1,-7.2282256E-4,3.6276241E-3,-6.47378E-4,5.580175E-3,-3.8843602E-5,1.989626E-3,3.1429434E-3,-2.4828613E-3,3.5621526E-4,-8.714795E-5,7.883847E-3,-2.7434828E-4,-3.630102E-4,1.6710609E-3],"split_indices":[26,0,2,29,30,19,12,26,30,29,0,28,8,29,15,9,24,0,0,0,0,0,0,0,0,0,0,0,0,0,0],"split_type":[0,0,0,0,0,0,0,0,0,0,0,0,0,0,0,0,0,0,0,0,0,0,0,0,0,0,0,0,0,0,0],"sum_hessian":[4.42E2,1.22E2,3.2E2,5.7E1,2.63E2,2.4E1,3.3E1,2.43E2,2E1,2.2E1,2E0,2.6E1,7E0,8.5E1,1.58E2,1E1,1E1,1E0,2.1E1,2.3E1,3E0,2E0,5E0,6E0,7.9E1,2.1E1,1.37E2,9E0,1E0,7E0,3E0],"tree_param":{"num_deleted":"0","num_feature":"31","num_nodes":"31","size_leaf_vector":"1"}},{"base_weights":[-8.908686E-2,-2.4791667E-2,-3.1060606E-2,2.559524E-1,-7.266436E-2,3.9166668E-1,-7.692308E-2,-1.6282895E-1,2.7173912E-2,5.972222E-1,7.692308E-2,5E-2,-2.2727273E-2,-1.2820513E-2,-2.1271929E-1,4.75E-1,-7.751938E-3,-1.25E-2,6.4705886E-2,-2.1428572E-2,3.5714287E-2,-1.6346155E-2,2.6785715E-2,-2.2123894E-2,3.75E-2,-1.6666668E-2,6.5625004E-2,-1.7073171E-2,6.741573E-3],"categories":[],"categories_nodes":[],"categories_segments":[],"categories_sizes":[],"default_left":[0,0,0,0,0,0,0,0,0,0,0,0,0,0,0,0,0,0,0,0,0,0,0,0,0,0,0,0,0],"id":33,"left_children":[1,-1,3,5,7,9,11,13,15,17,19,-1,-1,21,23,25,27,-1,-1,-1,-1,-1,-1,-1,-1,-1,-1,-1,-1],"loss_changes":[4.130418E0,0E0,3.9590683E0,1.9275179E0,2.605967E0,1.8949785E0,1.2412586E0,1.1348367E0,2.1620996E0,7.2875834E-1,1.1373626E0,0E0,0E0,1.6927656E0,6.5378046E-1,1.2723958E0,1.5918645E0,0E0,0E0,0E0,0E0,0E0,0E0,0E0,0E0,0E0,0E0,0E0,0E0],"parents":[2147483647,0,0,2,2,3,3,4,4,5,5,6,6,7,7,8,8,9,9,10,10,13,13,14,14,15,15,16,16],"right_children":[2,-1,4,6,8,10,12,14,16,18,20,-1,-1,22,24,26,28,-1,-1,-1,-1,-1,-1,-1,-1,-1,-1,-1,-1],"split_conditions":[-7.608269E-1,-4.36122E-2,2.6194206E-1,3.9716277E-1,6.8659985E-1,7.494914E-2,-1.0419419E0,-5.1345015E-1,7.96701E-1,-7.3384833E-1,-6.3722754E-1,7.0163904E-4,-3.121974E-4,9.322918E-2,1.1229991E0,4.6484834E-1,-3.3819386E-1,-5.100906E-4,3.2420203E-3,-1.6662136E-3,1.9257739E-3,-4.243985E-4,1.1003911E-3,-2.0739064E-3,2.1515488E-4,-3.8114787E-4,4.6916606E-4,-3.178358E-4,1.5233607E-4],"split_indices":[0,0,26,18,3,29,29,29,4,24,5,0,0,30,9,8,30,0,0,0,0,0,0,0,0,0,0,0,0],"split_type":[0,0,0,0,0,0,0,0,0,0,0,0,0,0,0,0,0,0,0,0,0,0,0,0,0,0,0,0,0],"sum_hessian":[4.48E2,1.19E2,3.29E2,4.1E1,2.88E2,2.9E1,1.2E1,1.51E2,1.37E2,1.7E1,1.2E1,2E0,1E1,3.8E1,1.13E2,9E0,1.28E2,1E0,1.6E1,6E0,6E0,2.5E1,1.3E1,1.12E2,1E0,2E0,7E0,4E1,8.8E1],"tree_param":{"num_deleted":"0","num_feature":"31","num_nodes":"29","size_leaf_vector":"1"}},{"base_weights":[-7.058824E-2,-2.4793388E-2,-0E0,2.5520834E-1,-4.748062E-2,3.618421E-1,-1.3636364E-1,-7.201646E-2,3.28125E-1,-2.1428572E-2,4.765625E-1,-2.2499999E-2,3.75E-2,-1.5730338E-1,-2.2580646E-2,6.428572E-2,7.5E-2,-0E0,5.4464288E-2,-2.048611E-2,4.166667E-3,4.4444446E-2,-5.102041E-3,4.0000003E-2,-2.0833334E-2],"categories":[],"categories_nodes":[],"categories_segments":[],"categories_sizes":[],"default_left":[0,0,0,0,0,0,0,0,0,0,0,0,0,0,0,0,0,0,0,0,0,0,0,0,0],"id":34,"left_children":[1,-1,3,5,7,9,11,13,15,-1,17,-1,-1,19,21,-1,23,-1,-1,-1,-1,-1,-1,-1,-1],"loss_changes":[5.3203692E0,0E0,3.7079396E0,2.0535724E0,2.4013069E0,2.613678E0,5.829546E-1,1.0209912E0,1.2264509E0,0E0,1.0382252E0,0E0,0E0,8.507042E-1,2.0813987E0,0E0,1.0041667E0,0E0,0E0,0E0,0E0,0E0,0E0,0E0,0E0],"parents":[2147483647,0,0,2,2,3,3,4,4,5,5,6,6,7,7,8,8,10,10,13,13,14,14,16,16],"right_children":[2,-1,4,6,8,10,12,14,16,-1,18,-1,-1,20,22,-1,24,-1,-1,-1,-1,-1,-1,-1,-1],"split_conditions":[-7.608269E-1,-3.6381524E-2,2.5608087E-1,7.80452E-1,1.3469118E0,-1.4472748E0,1.7087078E-1,-3.0970386E-1,-3.4323406E-1,-1.6254232E-3,-5.18149E-1,-7.771477E-4,7.0106983E-4,4.455525E-1,-1.239117E0,8.5105775E-3,1.3426794E0,9.019144E-4,2.5118485E-3,-6.3095096E-4,7.956028E-5,3.015043E-3,-1.2265072E-4,9.4267195E-3,-3.9305093E-4],"split_indices":[0,0,2,29,0,27,4,30,29,0,24,0,0,24,29,0,2,0,0,0,0,0,0,0,0],"split_type":[0,0,0,0,0,0,0,0,0,0,0,0,0,0,0,0,0,0,0,0,0,0,0,0,0],"sum_hessian":[4.24E2,1.2E2,3.04E2,4.7E1,2.57E2,3.7E1,1E1,2.42E2,1.5E1,6E0,3.1E1,9E0,1E0,8.8E1,1.54E2,6E0,9E0,4E0,2.7E1,7.1E1,1.7E1,8E0,1.46E2,4E0,5E0],"tree_param":{"num_deleted":"0","num_feature":"31","num_nodes":"25","size_leaf_vector":"1"}},{"base_weights":[-6.823144E-2,-2.3170732E-1,-8.184524E-3,-7.692308E-2,-2.4774775E-2,3.9473686E-1,-3.2232706E-2,-2.2499999E-2,3.125E-1,6.875E-2,-9.375E-2,-1.0917722E-1,4.347826E-2,5E-2,-1.25E-2,1.6666667E-1,-2.0833334E-2,9.756097E-2,-1.8008475E-1,-1.2790698E-1,1.0504202E-1,-1.25E-2,3.75E-2,4.375E-2,-4.166667E-3,-8.163265E-3,-2.4642857E-2,-1.8571429E-2,1.1111111E-2,1.5934067E-2,-6.8965517E-3],"categories":[],"categories_nodes":[],"categories_segments":[],"categories_sizes":[],"default_left":[0,0,0,0,0,0,0,0,0,0,0,0,0,0,0,0,0,0,0,0,0,0,0,0,0,0,0,0,0,0,0],"id":35,"left_children":[1,3,5,7,-1,9,11,-1,13,-1,15,17,19,-1,-1,21,-1,23,25,27,29,-1,-1,-1,-1,-1,-1,-1,-1,-1,-1],"loss_changes":[4.4939337E0,2.8632736E-1,3.268404E0,8.1995195E-1,0E0,2.7816613E0,1.8572695E0,0E0,3.90625E-1,0E0,2.734375E-1,2.3337379E0,1.7121658E0,0E0,0E0,2.2916666E-1,0E0,1.9587144E0,7.506223E-1,6.1476564E-1,1.1353455E0,0E0,0E0,0E0,0E0,0E0,0E0,0E0,0E0,0E0,0E0],"parents":[2147483647,0,0,1,1,2,2,3,3,5,5,6,6,8,8,10,10,11,11,12,12,15,15,17,17,18,18,19,19,20,20],"right_children":[2,4,6,8,-1,10,12,-1,14,-1,16,18,20,-1,-1,22,-1,24,26,28,30,-1,-1,-1,-1,-1,-1,-1,-1,-1,-1],"split_conditions":[-7.14791E-1,-1.4951108E0,-2.133508E-2,-1.1621865E0,-2.982374E-2,4.7423754E-2,6.062118E-1,-7.601748E-2,-8.978179E-1,4.899247E-3,1.6540168E-1,-5.1345015E-1,-6.168555E-1,7.2297454E-4,-1.6757512E-2,-5.3010523E-1,-1.1407394E-3,2.2792032E-1,3.528305E-1,4.455525E-1,4.5766607E-1,-2.1119714E-3,4.1835904E-4,1.6597629E-3,-7.248521E-5,-4.8138574E-4,-2.9014081E-3,-5.649865E-4,2.1932871E-4,3.7493705E-4,-1.01152065E-4],"split_indices":[26,29,8,0,0,29,26,0,0,0,20,29,28,0,0,0,0,1,19,24,20,0,0,0,0,0,0,0,0,0,0],"split_type":[0,0,0,0,0,0,0,0,0,0,0,0,0,0,0,0,0,0,0,0,0,0,0,0,0,0,0,0,0,0,0],"sum_hessian":[4.57E2,1.22E2,3.35E2,1.2E1,1.1E2,1.8E1,3.17E2,9E0,3E0,1.1E1,7E0,1.57E2,1.6E2,2E0,1E0,2E0,5E0,4E1,1.17E2,4.2E1,1.18E2,1E0,1E0,1.1E1,2.9E1,4.8E1,6.9E1,3.4E1,8E0,9E1,2.8E1],"tree_param":{"num_deleted":"0","num_feature":"31","num_nodes":"31","size_leaf_vector":"1"}},{"base_weights":[-6.516854E-2,-2.3958333E-1,-7.6687115E-4,-2.4786325E-2,6.25E-2,5.8091287E-2,-1.6569768E-1,-1.6666668E-2,3.75E-2,5.2E-1,4.608295E-3,-1.764706E-1,3.75E-2,5.7954544E-1,6.25E-2,-1.14795916E-1,1.0208333E-1,1.6666667E-1,-1.8674698E-1,6.1904766E-2,-1.25E-2,-1.6666668E-2,3.75E-2,-1.5406976E-2,1.5384616E-2,3.6956523E-2,3.8265307E-3,3.75E-2,-1.25E-2,-1.9687502E-2,6.25E-3],"categories":[],"categories_nodes":[],"categories_segments":[],"categories_sizes":[],"default_left":[0,0,0,0,0,0,0,0,0,0,0,0,0,0,0,0,0,0,0,0,0,0,0,0,0,0,0,0,0,0,0],"id":36,"left_children":[1,3,5,-1,7,9,11,-1,-1,13,15,17,-1,19,21,23,25,27,29,-1,-1,-1,-1,-1,-1,-1,-1,-1,-1,-1,-1],"loss_changes":[4.998325E0,3.1563807E-1,3.174278E0,0E0,3.4895834E-1,5.95133E0,5.67117E-1,0E0,0E0,6.448293E-1,2.5373666E0,3.3085275E-1,0E0,6.8966436E-1,3.4895834E-1,1.0576627E0,2.0342784E0,2.2916666E-1,2.2182798E-1,0E0,0E0,0E0,0E0,0E0,0E0,0E0,0E0,0E0,0E0,0E0,0E0],"parents":[2147483647,0,0,1,1,2,2,4,4,5,5,6,6,9,9,10,10,11,11,13,13,14,14,15,15,16,16,17,17,18,18],"right_children":[2,4,6,-1,8,10,12,-1,-1,14,16,18,-1,20,22,24,26,28,30,-1,-1,-1,-1,-1,-1,-1,-1,-1,-1,-1,-1],"split_conditions":[-7.608269E-1,2.4213889E0,6.100836E-1,-2.9078746E-2,-1.1621865E0,2.050591E-1,1.5856081E0,-2.1907015E-2,4.8757196E-4,4.0546367E-1,-3.3533716E-1,-1.0498661E0,5.5696367E-4,4.7274244E-1,4.814394E-1,3.4496033E-1,-2.987829E-1,5.7623726E-1,1.4478525E0,2.2733666E-3,-1.1777402E-3,-5.96734E-3,2.3271502E-3,-4.932374E-4,3.2317193E-4,6.625593E-4,8.787215E-5,1.172775E-3,-6.4393044E-3,-6.115973E-4,1.5596033E-3],"split_indices":[0,28,29,0,0,5,28,0,0,1,30,24,0,12,1,24,20,0,0,0,0,0,0,0,0,0,0,0,0,0,0],"split_type":[0,0,0,0,0,0,0,0,0,0,0,0,0,0,0,0,0,0,0,0,0,0,0,0,0,0,0,0,0,0,0],"sum_hessian":[4.44E2,1.19E2,3.25E2,1.16E2,3E0,2.4E2,8.5E1,2E0,1E0,2.4E1,2.16E2,8.4E1,1E0,2.1E1,3E0,9.7E1,1.19E2,2E0,8.2E1,2E1,1E0,2E0,1E0,8.5E1,1.2E1,2.2E1,9.7E1,1E0,1E0,7.9E1,3E0],"tree_param":{"num_deleted":"0","num_feature":"31","num_nodes":"31","size_leaf_vector":"1"}},{"base_weights":[-6.966292E-2,-2.3931624E-1,-9.118541E-3,-4.1666668E-2,-2.4776785E-2,3.28125E-1,-2.6273886E-2,3.75E-2,-2.0000001E-2,6.666667E-2,-9.375E-2,-1.4646465E-1,2.8935185E-2,-2.1428572E-2,3.75E-2,-1.9480519E-1,2.173913E-2,6.428572E-2,8.333334E-3,-2.0723684E-2,3.75E-2,-1.6666668E-2,3.3333335E-2,-2.4154589E-4,5.6250002E-2],"categories":[],"categories_nodes":[],"categories_segments":[],"categories_sizes":[],"default_left":[0,0,0,0,0,0,0,0,0,0,0,0,0,0,0,0,0,0,0,0,0,0,0,0,0],"id":37,"left_children":[1,3,5,7,-1,9,11,-1,-1,-1,13,15,17,-1,-1,19,21,-1,23,-1,-1,-1,-1,-1,-1],"loss_changes":[4.56866E0,1.8511963E-1,1.9120601E0,4.7083333E-1,0E0,2.3476562E0,2.0878227E0,0E0,0E0,0E0,5.3236604E-1,8.0921006E-1,2.7265954E0,0E0,0E0,6.2315226E-1,1.405797E0,0E0,1.2522494E0,0E0,0E0,0E0,0E0,0E0,0E0],"parents":[2147483647,0,0,1,1,2,2,3,3,5,5,6,6,10,10,11,11,12,12,15,15,16,16,18,18],"right_children":[2,4,6,8,-1,10,12,-1,-1,-1,14,16,18,-1,-1,20,22,-1,24,-1,-1,-1,-1,-1,-1],"split_conditions":[-7.608269E-1,-8.6858404E-1,-8.5048825E-1,-9.784371E-1,-3.9555002E-2,-3.0278838E-1,4.5061138E-1,3.5585463E-3,-7.689941E-3,5.5460245E-3,-4.990477E-1,9.112908E-1,2.3058741E-1,-1.791203E-3,4.3092207E-3,6.8435985E-1,4.29456E-1,2.298948E-3,1.3113865E0,-1.4390372E-3,2.1552741E-4,-8.575581E-5,1.0615162E-3,-6.1392785E-7,1.17713214E-4],"split_indices":[0,24,19,5,0,29,10,0,0,0,1,27,4,0,0,16,1,0,24,0,0,0,0,0,0],"split_type":[0,0,0,0,0,0,0,0,0,0,0,0,0,0,0,0,0,0,0,0,0,0,0,0,0],"sum_hessian":[4.44E2,1.16E2,3.28E2,5E0,1.11E2,1.5E1,3.13E2,1E0,4E0,8E0,7E0,9.8E1,2.15E2,6E0,1E0,7.6E1,2.2E1,6E0,2.09E2,7.5E1,1E0,1.4E1,8E0,2.06E2,3E0],"tree_param":{"num_deleted":"0","num_feature":"31","num_nodes":"25","size_leaf_vector":"1"}},{"base_weights":[-5.530474E-2,-2.4761906E-2,4.4247787E-3,9.428571E-2,-9.090909E-2,-8E-3,3.4313726E-1,-2.228261E-1,-3.9583333E-2,2.2794117E-1,-9.5108695E-2,4.1477272E-1,-9.375E-2,3.75E-2,-2.4444444E-2,1.3125E-1,-1.2345679E-1,-2.0833334E-2,3.1034483E-2,-2.4358975E-2,1.3888889E-3,4.545455E-3,5.2205887E-2,-2.1428572E-2,3.75E-2,-4.761905E-3,3.125E-2,-2.4193548E-2,-4.901961E-3],"categories":[],"categories_nodes":[],"categories_segments":[],"categories_sizes":[],"default_left":[0,0,0,0,0,0,0,0,0,0,0,0,0,0,0,0,0,0,0,0,0,0,0,0,0,0,0,0,0],"id":38,"left_children":[1,-1,3,5,7,9,11,13,15,17,19,21,23,-1,-1,25,27,-1,-1,-1,-1,-1,-1,-1,-1,-1,-1,-1,-1],"loss_changes":[5.089766E0,0E0,2.9127135E0,4.4571877E0,1.1083521E0,2.5907452E0,1.6350131E0,6.861713E-1,1.7356095E0,1.2869761E0,1.4923184E0,1.7196689E0,5.3236604E-1,0E0,0E0,1.3116816E0,7.0249736E-1,0E0,0E0,0E0,0E0,0E0,0E0,0E0,0E0,0E0,0E0,0E0,0E0],"parents":[2147483647,0,0,2,2,3,3,4,4,5,5,6,6,7,7,8,8,9,9,10,10,11,11,12,12,15,15,16,16],"right_children":[2,-1,4,6,8,10,12,14,16,18,20,22,24,-1,-1,26,28,-1,-1,-1,-1,-1,-1,-1,-1,-1,-1,-1,-1],"split_conditions":[-9.5600325E-1,-4.9585775E-2,5.5864718E-2,2.603554E-1,-5.879325E-1,3.3163702E-1,1.1564075E0,-1.2156276E0,-7.4190326E-2,-1.0185452E0,6.7000043E-1,-7.354567E-1,1.4478525E0,1.6961098E-4,-8.163214E-4,5.247939E-1,4.6834895E-1,-8.605081E-3,1.4164791E-3,-5.7539716E-4,7.015467E-5,2.0220876E-4,1.9731298E-3,-1.2563944E-3,1.2754524E-2,-1.7553315E-4,3.6733152E-4,-2.5947073E-3,-6.913543E-5],"split_indices":[26,0,29,30,28,19,16,27,28,13,15,24,0,0,0,5,13,0,0,0,0,0,0,0,0,0,0,0,0],"split_type":[0,0,0,0,0,0,0,0,0,0,0,0,0,0,0,0,0,0,0,0,0,0,0,0,0,0,0,0,0],"sum_hessian":[4.42E2,1.04E2,3.38E2,1.74E2,1.64E2,1.24E2,5E1,4.5E1,1.19E2,3.3E1,9.1E1,4.3E1,7E0,1E0,4.4E1,3.9E1,8E1,5E0,2.8E1,3.8E1,5.3E1,1E1,3.3E1,6E0,1E0,2E1,1.9E1,3E1,5E1],"tree_param":{"num_deleted":"0","num_feature":"31","num_nodes":"29","size_leaf_vector":"1"}},{"base_weights":[-7.040573E-2,-2.4725275E-2,-2.1276595E-2,-7.2745904E-2,1.25E-1,-2.9494382E-2,-1.8656716E-1,2.6666668E-1,-2.9761905E-2,-1.0309278E-1,5.792683E-2,-2.0075758E-1,3.75E-2,-2.1428572E-2,3.4615386E-1,5E-2,-6.875E-2,-1.1968086E-2,3.125E-2,-1.0869565E-2,1.2083333E-2,-2.1538462E-2,3.75E-2,4.3548387E-2,-0E0,1.25E-2,-1.6666668E-2],"categories":[],"categories_nodes":[],"categories_segments":[],"categories_sizes":[],"default_left":[0,0,0,0,0,0,0,0,0,0,0,0,0,0,0,0,0,0,0,0,0,0,0,0,0,0,0],"id":39,"left_children":[1,-1,3,5,7,9,11,13,15,17,19,21,-1,-1,23,-1,25,-1,-1,-1,-1,-1,-1,-1,-1,-1,-1],"loss_changes":[3.635154E0,0E0,2.4860535E0,1.1956954E0,1.8934524E0,1.1512347E0,6.0919833E-1,1.7945058E0,9.018601E-1,7.061068E-1,8.7262833E-1,6.365967E-1,0E0,0E0,1.205955E0,0E0,7.796875E-1,0E0,0E0,0E0,0E0,0E0,0E0,0E0,0E0,0E0,0E0],"parents":[2147483647,0,0,2,2,3,3,4,4,5,5,6,6,7,7,8,8,9,9,10,10,11,11,14,14,16,16],"right_children":[2,-1,4,6,8,10,12,14,16,18,20,22,-1,-1,24,-1,26,-1,-1,-1,-1,-1,-1,-1,-1,-1,-1],"split_conditions":[-1.014781E0,-5.7775445E-2,5.3187954E-1,5.8392715E-1,-2.7384914E-2,-1.9882002E-1,1.4478525E0,-4.3326163E-1,5.891671E-1,4.8734903E-1,-3.8005656E-1,1.4798592E0,1.4106155E-3,-1.5214086E-5,7.995957E-1,1.1475325E-2,-2.4720685E-1,-5.7498814E-4,3.4585595E-4,-3.529951E-4,5.4498913E-4,-6.8559946E-4,2.2006036E-5,3.3159198E-3,8.9646503E-4,3.610164E-4,-2.6490688E-4],"split_indices":[0,0,28,29,29,30,0,30,28,29,28,4,0,0,27,0,20,0,0,0,0,0,0,0,0,0,0],"split_type":[0,0,0,0,0,0,0,0,0,0,0,0,0,0,0,0,0,0,0,0,0,0,0,0,0,0,0],"sum_hessian":[4.18E2,9E1,3.28E2,2.43E2,8.5E1,1.77E2,6.6E1,4.4E1,4.1E1,9.6E1,8.1E1,6.5E1,1E0,6E0,3.8E1,2E0,3.9E1,9.3E1,3E0,2.2E1,5.9E1,6.4E1,1E0,3E1,8E0,1.3E1,2.6E1],"tree_param":{"num_deleted":"0","num_feature":"31","num_nodes":"27","size_leaf_vector":"1"}},{"base_weights":[-6.306818E-2,-2.4759617E-2,-5.934718E-3,1.4788732E-1,-4.681648E-2,3.402778E-1,-4.8611112E-2,-1.25E-1,7.311321E-2,7.8125E-2,5.2380955E-1,-1.4166667E-1,3.5714287E-1,-2.0478724E-1,-1.4492754E-2,2.4285714E-1,-1.0416667E-2,3.3333335E-2,-2.1875E-2,6.40625E-2,1.25E-2,-3.3333336E-3,-2.34375E-2,6.0000002E-2,-1.6666668E-2,-2.1428572E-2,6.25E-3,2.638889E-2,-1.1057693E-2,-1.3888889E-3,4.8611112E-2,3.5714287E-2,-4.924243E-3],"categories":[],"categories_nodes":[],"categories_segments":[],"categories_sizes":[],"default_left":[0,0,0,0,0,0,0,0,0,0,0,0,0,0,0,0,0,0,0,0,0,0,0,0,0,0,0,0,0,0,0,0,0],"id":40,"left_children":[1,-1,3,5,7,9,11,13,15,17,19,21,23,25,27,29,31,-1,-1,-1,-1,-1,-1,-1,-1,-1,-1,-1,-1,-1,-1,-1,-1],"loss_changes":[4.637328E0,0E0,2.1261535E0,2.7006555E0,2.5126715E0,1.6911583E0,1.4098711E0,1.4253969E0,1.5054709E0,1.2851562E0,8.9825153E-1,2.9348958E-1,9.904762E-1,2.5204206E-1,1.8747967E0,2.192659E0,1.0450826E0,0E0,0E0,0E0,0E0,0E0,0E0,0E0,0E0,0E0,0E0,0E0,0E0,0E0,0E0,0E0,0E0],"parents":[2147483647,0,0,2,2,3,3,4,4,5,5,6,6,7,7,8,8,9,9,10,10,11,11,12,12,13,13,14,14,15,15,16,16],"right_children":[2,-1,4,6,8,10,12,14,16,18,20,22,24,26,28,30,32,-1,-1,-1,-1,-1,-1,-1,-1,-1,-1,-1,-1,-1,-1,-1,-1],"split_conditions":[-9.5790166E-1,-4.408676E-2,2.8229582E-1,4.7423754E-2,9.799932E-1,-2.6294884E-1,4.012651E-1,1.3161826E-1,1.1069977E0,3.929712E-1,1.1773603E0,-1.9610769E-1,1.8233487E-1,1.2528887E0,1.7488849E-1,9.470679E-1,9.1347015E-1,2.2418543E-3,-1.1720828E-3,3.0808689E-3,1.2326569E-3,-2.6884823E-4,-1.4299229E-3,1.4607244E-3,-7.764575E-3,-1.7062627E-3,1.1142194E-3,1.8816888E-4,-2.8827786E-4,-1.822114E-5,3.3213198E-3,6.184548E-4,-1.341641E-4],"split_indices":[0,0,26,29,26,30,13,27,5,7,27,27,1,11,30,7,13,0,0,0,0,0,0,0,0,0,0,0,0,0,0,0,0],"split_type":[0,0,0,0,0,0,0,0,0,0,0,0,0,0,0,0,0,0,0,0,0,0,0,0,0,0,0,0,0,0,0,0,0],"sum_hessian":[4.39E2,1.03E2,3.36E2,7E1,2.66E2,3.5E1,3.5E1,1.61E2,1.05E2,1.5E1,2E1,2.9E1,6E0,9.3E1,6.8E1,3.4E1,7.1E1,8E0,7E0,1.5E1,5E0,1.4E1,1.5E1,4E0,2E0,9E1,3E0,1.7E1,5.1E1,1.7E1,1.7E1,6E0,6.5E1],"tree_param":{"num_deleted":"0","num_feature":"31","num_nodes":"33","size_leaf_vector":"1"}},{"base_weights":[-7.865169E-2,-2.4747474E-2,-3.0259365E-2,1.3380282E-1,-7.220217E-2,3.125E-1,-4.8611112E-2,-1.7821783E-1,-1.1299435E-2,9.52381E-2,5.78125E-1,-1.6666667E-1,2.75E-1,-1.8686868E-1,1.6666667E-1,2.65625E-1,-3.8580246E-2,2.0312501E-2,-2.0833334E-2,6.333333E-2,-1.25E-2,-6.25E-3,-2.34375E-2,-1.875E-2,5E-2,-1.1979166E-2,-2.4519231E-2,3.75E-2,-1.25E-2,5E-2,-2.0833334E-2,2.7500002E-2,-5.882353E-3],"categories":[],"categories_nodes":[],"categories_segments":[],"categories_sizes":[],"default_left":[0,0,0,0,0,0,0,0,0,0,0,0,0,0,0,0,0,0,0,0,0,0,0,0,0,0,0,0,0,0,0,0,0],"id":41,"left_children":[1,-1,3,5,7,9,11,13,15,17,19,21,23,25,27,29,31,-1,-1,-1,-1,-1,-1,-1,-1,-1,-1,-1,-1,-1,-1,-1,-1],"loss_changes":[3.6280456E0,0E0,2.3974466E0,2.3295677E0,1.7864765E0,2.0225077E0,1.4211806E0,3.3248305E-1,1.3474339E0,7.300967E-1,7.0026064E-1,1.7578125E-1,1.134375E0,3.5793328E-1,2.2916666E-1,1.8815105E0,1.0445353E0,0E0,0E0,0E0,0E0,0E0,0E0,0E0,0E0,0E0,0E0,0E0,0E0,0E0,0E0,0E0,0E0],"parents":[2147483647,0,0,2,2,3,3,4,4,5,5,6,6,7,7,8,8,9,9,10,10,11,11,12,12,13,13,14,14,15,15,16,16],"right_children":[2,-1,4,6,8,10,12,14,16,18,20,22,24,26,28,30,32,-1,-1,-1,-1,-1,-1,-1,-1,-1,-1,-1,-1,-1,-1,-1,-1],"split_conditions":[-9.7029597E-1,-3.9437916E-2,2.3851646E-1,4.7423754E-2,-2.9320484E-1,1.4342655E-1,2.8718916E-1,1.4284434E0,-1.0419419E0,2.6194206E-1,4.644459E-1,6.0327446E-1,2.4771573E-1,-9.007107E-2,1.2579877E0,1.0691397E0,-2.1756825E-1,2.8943599E-3,-6.5354706E-4,3.6905871E-3,-4.934311E-4,-4.3533446E-4,-1.2869298E-3,-3.261158E-3,1.1962214E-3,-3.237486E-4,-2.1209791E-3,1.3828278E-6,-3.218174E-4,3.6988915E-3,-2.5359096E-4,5.7333114E-4,-8.18044E-5],"split_indices":[26,0,2,29,27,28,8,11,29,26,15,29,16,29,0,27,27,0,0,0,0,0,0,0,0,0,0,0,0,0,0,0,0],"split_type":[0,0,0,0,0,0,0,0,0,0,0,0,0,0,0,0,0,0,0,0,0,0,0,0,0,0,0,0,0,0,0,0,0],"sum_hessian":[4.44E2,9.8E1,3.46E2,7E1,2.76E2,3.5E1,3.5E1,1E2,1.76E2,2E1,1.5E1,2.6E1,9E0,9.8E1,2E0,1.5E1,1.61E2,1.5E1,5E0,1.4E1,1E0,1.1E1,1.5E1,3E0,6E0,4.7E1,5.1E1,1E0,1E0,1E1,5E0,9E0,1.52E2],"tree_param":{"num_deleted":"0","num_feature":"31","num_nodes":"33","size_leaf_vector":"1"}},{"base_weights":[-5.7562076E-2,-2.2772278E-1,-7.2886297E-3,-2.4739584E-2,1.25E-1,-1.3333334E-1,4.8117153E-2,5E-2,-1.875E-2,5E-2,-1.5048544E-1,1.3870968E-1,-1.1764706E-1,-1.5931372E-1,3.75E-2,3.3333334E-1,8.5365854E-2,1.04166664E-1,-1.5202703E-1,-2.631579E-3,-1.875E-2,-2.0833334E-2,4.375E-2,1.4204546E-3,2.5694445E-2,-2.1428572E-2,4.5833334E-2,-2.0833334E-2,-0E0],"categories":[],"categories_nodes":[],"categories_segments":[],"categories_sizes":[],"default_left":[0,0,0,0,0,0,0,0,0,0,0,0,0,0,0,0,0,0,0,0,0,0,0,0,0,0,0,0,0],"id":42,"left_children":[1,3,5,-1,7,9,11,-1,-1,-1,13,15,17,19,-1,21,23,25,27,-1,-1,-1,-1,-1,-1,-1,-1,-1,-1],"loss_changes":[3.788012E0,7.317772E-1,2.4017923E0,0E0,7.96875E-1,1.2158576E0,3.6053813E0,0E0,0E0,0E0,5.375738E-1,1.5807502E0,6.6404176E-1,3.7743473E-1,0E0,1.9531248E0,1.4981505E0,1.4516368E0,6.33446E-1,0E0,0E0,0E0,0E0,0E0,0E0,0E0,0E0,0E0,0E0],"parents":[2147483647,0,0,1,1,2,2,4,4,5,5,6,6,10,10,11,11,12,12,13,13,15,15,16,16,17,17,18,18],"right_children":[2,4,6,-1,8,10,12,-1,-1,-1,14,16,18,20,-1,22,24,26,28,-1,-1,-1,-1,-1,-1,-1,-1,-1,-1],"split_conditions":[-9.7029597E-1,-8.128639E-1,-4.4973037E-1,-4.873779E-2,-8.541919E-1,-8.952033E-1,4.6122462E-1,3.9262655E-3,-1.0545814E-2,4.2739334E-3,1.5579555E0,2.448271E-1,1.476397E-1,2.6194206E-1,3.483081E-3,-3.0737895E-1,1.0918525E0,-7.700304E-1,1.0486497E0,1.9039493E-5,-4.89223E-4,-3.3661337E-3,2.4037242E-3,3.33786E-6,9.0271235E-4,-8.76232E-3,2.4353333E-3,-6.0664717E-4,2.3245812E-7],"split_indices":[26,7,30,0,9,3,29,0,0,0,20,5,0,26,0,20,10,3,12,0,0,0,0,0,0,0,0,0,0],"split_type":[0,0,0,0,0,0,0,0,0,0,0,0,0,0,0,0,0,0,0,0,0,0,0,0,0,0,0,0,0],"sum_hessian":[4.42E2,1E2,3.42E2,9.5E1,5E0,1.04E2,2.38E2,2E0,3E0,2E0,1.02E2,1.54E2,8.4E1,1.01E2,1E0,3.2E1,1.22E2,1.1E1,7.3E1,1.8E1,8.3E1,5E0,2.7E1,8.7E1,3.5E1,6E0,5E0,5.3E1,2E1],"tree_param":{"num_deleted":"0","num_feature":"31","num_nodes":"29","size_leaf_vector":"1"}},{"base_weights":[-5.625E-2,-2.4683544E-2,-1.4502763E-2,2.0754717E-1,-5.2419353E-2,4.375E-1,-4.8076924E-2,-7.3275864E-2,2.3809524E-1,-2.5E-2,6.5789473E-1,-2.375E-2,5E-1,-1.559633E-1,-2.3351649E-2,-9.375E-2,4.107143E-1,5E-2,-2.1875E-2,7.083333E-2,-1.25E-2,-1.25E-2,6.25E-2,-8.163265E-3,-2.1311475E-2,1.6E-2,-5.221519E-3,3.75E-2,-2.1428572E-2,5.2083332E-2,-1.6666668E-2],"categories":[],"categories_nodes":[],"categories_segments":[],"categories_sizes":[],"default_left":[0,0,0,0,0,0,0,0,0,0,0,0,0,0,0,0,0,0,0,0,0,0,0,0,0,0,0,0,0,0,0],"id":43,"left_children":[1,-1,3,5,7,9,11,13,15,17,19,-1,21,23,25,27,29,-1,-1,-1,-1,-1,-1,-1,-1,-1,-1,-1,-1,-1,-1],"loss_changes":[3.497243E0,0E0,3.058694E0,3.1364524E0,1.8957736E0,2.8705597E0,2.8180287E0,1.1935087E0,1.2414434E0,1.1265625E0,8.388157E-1,0E0,6.25E-1,4.456463E-1,9.715308E-1,5.3236604E-1,9.7693443E-1,0E0,0E0,0E0,0E0,0E0,0E0,0E0,0E0,0E0,0E0,0E0,0E0,0E0,0E0],"parents":[2147483647,0,0,2,2,3,3,4,4,5,5,6,6,7,7,8,8,9,9,10,10,12,12,13,13,14,14,15,15,16,16],"right_children":[2,-1,4,6,8,10,12,14,16,18,20,-1,22,24,26,28,30,-1,-1,-1,-1,-1,-1,-1,-1,-1,-1,-1,-1,-1,-1],"split_conditions":[-1.2511104E0,-5.905347E-2,-7.28037E-1,1.598358E-2,1.3285575E0,-5.4007494E-1,-8.941044E-1,-2.4878484E-1,1.288766E0,-1.8782401E0,1.5725312E-1,-6.296003E-3,-9.7199404E-1,-9.007107E-2,2.782428E-1,1.13779E0,1.4758906E0,3.846544E-3,-4.975176E-3,3.4127426E-3,-1.4814735E-5,-9.23835E-3,2.6985027E-3,-1.3886392E-4,-1.3577193E-3,1.9026473E-4,-1.4855564E-4,3.9982795E-5,-3.348172E-4,5.624926E-3,-7.331729E-4],"split_indices":[0,0,19,29,8,28,15,27,4,28,0,0,10,29,26,6,11,0,0,0,0,0,0,0,0,0,0,0,0,0,0],"split_type":[0,0,0,0,0,0,0,0,0,0,0,0,0,0,0,0,0,0,0,0,0,0,0,0,0,0,0,0,0,0,0],"sum_hessian":[4.39E2,7.8E1,3.61E2,5.2E1,3.09E2,2.7E1,2.5E1,2.89E2,2E1,9E0,1.8E1,1.9E1,6E0,1.08E2,1.81E2,7E0,1.3E1,2E0,7E0,1.7E1,1E0,1E0,5E0,4.8E1,6E1,2.4E1,1.57E2,1E0,6E0,1.1E1,2E0],"tree_param":{"num_deleted":"0","num_feature":"31","num_nodes":"31","size_leaf_vector":"1"}},{"base_weights":[-5.9036143E-2,-2.4671054E-2,-1.6911766E-2,-3.3846155E-2,3.28125E-1,-1.3978495E-1,8.583691E-3,1.1111111E-1,5.3125E-1,1.75E-1,-1.7559524E-1,-1.09195404E-1,7.823129E-2,2.9166666E-1,-1.875E-2,-1.25E-2,6.428572E-2,4.5833334E-2,-2.0000001E-2,-2.0723684E-2,1.1111111E-2,2.1428572E-2,-1.3580247E-2,-2.3684211E-2,1.2403101E-2,5.6250002E-2,-1.6666668E-2],"categories":[],"categories_nodes":[],"categories_segments":[],"categories_sizes":[],"default_left":[0,0,0,0,0,0,0,0,0,0,0,0,0,0,0,0,0,0,0,0,0,0,0,0,0,0,0],"id":44,"left_children":[1,-1,3,5,7,9,11,13,15,17,19,21,23,25,-1,-1,-1,-1,-1,-1,-1,-1,-1,-1,-1,-1,-1],"loss_changes":[3.27668E0,0E0,1.9977214E0,1.462064E0,6.462674E-1,1.0790755E0,1.9198489E0,5.399306E-1,6.662946E-1,1.1541667E0,7.850616E-1,7.7789927E-1,2.1506257E0,8.385417E-1,0E0,0E0,0E0,0E0,0E0,0E0,0E0,0E0,0E0,0E0,0E0,0E0,0E0],"parents":[2147483647,0,0,2,2,3,3,4,4,5,5,6,6,7,7,8,8,9,9,10,10,11,11,12,12,13,13],"right_children":[2,-1,4,6,8,10,12,14,16,18,20,22,24,26,-1,-1,-1,-1,-1,-1,-1,-1,-1,-1,-1,-1,-1],"split_conditions":[-1.2463038E0,-5.599798E-2,1.5856081E0,-4.1845918E-1,1.873673E-1,2.8154582E-1,-3.8005656E-1,9.695857E-1,-1.2938432E0,1.6792844E-1,1.1111122E0,-1.9113956E-1,-1.2672156E0,2.4213889E0,-1.3493896E-4,-4.916674E-2,9.839031E-3,1.8176846E-3,-5.4685026E-4,-5.874932E-4,5.9957505E-4,3.629148E-4,-3.695369E-4,-4.588334E-3,2.7045683E-4,2.3038627E-3,-1.1788309E-3],"split_indices":[0,0,28,23,23,16,28,0,3,11,9,23,27,28,0,0,0,0,0,0,0,0,0,0,0,0,0],"split_type":[0,0,0,0,0,0,0,0,0,0,0,0,0,0,0,0,0,0,0,0,0,0,0,0,0,0,0],"sum_hessian":[4.14E2,7.5E1,3.39E2,3.24E2,1.5E1,9.2E1,2.32E2,8E0,7E0,9E0,8.3E1,8.6E1,1.46E2,5E0,3E0,1E0,6E0,5E0,4E0,7.5E1,8E0,6E0,8E1,1.8E1,1.28E2,3E0,2E0],"tree_param":{"num_deleted":"0","num_feature":"31","num_nodes":"27","size_leaf_vector":"1"}},{"base_weights":[-7.215909E-2,-2.4675325E-2,-3.5027474E-2,-4.985755E-2,3.392857E-1,-1.3414635E-1,-4.3668123E-3,5E-1,-1.875E-2,3.75E-2,-1.4139344E-1,-6.603774E-2,1.3380282E-1,6.25E-2,6.5625004E-2,-1.0597826E-2,-2.4193548E-2,4.0000003E-2,-8.064516E-3,2.254902E-2,-9.52381E-3,3.75E-2,-1.6666668E-2],"categories":[],"categories_nodes":[],"categories_segments":[],"categories_sizes":[],"default_left":[0,0,0,0,0,0,0,0,0,0,0,0,0,0,0,0,0,0,0,0,0,0,0],"id":45,"left_children":[1,-1,3,5,7,9,11,13,-1,-1,15,17,19,21,-1,-1,-1,-1,-1,-1,-1,-1,-1],"loss_changes":[2.8438609E0,0E0,2.037514E0,1.3452744E0,1.2790178E0,5.068722E-1,1.9601562E0,7.109375E-1,0E0,0E0,4.0876722E-1,1.1146683E0,1.5124867E0,3.4895834E-1,0E0,0E0,0E0,0E0,0E0,0E0,0E0,0E0,0E0],"parents":[2147483647,0,0,2,2,3,3,4,4,5,5,6,6,7,7,10,10,11,11,12,12,13,13],"right_children":[2,-1,4,6,8,10,12,14,-1,-1,16,18,20,22,-1,-1,-1,-1,-1,-1,-1,-1,-1],"split_conditions":[-1.2463038E0,-5.162207E-2,1.5856081E0,-3.8005656E-1,-2.7384914E-2,-2.0366414E0,5.860787E-1,4.657755E-2,-1.21444464E-4,3.2801211E-3,4.701164E-1,-3.558186E-1,7.7765894E-1,-8.793922E-1,6.3394727E-3,-4.294038E-4,-3.1830967E-4,2.593583E-3,-2.1479353E-4,8.7824464E-4,-2.5195183E-4,1.5916944E-3,-1.1806608E-3],"split_indices":[0,0,28,28,29,13,23,23,0,0,27,28,29,0,0,0,0,0,0,0,0,0,0],"split_type":[0,0,0,0,0,0,0,0,0,0,0,0,0,0,0,0,0,0,0,0,0,0,0],"sum_hessian":[4.39E2,7.6E1,3.63E2,3.5E2,1.3E1,1.22E2,2.28E2,1E1,3E0,1E0,1.21E2,1.58E2,7E1,3E0,7E0,9.1E1,3E1,4E0,1.54E2,5E1,2E1,1E0,2E0],"tree_param":{"num_deleted":"0","num_feature":"31","num_nodes":"23","size_leaf_vector":"1"}},{"base_weights":[-6.3606195E-2,-2.4679488E-2,-2.5333334E-2,-4.532578E-2,2.826087E-1,4.2918455E-3,-1.4049587E-1,5.3125E-1,1.40625E-1,1.21710524E-1,-5.221519E-2,-1.8895349E-1,-2.0833334E-2,-1.25E-2,6.428572E-2,-4.5454547E-2,4.5833334E-1,3.2857146E-2,-5.357143E-3,-1.7391305E-2,4.166667E-3,2.0000001E-2,-2.1036586E-2,3.392857E-2,-2.3913044E-2,-2.1428572E-2,2.0000001E-2,6.0000002E-2,-1.25E-2],"categories":[],"categories_nodes":[],"categories_segments":[],"categories_sizes":[],"default_left":[0,0,0,0,0,0,0,0,0,0,0,0,0,0,0,0,0,0,0,0,0,0,0,0,0,0,0,0,0],"id":46,"left_children":[1,-1,3,5,7,9,11,13,15,17,19,21,23,-1,-1,25,27,-1,-1,-1,-1,-1,-1,-1,-1,-1,-1,-1,-1],"loss_changes":[3.1627898E0,0E0,2.3215024E0,1.667509E0,7.3726225E-1,1.5523058E0,6.9768953E-1,6.662946E-1,9.667376E-1,2.7732844E0,1.8124312E0,7.5831676E-1,2.9111996E0,0E0,0E0,4.987013E-1,5.708333E-1,0E0,0E0,0E0,0E0,0E0,0E0,0E0,0E0,0E0,0E0,0E0,0E0],"parents":[2147483647,0,0,2,2,3,3,4,4,5,5,6,6,7,7,8,8,9,9,10,10,11,11,12,12,15,15,16,16],"right_children":[2,-1,4,6,8,10,12,14,16,18,20,22,24,-1,-1,26,28,-1,-1,-1,-1,-1,-1,-1,-1,-1,-1,-1,-1],"split_conditions":[-1.275144E0,-4.4523716E-2,1.5856081E0,4.2861623E-1,-8.545576E-1,3.3163702E-1,9.449185E-1,-1.2938432E0,1.2457701E0,3.4138513E-1,6.49317E-1,-8.543829E-1,1.1302772E0,-4.4237923E-2,4.2871716E-3,-5.6992567E-1,1.318341E0,8.0155063E-4,-1.1618883E-4,-3.108546E-4,4.2292475E-5,1.149872E-3,-1.0084122E-3,8.994311E-4,-4.058689E-4,-8.1548543E-4,2.6623176E-3,8.672694E-3,-7.713914E-4],"split_indices":[0,0,28,29,0,19,3,3,4,23,10,24,8,0,0,29,13,0,0,0,0,0,0,0,0,0,0,0,0],"split_type":[0,0,0,0,0,0,0,0,0,0,0,0,0,0,0,0,0,0,0,0,0,0,0,0,0,0,0,0,0],"sum_hessian":[4.51E2,7.7E1,3.74E2,3.52E2,2.2E1,2.32E2,1.2E2,7E0,1.5E1,7.5E1,1.57E2,8.5E1,3.5E1,1E0,6E0,1E1,5E0,3.4E1,4.1E1,6.8E1,8.9E1,4E0,8.1E1,1.3E1,2.2E1,6E0,4E0,4E0,1E0],"tree_param":{"num_deleted":"0","num_feature":"31","num_nodes":"29","size_leaf_vector":"1"}},{"base_weights":[-6.401766E-2,-2.4691358E-2,-2.4128687E-2,-6.6308245E-2,1E-1,5.421687E-2,-1.1675127E-1,-1.118421E-1,2.3706897E-1,-3.2786883E-2,2.826087E-1,-1.5384615E-2,-1.6541353E-1,-2.0689656E-1,1.75E-1,3.0612245E-1,-1.25E-1,2.3076924E-2,-1.0204082E-2,4.7058824E-2,-2.1428572E-2,-1.6666668E-2,8.974359E-3,-2.2222223E-2,-7.54717E-3,3.75E-2,-2.4107143E-2,6.0000002E-2,-2.0833334E-2,1.9852942E-2,5.15625E-2,-2.2222223E-2,3.75E-2],"categories":[],"categories_nodes":[],"categories_segments":[],"categories_sizes":[],"default_left":[0,0,0,0,0,0,0,0,0,0,0,0,0,0,0,0,0,0,0,0,0,0,0,0,0,0,0,0,0,0,0,0,0],"id":47,"left_children":[1,-1,3,5,7,9,11,13,15,17,19,21,23,25,27,29,31,-1,-1,-1,-1,-1,-1,-1,-1,-1,-1,-1,-1,-1,-1,-1,-1],"loss_changes":[3.2989178E0,0E0,1.9595443E0,1.7025526E0,2.7850273E0,1.6585544E0,9.6920323E-1,1.0723003E0,1.4883885E0,1.136938E0,2.249178E0,1.0487179E0,6.6278887E-1,6.6710293E-1,1.7541667E0,1.0021429E0,5.694444E-1,0E0,0E0,0E0,0E0,0E0,0E0,0E0,0E0,0E0,0E0,0E0,0E0,0E0,0E0,0E0,0E0],"parents":[2147483647,0,0,2,2,3,3,4,4,5,5,6,6,7,7,8,8,9,9,10,10,11,11,12,12,13,13,14,14,15,15,16,16],"right_children":[2,-1,4,6,8,10,12,14,16,18,20,22,24,26,28,30,32,-1,-1,-1,-1,-1,-1,-1,-1,-1,-1,-1,-1,-1,-1,-1,-1],"split_conditions":[-1.275144E0,-4.6723206E-2,7.5728106E-1,3.528305E-1,-3.8955274E-1,4.5061138E-1,-3.0737895E-1,1.0828136E0,1.0698605E0,-7.977463E-1,2.8734902E-1,6.49317E-1,1.7409648E-1,-1.1300464E0,1.224272E0,9.208713E-1,1.1308585E0,1.3718099E-3,-2.6585758E-4,9.664148E-4,-1.6749502E-4,-5.168059E-4,7.839203E-5,-6.935522E-4,-1.4344603E-4,1.2275219E-3,-2.210206E-3,2.911717E-4,-2.1036864E-4,4.51684E-4,2.5592805E-3,-1.1873394E-3,1.1515021E-3],"split_indices":[0,0,23,19,28,10,20,7,29,30,23,10,27,1,4,7,5,0,0,0,0,0,0,0,0,0,0,0,0,0,0,0,0],"split_type":[0,0,0,0,0,0,0,0,0,0,0,0,0,0,0,0,0,0,0,0,0,0,0,0,0,0,0,0,0,0,0,0,0],"sum_hessian":[4.52E2,8E1,3.72E2,2.78E2,9.4E1,8.2E1,1.96E2,3.7E1,5.7E1,6E1,2.2E1,6.4E1,1.32E2,2.8E1,9E0,4.8E1,9E0,1.2E1,4.8E1,1.6E1,6E0,2.6E1,3.8E1,8E1,5.2E1,1E0,2.7E1,4E0,5E0,3.3E1,1.5E1,8E0,1E0],"tree_param":{"num_deleted":"0","num_feature":"31","num_nodes":"33","size_leaf_vector":"1"}},{"base_weights":[-4.6658985E-2,-2.4621213E-2,-1.0840109E-2,1.2268519E-1,-6.583969E-2,6.451613E-2,4.53125E-1,-1.9090909E-1,-3.2451924E-2,-8.108108E-2,1.5789473E-1,6.1538464E-1,-1.875E-2,3.75E-2,-2.0833333E-1,3.3333334E-1,-4.875E-2,1.75E-2,-1.6964285E-2,2.9487181E-2,-1.3157896E-2,-1.25E-2,6.875E-2,-0E0,-2.4456521E-2,-1.6666668E-2,5E-2,-7.794118E-3,1.1290322E-2],"categories":[],"categories_nodes":[],"categories_segments":[],"categories_sizes":[],"default_left":[0,0,0,0,0,0,0,0,0,0,0,0,0,0,0,0,0,0,0,0,0,0,0,0,0,0,0,0,0],"id":48,"left_children":[1,-1,3,5,7,9,11,13,15,17,19,21,-1,-1,23,25,27,-1,-1,-1,-1,-1,-1,-1,-1,-1,-1,-1,-1],"loss_changes":[3.0994627E0,0E0,2.717953E0,2.0466743E0,1.0878612E0,1.277199E0,1.7785459E0,6.2045455E-1,1.256262E0,8.688104E-1,2.2989202E0,7.800479E-1,0E0,0E0,4.0760875E-1,8.333334E-1,9.5256937E-1,0E0,0E0,0E0,0E0,0E0,0E0,0E0,0E0,0E0,0E0,0E0,0E0],"parents":[2147483647,0,0,2,2,3,3,4,4,5,5,6,6,7,7,8,8,9,9,10,10,11,11,14,14,15,15,16,16],"right_children":[2,-1,4,6,8,10,12,14,16,18,20,22,-1,-1,24,26,28,-1,-1,-1,-1,-1,-1,-1,-1,-1,-1,-1,-1],"split_conditions":[-1.5010589E0,-4.9695622E-2,2.8229582E-1,9.7862095E-1,3.9117342E-1,-9.1986156E-1,1.1076252E0,-1.9485961E0,4.3412286E-1,-4.979279E-1,3.929712E-1,-1.9105502E0,-5.5342913E-5,1.5060038E-3,1.5017922E-1,3.1020957E-1,1.2575818E0,2.9266388E-3,-3.0656399E-3,7.32024E-4,-1.2889951E-4,-5.068481E-3,3.3405067E-3,-6.4512344E-5,-6.1607064E-4,-9.564847E-4,7.13376E-4,-1.73074E-4,1.3702661E-4],"split_indices":[0,0,26,28,5,14,29,29,5,29,7,8,0,0,5,4,23,0,0,0,0,0,0,0,0,0,0,0,0],"split_type":[0,0,0,0,0,0,0,0,0,0,0,0,0,0,0,0,0,0,0,0,0,0,0,0,0,0,0,0,0],"sum_hessian":[4.33E2,6.5E1,3.68E2,1.07E2,2.61E2,9.2E1,1.5E1,5.4E1,2.07E2,3.6E1,5.6E1,1.2E1,3E0,1E0,5.3E1,8E0,1.99E2,9E0,2.7E1,3.8E1,1.8E1,1E0,1.1E1,8E0,4.5E1,2E0,6E0,1.69E2,3E1],"tree_param":{"num_deleted":"0","num_feature":"31","num_nodes":"29","size_leaf_vector":"1"}},{"base_weights":[-5.1224943E-2,-2.4637682E-2,-1.5748031E-2,-1.0326087E-1,3.3811476E-2,5E-2,-1.1580882E-1,2.1634616E-1,-1.5544041E-2,2.173913E-2,-1.4254385E-1,3.0357143E-1,-1.3636364E-1,-2E-1,1.183432E-2,-1.25E-2,4.5833334E-2,-1.9620253E-2,-2.0833334E-3,1.2E-2,5.416667E-2,3.75E-2,-2.2499999E-2,3.75E-2,-2.3958333E-2,6.0000002E-2,-6.060606E-4],"categories":[],"categories_nodes":[],"categories_segments":[],"categories_sizes":[],"default_left":[0,0,0,0,0,0,0,0,0,0,0,0,0,0,0,0,0,0,0,0,0,0,0,0,0,0,0],"id":49,"left_children":[1,-1,3,5,7,-1,9,11,13,15,17,19,21,23,25,-1,-1,-1,-1,-1,-1,-1,-1,-1,-1,-1,-1],"loss_changes":[3.1047206E0,0E0,1.6559238E0,1.1025215E0,2.2015815E0,0E0,5.032184E-1,1.6411867E0,9.7703654E-1,1.530797E0,7.404263E-1,1.7707145E0,5.829546E-1,6.588541E-1,1.7823919E0,0E0,0E0,0E0,0E0,0E0,0E0,0E0,0E0,0E0,0E0,0E0,0E0],"parents":[2147483647,0,0,2,2,3,3,4,4,6,6,7,7,8,8,9,9,10,10,11,11,12,12,13,13,14,14],"right_children":[2,-1,4,6,8,-1,10,12,14,16,18,20,22,24,26,-1,-1,-1,-1,-1,-1,-1,-1,-1,-1,-1,-1],"split_conditions":[-1.5010589E0,-4.2659406E-2,-2.4878484E-1,-1.2193322E0,-6.331805E-1,2.8487206E-3,1.4874558E-1,1.0691397E0,-9.7329974E-1,2.878833E-1,1.100388E0,1.4987986E-1,-1.2428104E0,-1.8066304E0,-1.0099742E0,-2.6417227E-4,1.0829315E-3,-1.3365642E-3,-1.4585257E-4,5.2698853E-4,2.7774037E-3,1.6810895E-4,-3.6466718E-4,4.228604E-3,-2.7590753E-3,1.5858099E-3,-2.7623028E-6],"split_indices":[0,0,27,4,29,0,1,27,4,12,3,23,1,1,0,0,0,0,0,0,0,0,0,0,0,0,0],"split_type":[0,0,0,0,0,0,0,0,0,0,0,0,0,0,0,0,0,0,0,0,0,0,0,0,0,0,0],"sum_hessian":[4.48E2,6.8E1,3.8E2,1.37E2,2.43E2,2E0,1.35E2,5.1E1,1.92E2,2.2E1,1.13E2,4.1E1,1E1,2.4E1,1.68E2,1.7E1,5E0,7.8E1,3.5E1,2.4E1,1.7E1,1E0,9E0,1E0,2.3E1,4E0,1.64E2],"tree_param":{"num_deleted":"0","num_feature":"31","num_nodes":"27","size_leaf_vector":"1"}},{"base_weights":[-5.8956917E-2,-2.4642857E-2,-2.3521505E-2,7.180851E-2,-5.5555556E-2,1.5671642E-1,-1.3392857E-1,-2.2023809E-1,-2.6260504E-2,3.125E-2,3.3035713E-1,-2.375E-2,1.1111111E-1,3.75E-2,-2.4390245E-2,-5.263158E-2,1.5833333E-1,-2.3214286E-2,1.6666668E-2,4.545455E-3,4.8611112E-2,-2.0833334E-2,5.6250002E-2,3.5714287E-2,-6.650246E-3,6.0000002E-2,6.7307698E-3],"categories":[],"categories_nodes":[],"categories_segments":[],"categories_sizes":[],"default_left":[0,0,0,0,0,0,0,0,0,0,0,0,0,0,0,0,0,0,0,0,0,0,0,0,0,0,0],"id":50,"left_children":[1,-1,3,5,7,9,11,13,15,17,19,-1,21,-1,-1,23,25,-1,-1,-1,-1,-1,-1,-1,-1,-1,-1],"loss_changes":[2.9238262E0,0E0,1.1400054E0,1.663047E0,1.3402193E0,1.4493437E0,7.37004E-1,6.830721E-1,1.1669025E0,1.4654018E0,1.2203963E0,0E0,1.4149305E0,0E0,0E0,1.211693E0,1.165705E0,0E0,0E0,0E0,0E0,0E0,0E0,0E0,0E0,0E0,0E0],"parents":[2147483647,0,0,2,2,3,3,4,4,5,5,6,6,7,7,8,8,9,9,10,10,12,12,15,15,16,16],"right_children":[2,-1,4,6,8,10,12,14,16,18,20,-1,22,-1,-1,24,26,-1,-1,-1,-1,-1,-1,-1,-1,-1,-1],"split_conditions":[-1.5010589E0,-3.9336722E-2,2.6194206E-1,6.0327446E-1,3.6394128E-1,5.006461E-1,6.187175E-3,-1.7061025E0,1.0134271E0,-8.8359857E-1,-4.3251622E-1,-3.47386E-3,1.1456994E0,1.7839075E-4,-1.3324503E-3,-9.705298E-1,2.986135E-1,-1.941967E-3,1.0142461E-3,3.1253844E-4,2.6235252E-3,-6.799847E-5,2.2006333E-4,3.7959963E-4,-1.5392006E-4,4.6712384E-4,2.0295083E-4],"split_indices":[0,0,26,29,0,20,2,23,27,6,28,0,29,0,0,24,10,0,0,0,0,0,0,0,0,0,0],"split_type":[0,0,0,0,0,0,0,0,0,0,0,0,0,0,0,0,0,0,0,0,0,0,0,0,0,0,0],"sum_hessian":[4.4E2,6.9E1,3.71E2,9.3E1,2.78E2,6.6E1,2.7E1,4.1E1,2.37E2,3.9E1,2.7E1,1.9E1,8E0,1E0,4E1,2.08E2,2.9E1,1.3E1,2.6E1,1E1,1.7E1,5E0,3E0,6E0,2.02E2,4E0,2.5E1],"tree_param":{"num_deleted":"0","num_feature":"31","num_nodes":"27","size_leaf_vector":"1"}},{"base_weights":[-5.8758315E-2,-2.4691358E-2,-1.7520215E-2,2.826087E-1,-3.7249282E-2,-2.5E-2,4.8214287E-1,-1.3289036E-2,-1.8367347E-1,-2.1428572E-2,3.125E-1,-1.875E-2,6.818182E-2,7.471264E-2,-4.883721E-2,-2.03125E-1,3.75E-2,5E-2,-1.25E-2,4.1304346E-2,-4.6153846E-3,-1.6666668E-2,3.1007752E-3,7.1428576E-3,-2.4404762E-2],"categories":[],"categories_nodes":[],"categories_segments":[],"categories_sizes":[],"default_left":[0,0,0,0,0,0,0,0,0,0,0,0,0,0,0,0,0,0,0,0,0,0,0,0,0],"id":51,"left_children":[1,-1,3,5,7,9,11,13,15,-1,17,-1,-1,19,21,23,-1,-1,-1,-1,-1,-1,-1,-1,-1],"loss_changes":[3.4950578E0,0E0,2.207316E0,1.4237578E0,1.2219768E0,7.058035E-1,1.9997971E0,9.452667E-1,6.086575E-1,0E0,3.90625E-1,0E0,0E0,3.5767424E0,2.0279071E0,5.5673385E-1,0E0,0E0,0E0,0E0,0E0,0E0,0E0,0E0,0E0],"parents":[2147483647,0,0,2,2,3,3,4,4,5,5,6,6,7,7,8,8,10,10,13,13,14,14,15,15],"right_children":[2,-1,4,6,8,10,12,14,16,-1,18,-1,-1,20,22,24,-1,-1,-1,-1,-1,-1,-1,-1,-1],"split_conditions":[-1.4939377E0,-3.2453492E-2,-1.0099742E0,-1.7703397E0,8.4454966E-1,-1.7264854E0,-1.7932051E-1,3.1986287E-1,1.5856081E0,-1.8304676E-3,-1.3328243E0,-4.0177107E-3,2.8609752E-3,-5.6148916E-2,6.574258E-1,1.6793947E-1,1.4092923E-4,3.5433888E-3,-1.5159416E-2,1.0267943E-3,-3.33637E-5,-5.211249E-4,7.3751806E-5,9.832196E-5,-1.3899327E-3],"split_indices":[26,0,0,6,29,19,27,19,28,0,0,0,0,23,11,1,0,0,0,0,0,0,0,0,0],"split_type":[0,0,0,0,0,0,0,0,0,0,0,0,0,0,0,0,0,0,0,0,0,0,0,0,0],"sum_hessian":[4.5E2,8E1,3.7E2,2.2E1,3.48E2,9E0,1.3E1,3E2,4.8E1,6E0,3E0,3E0,1E1,8.6E1,2.14E2,4.7E1,1E0,2E0,1E0,2.2E1,6.4E1,8.6E1,1.28E2,6E0,4.1E1],"tree_param":{"num_deleted":"0","num_feature":"31","num_nodes":"25","size_leaf_vector":"1"}},{"base_weights":[-3.4675617E-2,-2.4642857E-2,4.6296297E-3,-7.472826E-3,4.090909E-1,-4.8117153E-2,6.7307696E-2,6.5625004E-2,-1.875E-2,-2.1039603E-2,-1.9078948E-1,2.5694445E-1,-5.263158E-3,-3.5532997E-3,4.5833334E-2,-2.4285715E-2,3.125E-2,3.3333336E-3,3.977273E-2,-4.494382E-3,5E-2],"categories":[],"categories_nodes":[],"categories_segments":[],"categories_sizes":[],"default_left":[0,0,0,0,0,0,0,0,0,0,0,0,0,0,0,0,0,0,0,0,0],"id":52,"left_children":[1,-1,3,5,7,9,11,-1,-1,13,15,17,19,-1,-1,-1,-1,-1,-1,-1,-1],"loss_changes":[3.7215226E0,0E0,1.8533576E0,1.1217394E0,1.7450284E0,9.1929466E-1,1.7904255E0,0E0,0E0,1.4197294E0,1.0716871E0,1.1200442E0,1.9271437E0,0E0,0E0,0E0,0E0,0E0,0E0,0E0,0E0],"parents":[2147483647,0,0,2,2,3,3,4,4,5,5,6,6,9,9,10,10,11,11,12,12],"right_children":[2,-1,4,6,8,10,12,-1,-1,14,16,18,20,-1,-1,-1,-1,-1,-1,-1,-1],"split_conditions":[-1.5461795E0,-3.3843268E-2,2.011616E0,2.0213145E-1,5.026215E-1,1.1856035E0,2.1937558E-1,2.4603487E-3,-3.3558012E-4,1.1899813E0,1.4260632E0,-7.8277844E-1,1.3391323E0,-1.09377506E-4,2.0084977E-3,-3.3560247E-4,8.352399E-4,1.4784829E-3,1.1317286E-3,-8.173883E-5,3.501931E-3],"split_indices":[26,0,30,27,16,9,5,0,0,7,15,5,26,0,0,0,0,0,0,0,0],"split_type":[0,0,0,0,0,0,0,0,0,0,0,0,0,0,0,0,0,0,0,0,0],"sum_hessian":[4.46E2,6.9E1,3.77E2,3.67E2,1E1,2.38E2,1.29E2,7E0,3E0,2.01E2,3.7E1,3.5E1,9.4E1,1.96E2,5E0,3.4E1,3E0,1.4E1,2.1E1,8.8E1,6E0],"tree_param":{"num_deleted":"0","num_feature":"31","num_nodes":"21","size_leaf_vector":"1"}},{"base_weights":[-5.4421768E-2,-2.4603175E-2,-2.2427442E-2,2.013889E-1,-4.5784883E-2,3.6956522E-1,-8.928572E-2,-1E-1,2.5E-2,-1.875E-2,4.625E-1,-2.2727273E-2,3.125E-1,-1.1256544E-1,4E-1,3.529412E-1,-1.6791046E-2,-1.6666668E-2,5.416667E-2,5E-2,-1.25E-2,8.474576E-4,-1.6541352E-2,-1.25E-2,5.6250002E-2,6.5625004E-2,7.5000003E-3,-1.7073171E-2,5.053192E-3],"categories":[],"categories_nodes":[],"categories_segments":[],"categories_sizes":[],"default_left":[0,0,0,0,0,0,0,0,0,0,0,0,0,0,0,0,0,0,0,0,0,0,0,0,0,0,0,0,0],"id":53,"left_children":[1,-1,3,5,7,