{"learner":{"attributes":{"best_iteration":"34","best_score":"0.09850181081405968"},"feature_names":[],"feature_types":[],"gradient_booster":{"model":{"gbtree_model_param":{"num_parallel_tree":"1","num_trees":"55"},"iteration_indptr":[0,1,2,3,4,5,6,7,8,9,10,11,12,13,14,15,16,17,18,19,20,21,22,23,24,25,26,27,28,29,30,31,32,33,34,35,36,37,38,39,40,41,42,43,44,45,46,47,48,49,50,51,52,53,54,55],"tree_info":[0,0,0,0,0,0,0,0,0,0,0,0,0,0,0,0,0,0,0,0,0,0,0,0,0,0,0,0,0,0,0,0,0,0,0,0,0,0,0,0,0,0,0,0,0,0,0,0,0,0,0,0,0,0,0],"trees":[{"base_weights":[-0E0,-6.758475E-1,2.4614197E-1,-7.325E-1,-3.4210527E-1,-3.75E-2,2.49226E-2,-7.4226804E-2,-3.125E-1,-6.5625004E-2,-1.04166664E-1,1.25E-2,-5E-2,-3.5714287E-1,2.0833334E-2,1.6666668E-2,-6.0000002E-2],"categories":[],"categories_nodes":[],"categories_segments":[],"categories_sizes":[],"default_left":[0,0,0,0,0,0,0,0,0,0,0,0,0,0,0,0,0],"id":0,"left_children":[1,3,5,7,9,-1,-1,-1,11,-1,13,-1,-1,15,-1,-1,-1],"loss_changes":[7.3528656E1,1.9804764E0,7.1412086E-1,1.7829895E-1,1.3518364E0,0E0,0E0,0E0,3.90625E-1,0E0,1.0230654E0,0E0,0E0,9.904762E-1,0E0,0E0,0E0],"parents":[2147483647,0,0,1,1,2,2,3,3,4,4,8,8,10,10,13,13],"right_children":[2,4,6,8,10,-1,-1,-1,12,-1,14,-1,-1,16,-1,-1,-1],"split_conditions":[-7.8403693E-1,-9.5600325E-1,-2.023121E0,-9.105748E-1,-1.3000576E0,-2.6487291E-3,1.2158086E-1,-1.11005984E-1,-1.0076854E0,-1.2280488E-2,-9.7894704E-1,3.852707E-3,-1.7577952E-2,-1.6982087E0,1.9664855E-3,1.1076522E-2,-5.177067E-3],"split_indices":[26,26,18,22,28,0,0,0,1,0,6,0,0,15,0,0,0],"split_type":[0,0,0,0,0,0,0,0,0,0,0,0,0,0,0,0,0],"sum_hessian":[4.4E2,1.17E2,3.23E2,9.9E1,1.8E1,1E0,3.22E2,9.6E1,3E0,7E0,1.1E1,1E0,2E0,6E0,5E0,2E0,4E0],"tree_param":{"num_deleted":"0","num_feature":"31","num_nodes":"17","size_leaf_vector":"1"}},{"base_weights":[2.3094688E-3,-6.504237E-1,2.4604431E-1,-7.4157305E-2,-3.5833332E-1,-3.75E-2,2.4920635E-2,7.1428575E-2,-4.6875E-1,2.0833334E-2,-3.75E-2,-5.3409094E-1,1.6666668E-2,1.25E-2,-5.714286E-2],"categories":[],"categories_nodes":[],"categories_segments":[],"categories_sizes":[],"default_left":[0,0,0,0,0,0,0,0,0,0,0,0,0,0,0],"id":1,"left_children":[1,3,5,-1,7,-1,-1,9,11,-1,-1,13,-1,-1,-1],"loss_changes":[6.904765E1,2.875885E0,7.140045E-1,0E0,1.4570682E0,0E0,0E0,5.0595236E-1,1.085464E0,0E0,0E0,6.128249E-1,0E0,0E0,0E0],"parents":[2147483647,0,0,1,1,2,2,4,4,7,7,8,8,11,11],"right_children":[2,4,6,-1,8,-1,-1,10,12,-1,-1,14,-1,-1,-1],"split_conditions":[-7.608269E-1,-1.014781E0,-1.1796633E0,-1.0010605E-1,-6.8876296E-1,-2.383858E-3,1.1058662E-1,-7.509673E-1,-9.1307783E-1,1.0775536E-3,-4.3102144E-3,-1.0099742E0,3.6120415E-5,1.4688432E-3,-6.7753377E-3],"split_indices":[0,0,5,0,29,0,0,1,11,0,0,0,0,0,0],"split_type":[0,0,0,0,0,0,0,0,0,0,0,0,0,0,0],"sum_hessian":[4.32E2,1.17E2,3.15E2,8.8E1,2.9E1,1E0,3.14E2,6E0,2.3E1,5E0,1E0,2.1E1,2E0,1E0,2E1],"tree_param":{"num_deleted":"0","num_feature":"31","num_nodes":"15","size_leaf_vector":"1"}},{"base_weights":[2.5404157E-2,-6.894737E-1,2.2566372E-1,-7.303371E-1,-7.1428575E-2,-1.8421052E-1,2.492212E-2,-7.411765E-2,-4E-1,-5E-2,2.0000001E-2,7.692308E-2,-6.428572E-2,1.25E-2,-5.6250002E-2,-3.125E-1,2.2499999E-2,-5E-2,1.25E-2],"categories":[],"categories_nodes":[],"categories_segments":[],"categories_sizes":[],"default_left":[0,0,0,0,0,0,0,0,0,0,0,0,0,0,0,0,0,0,0],"id":2,"left_children":[1,3,5,7,9,11,-1,-1,13,-1,-1,15,-1,-1,-1,17,-1,-1,-1],"loss_changes":[6.2144356E1,2.3470955E0,3.3191566E0,2.2209167E-2,9.142857E-1,2.3250434E0,0E0,0E0,4.96875E-1,0E0,0E0,8.1995195E-1,0E0,0E0,0E0,3.90625E-1,0E0,0E0,0E0],"parents":[2147483647,0,0,1,1,2,2,3,3,4,4,5,5,8,8,11,11,15,15],"right_children":[2,4,6,8,10,12,-1,-1,14,-1,-1,16,-1,-1,-1,18,-1,-1,-1],"split_conditions":[-1.1031129E0,1.7370105E0,-8.38308E-1,-8.8580114E-1,-1.2511104E0,2.104704E-1,9.976875E-2,-8.845004E-2,-8.793922E-1,-1.1806768E-1,3.785521E-4,-1.0095644E0,-7.92054E-3,3.1765105E-4,-9.569752E-3,-9.6751505E-1,1.8146842E-3,-4.102224E-3,3.2508375E-5],"split_indices":[22,28,6,0,0,29,0,0,0,0,0,8,0,0,0,0,0,0,0],"split_type":[0,0,0,0,0,0,0,0,0,0,0,0,0,0,0,0,0,0,0],"sum_hessian":[4.32E2,9.4E1,3.38E2,8.8E1,6E0,1.8E1,3.2E2,8.4E1,4E0,2E0,4E0,1.2E1,6E0,1E0,3E0,3E0,9E0,2E0,1E0],"tree_param":{"num_deleted":"0","num_feature":"31","num_nodes":"19","size_leaf_vector":"1"}},{"base_weights":[1.0158014E-2,-6.838235E-1,2.1710527E-1,-7.2105265E-1,-1.5625E-1,-1.826923E-1,2.4921136E-2,-7.31383E-2,1.25E-2,-5.6250002E-2,2.0000001E-2,5.882353E-2,-5.75E-1,2.3076924E-2,-4E-1,1.25E-2,-6.666667E-2,1.25E-2,-5.6250002E-2],"categories":[],"categories_nodes":[],"categories_segments":[],"categories_sizes":[],"default_left":[0,0,0,0,0,0,0,0,0,0,0,0,0,0,0,0,0,0,0],"id":3,"left_children":[1,3,5,7,9,11,-1,-1,-1,-1,-1,13,15,-1,17,-1,-1,-1,-1],"loss_changes":[6.3771046E1,1.890728E0,4.435419E0,9.217262E-1,1.2703125E0,2.4972854E0,0E0,0E0,0E0,0E0,0E0,1.4334841E0,7.249999E-1,0E0,4.96875E-1,0E0,0E0,0E0,0E0],"parents":[2147483647,0,0,1,1,2,2,3,3,4,4,5,5,11,11,12,12,14,14],"right_children":[2,4,6,8,10,12,-1,-1,-1,-1,-1,14,16,-1,18,-1,-1,-1,-1],"split_conditions":[-9.7029597E-1,-8.4420866E-1,-7.8277844E-1,-5.728033E-1,-1.0379164E0,2.104704E-1,8.83471E-2,-8.096953E-2,5.713105E-4,-2.1252632E-2,3.9661824E-4,-9.878272E-1,-9.9328995E-1,3.06855E-3,-9.644992E-1,2.6830434E-4,-9.684685E-3,2.925992E-5,-9.41773E-3],"split_indices":[26,19,5,5,3,29,0,0,0,0,0,10,1,0,1,0,0,0,0],"split_type":[0,0,0,0,0,0,0,0,0,0,0,0,0,0,0,0,0,0,0],"sum_hessian":[4.42E2,1.01E2,3.41E2,9.4E1,7E0,2.5E1,3.16E2,9.3E1,1E0,3E0,4E0,1.6E1,9E0,1.2E1,4E0,1E0,8E0,1E0,3E0],"tree_param":{"num_deleted":"0","num_feature":"31","num_nodes":"19","size_leaf_vector":"1"}},{"base_weights":[2.4779735E-2,-7.2839504E-1,1.8783422E-1,-7.4050635E-2,-1.6666667E-1,-2.0588236E-1,2.4922838E-2,1.25E-2,-3.75E-2,8.928572E-2,-3.0921054E-1,2.2727273E-2,-3.125E-1,-3.75E-1,2.0000001E-2,-5E-2,1.25E-2,1.875E-2,-4.3548387E-2],"categories":[],"categories_nodes":[],"categories_segments":[],"categories_sizes":[],"default_left":[0,0,0,0,0,0,0,0,0,0,0,0,0,0,0,0,0,0,0],"id":4,"left_children":[1,3,5,-1,7,9,-1,-1,-1,11,13,-1,15,17,-1,-1,-1,-1,-1],"loss_changes":[5.589189E1,4.2764664E-1,9.091602E0,0E0,2.2916666E-1,1.5830662E0,0E0,0E0,0E0,8.471997E-1,1.348026E0,0E0,3.90625E-1,1.2384071E0,0E0,0E0,0E0,0E0,0E0],"parents":[2147483647,0,0,1,1,2,2,4,4,5,5,9,9,10,10,12,12,13,13],"right_children":[2,4,6,-1,8,10,-1,-1,-1,12,14,-1,16,18,-1,-1,-1,-1,-1],"split_conditions":[-1.275144E0,-1.2846369E0,-8.224646E-1,-7.4517995E-2,-1.3328243E0,-1.0076854E0,8.1258155E-2,7.724762E-6,-3.935933E-4,2.1588643E0,-4.990477E-1,3.7764758E-3,-1.2938432E0,-8.6858404E-1,9.722306E-3,-4.1623116E-2,2.923763E-3,2.3822547E-3,-6.547475E-3],"split_indices":[0,26,17,0,0,1,0,0,0,27,1,0,3,24,0,0,0,0,0],"split_type":[0,0,0,0,0,0,0,0,0,0,0,0,0,0,0,0,0,0,0],"sum_hessian":[4.53E2,8E1,3.73E2,7.8E1,2E0,5E1,3.23E2,1E0,1E0,1.3E1,3.7E1,1E1,3E0,3.3E1,4E0,2E0,1E0,3E0,3E1],"tree_param":{"num_deleted":"0","num_feature":"31","num_nodes":"19","size_leaf_vector":"1"}},{"base_weights":[1.6995614E-2,-6.3480395E-1,2.0422535E-1,-7.398649E-2,-3.448276E-1,-1.7763157E-1,2.4921384E-2,2.0000001E-2,-4.4E-1,2.2916667E-2,-3.5185185E-1,-5.625E-1,4.1666668E-2,-0E0,-5E-1,-6.527778E-2,1.6666668E-2,-3.75E-2,2.0000001E-2,-3.125E-2,2.0833334E-2,-6.40625E-2,1.875E-2],"categories":[],"categories_nodes":[],"categories_segments":[],"categories_sizes":[],"default_left":[0,0,0,0,0,0,0,0,0,0,0,0,0,0,0,0,0,0,0,0,0,0,0],"id":5,"left_children":[1,3,5,-1,7,9,-1,-1,11,-1,13,15,17,19,21,-1,-1,-1,-1,-1,-1,-1,-1],"loss_changes":[5.5778175E1,2.8523254E0,6.142871E0,0E0,1.5917242E0,2.7737875E0,0E0,0E0,1.4985414E0,0E0,1.4074075E0,1.4253473E0,4.7083333E-1,6.510416E-1,1.9570312E0,0E0,0E0,0E0,0E0,0E0,0E0,0E0,0E0],"parents":[2147483647,0,0,1,1,2,2,4,4,5,5,8,8,10,10,11,11,12,12,13,13,14,14],"right_children":[2,4,6,-1,8,10,-1,-1,12,-1,14,16,18,20,22,-1,-1,-1,-1,-1,-1,-1,-1],"split_conditions":[-9.8748803E-1,-1.5010589E0,-7.6845545E-1,-6.710633E-2,-1.9166229E0,-1.3741552E0,7.269088E-2,5.457252E-4,-8.5060567E-1,6.337762E-4,-7.828643E-2,2.4827664E0,-1.115315E0,-9.948385E-1,8.1242067E-1,-1.173304E-2,1.3654232E-4,-1.9940974E-3,3.2144517E-3,-1.6283615E-2,1.949802E-3,-7.821214E-3,1.4433683E-3],"split_indices":[26,0,8,0,16,10,0,0,11,0,29,28,7,6,29,0,0,0,0,0,0,0,0],"split_type":[0,0,0,0,0,0,0,0,0,0,0,0,0,0,0,0,0,0,0,0,0,0,0],"sum_hessian":[4.55E2,1.01E2,3.54E2,7.3E1,2.8E1,3.7E1,3.17E2,4E0,2.4E1,1.1E1,2.6E1,1.9E1,5E0,8E0,1.8E1,1.7E1,2E0,1E0,4E0,3E0,5E0,1.5E1,3E0],"tree_param":{"num_deleted":"0","num_feature":"31","num_nodes":"23","size_leaf_vector":"1"}},{"base_weights":[4.853273E-2,-7.266667E-1,2.0596206E-1,-7.398649E-2,1.25E-2,-5.6603774E-2,2.4921136E-2,7.317073E-2,-4.6153846E-1,2.3809524E-2,-9.52381E-2,1.875E-2,-6.75E-2,-4.4444446E-2,1.5384616E-2],"categories":[],"categories_nodes":[],"categories_segments":[],"categories_sizes":[],"default_left":[0,0,0,0,0,0,0,0,0,0,0,0,0,0,0],"id":6,"left_children":[1,3,5,-1,-1,7,-1,9,11,-1,13,-1,-1,-1,-1],"loss_changes":[5.4212994E1,9.355202E-1,4.2043915E0,0E0,0E0,2.8189318E0,0E0,1.1614401E0,1.9276443E0,0E0,1.894994E0,0E0,0E0,0E0,0E0],"parents":[2147483647,0,0,1,1,2,2,5,5,7,7,8,8,10,10],"right_children":[2,4,6,-1,-1,8,-1,10,12,-1,14,-1,-1,-1,-1],"split_conditions":[-1.4939377E0,-1.275144E0,-6.3722754E-1,-6.1519396E-2,2.6177408E-3,-8.30142E-1,6.5401725E-2,-1.0019637E0,-9.938582E-1,5.951837E-4,-1.593068E-1,3.713429E-4,-6.2282206E-3,-1.1365935E-2,4.3162258E-4],"split_indices":[26,0,5,0,0,1,0,4,7,0,30,0,0,0,0],"split_type":[0,0,0,0,0,0,0,0,0,0,0,0,0,0,0],"sum_hessian":[4.42E2,7.4E1,3.68E2,7.3E1,1E0,5.2E1,3.16E2,4E1,1.2E1,2E1,2E1,3E0,9E0,8E0,1.2E1],"tree_param":{"num_deleted":"0","num_feature":"31","num_nodes":"15","size_leaf_vector":"1"}},{"base_weights":[4.854911E-2,-6.2643677E-1,2.1063536E-1,-7.379033E-2,-3.3653846E-1,-1.0625E-1,2.49226E-2,2.0000001E-2,-4.431818E-1,6.896552E-2,-5.208333E-1,-5.125E-1,1.6666668E-2,1.9791667E-1,-4.5833334E-1,1.6666668E-2,-6.75E-2,-6.25E-3,-5.8823533E-2,2.3913044E-2,-3.75E-2,-6.0000002E-2,1.25E-2],"categories":[],"categories_nodes":[],"categories_segments":[],"categories_sizes":[],"default_left":[0,0,0,0,0,0,0,0,0,0,0,0,0,0,0,0,0,0,0,0,0,0,0],"id":7,"left_children":[1,3,5,-1,7,9,-1,-1,11,13,15,17,-1,19,21,-1,-1,-1,-1,-1,-1,-1,-1],"loss_changes":[4.914581E1,2.5629768E0,4.45331E0,0E0,1.5763109E0,2.941577E0,0E0,0E0,1.0154362E0,2.0625896E0,1.3843753E0,6.4485264E-1,0E0,6.563632E-1,5.708333E-1,0E0,0E0,0E0,0E0,0E0,0E0,0E0,0E0],"parents":[2147483647,0,0,1,1,2,2,4,4,5,5,8,8,9,9,10,10,11,11,13,13,14,14],"right_children":[2,4,6,-1,8,10,-1,-1,12,14,16,18,-1,20,22,-1,-1,-1,-1,-1,-1,-1,-1],"split_conditions":[-1.0055479E0,-1.5779662E0,-7.390372E-1,-5.793593E-2,-1.5043269E0,-8.129532E-1,6.0587246E-2,4.4627787E-4,-8.094215E-1,-8.895705E-1,-9.7329974E-1,-1.9206574E0,6.0030224E-4,-7.4856806E-1,-9.5790166E-1,3.342092E-4,-7.912639E-3,-2.4318695E-6,-6.1600716E-3,1.1352331E-3,-5.5846213E-3,-1.2808173E-2,3.422618E-4],"split_indices":[26,0,7,0,1,2,0,0,12,18,4,17,0,1,0,0,0,0,0,0,0,0,0],"split_type":[0,0,0,0,0,0,0,0,0,0,0,0,0,0,0,0,0,0,0,0,0,0,0],"sum_hessian":[4.47E2,8.6E1,3.61E2,6.1E1,2.5E1,3.9E1,3.22E2,4E0,2.1E1,2.8E1,1.1E1,1.9E1,2E0,2.3E1,5E0,2E0,9E0,3E0,1.6E1,2.2E1,1E0,4E0,1E0],"tree_param":{"num_deleted":"0","num_feature":"31","num_nodes":"23","size_leaf_vector":"1"}},{"base_weights":[4.811947E-2,-7.123288E-1,1.9407895E-1,-7.256944E-1,1.25E-2,-1.2946428E-1,2.4923077E-2,1.25E-2,-7.394367E-2,2.3611112E-2,-2.948718E-1,-3.75E-1,2.0833334E-2,1.875E-2,-4.3548387E-2],"categories":[],"categories_nodes":[],"categories_segments":[],"categories_sizes":[],"default_left":[0,0,0,0,0,0,0,0,0,0,0,0,0,0,0],"id":8,"left_children":[1,3,5,7,-1,9,-1,-1,-1,-1,11,13,-1,-1,-1],"loss_changes":[5.0307816E1,9.0768814E-1,6.8129864E0,9.3413925E-1,0E0,3.4558818E0,0E0,0E0,0E0,0E0,1.650641E0,1.2384071E0,0E0,0E0,0E0],"parents":[2147483647,0,0,1,1,2,2,3,3,5,5,10,10,11,11],"right_children":[2,4,6,8,-1,10,-1,-1,-1,-1,12,14,-1,-1,-1],"split_conditions":[-1.5461795E0,-1.0696425E0,-7.3611516E-1,-2.2351637E0,2.9719712E-3,-1.6382298E0,5.416733E-2,1.073122E-3,-4.865082E-2,6.072819E-4,9.7862095E-1,-7.742219E-2,2.7051033E-3,3.080368E-4,-5.281879E-3],"split_indices":[26,4,9,6,0,11,0,0,0,0,28,23,0,0,0],"split_type":[0,0,0,0,0,0,0,0,0,0,0,0,0,0,0],"sum_hessian":[4.51E2,7.2E1,3.79E2,7.1E1,1E0,5.5E1,3.24E2,1E0,7E1,1.7E1,3.8E1,3.3E1,5E0,3E0,3E1],"tree_param":{"num_deleted":"0","num_feature":"31","num_nodes":"15","size_leaf_vector":"1"}},{"base_weights":[3.0201342E-2,-7.398649E-2,1.8248664E-1,-1.6101696E-1,2.4604431E-1,1.875E-1,-3.3125E-1,-6.25E-2,2.4920128E-2,2.3684211E-2,-3.75E-2,-5.357143E-2,-4.6296296E-1,1.6666668E-2,-3.75E-2,-4.0000003E-2,1.25E-2,-5.1999997E-2,1.6666668E-2],"categories":[],"categories_nodes":[],"categories_segments":[],"categories_sizes":[],"default_left":[0,0,0,0,0,0,0,0,0,0,0,0,0,0,0,0,0,0,0],"id":9,"left_children":[1,-1,3,5,7,9,11,13,-1,-1,-1,15,17,-1,-1,-1,-1,-1,-1],"loss_changes":[5.2554596E1,0E0,8.204892E0,3.5625262E0,3.2338142E-1,6.4391446E-1,1.4381533E0,3.4895834E-1,0E0,0E0,0E0,9.160714E-1,1.0562968E0,0E0,0E0,0E0,0E0,0E0,0E0],"parents":[2147483647,0,0,2,2,3,3,4,4,5,5,6,6,7,7,11,11,12,12],"right_children":[2,-1,4,6,8,10,12,14,-1,-1,-1,16,18,-1,-1,-1,-1,-1,-1],"split_conditions":[-1.5611427E0,-4.4708777E-2,-8.128713E-1,-1.5725789E0,-8.806555E-1,-1.6934723E0,1.5208635E-1,-8.281207E-1,4.788775E-2,7.519379E-4,-6.085396E-3,-9.948385E-1,-6.526653E-1,1.5337765E-3,-3.0116916E-3,-3.638123E-3,1.6324222E-4,-6.0440633E-3,1.068461E-3],"split_indices":[0,0,10,13,11,17,23,0,0,0,0,6,17,0,0,0,0,0,0],"split_type":[0,0,0,0,0,0,0,0,0,0,0,0,0,0,0,0,0,0,0],"sum_hessian":[4.46E2,7.3E1,3.73E2,5.8E1,3.15E2,1.9E1,3.9E1,3E0,3.12E2,1.8E1,1E0,1.3E1,2.6E1,2E0,1E0,4E0,9E0,2.4E1,2E0],"tree_param":{"num_deleted":"0","num_feature":"31","num_nodes":"19","size_leaf_vector":"1"}},{"base_weights":[2.6746726E-2,-5.9345794E-1,2.1519886E-1,-7.392857E-2,-3.0921054E-1,-1E-1,2.4921384E-2,-6.5789473E-1,3.75E-2,8.333334E-3,-6.25E-2,1.25E-2,-7.083333E-2,2.3333333E-2,-4.5833334E-1,6.25E-2,-5E-2,-1.6666668E-2,-5.6250002E-2,1.5217391E-2,-2.9166667E-2],"categories":[],"categories_nodes":[],"categories_segments":[],"categories_sizes":[],"default_left":[0,0,0,0,0,0,0,0,0,0,0,0,0,0,0,0,0,0,0,0,0],"id":10,"left_children":[1,3,5,-1,7,9,-1,11,13,15,-1,-1,-1,-1,17,19,-1,-1,-1,-1,-1],"loss_changes":[5.3658245E1,4.206684E0,3.7988834E0,0E0,4.6185856E0,1.9958333E0,0E0,8.388157E-1,2.0489583E0,8.5729164E-1,0E0,0E0,0E0,0E0,8.8541746E-2,9.336504E-1,0E0,0E0,0E0,0E0,0E0],"parents":[2147483647,0,0,1,1,2,2,4,4,5,5,7,7,8,8,9,9,14,14,15,15],"right_children":[2,4,6,-1,8,10,-1,12,14,16,-1,-1,-1,-1,18,20,-1,-1,-1,-1,-1],"split_conditions":[-9.8748803E-1,-1.7081014E0,-7.653719E-1,-4.0237904E-2,2.2557376E-1,-5.782288E-1,4.245686E-2,-1.2704203E0,-1.1218457E0,-8.649144E-1,-8.837049E-3,3.8484694E-3,-6.8653463E-3,4.7450364E-4,-1.1240226E0,-8.6049396E-1,-1.1105246E-2,-5.3565027E-3,-5.9596957E-3,2.7809144E-4,-5.729485E-3],"split_indices":[26,26,10,0,20,2,0,23,11,17,0,0,0,0,3,7,0,0,0,0,0],"split_type":[0,0,0,0,0,0,0,0,0,0,0,0,0,0,0,0,0,0,0,0,0],"sum_hessian":[4.57E2,1.06E2,3.51E2,6.9E1,3.7E1,3.4E1,3.17E2,1.8E1,1.9E1,2.9E1,5E0,1E0,1.7E1,1.4E1,5E0,2.7E1,2E0,2E0,3E0,2.2E1,5E0],"tree_param":{"num_deleted":"0","num_feature":"31","num_nodes":"21","size_leaf_vector":"1"}},{"base_weights":[5.319149E-2,-6.628788E-1,1.8505587E-1,-6.904762E-1,-6.25E-2,-1.04166664E-1,2.4247491E-1,-2.8125E-1,-7.366072E-2,1.6666668E-2,-3.75E-2,2.3958333E-2,-3.243243E-1,7.692308E-2,2.4912892E-2,1.6666668E-2,-4.5833334E-1,-5.625E-1,-4.1666668E-2,2.2727273E-2,-5E-2,-6.0000002E-2,1.25E-2,1.6666668E-2,-6.527778E-2,2.1875E-2,-2.2727273E-2],"categories":[],"categories_nodes":[],"categories_segments":[],"categories_sizes":[],"default_left":[0,0,0,0,0,0,0,0,0,0,0,0,0,0,0,0,0,0,0,0,0,0,0,0,0,0,0],"id":11,"left_children":[1,3,5,7,9,11,13,15,-1,-1,-1,-1,17,19,-1,-1,21,23,25,-1,-1,-1,-1,-1,-1,-1,-1],"loss_changes":[4.006409E1,1.050394E0,5.970521E0,9.821415E-1,3.4895834E-1,4.6184545E0,3.1020927E-1,7.109375E-1,0E0,0E0,0E0,0E0,2.467483E0,1.2412586E0,0E0,0E0,5.708333E-1,1.4253473E0,9.197443E-1,0E0,0E0,0E0,0E0,0E0,0E0,0E0,0E0],"parents":[2147483647,0,0,1,1,2,2,3,3,4,4,5,5,6,6,7,7,12,12,13,13,16,16,17,17,18,18],"right_children":[2,4,6,8,10,12,14,16,-1,-1,-1,-1,18,20,-1,-1,22,24,26,-1,-1,-1,-1,-1,-1,-1,-1],"split_conditions":[-1.6275743E0,2.2357662E0,-8.214723E-1,-2.000966E0,-1.1621865E0,-1.3791231E0,4.797774E-2,-1.9824902E0,-3.5652258E-2,3.2317282E-3,-2.6439989E-2,4.176259E-4,9.322918E-2,5.0370544E-2,4.1702684E-2,2.1523833E-3,-1.5394316E0,-6.761581E-2,-9.837293E-1,2.2902717E-3,-2.6033954E-3,-3.1759422E-2,2.633977E-3,1.4965773E-3,-7.409297E-3,8.9759234E-4,-4.5727524E-3],"split_indices":[26,30,16,8,0,22,1,6,0,0,0,0,30,3,0,0,13,23,14,0,0,0,0,0,0,0,0],"split_type":[0,0,0,0,0,0,0,0,0,0,0,0,0,0,0,0,0,0,0,0,0,0,0,0,0,0,0],"sum_hessian":[4.22E2,6.5E1,3.57E2,6.2E1,3E0,5.9E1,2.98E2,7E0,5.5E1,2E0,1E0,2.3E1,3.6E1,1.2E1,2.86E2,2E0,5E0,1.9E1,1.7E1,1E1,2E0,4E0,1E0,2E0,1.7E1,7E0,1E1],"tree_param":{"num_deleted":"0","num_feature":"31","num_nodes":"27","size_leaf_vector":"1"}},{"base_weights":[5.530474E-2,-6.492537E-1,1.8037136E-1,-6.895161E-1,-1.25E-1,-7.8125E-2,2.4916109E-2,1.25E-2,-7.04918E-1,1.875E-2,-5E-2,-2.3369566E-1,1.2857144E-1,-7.363637E-2,-3.5714287E-1,-7.03125E-2,-5.6666666E-1,1.8181819E-1,-5E-2,-6.0000002E-2,1.6666668E-2,2.3076924E-2,-2.625E-2,-6.875E-2,-6.25E-3,2.3958333E-2,2.5000002E-3],"categories":[],"categories_nodes":[],"categories_segments":[],"categories_sizes":[],"default_left":[0,0,0,0,0,0,0,0,0,0,0,0,0,0,0,0,0,0,0,0,0,0,0,0,0,0,0],"id":12,"left_children":[1,3,5,7,9,11,-1,-1,13,-1,-1,15,17,-1,19,21,23,25,-1,-1,-1,-1,-1,-1,-1,-1,-1],"loss_changes":[3.9152824E1,1.3280277E0,6.723239E0,8.659115E-1,7.96875E-1,2.6025186E0,0E0,0E0,4.0410805E-1,0E0,0E0,2.4626415E0,1.2623377E0,0E0,9.904762E-1,1.9122295E0,8.708334E-1,2.9294503E-1,0E0,0E0,0E0,0E0,0E0,0E0,0E0,0E0,0E0],"parents":[2147483647,0,0,1,1,2,2,3,3,4,4,5,5,8,8,11,11,12,12,14,14,15,15,16,16,17,17],"right_children":[2,4,6,8,10,12,-1,-1,14,-1,-1,16,18,-1,20,22,24,26,-1,-1,-1,-1,-1,-1,-1,-1,-1],"split_conditions":[-1.6275743E0,2.399376E0,1.284129E-1,-2.0563853E0,-1.2428104E0,9.322918E-2,3.753242E-2,2.9225708E-3,1.1985291E0,5.927086E-4,-2.3795987E-2,-8.084819E-1,1.6753066E0,-3.052187E-2,-1.9881381E0,-8.7724596E-1,-1.0779236E-1,-8.38308E-1,-4.8706057E-3,-5.89777E-2,1.9371391E-3,3.9103627E-4,-3.3427537E-3,-6.500882E-3,-2.2274137E-3,3.6826133E-4,-2.2762984E-3],"split_indices":[26,27,0,6,1,30,0,0,28,0,0,4,30,0,0,28,30,6,0,0,0,0,0,0,0,0,0],"split_type":[0,0,0,0,0,0,0,0,0,0,0,0,0,0,0,0,0,0,0,0,0,0,0,0,0,0,0],"sum_hessian":[4.42E2,6.6E1,3.76E2,6.1E1,5E0,7.9E1,2.97E2,1E0,6E1,3E0,2E0,4.5E1,3.4E1,5.4E1,6E0,3.1E1,1.4E1,3.2E1,2E0,4E0,2E0,1.2E1,1.9E1,1.1E1,3E0,2.3E1,9E0],"tree_param":{"num_deleted":"0","num_feature":"31","num_nodes":"27","size_leaf_vector":"1"}},{"base_weights":[5.9164733E-2,-6.231884E-1,1.8870524E-1,-7.033898E-1,-1.3636364E-1,-5.0675675E-2,2.4913793E-2,1.25E-2,-7.198276E-1,2.0833334E-2,-4.5833334E-1,8.82353E-2,-3.4375E-1,-7.366072E-2,-1.6666667E-1,-6.0000002E-2,1.25E-2,1.4880952E-1,-1.75E-1,-6.818182E-2,-5.357143E-2,-3.75E-2,1.25E-2,-1.1111111E-2,2.132353E-2,-6.0000002E-2,2.0833334E-2,1.3636365E-2,-5.6250002E-2],"categories":[],"categories_nodes":[],"categories_segments":[],"categories_sizes":[],"default_left":[0,0,0,0,0,0,0,0,0,0,0,0,0,0,0,0,0,0,0,0,0,0,0,0,0,0,0,0,0],"id":13,"left_children":[1,3,5,7,9,11,-1,-1,13,-1,15,17,19,-1,21,-1,-1,23,25,-1,27,-1,-1,-1,-1,-1,-1,-1,-1],"loss_changes":[3.821471E1,2.5981216E0,5.26394E0,8.933735E-1,1.3162878E0,3.0429626E0,0E0,0E0,4.1557693E-1,0E0,5.708333E-1,8.392507E-1,2.3178778E0,0E0,2.2916666E-1,0E0,0E0,7.270075E-1,1.7541667E0,0E0,1.429992E0,0E0,0E0,0E0,0E0,0E0,0E0,0E0,0E0],"parents":[2147483647,0,0,1,1,2,2,3,3,4,4,5,5,8,8,10,10,11,11,12,12,14,14,17,17,18,18,20,20],"right_children":[2,4,6,8,10,12,-1,-1,14,-1,16,18,20,-1,22,-1,-1,24,26,-1,28,-1,-1,-1,-1,-1,-1,-1,-1],"split_conditions":[-1.6275743E0,1.2550178E0,1.4042966E-1,-2.0563853E0,-1.9650096E0,-8.38308E-1,3.401997E-2,2.6303174E-3,1.338126E0,4.4715405E-4,-1.2938432E0,-9.421408E-1,-7.986215E-1,-2.9998029E-2,-2.2605178E0,-1.8992534E-2,2.8492808E-3,-5.6031585E-1,-9.01851E-1,-6.013491E-3,4.6441633E-1,-4.9233247E-2,2.176869E-3,-3.3645914E-3,3.44193E-4,-3.465627E-3,2.1733045E-4,5.7094544E-4,-3.5438822E-3],"split_indices":[26,30,0,6,6,6,0,0,28,0,3,12,10,0,0,0,0,27,12,0,7,0,0,0,0,0,0,0,0],"split_type":[0,0,0,0,0,0,0,0,0,0,0,0,0,0,0,0,0,0,0,0,0,0,0,0,0,0,0,0,0],"sum_hessian":[4.3E2,6.8E1,3.62E2,5.8E1,1E1,7.3E1,2.89E2,1E0,5.7E1,5E0,5E0,5E1,2.3E1,5.5E1,2E0,4E0,1E0,4.1E1,9E0,1E1,1.3E1,1E0,1E0,8E0,3.3E1,4E0,5E0,1E1,3E0],"tree_param":{"num_deleted":"0","num_feature":"31","num_nodes":"29","size_leaf_vector":"1"}},{"base_weights":[4.895105E-2,-6.3013697E-1,1.8767507E-1,-7.076923E-1,-0E0,-7.720588E-2,2.4913793E-2,-1.6666667E-1,-7.222222E-1,2.0833334E-2,-3.125E-1,1.5151516E-1,-2.847222E-1,-3.75E-2,1.25E-2,-4E-1,-7.3728815E-2,-5E-2,1.25E-2,2.4038462E-2,-1.5625E-1,-4.017857E-1,1.1111111E-1,-5.6250002E-2,1.25E-2,2.0000001E-2,-5.6250002E-2,-7.692308E-3,-6.40625E-2,-3.75E-2,2.1875E-2],"categories":[],"categories_nodes":[],"categories_segments":[],"categories_sizes":[],"default_left":[0,0,0,0,0,0,0,0,0,0,0,0,0,0,0,0,0,0,0,0,0,0,0,0,0,0,0,0,0,0,0],"id":14,"left_children":[1,3,5,7,9,11,-1,13,15,-1,17,19,21,-1,-1,23,-1,-1,-1,-1,25,27,29,-1,-1,-1,-1,-1,-1,-1,-1],"loss_changes":[4.053256E1,3.567543E0,5.831317E0,3.905983E-1,6.510416E-1,3.2706475E0,0E0,2.2916666E-1,1.0921478E-2,0E0,3.90625E-1,9.401406E-1,1.7127976E0,0E0,0E0,4.96875E-1,0E0,0E0,0E0,0E0,1.2703125E0,2.12324E0,5.529514E-1,0E0,0E0,0E0,0E0,0E0,0E0,0E0,0E0],"parents":[2147483647,0,0,1,1,2,2,3,3,4,4,5,5,7,7,8,8,10,10,11,11,12,12,15,15,20,20,21,21,22,22],"right_children":[2,4,6,8,10,12,-1,14,16,-1,18,20,22,-1,-1,24,-1,-1,-1,-1,26,28,30,-1,-1,-1,-1,-1,-1,-1,-1],"split_conditions":[-1.6275743E0,1.387519E0,1.4042966E-1,-2.1974516E0,-1.9570639E0,-9.9782735E-1,3.0939031E-2,-1.8887995E0,-2.0306065E0,4.0243866E-4,-1.5611427E0,6.8546355E-1,8.0623895E-1,-2.7009248E-4,1.6562581E-3,-1.6333491E0,-2.7952362E-2,-9.491384E-3,2.5643588E-3,2.963543E-4,-1.8190366E0,-8.967083E-1,-1.2511104E0,-2.9887736E-2,1.959181E-3,5.518392E-4,-6.9373967E-3,-1.9217174E-3,-4.7177197E-3,-3.782189E-3,1.2913704E-3],"split_indices":[26,27,0,19,6,7,0,0,7,0,0,29,30,0,0,13,0,0,0,0,12,30,0,0,0,0,0,0,0,0,0],"split_type":[0,0,0,0,0,0,0,0,0,0,0,0,0,0,0,0,0,0,0,0,0,0,0,0,0,0,0,0,0,0,0],"sum_hessian":[4.28E2,7.2E1,3.56E2,6.4E1,8E0,6.7E1,2.89E2,2E0,6.2E1,5E0,3E0,3.2E1,3.5E1,1E0,1E0,4E0,5.8E1,2E0,1E0,2.5E1,7E0,2.7E1,8E0,3E0,1E0,4E0,3E0,1.2E1,1.5E1,1E0,7E0],"tree_param":{"num_deleted":"0","num_feature":"31","num_nodes":"31","size_leaf_vector":"1"}},{"base_weights":[6.25E-2,-6.006944E-1,1.9034852E-1,-7.0258623E-1,-1.6666667E-1,-3.5256412E-2,2.491554E-2,1.25E-2,-7.1929824E-1,2.1875E-2,-5.3125E-1,1.4285715E-1,-3.25E-1,1.25E-2,-7.366072E-2,-6.428572E-2,1.25E-2,1.6145833E-1,-3.75E-2,-6.25E-1,-5.882353E-2,2.1710528E-2,-4.545455E-3,-6.923077E-2,1.25E-2,2.2727273E-2,-5E-2],"categories":[],"categories_nodes":[],"categories_segments":[],"categories_sizes":[],"default_left":[0,0,0,0,0,0,0,0,0,0,0,0,0,0,0,0,0,0,0,0,0,0,0,0,0,0,0],"id":15,"left_children":[1,3,5,7,9,11,-1,-1,13,-1,15,17,19,-1,-1,-1,-1,21,-1,23,25,-1,-1,-1,-1,-1,-1],"loss_changes":[3.7760406E1,3.0670204E0,4.9574203E0,8.9208984E-1,2.2239583E0,4.0717945E0,0E0,0E0,9.25066E-1,0E0,6.662946E-1,5.325521E-1,2.3588235E0,0E0,0E0,0E0,0E0,5.625435E-1,0E0,7.9326916E-1,2.2593582E0,0E0,0E0,0E0,0E0,0E0,0E0],"parents":[2147483647,0,0,1,1,2,2,3,3,4,4,5,5,8,8,10,10,11,11,12,12,17,17,19,19,20,20],"right_children":[2,4,6,8,10,12,-1,-1,14,-1,16,18,20,-1,-1,-1,-1,22,-1,24,26,-1,-1,-1,-1,-1,-1],"split_conditions":[-1.6275743E0,-1.7582175E0,1.7433137E-1,-2.0563853E0,-1.7985213E0,-8.38308E-1,3.1778093E-2,5.1625133E-3,-2.0306065E0,8.13365E-4,-1.1846159E0,-5.782288E-1,-6.0470414E-1,1.7632603E-3,-2.6610924E-2,-1.616378E-2,2.3079277E-3,-9.049094E-1,-6.2436583E-3,-7.416222E-1,3.929712E-1,5.662352E-4,-1.760155E-3,-5.057305E-3,9.5400814E-4,3.342675E-3,-3.85496E-3],"split_indices":[26,0,26,6,3,6,0,0,7,0,3,2,6,0,0,0,0,9,0,10,7,0,0,0,0,0,0],"split_type":[0,0,0,0,0,0,0,0,0,0,0,0,0,0,0,0,0,0,0,0,0,0,0,0,0,0,0],"sum_hessian":[4.43E2,7.1E1,3.72E2,5.7E1,1.4E1,7.7E1,2.95E2,1E0,5.6E1,7E0,7E0,4.8E1,2.9E1,1E0,5.5E1,6E0,1E0,4.7E1,1E0,1.3E1,1.6E1,3.7E1,1E1,1.2E1,1E0,1E1,6E0],"tree_param":{"num_deleted":"0","num_feature":"31","num_nodes":"27","size_leaf_vector":"1"}},{"base_weights":[6.997608E-2,-6.5686274E-1,1.705163E-1,-6.938776E-1,1.6666668E-2,-4.1237112E-2,2.454044E-1,1.25E-2,-7.135417E-2,-1.8534483E-1,1.6875E-1,1.1111111E-1,2.4905303E-2,-4.861111E-1,-4.8780486E-2,-7.1428575E-2,2.1323529E-1,-3.75E-2,2.1875E-2,-5.666667E-2,-6.25E-3,2.3214286E-2,-1.875E-2,2.0000001E-2,-5E-2,2.4218751E-2,-1.6666668E-2],"categories":[],"categories_nodes":[],"categories_segments":[],"categories_sizes":[],"default_left":[0,0,0,0,0,0,0,0,0,0,0,0,0,0,0,0,0,0,0,0,0,0,0,0,0,0,0],"id":16,"left_children":[1,3,5,7,-1,9,11,-1,-1,13,15,17,-1,19,21,23,25,-1,-1,-1,-1,-1,-1,-1,-1,-1,-1],"loss_changes":[3.0657999E1,1.670269E0,5.8457947E0,8.782158E-1,0E0,2.9665709E0,1.05602264E-1,0E0,0E0,2.3585763E0,4.4260764E-1,5.529514E-1,0E0,5.788193E-1,1.6412783E0,9.142857E-1,4.143306E-1,0E0,0E0,0E0,0E0,0E0,0E0,0E0,0E0,0E0,0E0],"parents":[2147483647,0,0,1,1,2,2,3,3,5,5,6,6,9,9,10,10,11,11,13,13,14,14,15,15,16,16],"right_children":[2,4,6,8,-1,10,12,-1,-1,14,16,18,-1,20,22,24,26,-1,-1,-1,-1,-1,-1,-1,-1,-1,-1],"split_conditions":[-1.78836E0,1.7642598E0,2.0914009E-1,-2.0536277E0,3.6714078E-4,2.0134066E-1,-1.5612624E0,3.048408E-3,-2.1220839E-2,-5.6031585E-1,-7.3384833E-1,2.589945E-1,2.8680548E-2,4.8623592E-1,-5.555663E-1,-8.637313E-1,2.1462743E0,-1.900278E-3,8.694655E-3,-4.833046E-3,-4.8131123E-4,2.2742152E-4,-2.3599148E-3,6.879166E-4,-3.7402213E-3,8.720338E-4,-3.0999721E-3],"split_indices":[26,20,26,7,0,30,27,0,0,27,24,6,0,10,30,1,23,0,0,0,0,0,0,0,0,0,0],"split_type":[0,0,0,0,0,0,0,0,0,0,0,0,0,0,0,0,0,0,0,0,0,0,0,0,0,0,0],"sum_hessian":[4.17E2,5E1,3.67E2,4.8E1,2E0,9.6E1,2.71E2,1E0,4.7E1,5.7E1,3.9E1,8E0,2.63E2,1.7E1,4E1,6E0,3.3E1,1E0,7E0,1.4E1,3E0,1.3E1,2.7E1,4E0,2E0,3.1E1,2E0],"tree_param":{"num_deleted":"0","num_feature":"31","num_nodes":"27","size_leaf_vector":"1"}},{"base_weights":[5.9164733E-2,-5.362319E-1,1.721763E-1,-1E-1,-6.454545E-1,-2.4271844E-2,2.4904214E-2,-4.5833334E-1,1.25E-1,-7.3214285E-2,-3.392857E-1,-6.428572E-2,2.0618556E-2,-6.0000002E-2,1.25E-2,-3.75E-2,2.2222223E-2,-6.428572E-2,-3.125E-2,2.3863636E-2,-4.276316E-2,-5E-2,2.0833334E-2,1.1029412E-3,-4.4444446E-2],"categories":[],"categories_nodes":[],"categories_segments":[],"categories_sizes":[],"default_left":[0,0,0,0,0,0,0,0,0,0,0,0,0,0,0,0,0,0,0,0,0,0,0,0,0],"id":17,"left_children":[1,3,5,7,9,11,-1,13,15,-1,17,-1,19,-1,-1,-1,-1,-1,21,-1,23,-1,-1,-1,-1],"loss_changes":[2.90929E1,3.2230568E0,5.487401E0,1.2666667E0,1.2113628E0,2.8734145E0,0E0,5.708333E-1,5.694444E-1,0E0,1.2890624E0,0E0,1.350584E0,0E0,0E0,0E0,0E0,0E0,1.0026041E0,0E0,1.6470696E0,0E0,0E0,0E0,0E0],"parents":[2147483647,0,0,1,1,2,2,3,3,4,4,5,5,7,7,8,8,10,10,12,12,18,18,20,20],"right_children":[2,4,6,8,10,12,-1,14,16,-1,18,-1,20,-1,-1,-1,-1,-1,22,-1,24,-1,-1,-1,-1],"split_conditions":[-1.6275743E0,-1.9570639E0,2.8229582E-1,-6.168555E-1,-1.8740005E0,-1.4850324E0,2.6414478E-2,-1.7582175E0,-1.9240487E0,-2.4396216E-2,-4.1157225E-1,-3.5230757E-3,-5.0403875E-1,-8.008453E-3,1.0744929E-3,-4.08926E-3,1.4620036E-3,-1.616239E-2,-2.0279322E0,1.5542678E-3,3.4498104E-1,-3.2880188E-3,1.5389323E-3,3.1721593E-5,-2.4325612E-3],"split_indices":[26,6,26,28,26,20,0,0,0,0,27,0,23,0,0,0,0,0,8,0,19,0,0,0,0],"split_type":[0,0,0,0,0,0,0,0,0,0,0,0,0,0,0,0,0,0,0,0,0,0,0,0,0],"sum_hessian":[4.3E2,6.8E1,3.62E2,1.4E1,5.4E1,1.02E2,2.6E2,5E0,9E0,4.1E1,1.3E1,6E0,9.6E1,4E0,1E0,1E0,8E0,6E0,7E0,2.1E1,7.5E1,2E0,5E0,6.7E1,8E0],"tree_param":{"num_deleted":"0","num_feature":"31","num_nodes":"25","size_leaf_vector":"1"}},{"base_weights":[6.904232E-2,-7.093023E-1,1.5110566E-1,-1.6666667E-1,-7.317074E-2,-5.6E-2,2.4204947E-1,-3.75E-2,1.25E-2,-6.25E-2,-2.7083334E-2,-1.6666667E-1,2.455516E-1,2.1929825E-3,-5E-1,-3.75E-2,1.25E-2,9.375E-2,2.4908759E-2,-4.0625002E-2,3.2710282E-3,-6.25E-2,1.25E-2,-3.75E-2,2.1428572E-2],"categories":[],"categories_nodes":[],"categories_segments":[],"categories_sizes":[],"default_left":[0,0,0,0,0,0,0,0,0,0,0,0,0,0,0,0,0,0,0,0,0,0,0,0,0],"id":18,"left_children":[1,3,5,7,-1,9,11,-1,-1,-1,13,15,17,19,21,-1,-1,23,-1,-1,-1,-1,-1,-1,-1],"loss_changes":[2.8786406E1,4.0083313E-1,7.679392E0,2.2916666E-1,0E0,2.0397708E0,4.4600487E-1,0E0,0E0,0E0,1.6625274E0,2.2916666E-1,1.2748146E-1,1.4342502E0,6.25E-1,0E0,0E0,5.3236604E-1,0E0,0E0,0E0,0E0,0E0,0E0,0E0],"parents":[2147483647,0,0,1,1,2,2,3,3,5,5,6,6,10,10,11,11,12,12,13,13,14,14,17,17],"right_children":[2,4,6,8,-1,10,12,-1,-1,-1,14,16,18,20,22,-1,-1,24,-1,-1,-1,-1,-1,-1,-1],"split_conditions":[-1.8802614E0,-2.0063274E0,2.3976816E-1,-1.9352643E0,-2.0050311E-2,-1.9144353E0,1.508278E-1,-1.901089E-2,3.5502077E-3,-1.6077686E-2,3.3021575E-1,3.174765E-1,-9.9550444E-1,-1.9228215E0,3.5028127E-1,-6.675512E-4,3.2562006E-2,2.8062513E-1,2.4736209E-2,-2.7936937E-3,2.0154864E-4,-3.7241976E-3,4.7079967E-3,-1.1737183E-3,7.728948E-2],"split_indices":[26,6,0,0,0,0,3,0,0,0,3,0,24,14,1,0,0,0,0,0,0,0,0,0,0],"split_type":[0,0,0,0,0,0,0,0,0,0,0,0,0,0,0,0,0,0,0,0,0,0,0,0,0],"sum_hessian":[4.48E2,4.2E1,4.06E2,2E0,4E1,1.24E2,2.82E2,1E0,1E0,5E0,1.19E2,2E0,2.8E2,1.13E2,6E0,1E0,1E0,7E0,2.73E2,7E0,1.06E2,5E0,1E0,1E0,6E0],"tree_param":{"num_deleted":"0","num_feature":"31","num_nodes":"25","size_leaf_vector":"1"}},{"base_weights":[7.363014E-2,-6.8604654E-1,1.5593435E-1,1.25E-2,-7.083333E-1,-3.875969E-2,2.4906715E-2,-1.6666667E-1,-7.3125E-2,-4.6153846E-1,8.547009E-3,-3.75E-2,1.25E-2,-6.75E-2,1.875E-2,6.377551E-2,-2.625E-1,-1.8421052E-2,1.21875005E-2,2.1875E-2,-5.3846158E-2],"categories":[],"categories_nodes":[],"categories_segments":[],"categories_sizes":[],"default_left":[0,0,0,0,0,0,0,0,0,0,0,0,0,0,0,0,0,0,0,0,0],"id":19,"left_children":[1,3,5,-1,7,9,-1,11,-1,13,15,-1,-1,-1,-1,17,19,-1,-1,-1,-1],"loss_changes":[2.7492744E1,8.657932E-1,7.1900854E0,0E0,3.9948082E-1,2.5839794E0,0E0,2.2916666E-1,0E0,1.9276443E0,1.7681749E0,0E0,0E0,0E0,0E0,1.4344211E0,2.7739184E0,0E0,0E0,0E0,0E0],"parents":[2147483647,0,0,1,1,2,2,4,4,5,5,7,7,9,9,10,10,15,15,16,16],"right_children":[2,4,6,-1,8,10,-1,12,-1,14,16,-1,-1,-1,-1,18,20,-1,-1,-1,-1],"split_conditions":[-1.8744777E0,-2.0454793E0,2.8229582E-1,1.0405779E-3,-2.0063274E0,-1.2672156E0,2.286457E-2,-1.9352643E0,-2.0272637E-2,6.5090656E-1,1.9634799E0,-1.71098E-2,3.1951906E-3,-4.137671E-3,7.6150894E-4,-5.3726673E-1,-5.1345015E-1,-3.2163083E-3,2.946377E-4,4.294455E-4,-4.5737117E-3],"split_indices":[26,10,26,0,6,27,0,0,0,28,24,0,0,0,0,24,29,0,0,0,0],"split_type":[0,0,0,0,0,0,0,0,0,0,0,0,0,0,0,0,0,0,0,0,0],"sum_hessian":[4.37E2,4.2E1,3.95E2,1E0,4.1E1,1.28E2,2.67E2,2E0,3.9E1,1.2E1,1.16E2,1E0,1E0,9E0,3E0,9.7E1,1.9E1,1.8E1,7.9E1,7E0,1.2E1],"tree_param":{"num_deleted":"0","num_feature":"31","num_nodes":"21","size_leaf_vector":"1"}},{"base_weights":[6.884876E-2,-6.0096157E-1,1.5752551E-1,-7.5E-2,-7.093023E-1,-2.6717557E-2,2.490458E-2,-4E-1,2.0833334E-2,-7.3214285E-2,1.25E-2,4.054054E-2,-3.809524E-1,1.25E-2,-5.6250002E-2,-4.5833334E-1,6.8396226E-2,-5.535714E-1,-3.125E-2,1.25E-2,-6.0000002E-2,2.4137931E-2,3.2051283E-4,1.25E-2,-6.1538465E-2,-5E-2,2.0833334E-2],"categories":[],"categories_nodes":[],"categories_segments":[],"categories_sizes":[],"default_left":[0,0,0,0,0,0,0,0,0,0,0,0,0,0,0,0,0,0,0,0,0,0,0,0,0,0,0],"id":20,"left_children":[1,3,5,7,9,11,-1,13,-1,-1,-1,15,17,-1,-1,19,21,23,25,-1,-1,-1,-1,-1,-1,-1,-1],"loss_changes":[2.640736E1,2.9099216E0,6.6165495E0,1.0041667E0,9.10923E-1,3.1365402E0,0E0,4.96875E-1,0E0,0E0,0E0,1.5738568E0,1.2503722E0,0E0,0E0,5.708333E-1,1.1945839E0,6.6414833E-1,1.0026041E0,0E0,0E0,0E0,0E0,0E0,0E0,0E0,0E0],"parents":[2147483647,0,0,1,1,2,2,3,3,4,4,5,5,7,7,11,11,12,12,15,15,16,16,17,17,18,18],"right_children":[2,4,6,8,10,12,-1,14,-1,-1,-1,16,18,-1,-1,20,22,24,26,-1,-1,-1,-1,-1,-1,-1,-1],"split_conditions":[-1.7918644E0,-9.486946E-1,2.8222737E-1,-2.057034E0,9.3574876E-1,3.3788428E-1,2.1902481E-2,-2.0345576E0,5.1437615E-4,-1.730441E-2,3.5195352E-4,-2.0007932E0,2.1361743E-1,1.3392091E-3,-4.2324748E-2,-7.28697E-1,-1.7107667E0,1.5642808E-1,1.7771733E-1,2.0911694E-4,-3.493714E-2,7.163972E-4,7.070452E-5,3.242027E-6,-2.2398846E-3,-9.755731E-4,1.0659315E-3],"split_indices":[0,29,0,0,27,5,0,1,0,0,0,20,28,0,0,29,17,14,14,0,0,0,0,0,0,0,0],"split_type":[0,0,0,0,0,0,0,0,0,0,0,0,0,0,0,0,0,0,0,0,0,0,0,0,0,0,0],"sum_hessian":[4.42E2,5.1E1,3.91E2,9E0,4.2E1,1.3E2,2.61E2,4E0,5E0,4.1E1,1E0,1.1E2,2E1,1E0,3E0,5E0,1.05E2,1.3E1,7E0,1E0,4E0,2.8E1,7.7E1,1E0,1.2E1,2E0,5E0],"tree_param":{"num_deleted":"0","num_feature":"31","num_nodes":"27","size_leaf_vector":"1"}},{"base_weights":[8.2777776E-2,-6.5625E-1,1.5450121E-1,-7.285714E-2,-1.25E-1,-2.8846154E-2,2.3847517E-1,1.875E-2,-5E-2,1.576087E-1,-1.2941177E-1,-1.6666667E-1,2.4196428E-1,1.7777778E-1,-3.75E-2,-2.6415095E-1,9.090909E-2,-3.75E-2,1.25E-2,1.4583333E-1,2.4535316E-1,2.1794872E-2,-7.1428576E-3,-6.5625004E-2,-1.902174E-2,1.4516129E-2,-5E-2,-3.75E-2,2.2727273E-2,2.48996E-2,1.904762E-2],"categories":[],"categories_nodes":[],"categories_segments":[],"categories_sizes":[],"default_left":[0,0,0,0,0,0,0,0,0,0,0,0,0,0,0,0,0,0,0,0,0,0,0,0,0,0,0,0,0,0,0],"id":21,"left_children":[1,3,5,-1,7,9,11,-1,-1,13,15,17,19,21,-1,23,25,-1,-1,27,29,-1,-1,-1,-1,-1,-1,-1,-1,-1,-1],"loss_changes":[2.3953918E1,1.4457588E0,6.3348026E0,0E0,7.96875E-1,2.4580193E0,4.389572E-1,0E0,0E0,5.6080925E-1,2.547311E0,2.2916666E-1,5.5437088E-2,4.660561E-1,0E0,1.4116013E0,1.1304985E0,0E0,0E0,5.942235E-1,6.3476562E-3,0E0,0E0,0E0,0E0,0E0,0E0,0E0,0E0,0E0,0E0],"parents":[2147483647,0,0,1,1,2,2,4,4,5,5,6,6,9,9,10,10,11,11,12,12,13,13,15,15,16,16,19,19,20,20],"right_children":[2,4,6,-1,8,10,12,-1,-1,14,16,18,20,22,-1,24,26,-1,-1,28,30,-1,-1,-1,-1,-1,-1,-1,-1,-1,-1],"split_conditions":[-1.8802614E0,4.1964373E-1,2.8062513E-1,-1.6033335E-2,-1.294177E0,-4.6993694E-1,1.508278E-1,9.827734E-4,-4.164032E-2,3.88669E-1,1.6183929E-1,3.174765E-1,-2.1039453E0,1.7593198E0,-7.890865E-4,-1.6236298E0,1.6458313E0,-5.077501E-3,2.4829103E-2,-1.2589407E0,1.4939005E0,6.850481E-4,-9.800226E-4,-8.352292E-3,-1.1239889E-3,2.6126354E-4,-3.4330727E-3,-3.940612E-4,1.0140674E-2,2.0153686E-2,1.3331193E-2],"split_indices":[26,27,0,0,4,29,3,0,0,1,30,0,20,23,0,0,29,0,0,23,29,0,0,0,0,0,0,0,0,0,0],"split_type":[0,0,0,0,0,0,0,0,0,0,0,0,0,0,0,0,0,0,0,0,0,0,0,0,0,0,0,0,0,0,0],"sum_hessian":[4.49E2,3.9E1,4.1E2,3.4E1,5E0,1.29E2,2.81E2,3E0,2E0,4.5E1,8.4E1,2E0,2.79E2,4.4E1,1E0,5.2E1,3.2E1,1E0,1E0,1.1E1,2.68E2,3.8E1,6E0,7E0,4.5E1,3E1,2E0,1E0,1E1,2.48E2,2E1],"tree_param":{"num_deleted":"0","num_feature":"31","num_nodes":"31","size_leaf_vector":"1"}},{"base_weights":[7.430875E-2,-5.8928573E-1,1.4503817E-1,-6.5384614E-1,1.875E-2,-4.1666668E-2,2.4511719E-1,-2.9166666E-1,-6.985294E-1,1.7094018E-2,-3.5227272E-1,1.764706E-1,2.4895834E-2,1.6666668E-2,-5.6250002E-2,-3.125E-1,-7.258065E-2,-3.0927835E-2,2.3809524E-2,-5.15625E-1,7.1428575E-2,-3.75E-2,2.34375E-2,-5E-2,1.25E-2,7.692308E-3,-2.4242425E-2,-1.25E-2,-6.818182E-2,-3.75E-2,2.0833334E-2],"categories":[],"categories_nodes":[],"categories_segments":[],"categories_sizes":[],"default_left":[0,0,0,0,0,0,0,0,0,0,0,0,0,0,0,0,0,0,0,0,0,0,0,0,0,0,0,0,0,0,0],"id":22,"left_children":[1,3,5,7,-1,9,11,13,15,17,19,21,-1,-1,-1,23,-1,25,-1,27,29,-1,-1,-1,-1,-1,-1,-1,-1,-1,-1],"loss_changes":[2.045554E1,2.22888E0,7.353511E0,4.2741203E-1,0E0,2.5247185E0,2.3569107E-2,8.385417E-1,1.3119698E-1,1.2490716E0,1.5595067E0,6.3074446E-1,0E0,0E0,0E0,3.90625E-1,0E0,2.231226E0,0E0,9.5348024E-1,5.0595236E-1,0E0,0E0,0E0,0E0,0E0,0E0,0E0,0E0,0E0,0E0],"parents":[2147483647,0,0,1,1,2,2,3,3,5,5,6,6,7,7,8,8,9,9,10,10,11,11,15,15,17,17,19,19,20,20],"right_children":[2,4,6,8,-1,10,12,14,16,18,20,22,-1,-1,-1,24,-1,26,-1,28,30,-1,-1,-1,-1,-1,-1,-1,-1,-1,-1],"split_conditions":[-1.8740005E0,8.6185896E-1,2.8062513E-1,-2.0225213E0,1.01399426E-4,3.3788428E-1,3.078948E-1,-1.6589974E0,-2.0111325E0,-7.210567E-1,2.1361743E-1,-8.6858404E-1,1.9021228E-2,8.387446E-4,-1.3671803E-2,-2.0394096E0,-1.4970583E-2,-1.0126516E0,2.2733433E-3,2.1592414E-1,2.6418862E-1,-9.646684E-4,2.5669783E-3,-1.5633965E-2,1.7631055E-5,1.7985106E-4,-2.852361E-3,-1.6928267E-3,-2.6782183E-3,-7.656157E-4,1.5853542E-4],"split_indices":[26,30,0,10,0,5,1,3,14,17,28,24,0,0,0,0,0,16,0,1,8,0,0,0,0,0,0,0,0,0,0],"split_type":[0,0,0,0,0,0,0,0,0,0,0,0,0,0,0,0,0,0,0,0,0,0,0,0,0,0,0,0,0,0,0],"sum_hessian":[4.33E2,4.1E1,3.92E2,3.8E1,3E0,1.37E2,2.55E2,5E0,3.3E1,1.16E2,2.1E1,1.6E1,2.39E2,2E0,3E0,3E0,3E1,9.6E1,2E1,1.5E1,6E0,1E0,1.5E1,2E0,1E0,6.4E1,3.2E1,5E0,1E1,1E0,5E0],"tree_param":{"num_deleted":"0","num_feature":"31","num_nodes":"31","size_leaf_vector":"1"}},{"base_weights":[8.388521E-2,-5.769231E-1,1.4578313E-1,-0E0,-6.4285713E-1,3.6945812E-2,2.488263E-2,-3.75E-2,1.875E-2,-6.953125E-1,-6.25E-2,-1.5416667E-1,1.1631945E-1,1.25E-2,-7.258065E-2,1.6666668E-2,-3.75E-2,1.521739E-1,-3.3552632E-1,-1.875E-1,1.4285715E-1,1.9318182E-2,-3.75E-2,-5E-2,6.25E-3,-4.0625002E-2,2.0000001E-2,7.4074077E-3,2.4528302E-2],"categories":[],"categories_nodes":[],"categories_segments":[],"categories_sizes":[],"default_left":[0,0,0,0,0,0,0,0,0,0,0,0,0,0,0,0,0,0,0,0,0,0,0,0,0,0,0,0,0],"id":23,"left_children":[1,3,5,7,9,11,-1,-1,-1,13,15,17,19,-1,-1,-1,-1,21,23,25,27,-1,-1,-1,-1,-1,-1,-1,-1],"loss_changes":[1.861301E1,1.4835167E0,4.645008E0,4.21875E-1,1.0220423E0,3.0972989E0,0E0,0E0,0E0,8.911915E-1,3.4895834E-1,3.3845272E0,1.18781E0,0E0,0E0,0E0,0E0,5.6966406E-1,2.5189147E0,1.0984375E0,9.18838E-1,0E0,0E0,0E0,0E0,0E0,0E0,0E0,0E0],"parents":[2147483647,0,0,1,1,2,2,3,3,4,4,5,5,9,9,10,10,11,11,12,12,17,17,18,18,19,19,20,20],"right_children":[2,4,6,8,10,12,-1,-1,-1,14,16,18,20,-1,-1,-1,-1,22,24,26,28,-1,-1,-1,-1,-1,-1,-1,-1],"split_conditions":[-1.8802614E0,-1.5401536E0,4.443754E-1,-2.2605178E0,8.6185896E-1,-4.1157225E-1,2.964039E-2,-3.4991886E-2,8.863926E-4,-2.0362663E0,-1.8567549E0,-4.4251624E-1,-1.9371474E0,5.5150985E-4,-1.4087155E-2,8.7435247E-4,-5.4163816E-3,4.0386418E-1,2.1361743E-1,-1.9295852E0,7.629477E-1,7.330418E-4,-4.4235587E-4,-2.5287613E-3,1.2933761E-4,-6.149888E-3,2.1803379E-4,3.1967164E-4,2.849108E-3],"split_indices":[26,29,26,0,30,27,0,0,0,5,0,29,11,0,0,0,0,1,28,8,27,0,0,0,0,0,0,0,0],"split_type":[0,0,0,0,0,0,0,0,0,0,0,0,0,0,0,0,0,0,0,0,0,0,0,0,0,0,0,0,0],"sum_hessian":[4.52E2,3.8E1,4.14E2,4E0,3.4E1,2.02E2,2.12E2,1E0,3E0,3.1E1,3E0,5.9E1,1.43E2,1E0,3E1,2E0,1E0,2.2E1,3.7E1,1.1E1,1.32E2,2.1E1,1E0,2.6E1,1.1E1,7E0,4E0,8E1,5.2E1],"tree_param":{"num_deleted":"0","num_feature":"31","num_nodes":"29","size_leaf_vector":"1"}},{"base_weights":[6.458797E-2,-6.328125E-1,1.1782297E-1,-6.25E-2,-6.896552E-1,-3.0726258E-2,2.28125E-1,1.6666668E-2,-3.75E-2,-7.232143E-2,1.25E-2,-1.4285715E-1,1.2666667E-1,-3.75E-2,2.3221758E-1,-7.8313254E-2,-3.6956522E-1,1.5808824E-1,-1.5625E-1,1.7857144E-2,2.4446903E-2,-6.0000002E-2,-4.4303797E-3,-5.909091E-2,-1.5384616E-2,-3.75E-2,1.716418E-2,2.0000001E-2,-5.6250002E-2,-5.6250002E-2,2.2727273E-2],"categories":[],"categories_nodes":[],"categories_segments":[],"categories_sizes":[],"default_left":[0,0,0,0,0,0,0,0,0,0,0,0,0,0,0,0,0,0,0,0,0,0,0,0,0,0,0,0,0,0,0],"id":24,"left_children":[1,3,5,7,9,11,13,-1,-1,-1,-1,15,17,-1,19,21,23,25,27,29,-1,-1,-1,-1,-1,-1,-1,-1,-1,-1,-1],"loss_changes":[1.6744183E1,9.942751E-1,6.856056E0,3.4895834E-1,8.8323593E-1,3.177196E0,6.794815E-1,0E0,0E0,0E0,0E0,1.5074832E0,6.914277E-1,0E0,6.233034E-1,1.446027E0,1.0072973E0,5.556822E-1,1.2703125E0,1.8293425E0,0E0,0E0,0E0,0E0,0E0,0E0,0E0,0E0,0E0,0E0,0E0],"parents":[2147483647,0,0,1,1,2,2,3,3,4,4,5,5,6,6,11,11,12,12,14,14,15,15,16,16,17,17,18,18,19,19],"right_children":[2,4,6,8,10,12,14,-1,-1,-1,-1,16,18,-1,20,22,24,26,28,30,-1,-1,-1,-1,-1,-1,-1,-1,-1,-1,-1],"split_conditions":[-1.9384688E0,-1.9507073E0,3.6325198E-1,-1.9444236E0,3.3614635E-1,2.8788295E-1,-1.578323E-2,7.9774857E-4,-8.65078E-4,-1.4654541E-2,1.1775017E-3,2.9573017E-1,1.4265144E0,-9.283543E-4,-1.2589407E0,-2.1555214E0,3.980444E-1,-2.0249608E0,9.456217E-1,-1.2674413E0,1.8384159E-2,-2.6054248E-2,-4.08322E-4,-2.8020793E-3,-3.0916298E-4,-9.159279E-3,9.3421043E-4,5.012855E-4,-3.0894398E-3,-2.0039023E-3,1.1385939E-2],"split_indices":[0,6,26,3,27,28,8,0,0,0,0,5,29,0,23,20,6,1,28,28,0,0,0,0,0,0,0,0,0,0,0],"split_type":[0,0,0,0,0,0,0,0,0,0,0,0,0,0,0,0,0,0,0,0,0,0,0,0,0,0,0,0,0,0,0],"sum_hessian":[4.48E2,3.1E1,4.17E2,3E0,2.8E1,1.78E2,2.39E2,2E0,1E0,2.7E1,1E0,1.04E2,7.4E1,1E0,2.38E2,8.2E1,2.2E1,6.7E1,7E0,1.3E1,2.25E2,4E0,7.8E1,1E1,1.2E1,1E0,6.6E1,4E0,3E0,3E0,1E1],"tree_param":{"num_deleted":"0","num_feature":"31","num_nodes":"31","size_leaf_vector":"1"}},{"base_weights":[7.611111E-2,-8.90411E-2,2.3168103E-1,-5E-1,-2.116402E-2,-3.75E-2,2.3593074E-1,4.1666668E-2,-6.057692E-1,-7.833333E-2,1.9375E-1,2.4880383E-2,1.0869565E-1,2.0000001E-2,-3.75E-2,1.6666668E-2,-6.770833E-1,-4.6153846E-1,-4.1666668E-2,2.4285715E-2,-1.25E-1,-5.6250002E-2,2.375E-2,1.25E-2,-7.173913E-2,-0E0,-6.666667E-2,-1.1827957E-2,1.1413044E-2,1.875E-2,-5E-2],"categories":[],"categories_nodes":[],"categories_segments":[],"categories_sizes":[],"default_left":[0,0,0,0,0,0,0,0,0,0,0,0,0,0,0,0,0,0,0,0,0,0,0,0,0,0,0,0,0,0,0],"id":25,"left_children":[1,3,5,7,9,-1,11,13,15,17,19,-1,21,-1,-1,-1,23,25,27,-1,29,-1,-1,-1,-1,-1,-1,-1,-1,-1,-1],"loss_changes":[1.1582352E1,6.098355E0,6.866188E-1,1.8012819E0,2.3373232E0,0E0,3.513136E-1,4.7083333E-1,1.5450726E0,2.0883975E0,6.564733E-1,0E0,2.1220107E0,0E0,0E0,0E0,8.656025E-1,1.2307692E0,1.6606766E0,0E0,7.96875E-1,0E0,0E0,0E0,0E0,0E0,0E0,0E0,0E0,0E0,0E0],"parents":[2147483647,0,0,1,1,2,2,3,3,4,4,6,6,7,7,8,8,9,9,10,10,12,12,16,16,17,17,18,18,20,20],"right_children":[2,4,6,8,10,-1,12,14,16,18,20,-1,22,-1,-1,-1,24,26,28,-1,30,-1,-1,-1,-1,-1,-1,-1,-1,-1,-1],"split_conditions":[4.03196E-1,-1.9384688E0,-1.9029059E-2,-1.9537731E0,7.629477E-1,-9.253562E-4,1.345663E0,-1.7124151E0,-1.1847483E0,-1.9371474E0,1.1089875E0,2.1559512E-2,4.9852893E-1,6.5272156E-4,-8.663631E-3,7.1797374E-4,-1.9650096E0,-1.9166229E0,3.0129957E-1,1.9242167E-3,1.4307305E0,-4.308689E-3,2.792812E-2,1.5356183E-3,-1.5704954E-2,-2.5877356E-5,-5.63831E-3,-5.7581963E-4,4.679799E-4,8.508921E-4,-2.780497E-3],"split_indices":[0,0,7,13,27,0,29,3,23,11,29,0,0,0,0,0,6,16,28,0,27,0,0,0,0,0,0,0,0,0,0],"split_type":[0,0,0,0,0,0,0,0,0,0,0,0,0,0,0,0,0,0,0,0,0,0,0,0,0,0,0,0,0,0,0],"sum_hessian":[4.49E2,2.18E2,2.31E2,3E1,1.88E2,1E0,2.3E2,5E0,2.5E1,1.49E2,3.9E1,2.08E2,2.2E1,4E0,1E0,2E0,2.3E1,1.2E1,1.37E2,3.4E1,5E0,3E0,1.9E1,1E0,2.2E1,4E0,8E0,9.2E1,4.5E1,3E0,2E0],"tree_param":{"num_deleted":"0","num_feature":"31","num_nodes":"31","size_leaf_vector":"1"}},{"base_weights":[6.970046E-2,-8.90411E-2,2.3032407E-1,-4.0625E-1,-1.8055556E-2,-1.25E-1,2.3933649E-1,-7.692308E-2,-5.4464287E-1,1.183432E-2,-4.375E-1,1.875E-2,-5E-2,-0E0,2.4396135E-1,-4E-1,1.1111111E-1,-6.7045456E-1,-7.1428575E-2,1.6981132E-1,-5.982906E-2,-6.666667E-2,1.875E-2,-3.75E-2,1.875E-2,2.487374E-2,1.25E-1,1.25E-2,-5.6250002E-2,-3.75E-2,2.1875E-2,1.25E-2,-7.1428575E-2,2.0000001E-2,-5E-2,2.05E-2,-3.125E-2,-5.3125E-2,-2.5000002E-3,-3.75E-2,2.2222223E-2],"categories":[],"categories_nodes":[],"categories_segments":[],"categories_sizes":[],"default_left":[0,0,0,0,0,0,0,0,0,0,0,0,0,0,0,0,0,0,0,0,0,0,0,0,0,0,0,0,0,0,0,0,0,0,0,0,0,0,0,0,0],"id":26,"left_children":[1,3,5,7,9,11,13,15,17,19,21,-1,-1,23,25,27,29,31,33,35,37,-1,-1,-1,-1,-1,39,-1,-1,-1,-1,-1,-1,-1,-1,-1,-1,-1,-1,-1,-1],"loss_changes":[1.1086485E1,4.9239416E0,7.216196E-1,1.7811642E0,2.261863E0,7.96875E-1,2.335558E-1,8.3418804E-1,1.6191158E0,1.9234366E0,1.84375E0,0E0,0E0,4.21875E-1,8.6517334E-2,4.96875E-1,5.529514E-1,8.563309E-1,9.142857E-1,9.635731E-1,1.907759E0,0E0,0E0,0E0,0E0,0E0,5.694444E-1,0E0,0E0,0E0,0E0,0E0,0E0,0E0,0E0,0E0,0E0,0E0,0E0,0E0,0E0],"parents":[2147483647,0,0,1,1,2,2,3,3,4,4,5,5,6,6,7,7,8,8,9,9,10,10,13,13,14,14,15,15,16,16,17,17,18,18,19,19,20,20,26,26],"right_children":[2,4,6,8,10,12,14,16,18,20,22,-1,-1,24,26,28,30,32,34,36,38,-1,-1,-1,-1,-1,40,-1,-1,-1,-1,-1,-1,-1,-1,-1,-1,-1,-1,-1,-1],"split_conditions":[4.120083E-1,-1.8802614E0,3.471676E-1,-1.850273E0,5.013028E-1,2.8442076E-1,-2.3102496E0,-1.7139599E0,1.9371603E-1,-4.6993694E-1,6.503113E-1,9.017998E-3,-3.8778186E-3,4.9852893E-1,1.862619E0,-2.057034E0,-2.0092242E0,-2.0362663E0,-1.294177E0,4.29456E-1,-2.0104835E0,-2.8449588E-3,2.138093E-3,-2.1722614E-4,1.2847558E-2,1.9617653E-2,4.9852893E-1,1.0465741E-3,-9.205795E-3,-1.6493797E-4,7.784605E-4,4.5177937E-4,-1.2882769E-2,6.968856E-4,-3.1687047E-2,1.3285935E-3,-2.9608698E-3,-2.5024414E-3,-2.5843532E-4,-6.2206987E-4,5.1502246E-2],"split_indices":[0,26,26,8,4,6,20,15,27,29,15,0,0,0,29,0,5,5,4,1,8,0,0,0,0,0,0,0,0,0,0,0,0,0,0,0,0,0,0,0,0],"split_type":[0,0,0,0,0,0,0,0,0,0,0,0,0,0,0,0,0,0,0,0,0,0,0,0,0,0,0,0,0,0,0,0,0,0,0,0,0,0,0,0,0],"sum_hessian":[4.33E2,2.18E2,2.15E2,3.9E1,1.79E2,5E0,2.1E2,1.2E1,2.7E1,1.68E2,1.1E1,3E0,2E0,4E0,2.06E2,4E0,8E0,2.1E1,6E0,5.2E1,1.16E2,8E0,3E0,1E0,3E0,1.97E2,9E0,1E0,3E0,1E0,7E0,1E0,2E1,4E0,2E0,4.9E1,3E0,7E0,1.09E2,1E0,8E0],"tree_param":{"num_deleted":"0","num_feature":"31","num_nodes":"41","size_leaf_vector":"1"}},{"base_weights":[9.190372E-2,-4.2194095E-2,2.3529412E-1,-2.0224719E-1,5.3691275E-2,2.3977272E-1,-3.75E-2,-5.9090906E-1,-1.4556962E-1,7.4652776E-2,-4.5833334E-1,-0E0,2.4421297E-1,-6.75E-2,1.25E-2,5.46875E-2,-2.7604166E-1,-3.5714287E-1,9.601449E-2,1.25E-2,-6.0000002E-2,-3.75E-2,1.875E-2,-0E0,2.4882076E-2,-5E-2,1.0833333E-2,-4.3548387E-2,1.3888889E-3,-6.0000002E-2,1.6666668E-2,3.6111113E-3,2.0408165E-2,-3.75E-2,1.875E-2],"categories":[],"categories_nodes":[],"categories_segments":[],"categories_sizes":[],"default_left":[0,0,0,0,0,0,0,0,0,0,0,0,0,0,0,0,0,0,0,0,0,0,0,0,0,0,0,0,0,0,0,0,0,0,0],"id":27,"left_children":[1,3,5,7,9,11,-1,13,15,17,19,21,23,-1,-1,25,27,29,31,-1,-1,-1,-1,33,-1,-1,-1,-1,-1,-1,-1,-1,-1,-1,-1],"loss_changes":[8.797279E0,3.6480389E0,6.9396687E-1,1.8745103E0,1.6334038E0,2.3422241E-1,0E0,7.465911E-1,2.0792046E0,1.3625317E0,5.708333E-1,4.21875E-1,2.4306107E-1,0E0,0E0,1.0063802E0,2.2249525E0,9.904762E-1,8.859854E-1,0E0,0E0,0E0,0E0,4.21875E-1,0E0,0E0,0E0,0E0,0E0,0E0,0E0,0E0,0E0,0E0,0E0],"parents":[2147483647,0,0,1,1,2,2,3,3,4,4,5,5,7,7,8,8,9,9,10,10,11,11,12,12,15,15,16,16,17,17,18,18,23,23],"right_children":[2,4,6,8,10,12,-1,14,16,18,20,22,24,-1,-1,26,28,30,32,-1,-1,-1,-1,34,-1,-1,-1,-1,-1,-1,-1,-1,-1,-1,-1],"split_conditions":[4.3363845E-1,-3.923317E-1,2.5411952E0,-1.925005E0,1.9103494E0,-1.5207704E0,-8.189619E-4,2.2557376E-1,-2.4755241E-1,-2.0057626E0,-7.7544147E-1,4.9852893E-1,-1.52168E0,-2.2477686E-2,6.6592696E-4,-1.6529027E0,1.7488612E-1,-1.9539909E0,4.0337437E-1,2.811873E-3,-2.1951808E-2,-1.9550323E-4,3.371507E-2,-1.2589407E0,1.8553078E-2,-8.049297E-3,6.686286E-5,-3.1669408E-3,-4.470628E-6,-9.819043E-3,5.683303E-4,1.7727316E-4,1.4634352E-3,-9.737909E-4,9.643701E-3],"split_indices":[0,27,23,26,29,27,0,20,29,0,24,0,30,0,0,5,28,3,28,0,0,0,0,23,0,0,0,0,0,0,0,0,0,0,0],"split_type":[0,0,0,0,0,0,0,0,0,0,0,0,0,0,0,0,0,0,0,0,0,0,0,0,0,0,0,0,0,0,0,0,0,0,0],"sum_hessian":[4.56E2,2.36E2,2.2E2,8.8E1,1.48E2,2.19E2,1E0,1E1,7.8E1,1.43E2,5E0,4E0,2.15E2,9E0,1E0,3.1E1,4.7E1,6E0,1.37E2,1E0,4E0,1E0,3E0,4E0,2.11E2,2E0,2.9E1,3E1,1.7E1,4E0,2E0,8.9E1,4.8E1,1E0,3E0],"tree_param":{"num_deleted":"0","num_feature":"31","num_nodes":"35","size_leaf_vector":"1"}},{"base_weights":[9.1647334E-2,-6.8862274E-2,1.9245283E-1,-1.9753087E-1,5.172414E-2,9.90099E-2,2.4848485E-2,-6.75E-2,-1.2847222E-1,1.0769231E-1,-1.0869565E-1,-4.0625E-1,1.4095744E-1,1.8421052E-1,-2.361111E-1,-2.1428572E-1,1.440678E-1,4.6875E-2,-4.0625E-1,-6.25E-2,-6.0000002E-2,1.6853933E-1,-2.9166666E-1,-3.75E-2,2.3611112E-2,-2.96875E-2,2.1428572E-2,1.875E-2,-5.6250002E-2,-1.5625E-2,1.875E-2,-5E-2,1.607143E-2,-6.25E-3,-6.0000002E-2,1.6666668E-2,-3.75E-2,-3.125E-2,1.8895349E-2,1.6666668E-2,-5.6250002E-2],"categories":[],"categories_nodes":[],"categories_segments":[],"categories_sizes":[],"default_left":[0,0,0,0,0,0,0,0,0,0,0,0,0,0,0,0,0,0,0,0,0,0,0,0,0,0,0,0,0,0,0,0,0,0,0,0,0,0,0,0,0],"id":28,"left_children":[1,3,5,7,9,11,-1,-1,13,15,17,19,21,23,25,27,29,31,33,35,-1,37,39,-1,-1,-1,-1,-1,-1,-1,-1,-1,-1,-1,-1,-1,-1,-1,-1,-1,-1],"loss_changes":[6.9869404E0,2.6013362E0,1.3628836E0,2.5841246E0,7.9282665E-1,2.1978998E0,0E0,0E0,2.4667854E0,7.921586E-1,1.0837296E0,4.9531245E-1,1.1708206E0,6.399854E-1,1.5414808E0,1.0848215E0,7.9886127E-1,1.0764508E0,4.9531245E-1,3.4895834E-1,0E0,9.330292E-1,8.385417E-1,0E0,0E0,0E0,0E0,0E0,0E0,0E0,0E0,0E0,0E0,0E0,0E0,0E0,0E0,0E0,0E0,0E0,0E0],"parents":[2147483647,0,0,1,1,2,2,3,3,4,4,5,5,8,8,9,9,10,10,11,11,12,12,13,13,14,14,15,15,16,16,17,17,18,18,19,19,21,21,22,22],"right_children":[2,4,6,8,10,12,-1,-1,14,16,18,20,22,24,26,28,30,32,34,36,-1,38,40,-1,-1,-1,-1,-1,-1,-1,-1,-1,-1,-1,-1,-1,-1,-1,-1,-1,-1],"split_conditions":[2.2389363E-1,-1.4484774E-1,5.069809E-1,-1.9621364E0,8.0324E-1,-1.0103791E0,3.7707042E-2,-2.0012533E-2,-1.8263245E0,-5.550434E-1,-7.765307E-1,4.625642E-1,1.345663E0,-1.9348159E0,4.1964373E-1,-9.837293E-1,-1.9603691E0,-1.9220997E0,1.5095589E0,5.088711E-1,-2.2437684E-3,-1.8992616E-2,4.1266137E-1,-9.768128E-3,8.381248E-4,-2.7570368E-3,9.976327E-4,1.1499763E-3,-3.9232853E-3,-1.6616583E-4,6.572604E-4,-9.348417E-3,5.581349E-4,-1.5614778E-3,-2.0904837E-2,2.7868524E-3,-1.7275915E-3,-1.9738027E-3,2.2283301E-3,4.1171312E-4,-3.1733424E-3],"split_indices":[12,30,26,26,29,28,0,0,17,24,9,3,29,6,27,14,3,3,23,7,0,0,1,0,0,0,0,0,0,0,0,0,0,0,0,0,0,0,0,0,0],"split_type":[0,0,0,0,0,0,0,0,0,0,0,0,0,0,0,0,0,0,0,0,0,0,0,0,0,0,0,0,0,0,0,0,0,0,0,0,0,0,0,0,0],"sum_hessian":[4.3E2,1.66E2,2.64E2,8E1,8.6E1,1E2,1.64E2,9E0,7.1E1,6.4E1,2.2E1,7E0,9.3E1,1.8E1,5.3E1,6E0,5.8E1,1.5E1,7E0,3E0,4E0,8.8E1,5E0,1E0,1.7E1,4.7E1,6E0,3E0,3E0,7E0,5.1E1,2E0,1.3E1,3E0,4E0,2E0,1E0,3E0,8.5E1,2E0,3E0],"tree_param":{"num_deleted":"0","num_feature":"31","num_nodes":"41","size_leaf_vector":"1"}},{"base_weights":[7.679372E-2,-3.721374E-2,2.3783784E-1,-1.8421052E-1,4.613095E-2,-3.75E-2,2.4320652E-1,-2.4038462E-2,-3.693182E-1,-4.0229887E-2,1.3719513E-1,2.4862638E-2,-1.6666667E-1,5.8139537E-2,-3.75E-1,1.875E-2,-4.1463414E-1,-4.4444445E-1,6.329114E-3,-3.75E-2,1.4814815E-1,-3.75E-2,1.25E-2,-1.12499995E-2,1.9791668E-2,-6.428572E-2,1.875E-2,-5E-2,-1.3636365E-2,-6.25E-2,-6.25E-3,3.618421E-3,-5.6250002E-2,2.4324326E-2,6.6666673E-3],"categories":[],"categories_nodes":[],"categories_segments":[],"categories_sizes":[],"default_left":[0,0,0,0,0,0,0,0,0,0,0,0,0,0,0,0,0,0,0,0,0,0,0,0,0,0,0,0,0,0,0,0,0,0,0],"id":29,"left_children":[1,3,5,7,9,-1,11,13,15,17,19,-1,21,23,25,-1,27,29,31,-1,33,-1,-1,-1,-1,-1,-1,-1,-1,-1,-1,-1,-1,-1,-1],"loss_changes":[8.197514E0,3.2183652E0,6.998768E-1,2.807784E0,1.3267349E0,0E0,4.5018482E-1,1.5215507E0,1.187985E0,1.6401377E0,5.1558256E-1,0E0,2.2916666E-1,1.0478804E0,1.6272321E0,0E0,9.0576506E-1,5.815972E-1,1.3619671E0,0E0,6.1141145E-1,0E0,0E0,0E0,0E0,0E0,0E0,0E0,0E0,0E0,0E0,0E0,0E0,0E0,0E0],"parents":[2147483647,0,0,1,1,2,2,3,3,4,4,6,6,7,7,8,8,9,9,10,10,12,12,13,13,14,14,16,16,17,17,18,18,20,20],"right_children":[2,4,6,8,10,-1,12,14,16,18,20,-1,22,24,26,-1,28,30,32,-1,34,-1,-1,-1,-1,-1,-1,-1,-1,-1,-1,-1,-1,-1,-1],"split_conditions":[4.793021E-1,-3.923317E-1,-1.7628821E0,9.549405E-2,-1.6855467E-2,-6.4399245E-4,2.6039739E0,4.1266137E-1,-1.9652226E0,-1.967915E0,-2.2171948E0,1.7742941E-2,6.667635E-1,-1.953837E-1,4.7106126E-1,2.0498037E-4,9.66336E-2,3.3614635E-1,6.7000043E-1,-1.00016594E-4,-4.305877E-1,-5.7560805E-4,8.611567E-2,-7.234723E-4,3.5358715E-4,-2.2394166E-3,9.863944E-4,-2.2914112E-3,-2.6330992E-3,-8.409328E-3,-2.4232674E-2,1.3978481E-4,-1.5548319E-3,1.451549E-3,6.30042E-4],"split_indices":[0,27,23,29,28,0,29,1,9,26,12,0,0,23,26,0,20,27,15,0,23,0,0,0,0,0,0,0,0,0,0,0,0,0,0],"split_type":[0,0,0,0,0,0,0,0,0,0,0,0,0,0,0,0,0,0,0,0,0,0,0,0,0,0,0,0,0,0,0,0,0,0,0],"sum_hessian":[4.45E2,2.61E2,1.84E2,9.4E1,1.67E2,1E0,1.83E2,5.1E1,4.3E1,8.6E1,8.1E1,1.81E2,2E0,4.2E1,9E0,3E0,4E1,8E0,7.8E1,1E0,8E1,1E0,1E0,1.9E1,2.3E1,6E0,3E0,3E1,1E1,5E0,3E0,7.5E1,3E0,3.6E1,4.4E1],"tree_param":{"num_deleted":"0","num_feature":"31","num_nodes":"35","size_leaf_vector":"1"}},{"base_weights":[7.833333E-2,-2.8703704E-2,2.3756906E-1,-1.9587629E-1,6.465517E-2,2.4860336E-2,-5E-2,-1.1111111E-1,-5.882353E-1,-3.3333334E-1,8.584338E-2,-3.6956522E-1,-8.474576E-3,-6.40625E-1,1.25E-2,-5E-1,1.6666668E-2,-5E-2,9.603658E-2,-1.0416667E-2,-6.041667E-2,7.0652175E-3,-2.6785715E-2,1.25E-2,-7E-2,-6.25E-2,1.25E-2,4.205608E-3,1.9396553E-2],"categories":[],"categories_nodes":[],"categories_segments":[],"categories_sizes":[],"default_left":[0,0,0,0,0,0,0,0,0,0,0,0,0,0,0,0,0,0,0,0,0,0,0,0,0,0,0,0,0],"id":30,"left_children":[1,3,5,7,9,-1,-1,11,13,15,17,19,21,23,-1,25,-1,-1,27,-1,-1,-1,-1,-1,-1,-1,-1,-1,-1],"loss_changes":[7.6766734E0,4.2265663E0,1.5973797E0,3.1607034E0,1.4958973E0,0E0,0E0,2.1455414E0,7.153034E-1,8.333334E-1,1.0393081E0,1.3691127E0,1.2298466E0,8.1484365E-1,0E0,6.25E-1,0E0,0E0,8.5878813E-1,0E0,0E0,0E0,0E0,0E0,0E0,0E0,0E0,0E0,0E0],"parents":[2147483647,0,0,1,1,2,2,3,3,4,4,7,7,8,8,9,9,10,10,11,11,12,12,13,13,15,15,18,18],"right_children":[2,4,6,8,10,-1,-1,12,14,16,18,20,22,24,-1,26,-1,-1,28,-1,-1,-1,-1,-1,-1,-1,-1,-1,-1],"split_conditions":[5.1775575E-1,-3.923317E-1,1.785144E0,4.1266137E-1,-1.9930398E0,2.4758233E-2,-5.1804783E-4,-1.7932943E0,9.6854633E-1,-1.1345664E-1,-2.2171948E0,-8.4941555E-3,1.1457345E0,2.1616647E-1,1.3310015E-2,-1.7598197E0,1.5929341E-3,-4.4359923E-3,1.4671287E-1,-6.896317E-3,-1.5217662E-2,6.1900915E-5,-1.1726677E-3,4.3576958E-5,-2.1604025E-3,-1.4691032E-2,3.5825372E-3,1.2565106E-4,9.881317E-4],"split_indices":[0,27,23,1,26,0,0,26,6,28,12,29,23,11,0,0,0,0,24,0,0,0,0,0,0,0,0,0,0],"split_type":[0,0,0,0,0,0,0,0,0,0,0,0,0,0,0,0,0,0,0,0,0,0,0,0,0,0,0,0,0],"sum_hessian":[4.49E2,2.69E2,1.8E2,9.6E1,1.73E2,1.78E2,2E0,8E1,1.6E1,8E0,1.65E2,2.2E1,5.8E1,1.5E1,1E0,6E0,2E0,2E0,1.63E2,1.1E1,1.1E1,4.5E1,1.3E1,1E0,1.4E1,5E0,1E0,1.06E2,5.7E1],"tree_param":{"num_deleted":"0","num_feature":"31","num_nodes":"29","size_leaf_vector":"1"}},{"base_weights":[1.0212053E-1,2.1551725E-2,2.4842767E-2,-6.603774E-2,1.2689394E-1,5.6962024E-2,-1.8518518E-1,1.5466101E-1,-1E-1,-4.5833334E-1,9.7972974E-2,-9.701493E-2,-5.6666666E-1,-2E-1,1.6885965E-1,2.2499999E-2,-6.25E-2,1.25E-2,-6.0000002E-2,2.0000001E-2,-5.8333334E-3,1.5625E-3,-3.6250003E-2,1.25E-2,-6.25E-2,1.6666668E-2,-5E-2,1.0526316E-2,2.2844827E-2],"categories":[],"categories_nodes":[],"categories_segments":[],"categories_sizes":[],"default_left":[0,0,0,0,0,0,0,0,0,0,0,0,0,0,0,0,0,0,0,0,0,0,0,0,0,0,0,0,0],"id":31,"left_children":[1,3,-1,5,7,9,11,13,15,17,19,21,23,25,27,-1,-1,-1,-1,-1,-1,-1,-1,-1,-1,-1,-1,-1,-1],"loss_changes":[5.275576E0,2.6841712E0,0E0,2.3407106E0,8.4709024E-1,1.7143917E0,2.669486E0,6.2798476E-1,2.6999998E0,5.708333E-1,1.1917791E0,2.0092468E0,6.833334E-1,6.333333E-1,4.079702E-1,0E0,0E0,0E0,0E0,0E0,0E0,0E0,0E0,0E0,0E0,0E0,0E0,0E0,0E0],"parents":[2147483647,0,0,1,1,3,3,4,4,5,5,6,6,7,7,8,8,9,9,10,10,11,11,12,12,13,13,14,14],"right_children":[2,4,-1,6,8,10,12,14,16,18,20,22,24,26,28,-1,-1,-1,-1,-1,-1,-1,-1,-1,-1,-1,-1,-1,-1],"split_conditions":[6.062118E-1,9.322918E-2,3.425174E-2,-1.5753537E-1,1.4939005E0,-1.9707159E0,4.824962E-1,-1.8926522E0,-4.8648983E-1,-1.9576956E0,1.6540168E-1,3.022647E-1,4.1451463E-1,-2.0123692E0,1.598358E-2,6.0381595E-4,-1.1259566E-2,6.863475E-4,-5.653107E-3,5.741447E-4,-3.1755865E-4,4.6300887E-5,-6.095028E-3,5.58784E-3,-1.9782737E-3,1.9119978E-3,-4.2061447E-3,8.1967417E-4,1.0817171E-3],"split_indices":[26,30,0,29,29,12,3,22,9,0,20,24,4,4,29,0,0,0,0,0,0,0,0,0,0,0,0,0,0],"split_type":[0,0,0,0,0,0,0,0,0,0,0,0,0,0,0,0,0,0,0,0,0,0,0,0,0,0,0,0,0],"sum_hessian":[4.47E2,2.89E2,1.58E2,1.58E2,1.31E2,7.8E1,8E1,1.17E2,1.4E1,5E0,7.3E1,6.6E1,1.4E1,4E0,1.13E2,9E0,5E0,1E0,4E0,4.4E1,2.9E1,4.7E1,1.9E1,1E0,1.3E1,2E0,2E0,5.6E1,5.7E1],"tree_param":{"num_deleted":"0","num_feature":"31","num_nodes":"29","size_leaf_vector":"1"}},{"base_weights":[8.2392775E-2,-1.0830325E-2,2.3652695E-1,-6.25E-2,2.757353E-3,-3.75E-2,2.4246988E-1,-1.7788461E-1,4.524887E-2,1.4583333E-1,2.483871E-2,-1.6129032E-2,-3.9772728E-1,2.1323529E-1,1.462766E-2,-3.75E-2,2.2727273E-2,-5E-2,1.2E-2,-7.5000003E-3,-6.1538465E-2,-3.75E-2,2.4242425E-2,3.8352273E-3,-3.0769233E-2],"categories":[],"categories_nodes":[],"categories_segments":[],"categories_sizes":[],"default_left":[0,0,0,0,0,0,0,0,0,0,0,0,0,0,0,0,0,0,0,0,0,0,0,0,0],"id":32,"left_children":[1,3,5,-1,7,-1,9,11,13,15,-1,17,19,21,23,-1,-1,-1,-1,-1,-1,-1,-1,-1,-1],"loss_changes":[6.3679686E0,2.313327E0,6.978483E-1,0E0,2.0958533E0,0E0,5.8698654E-2,1.8427455E0,1.1336933E0,5.942235E-1,0E0,2.1019356E0,1.4992135E0,6.746881E-1,1.449421E0,0E0,0E0,0E0,0E0,0E0,0E0,0E0,0E0,0E0,0E0],"parents":[2147483647,0,0,1,1,2,2,4,4,6,6,7,7,8,8,9,9,11,11,12,12,13,13,14,14],"right_children":[2,4,6,-1,8,-1,10,12,14,16,-1,18,20,22,24,-1,-1,-1,-1,-1,-1,-1,-1,-1,-1],"split_conditions":[5.1775575E-1,-2.0427134E0,-2.748646E0,-2.0768477E-2,-8.961866E-1,-1.7385007E-3,-1.2190241E0,2.4151598E-1,-7.1139145E-1,5.8504957E-1,2.1107243E-2,-5.323533E-1,-1.0951939E-1,-2.0521522E0,5.0721186E-1,-1.5707195E-3,2.8012825E-2,-7.3760482E-3,1.3684183E-4,-1.0226853E-3,-1.9779846E-3,-6.21171E-3,5.944103E-4,2.7279856E-4,-1.6059041E-3],"split_indices":[0,26,20,0,27,0,28,1,20,0,0,23,29,1,3,0,0,0,0,0,0,0,0,0,0],"split_type":[0,0,0,0,0,0,0,0,0,0,0,0,0,0,0,0,0,0,0,0,0,0,0,0,0],"sum_hessian":[4.42E2,2.76E2,1.66E2,5E0,2.71E2,1E0,1.65E2,5.1E1,2.2E2,1.1E1,1.54E2,3E1,2.1E1,3.3E1,1.87E2,1E0,1E1,6E0,2.4E1,9E0,1.2E1,1E0,3.2E1,1.75E2,1.2E1],"tree_param":{"num_deleted":"0","num_feature":"31","num_nodes":"25","size_leaf_vector":"1"}},{"base_weights":[9.3541205E-2,6.161972E-3,2.4246988E-1,-1.3055556E-1,6.923077E-2,-3.75E-2,2.4848485E-2,-3.3088237E-2,-4.1304347E-1,1.030303E-1,-1.1290322E-1,2.9166667E-2,-4.4444445E-1,-3.125E-2,-5.78125E-1,-2.3333333E-1,1.3576159E-1,5.6818184E-2,-4.75E-1,1.1413044E-2,-2.3333333E-2,-6.428572E-2,1.6666668E-2,-5E-2,2.0833334E-2,-6.25E-3,-6.923077E-2,-4.75E-2,2.0833334E-2,1.51724145E-2,-2.1428572E-2,-5E-2,1.3750001E-2,-6.428572E-2,-6.25E-3],"categories":[],"categories_nodes":[],"categories_segments":[],"categories_sizes":[],"default_left":[0,0,0,0,0,0,0,0,0,0,0,0,0,0,0,0,0,0,0,0,0,0,0,0,0,0,0,0,0,0,0,0,0,0,0],"id":33,"left_children":[1,3,5,7,9,-1,-1,11,13,15,17,19,21,23,25,27,29,31,33,-1,-1,-1,-1,-1,-1,-1,-1,-1,-1,-1,-1,-1,-1,-1,-1],"loss_changes":[5.8414655E0,2.4578598E0,7.0971584E-1,2.4643338E0,1.2120612E0,0E0,0E0,1.7543709E0,1.4315557E0,1.848264E0,1.9321114E0,1.3648098E0,1.1984125E0,1.0026041E0,8.987379E-1,1.7E0,8.762469E-1,1.0571022E0,6.5223217E-1,0E0,0E0,0E0,0E0,0E0,0E0,0E0,0E0,0E0,0E0,0E0,0E0,0E0,0E0,0E0,0E0],"parents":[2147483647,0,0,1,1,2,2,3,3,4,4,7,7,8,8,9,9,10,10,11,11,12,12,13,13,14,14,15,15,16,16,17,17,18,18],"right_children":[2,4,6,8,10,-1,-1,12,14,16,18,20,22,24,26,28,30,32,34,-1,-1,-1,-1,-1,-1,-1,-1,-1,-1,-1,-1,-1,-1,-1,-1],"split_conditions":[5.5464E-1,-3.3478728E-1,-2.748646E0,3.1865096E-1,8.775792E-1,-1.5646517E-3,2.9980848E-2,5.0527173E-1,-1.8108305E0,-1.8880119E0,2.1696013E-1,4.9946702E-1,-5.3887296E-1,-2.0057669E0,-1.820277E0,1.4671287E-1,6.841766E-1,-2.0220563E0,4.7712627E-1,1.3664961E-4,-1.7693684E-3,-1.7848045E-3,3.320873E-5,-5.0482512E-3,9.103656E-4,-1.6138483E-2,-9.360812E-3,-8.9960697E-4,9.49955E-4,8.915663E-4,-4.9193465E-4,-1.7137503E-2,6.2835217E-4,-1.9930683E-3,-1.4080823E-3],"split_indices":[26,27,20,24,29,0,0,17,15,15,2,29,27,1,20,24,15,26,11,0,0,0,0,0,0,0,0,0,0,0,0,0,0,0,0],"split_type":[0,0,0,0,0,0,0,0,0,0,0,0,0,0,0,0,0,0,0,0,0,0,0,0,0,0,0,0,0,0,0,0,0,0,0],"sum_hessian":[4.48E2,2.83E2,1.65E2,8.9E1,1.94E2,1E0,1.64E2,6.7E1,2.2E1,1.64E2,3E1,5.9E1,8E0,7E0,1.5E1,1.4E1,1.5E2,2.1E1,9E0,4.5E1,1.4E1,6E0,2E0,2E0,5E0,3E0,1.2E1,9E0,5E0,1.44E2,6E0,2E0,1.9E1,6E0,3E0],"tree_param":{"num_deleted":"0","num_feature":"31","num_nodes":"35","size_leaf_vector":"1"}},{"base_weights":[1.0352941E-1,3.3568904E-2,2.4125874E-1,-6.25E-2,4.766187E-2,-3.75E-2,2.4823945E-2,-0E0,2.0075758E-1,-5.6250002E-2,1.0714286E-2,-3.75E-2,2.1538462E-1,1.1764706E-2,-6.1507937E-3,-3.75E-2,2.3046875E-2],"categories":[],"categories_nodes":[],"categories_segments":[],"categories_sizes":[],"default_left":[0,0,0,0,0,0,0,0,0,0,0,0,0,0,0,0,0],"id":34,"left_children":[1,3,5,-1,7,-1,-1,9,11,-1,13,-1,15,-1,-1,-1,-1],"loss_changes":[4.087037E0,2.6563652E0,7.0826435E-1,0E0,2.0285182E0,0E0,0E0,1.2897321E0,6.365967E-1,0E0,1.62905E0,0E0,6.652794E-1,0E0,0E0,0E0,0E0],"parents":[2147483647,0,0,1,1,2,2,4,4,7,7,8,8,10,10,12,12],"right_children":[2,4,6,-1,8,-1,-1,10,12,-1,14,-1,16,-1,-1,-1,-1],"split_conditions":[6.1013204E-1,-2.1067033E0,-2.748646E0,-1.9879783E-2,7.629477E-1,-1.4081895E-3,3.313173E-2,-2.0389216E0,-1.975685E0,-3.543508E-3,-1.670266E-1,-6.123543E-4,-4.347504E0,4.256457E-4,-3.5805852E-4,-1.5423751E-2,1.8322706E-3],"split_indices":[26,0,20,0,27,0,0,9,17,0,29,0,20,0,0,0,0],"split_type":[0,0,0,0,0,0,0,0,0,0,0,0,0,0,0,0,0],"sum_hessian":[4.24E2,2.82E2,1.42E2,5E0,2.77E2,1E0,1.41E2,2.12E2,6.5E1,3E0,2.09E2,1E0,6.4E1,8.4E1,1.25E2,1E0,6.3E1],"tree_param":{"num_deleted":"0","num_feature":"31","num_nodes":"17","size_leaf_vector":"1"}},{"base_weights":[1.0534935E-1,4.801829E-2,2.4809161E-2,7.2916664E-2,-4.117647E-1,-6.0000002E-2,8.3603896E-2,-5.535714E-1,1.875E-2,1.21276595E-1,-3.7162162E-2,-6.25E-2,-6.818182E-2,-5.6250002E-2,1.325431E-2,-2.265625E-2,1.0465116E-2,-3.75E-2,1.6666668E-2],"categories":[],"categories_nodes":[],"categories_segments":[],"categories_sizes":[],"default_left":[0,0,0,0,0,0,0,0,0,0,0,0,0,0,0,0,0,0,0],"id":35,"left_children":[1,3,-1,5,7,-1,9,11,-1,13,15,17,-1,-1,-1,-1,-1,-1,-1],"loss_changes":[3.7361593E0,3.7849188E0,0E0,2.2939463E0,1.548451E0,0E0,1.4057786E0,8.390827E-1,0E0,1.8849423E0,2.0113122E0,3.4895834E-1,0E0,0E0,0E0,0E0,0E0,0E0,0E0],"parents":[2147483647,0,0,1,1,3,3,4,4,6,6,7,7,9,9,10,10,11,11],"right_children":[2,4,-1,6,8,-1,10,12,-1,14,16,18,-1,-1,-1,-1,-1,-1,-1],"split_conditions":[7.355613E-1,6.7010176E-1,4.0614158E-2,-2.1067033E0,6.784607E-1,-1.8515736E-2,5.622514E-1,6.6268146E-1,1.4048755E-3,-2.0509326E0,-9.263358E-2,4.5046192E-1,-3.2565393E-3,-3.7418606E-4,4.8350097E-4,-1.8396676E-3,4.199639E-4,-1.6694487E-3,2.403176E-3],"split_indices":[26,4,0,0,28,0,29,3,0,8,28,0,0,0,0,0,0,0,0],"split_type":[0,0,0,0,0,0,0,0,0,0,0,0,0,0,0,0,0,0,0],"sum_hessian":[4.57E2,3.27E2,1.3E2,3.11E2,1.6E1,4E0,3.07E2,1.3E1,3E0,2.34E2,7.3E1,3E0,1E1,3E0,2.31E2,3.1E1,4.2E1,1E0,2E0],"tree_param":{"num_deleted":"0","num_feature":"31","num_nodes":"19","size_leaf_vector":"1"}},{"base_weights":[8.3146065E-2,2.012384E-2,2.4796749E-2,3.2232706E-2,-6.25E-2,-4.75E-1,4.8543688E-2,-6.428572E-2,-6.25E-2,-4.0625E-1,6.0430463E-2,-3.75E-2,1.6666668E-2,-6.25E-2,1.6666668E-2,7.0101353E-3,-3.5714287E-2],"categories":[],"categories_nodes":[],"categories_segments":[],"categories_sizes":[],"default_left":[0,0,0,0,0,0,0,0,0,0,0,0,0,0,0,0,0],"id":36,"left_children":[1,3,-1,5,-1,7,9,-1,11,13,15,-1,-1,-1,-1,-1,-1],"loss_changes":[4.6174088E0,2.5433302E0,0E0,2.65402E0,0E0,6.5223217E-1,1.695013E0,0E0,3.4895834E-1,1.1067708E0,1.2446043E0,0E0,0E0,0E0,0E0,0E0,0E0],"parents":[2147483647,0,0,1,1,3,3,5,5,6,6,8,8,9,9,10,10],"right_children":[2,4,-1,6,-1,8,10,-1,12,14,16,-1,-1,-1,-1,-1,-1],"split_conditions":[7.355613E-1,1.1943207E0,3.6231678E-2,-2.0165358E0,-3.367147E-3,3.760133E-1,-2.4972827E0,-6.104499E-3,-2.0394096E0,3.9901927E-1,2.5411952E0,-1.5571356E-3,7.3444843E-4,-1.3069326E-2,9.6166135E-5,2.4455786E-4,-1.1197887E-3],"split_indices":[26,9,0,12,0,29,27,0,0,8,23,0,0,0,0,0,0],"split_type":[0,0,0,0,0,0,0,0,0,0,0,0,0,0,0,0,0],"sum_hessian":[4.44E2,3.22E2,1.22E2,3.17E2,5E0,9E0,3.08E2,6E0,3E0,7E0,3.01E2,1E0,2E0,5E0,2E0,2.95E2,6E0],"tree_param":{"num_deleted":"0","num_feature":"31","num_nodes":"17","size_leaf_vector":"1"}},{"base_weights":[8.089887E-2,1.484375E-2,2.4801588E-2,-6.25E-2,2.6984127E-2,-6.25E-2,1.0565476E-1,-1.2844037E-1,1.1875E-1,-1.5277778E-1,1.3576159E-1,-5.965909E-3,-3.977273E-2,1.818182E-2,-1.5625E-2,2.2222223E-2,-4.75E-2,1.6123189E-2,-1.25E-2],"categories":[],"categories_nodes":[],"categories_segments":[],"categories_sizes":[],"default_left":[0,0,0,0,0,0,0,0,0,0,0,0,0,0,0,0,0,0,0],"id":37,"left_children":[1,3,-1,-1,5,7,9,11,13,15,17,-1,-1,-1,-1,-1,-1,-1,-1],"loss_changes":[4.9086447E0,2.5026073E0,0E0,0E0,2.2241318E0,1.7841024E0,1.3278793E0,1.9951589E0,7.2215915E-1,2.2805555E0,1.023047E0,0E0,0E0,0E0,0E0,0E0,0E0,0E0,0E0],"parents":[2147483647,0,0,1,1,4,4,5,5,6,6,7,7,8,8,9,9,10,10],"right_children":[2,4,-1,-1,6,8,10,12,14,16,18,-1,-1,-1,-1,-1,-1,-1,-1],"split_conditions":[8.341969E-1,-2.1067033E0,3.5417773E-2,-1.5398979E-2,-9.263358E-2,4.2379656E-1,-1.858356E0,4.9612558E-1,4.1727576E-1,-1.9547782E0,1.2919797E0,-3.6352276E-4,-1.936546E-3,2.6699759E-3,-1.3917342E-3,1.2879014E-3,-5.7230593E-4,8.4407406E-4,-7.2631094E-4],"split_indices":[0,0,0,0,28,27,19,0,29,18,29,0,0,0,0,0,0,0,0],"split_type":[0,0,0,0,0,0,0,0,0,0,0,0,0,0,0,0,0,0,0],"sum_hessian":[4.44E2,3.19E2,1.25E2,5E0,3.14E2,1.47E2,1.67E2,1.08E2,3.9E1,1.7E1,1.5E2,8.7E1,2.1E1,3.2E1,7E0,8E0,9E0,1.37E2,1.3E1],"tree_param":{"num_deleted":"0","num_feature":"31","num_nodes":"19","size_leaf_vector":"1"}},{"base_weights":[8.690745E-2,2.0634921E-2,2.4806201E-2,3.5598706E-2,-6.428572E-2,9.7297296E-2,-5.6E-2,1.2857144E-1,-4.090909E-1,-1.3513514E-2,-3.6666667E-1,-1.75E-2,1.4608434E-2,-6.428572E-2,-0E0,-2.0689657E-2,5.421687E-3,2.0833334E-2,-6.75E-2],"categories":[],"categories_nodes":[],"categories_segments":[],"categories_sizes":[],"default_left":[0,0,0,0,0,0,0,0,0,0,0,0,0,0,0,0,0,0,0],"id":38,"left_children":[1,3,-1,5,-1,7,9,11,13,15,17,-1,-1,-1,-1,-1,-1,-1,-1],"loss_changes":[4.7261744E0,3.150316E0,0E0,1.7517655E0,0E0,2.9824147E0,1.644937E0,9.559381E-1,1.051948E0,1.4650849E0,2.8E0,0E0,0E0,0E0,0E0,0E0,0E0,0E0,0E0],"parents":[2147483647,0,0,1,1,3,3,5,5,6,6,7,7,8,8,9,9,10,10],"right_children":[2,4,-1,6,-1,8,10,12,14,16,18,-1,-1,-1,-1,-1,-1,-1,-1],"split_conditions":[7.004104E-1,7.96701E-1,2.9146997E-2,2.7297033E-2,-3.5066814E-3,2.028138E0,4.466525E-1,-1.9327828E0,-3.3485036E-2,-1.0037665E0,-2.4755241E-1,-1.875931E-3,5.7848095E-4,-3.5661191E-3,-9.993702E-4,-2.726087E-3,1.1823774E-4,4.7751368E-4,-1.3361544E-3],"split_indices":[0,4,0,23,0,24,18,18,29,2,29,0,0,0,0,0,0,0,0],"split_type":[0,0,0,0,0,0,0,0,0,0,0,0,0,0,0,0,0,0,0],"sum_hessian":[4.42E2,3.14E2,1.28E2,3.08E2,6E0,1.84E2,1.24E2,1.74E2,1E1,1.1E2,1.4E1,9E0,1.65E2,6E0,4E0,2.8E1,8.2E1,5E0,9E0],"tree_param":{"num_deleted":"0","num_feature":"31","num_nodes":"19","size_leaf_vector":"1"}},{"base_weights":[7.5178996E-2,8.250825E-3,2.4786325E-2,-1.25E-1,7.549505E-2,-6.741573E-2,-4.8214287E-1,-4E-1,8.712121E-2,-3.068182E-1,1.1029412E-2,-6.818182E-2,1.875E-2,-5.6250002E-2,1.25E-2,2.4793388E-2,1.826923E-1,-7.692308E-3,-5.75E-2,1.1875E-2,-1.3793103E-2,-4.7058826E-3,1.891892E-2,-3.75E-2,1.9480519E-2],"categories":[],"categories_nodes":[],"categories_segments":[],"categories_sizes":[],"default_left":[0,0,0,0,0,0,0,0,0,0,0,0,0,0,0,0,0,0,0,0,0,0,0,0,0],"id":39,"left_children":[1,3,-1,5,7,9,11,13,15,17,19,-1,-1,-1,-1,21,23,-1,-1,-1,-1,-1,-1,-1,-1],"loss_changes":[4.840523E0,2.7244225E0,0E0,2.0652087E0,1.1515415E0,1.6748005E0,1.9997971E0,4.96875E-1,1.1749047E0,1.3121505E0,1.1075145E0,0E0,0E0,0E0,0E0,1.4381795E0,5.999625E-1,0E0,0E0,0E0,0E0,0E0,0E0,0E0,0E0],"parents":[2147483647,0,0,1,1,3,3,4,4,5,5,6,6,7,7,8,8,9,9,10,10,15,15,16,16],"right_children":[2,4,-1,6,8,10,12,14,16,18,20,-1,-1,-1,-1,22,24,-1,-1,-1,-1,-1,-1,-1,-1],"split_conditions":[9.2679226E-1,-3.3478728E-1,2.910176E-2,5.05739E-1,-2.0745823E0,-1.8110912E0,3.0129957E-1,-1.3265316E0,2.3766172E-1,-1.5535117E0,3.1580567E-1,-3.2548027E-3,3.7397444E-3,-2.2341013E-3,5.769849E-4,7.629477E-1,-2.0254498E0,-9.7066764E-4,-6.850672E-3,3.766656E-4,-2.1540548E-4,-1.6994998E-4,1.3421796E-3,-2.8786182E-3,7.9895556E-4],"split_indices":[26,27,0,0,9,0,28,3,24,7,11,0,0,0,0,27,9,0,0,0,0,0,0,0,0],"split_type":[0,0,0,0,0,0,0,0,0,0,0,0,0,0,0,0,0,0,0,0,0,0,0,0,0],"sum_hessian":[4.18E2,3.02E2,1.16E2,1.01E2,2.01E2,8.8E1,1.3E1,4E0,1.97E2,2.1E1,6.7E1,1E1,3E0,3E0,1E0,1.2E2,7.7E1,1.2E1,9E0,3.9E1,2.8E1,8.4E1,3.6E1,1E0,7.6E1],"tree_param":{"num_deleted":"0","num_feature":"31","num_nodes":"25","size_leaf_vector":"1"}},{"base_weights":[7.897727E-2,1.917178E-2,2.478261E-2,-9.090909E-2,8.3737865E-2,-3.3980582E-2,-3.9473686E-1,1.007653E-1,-2.2727273E-1,-3.75E-1,2.6595744E-3,1.875E-2,-5.15625E-1,-1.40625E-1,1.2154696E-1,-6.25E-2,2.0833334E-2,1.6666668E-2,-5.3125E-2,1.9791668E-2,-6.338028E-3,1.6666668E-2,-6.25E-2,1.1111111E-2,-4.0625002E-2,1.6741073E-2,4.6428572E-3],"categories":[],"categories_nodes":[],"categories_segments":[],"categories_sizes":[],"default_left":[0,0,0,0,0,0,0,0,0,0,0,0,0,0,0,0,0,0,0,0,0,0,0,0,0,0,0],"id":40,"left_children":[1,3,-1,5,7,9,11,13,15,17,19,-1,21,23,25,-1,-1,-1,-1,-1,-1,-1,-1,-1,-1,-1,-1],"loss_changes":[4.438407E0,2.3246543E0,0E0,2.0794582E0,1.1138185E0,1.287983E0,1.434005E0,1.0003246E0,2.035985E0,9.3489575E-1,1.2246505E0,0E0,1.2981772E0,1.1150174E0,6.158104E-1,0E0,0E0,0E0,0E0,0E0,0E0,0E0,0E0,0E0,0E0,0E0,0E0],"parents":[2147483647,0,0,1,1,3,3,4,4,5,5,6,6,7,7,8,8,9,9,10,10,12,12,13,13,14,14],"right_children":[2,4,-1,6,8,10,12,14,16,18,20,-1,22,24,26,-1,-1,-1,-1,-1,-1,-1,-1,-1,-1,-1,-1],"split_conditions":[9.2679226E-1,-4.1521898E-1,2.6372185E-2,4.8651218E-1,7.013639E-1,-1.9925026E0,5.1917106E-1,-1.9539909E0,7.386843E-1,-1.8374263E0,-6.7700744E-1,1.1188984E-4,-1.641106E0,-1.997044E0,3.728766E-1,-2.8545768E-3,6.475857E-3,3.3899545E-4,-2.0106912E-3,2.3491382E-4,-2.5542E-4,2.6480557E-4,-2.1901608E-3,2.8670134E-4,-3.6362172E-3,1.1656642E-3,7.593185E-5],"split_indices":[26,30,0,0,5,11,3,3,28,5,20,0,28,3,29,0,0,0,0,0,0,0,0,0,0,0,0],"split_type":[0,0,0,0,0,0,0,0,0,0,0,0,0,0,0,0,0,0,0,0,0,0,0,0,0,0,0],"sum_hessian":[4.39E2,3.25E2,1.14E2,1.2E2,2.05E2,1.02E2,1.8E1,1.95E2,1E1,9E0,9.3E1,3E0,1.5E1,1.5E1,1.8E2,5E0,5E0,2E0,7E0,2.3E1,7E1,2E0,1.3E1,8E0,7E0,1.11E2,6.9E1],"tree_param":{"num_deleted":"0","num_feature":"31","num_nodes":"27","size_leaf_vector":"1"}},{"base_weights":[8.764045E-2,2.8374232E-2,2.4791667E-2,-1.6346155E-2,2.0149253E-1,1.3671875E-1,-6.5989845E-2,-2E-1,2.3015873E-1,-2.2222222E-1,1.9196428E-1,-3.139535E-1,3.2258064E-3,-5E-2,1.6666668E-2,-3.75E-2,2.4596775E-2,1.875E-2,-4.5833334E-2,-3.75E-2,2.0909091E-2,2.1428572E-2,-4.0540542E-2,4.280822E-3,-5.75E-2],"categories":[],"categories_nodes":[],"categories_segments":[],"categories_sizes":[],"default_left":[0,0,0,0,0,0,0,0,0,0,0,0,0,0,0,0,0,0,0,0,0,0,0,0,0],"id":41,"left_children":[1,3,-1,5,7,9,11,13,15,17,19,21,23,-1,-1,-1,-1,-1,-1,-1,-1,-1,-1,-1,-1],"loss_changes":[4.220005E0,2.5271587E0,0E0,1.9846859E0,8.1715226E-1,1.3117714E0,3.3821175E0,6.333333E-1,6.9495654E-1,9.565972E-1,6.221795E-1,2.1641374E0,3.5721886E0,0E0,0E0,0E0,0E0,0E0,0E0,0E0,0E0,0E0,0E0,0E0,0E0],"parents":[2147483647,0,0,1,1,3,3,4,4,5,5,6,6,7,7,8,8,9,9,10,10,11,11,12,12],"right_children":[2,4,-1,6,8,10,12,14,16,18,20,22,24,-1,-1,-1,-1,-1,-1,-1,-1,-1,-1,-1,-1],"split_conditions":[9.2679226E-1,7.629477E-1,2.5677789E-2,-1.4639287E0,-1.9100637E0,-1.996156E0,-7.416222E-1,-1.7961295E0,-4.347504E0,-2.0472524E0,-2.059332E0,-8.231611E-1,1.2086264E0,-4.295349E-4,1.1088848E-4,-1.3397574E-2,1.7951251E-3,1.1878371E-3,-4.446441E-3,-3.6924244E-3,5.606622E-4,4.734397E-4,-2.6936985E-3,4.7545134E-5,-2.3835555E-3],"split_indices":[26,27,0,17,15,2,10,3,20,2,5,24,29,0,0,0,0,0,0,0,0,0,0,0,0],"split_type":[0,0,0,0,0,0,0,0,0,0,0,0,0,0,0,0,0,0,0,0,0,0,0,0,0],"sum_hessian":[4.44E2,3.25E2,1.19E2,2.59E2,6.6E1,6.3E1,1.96E2,4E0,6.2E1,8E0,5.5E1,4.2E1,1.54E2,2E0,2E0,1E0,6.1E1,3E0,5E0,1E0,5.4E1,6E0,3.6E1,1.45E2,9E0],"tree_param":{"num_deleted":"0","num_feature":"31","num_nodes":"25","size_leaf_vector":"1"}},{"base_weights":[8.690745E-2,2.972561E-2,2.4784483E-2,-6.25E-2,4.1795667E-2,5.5555556E-2,-4.4444445E-1,1.00823045E-1,-9.589041E-2,1.6666668E-2,-6.428572E-2,-5.6250002E-2,1.1145833E-2,3.773585E-3,-4.2857144E-2],"categories":[],"categories_nodes":[],"categories_segments":[],"categories_sizes":[],"default_left":[0,0,0,0,0,0,0,0,0,0,0,0,0,0,0],"id":42,"left_children":[1,3,-1,-1,5,7,9,11,13,-1,-1,-1,-1,-1,-1],"loss_changes":[4.0694265E0,2.6181667E0,0E0,0E0,2.1857586E0,2.1691751E0,1.1984125E0,1.7769706E0,3.2613816E0,0E0,0E0,0E0,0E0,0E0,0E0],"parents":[2147483647,0,0,1,1,4,4,5,5,6,6,7,7,8,8],"right_children":[2,4,-1,-1,6,8,10,12,14,-1,-1,-1,-1,-1,-1],"split_conditions":[8.341969E-1,-2.1067033E0,2.1287585E-2,-1.27680665E-2,7.96701E-1,6.482061E-1,-9.293735E-1,-2.0509326E0,3.540733E-1,2.3357272E-4,-2.7150586E-3,-2.3112298E-4,2.976507E-4,1.7680154E-4,-1.3910525E-3],"split_indices":[0,0,0,0,4,29,27,8,7,0,0,0,0,0,0],"split_type":[0,0,0,0,0,0,0,0,0,0,0,0,0,0,0],"sum_hessian":[4.42E2,3.27E2,1.15E2,5E0,3.22E2,3.14E2,8E0,2.42E2,7.2E1,2E0,6E0,3E0,2.39E2,5.2E1,2E1],"tree_param":{"num_deleted":"0","num_feature":"31","num_nodes":"15","size_leaf_vector":"1"}},{"base_weights":[9.034091E-2,3.317901E-2,2.4786325E-2,-6.25E-2,4.5454547E-2,-3.0769232E-1,6.0260586E-2,4.1666668E-2,-5.3125E-1,7.25E-2,-4.0625E-1,-3.75E-2,2.0000001E-2,1.25E-2,-6.428572E-2,8.080808E-3,-5.6250002E-2,-6.25E-2,1.6666668E-2],"categories":[],"categories_nodes":[],"categories_segments":[],"categories_sizes":[],"default_left":[0,0,0,0,0,0,0,0,0,0,0,0,0,0,0,0,0,0,0],"id":43,"left_children":[1,3,-1,-1,5,7,9,11,13,15,17,-1,-1,-1,-1,-1,-1,-1,-1],"loss_changes":[3.9536572E0,2.6461666E0,0E0,0E0,1.6864991E0,1.03746E0,1.7823666E0,4.7083333E-1,6.662946E-1,1.628144E0,1.1067708E0,0E0,0E0,0E0,0E0,0E0,0E0,0E0,0E0],"parents":[2147483647,0,0,1,1,4,4,5,5,6,6,7,7,8,8,9,9,10,10],"right_children":[2,4,-1,-1,6,8,10,12,14,16,18,-1,-1,-1,-1,-1,-1,-1,-1],"split_conditions":[9.215187E-1,-2.1067033E0,2.4106447E-2,-1.1491263E-2,-1.9779891E0,-1.997044E0,1.1686432E0,-2.0521522E0,-1.7845176E0,2.5411952E0,1.2433991E0,-3.0408024E-3,8.212E-4,3.2159209E-3,-5.173278E-3,1.4525726E-4,-1.137039E-3,-2.7968646E-3,2.1021665E-4],"split_indices":[0,0,0,0,16,3,10,1,7,23,11,0,0,0,0,0,0,0,0],"split_type":[0,0,0,0,0,0,0,0,0,0,0,0,0,0,0,0,0,0,0],"sum_hessian":[4.39E2,3.23E2,1.16E2,5E0,3.18E2,1.2E1,3.06E2,5E0,7E0,2.99E2,7E0,1E0,4E0,1E0,6E0,2.96E2,3E0,5E0,2E0],"tree_param":{"num_deleted":"0","num_feature":"31","num_nodes":"19","size_leaf_vector":"1"}},{"base_weights":[7.349397E-2,2.2515528E-2,2.4734043E-2,-8.547009E-2,8.3737865E-2,2.5423728E-2,-1.9491525E-1,-1.6E-1,1.1675824E-1,-6.0000002E-2,8.181818E-2,-6.9444445E-3,-4.6875E-1,2.2499999E-2,-3.90625E-1,2.4242425E-2,8.833333E-2,1.5340909E-2,-1.875E-2,-5.6250002E-2,6.0606063E-3,-5.3409096E-2,1.6666668E-2,-5.75E-2,-7.1428576E-3,-1.875E-2,1.1151079E-2],"categories":[],"categories_nodes":[],"categories_segments":[],"categories_sizes":[],"default_left":[0,0,0,0,0,0,0,0,0,0,0,0,0,0,0,0,0,0,0,0,0,0,0,0,0,0,0],"id":44,"left_children":[1,3,-1,5,7,9,11,13,15,-1,17,19,21,-1,23,-1,25,-1,-1,-1,-1,-1,-1,-1,-1,-1,-1],"loss_changes":[3.672336E0,2.1359415E0,0E0,1.4249601E0,1.6766347E0,2.1300464E0,3.0336483E0,2.3076563E0,6.286981E-1,0E0,1.0892045E0,1.385101E0,1.085464E0,0E0,9.0055823E-1,0E0,9.798757E-1,0E0,0E0,0E0,0E0,0E0,0E0,0E0,0E0,0E0,0E0],"parents":[2147483647,0,0,1,1,3,3,4,4,5,5,6,6,7,7,8,8,10,10,11,11,12,12,14,14,16,16],"right_children":[2,4,-1,6,8,10,12,14,16,-1,18,20,22,-1,24,-1,26,-1,-1,-1,-1,-1,-1,-1,-1,-1,-1],"split_conditions":[1.0073221E0,-3.7435213E-1,2.1477884E-2,-1.5753537E-1,-7.238123E-1,-1.9747322E0,3.2450432E-1,-1.889006E-2,-2.3520756E-1,-2.019599E-3,8.358906E-1,-2.0394096E0,-2.6032686E-1,5.744338E-4,4.5536134E-1,2.3203285E-3,-1.1345664E-1,1.6981363E-4,-1.0496229E-3,-4.4929027E-3,1.4664941E-4,-1.8746406E-3,2.3610652E-3,-2.509667E-3,-1.7517016E-3,-1.3247699E-3,4.18742E-4],"split_indices":[26,30,0,29,28,9,11,30,28,0,20,0,27,0,10,0,28,0,0,0,0,0,0,0,0,0,0],"split_type":[0,0,0,0,0,0,0,0,0,0,0,0,0,0,0,0,0,0,0,0,0,0,0,0,0,0,0],"sum_hessian":[4.14E2,3.21E2,9.3E1,1.16E2,2.05E2,5.8E1,5.8E1,2.4E1,1.81E2,4E0,5.4E1,3.5E1,2.3E1,9E0,1.5E1,3.2E1,1.49E2,4.3E1,1.1E1,3E0,3.2E1,2.1E1,2E0,9E0,6E0,1.1E1,1.38E2],"tree_param":{"num_deleted":"0","num_feature":"31","num_nodes":"27","size_leaf_vector":"1"}},{"base_weights":[9.261364E-2,3.984375E-2,2.3140496E-1,-4.1420117E-2,1.299342E-1,-3.75E-2,2.3958333E-1,1.459854E-2,-2.7272728E-1,-6.25E-2,1.5789473E-1,2.4786325E-2,-6.25E-2,6.521739E-2,-2.3913044E-1,-5.535714E-1,-6.25E-2,5.882353E-2,-5.6250002E-2,-2E-1,1.7054264E-1,1.6666668E-2,-3.75E-2,-5E-2,7.964603E-3,-6.25E-2,-9.722223E-3,1.6666668E-2,-6.875E-2,-3.75E-2,2.2727273E-2,2.3214286E-2,-5.6250002E-2,-5E-2,1.6666668E-2,1.84E-2,-2.0000001E-2],"categories":[],"categories_nodes":[],"categories_segments":[],"categories_sizes":[],"default_left":[0,0,0,0,0,0,0,0,0,0,0,0,0,0,0,0,0,0,0,0,0,0,0,0,0,0,0,0,0,0,0,0,0,0,0,0,0],"id":45,"left_children":[1,3,5,7,9,-1,11,13,15,17,19,-1,21,23,25,27,29,31,-1,33,35,-1,-1,-1,-1,-1,-1,-1,-1,-1,-1,-1,-1,-1,-1,-1,-1],"loss_changes":[3.213341E0,2.3481338E0,6.8993235E-1,2.1938016E0,8.277137E-1,0E0,3.1563807E-1,1.7751507E0,1.9137583E0,1.2463236E0,6.3614845E-1,0E0,3.4895834E-1,9.776837E-1,1.1986715E0,1.4650297E0,1.8963068E0,1.9612656E0,0E0,6.333333E-1,6.800618E-1,0E0,0E0,0E0,0E0,0E0,0E0,0E0,0E0,0E0,0E0,0E0,0E0,0E0,0E0,0E0,0E0],"parents":[2147483647,0,0,1,1,2,2,3,3,4,4,6,6,7,7,8,8,9,9,10,10,12,12,13,13,14,14,15,15,16,16,17,17,19,19,20,20],"right_children":[2,4,6,8,10,-1,12,14,16,18,20,-1,22,24,26,28,30,32,-1,34,36,-1,-1,-1,-1,-1,-1,-1,-1,-1,-1,-1,-1,-1,-1,-1,-1],"split_conditions":[9.215187E-1,-1.6855467E-2,-1.57364E0,5.3382874E-1,-7.097938E-1,-1.9892931E-3,2.4019074E0,8.775792E-1,6.470292E-1,4.6642247E-1,-2.0704055E0,1.8939449E-2,1.2419244E0,-2.0394456E0,-8.340779E-1,4.6087644E-1,-7.148304E-1,-7.6104575E-1,-1.5671075E-3,-2.0161786E0,2.0088716E0,1.958307E-2,-3.5568892E-3,-5.1653865E-3,1.08530374E-4,-3.0770183E-3,-5.435072E-4,2.0979585E-3,-1.8908381E-3,-2.5372654E-3,3.1235458E-3,1.668337E-3,-2.5193156E-3,-1.0779715E-2,7.407427E-4,8.256704E-4,-9.424351E-4],"split_indices":[0,28,27,26,24,0,29,29,26,12,2,0,23,12,23,0,27,24,0,3,29,0,0,0,0,0,0,0,0,0,0,0,0,0,0,0,0],"split_type":[0,0,0,0,0,0,0,0,0,0,0,0,0,0,0,0,0,0,0,0,0,0,0,0,0,0,0,0,0,0,0,0,0,0,0,0,0],"sum_hessian":[4.39E2,3.19E2,1.2E2,1.68E2,1.51E2,1E0,1.19E2,1.36E2,3.2E1,1.9E1,1.32E2,1.16E2,3E0,1.14E2,2.2E1,1.3E1,1.9E1,1.6E1,3E0,4E0,1.28E2,2E0,1E0,2E0,1.12E2,5E0,1.7E1,2E0,1.1E1,9E0,1E1,1.3E1,3E0,2E0,2E0,1.24E2,4E0],"tree_param":{"num_deleted":"0","num_feature":"31","num_nodes":"37","size_leaf_vector":"1"}},{"base_weights":[7.688053E-2,3.2394364E-2,2.372449E-1,-4.3539327E-2,1.08146064E-1,1.25E-1,2.4719102E-2,-1.8895349E-2,-6.428572E-2,1.2212644E-1,-4E-1,-3.75E-2,2.2222223E-2,-1.4E-1,7.3979594E-2,4.4303797E-2,1.8489583E-1,1.25E-2,-5.6250002E-2,-3.8541667E-2,-2.4038462E-3,7.042253E-4,2.4107143E-2,6.4935065E-3,-5E-2,-5E-2,2.0478724E-2],"categories":[],"categories_nodes":[],"categories_segments":[],"categories_sizes":[],"default_left":[0,0,0,0,0,0,0,0,0,0,0,0,0,0,0,0,0,0,0,0,0,0,0,0,0,0,0],"id":46,"left_children":[1,3,5,7,9,11,-1,13,-1,15,17,-1,-1,19,21,23,25,-1,-1,-1,-1,-1,-1,-1,-1,-1,-1],"loss_changes":[3.2168808E0,2.0467064E0,7.850838E-2,2.6168373E0,1.3133748E0,5.694444E-1,0E0,1.9449421E0,0E0,8.417778E-1,4.96875E-1,0E0,0E0,2.1251523E0,1.0944012E0,9.1961205E-1,1.4102528E0,0E0,0E0,0E0,0E0,0E0,0E0,0E0,0E0,0E0,0E0],"parents":[2147483647,0,0,1,1,2,2,3,3,4,4,5,5,7,7,9,9,10,10,13,13,14,14,15,15,16,16],"right_children":[2,4,6,8,10,12,-1,14,-1,16,18,-1,-1,20,22,24,26,-1,-1,-1,-1,-1,-1,-1,-1,-1,-1],"split_conditions":[1.0205032E0,-1.4585688E-2,-8.21189E-1,1.1277539E0,2.4019074E0,-4.1474178E-1,1.9268086E-2,-7.965494E-2,-1.1897713E-3,1.6208917E-1,7.5728106E-1,-2.510369E-4,1.2483022E-2,-9.5342284E-1,3.7170595E-1,2.8035321E0,-9.0456426E-1,1.7624766E-2,-1.1784697E-2,-1.8867732E-3,-1.3916493E-4,4.253313E-5,6.392598E-4,1.1356473E-4,-2.7748346E-4,-1.2402833E-3,2.9954314E-3],"split_indices":[26,27,27,9,29,23,0,28,0,19,23,0,0,27,20,28,24,0,0,0,0,0,0,0,0,0,0],"split_type":[0,0,0,0,0,0,0,0,0,0,0,0,0,0,0,0,0,0,0,0,0,0,0,0,0,0,0],"sum_hessian":[4.51E2,3.54E2,9.7E1,1.77E2,1.77E2,9E0,8.8E1,1.71E2,6E0,1.73E2,4E0,1E0,8E0,7.4E1,9.7E1,7.8E1,9.5E1,1E0,3E0,2.3E1,5.1E1,7E1,2.7E1,7.6E1,2E0,2E0,9.3E1],"tree_param":{"num_deleted":"0","num_feature":"31","num_nodes":"27","size_leaf_vector":"1"}},{"base_weights":[6.1810154E-2,1.20056495E-2,2.375E-1,4.656863E-2,-2.0408164E-1,2.4725275E-2,1.25E-1,-1.736111E-1,7.564576E-2,-3.5714287E-1,1.6666667E-1,-3.75E-2,2.2222223E-2,-5.9090906E-1,9.615385E-3,-3.181818E-1,9.195402E-2,-9.7222224E-2,-5.972222E-1,-3.75E-2,2.3214286E-2,1.25E-2,-6.75E-2,1.4285715E-2,-4.5833334E-2,-4.4444446E-2,1.6666668E-2,9.84556E-3,-5E-2,-4.5833334E-2,7.692308E-3,-7E-2,-6.25E-3],"categories":[],"categories_nodes":[],"categories_segments":[],"categories_sizes":[],"default_left":[0,0,0,0,0,0,0,0,0,0,0,0,0,0,0,0,0,0,0,0,0,0,0,0,0,0,0,0,0,0,0,0,0],"id":47,"left_children":[1,3,5,7,9,-1,11,13,15,17,19,-1,-1,21,23,25,27,29,31,-1,-1,-1,-1,-1,-1,-1,-1,-1,-1,-1,-1,-1,-1],"loss_changes":[3.9609647E0,2.6533952E0,7.8811646E-2,1.9722046E0,2.840136E0,0E0,5.694444E-1,2.7582433E0,1.7697948E0,2.1259918E0,6.1904764E-1,0E0,0E0,7.465911E-1,1.6865842E0,7.474748E-1,1.0537212E0,1.1672008E0,9.4548607E-1,0E0,0E0,0E0,0E0,0E0,0E0,0E0,0E0,0E0,0E0,0E0,0E0,0E0,0E0],"parents":[2147483647,0,0,1,1,2,2,3,3,4,4,6,6,7,7,8,8,9,9,10,10,13,13,14,14,15,15,16,16,17,17,18,18],"right_children":[2,4,6,8,10,-1,12,14,16,18,20,-1,-1,22,24,26,28,30,32,-1,-1,-1,-1,-1,-1,-1,-1,-1,-1,-1,-1,-1,-1],"split_conditions":[1.023029E0,8.775792E-1,1.586866E0,-1.1707588E0,1.2599314E0,1.7125783E-2,1.0897533E0,-3.6630848E-1,-1.965976E0,2.990508E-1,-2.0051048E0,-2.259314E-4,1.4430351E-2,-2.1039453E0,1.0149541E0,-1.6236298E0,2.573351E0,-1.7598197E0,1.1363393E0,-7.8396796E-4,2.5529563E-4,1.7995537E-4,-2.494645E-3,1.6101003E-4,-1.7492399E-3,-3.1123608E-3,9.598732E-5,2.8325617E-4,-2.4973156E-4,-6.6797375E-3,2.2703409E-4,-2.1465214E-3,-2.1680237E-3],"split_indices":[26,29,29,28,30,0,0,24,12,0,10,0,0,20,15,0,30,0,12,0,0,0,0,0,0,0,0,0,0,0,0,0,0],"split_type":[0,0,0,0,0,0,0,0,0,0,0,0,0,0,0,0,0,0,0,0,0,0,0,0,0,0,0,0,0,0,0,0,0],"sum_hessian":[4.52E2,3.53E2,9.9E1,3.05E2,4.8E1,9E1,9E0,3.5E1,2.7E2,3.4E1,1.4E1,1E0,8E0,1E1,2.5E1,1E1,2.6E2,1.7E1,1.7E1,1E0,1.3E1,1E0,9E0,2E1,5E0,8E0,2E0,2.58E2,2E0,5E0,1.2E1,1.4E1,3E0],"tree_param":{"num_deleted":"0","num_feature":"31","num_nodes":"33","size_leaf_vector":"1"}},{"base_weights":[6.739631E-2,1.7804155E-2,2.372449E-1,7.3E-2,-1.3920455E-1,2.4719102E-2,1.25E-1,-5.6250002E-2,8.299595E-2,-2.4603175E-1,1.25E-1,-3.75E-2,2.2222223E-2,4.3421052E-2,2.112069E-1,5.882353E-2,-3.5106382E-1,-5E-2,1.9791667E-1,-0E0,1.7934782E-2,-3.75E-2,2.2807017E-2,1.6666668E-2,-5E-2,-5.078125E-2,-1.5625E-3,-6.25E-3,2.3809524E-2],"categories":[],"categories_nodes":[],"categories_segments":[],"categories_sizes":[],"default_left":[0,0,0,0,0,0,0,0,0,0,0,0,0,0,0,0,0,0,0,0,0,0,0,0,0,0,0,0,0],"id":48,"left_children":[1,3,5,7,9,-1,11,-1,13,15,17,-1,-1,19,21,23,25,-1,27,-1,-1,-1,-1,-1,-1,-1,-1,-1,-1],"loss_changes":[3.6514268E0,2.9306808E0,7.850838E-2,1.634792E0,2.5144863E0,0E0,5.694444E-1,0E0,1.2440913E0,2.037885E0,1.2838542E0,0E0,0E0,1.121396E0,6.588776E-1,1.107843E0,2.463306E0,0E0,2.65997E-1,0E0,0E0,0E0,0E0,0E0,0E0,0E0,0E0,0E0,0E0],"parents":[2147483647,0,0,1,1,2,2,3,3,4,4,6,6,8,8,9,9,10,10,13,13,14,14,15,15,16,16,18,18],"right_children":[2,4,6,8,10,-1,12,-1,14,16,18,-1,-1,20,22,24,26,-1,28,-1,-1,-1,-1,-1,-1,-1,-1,-1,-1],"split_conditions":[1.023029E0,5.139104E-1,1.586866E0,-3.426154E0,4.5585093E-1,1.5387908E-2,1.0897533E0,-9.95152E-3,7.629477E-1,-6.3402736E-1,-1.8058857E0,-2.033353E-4,1.2987316E-2,1.2038811E-1,-2.0057669E0,-1.1467218E-1,5.7582504E-1,-5.829215E-4,-8.181813E-1,-5.4046513E-6,3.450364E-4,-9.067059E-5,1.6347215E-3,5.9318094E-4,-2.0852804E-3,-1.7978608E-3,-2.9373766E-4,-1.1553243E-3,2.1933124E-3],"split_indices":[26,29,29,30,27,0,0,0,27,20,17,0,0,29,1,27,23,0,28,0,0,0,0,0,0,0,0,0,0],"split_type":[0,0,0,0,0,0,0,0,0,0,0,0,0,0,0,0,0,0,0,0,0,0,0,0,0,0,0,0,0],"sum_hessian":[4.33E2,3.36E2,9.7E1,2.49E2,8.7E1,8.8E1,9E0,3E0,2.46E2,6.2E1,2.5E1,1E0,8E0,1.89E2,5.7E1,1.6E1,4.6E1,2E0,2.3E1,1.44E2,4.5E1,1E0,5.6E1,1.4E1,2E0,3.1E1,1.5E1,3E0,2E1],"tree_param":{"num_deleted":"0","num_feature":"31","num_nodes":"29","size_leaf_vector":"1"}},{"base_weights":[5.3452116E-2,2.8985508E-3,2.1904762E-1,-5.555556E-1,1.7804155E-2,2.4728261E-2,1.7857144E-2,1.25E-2,-6.5625004E-2,-6.40625E-2,9.1292135E-2,-5.6250002E-2,2.2727273E-2,6.048387E-3,-2.972973E-1,1.1676647E-1,-2.7083334E-1,-4.0625002E-2,3.4188037E-3,-1.6666668E-2,-5.909091E-2,3.508772E-3,1.5765766E-2,-4.4444446E-2,1.875E-2],"categories":[],"categories_nodes":[],"categories_segments":[],"categories_sizes":[],"default_left":[0,0,0,0,0,0,0,0,0,0,0,0,0,0,0,0,0,0,0,0,0,0,0,0,0],"id":49,"left_children":[1,3,5,7,9,-1,11,-1,-1,13,15,-1,-1,17,19,21,23,-1,-1,-1,-1,-1,-1,-1,-1],"loss_changes":[3.7581434E0,2.881704E0,5.9204817E-1,6.987848E-1,2.0333128E0,0E0,1.8293425E0,0E0,0E0,2.618166E0,1.6736572E0,0E0,0E0,1.4525284E0,1.3206387E0,5.5223846E-1,1.0381944E0,0E0,0E0,0E0,0E0,0E0,0E0,0E0,0E0],"parents":[2147483647,0,0,1,1,2,2,3,3,4,4,6,6,9,9,10,10,13,13,14,14,15,15,16,16],"right_children":[2,4,6,8,10,-1,12,-1,-1,14,16,-1,-1,18,20,22,24,-1,-1,-1,-1,-1,-1,-1,-1],"split_conditions":[9.8340726E-1,-2.0414152E0,1.0698605E0,-1.9291295E0,-4.0711176E-2,1.30367875E-2,1.1402236E0,1.8333317E-3,-5.403757E-4,4.9430445E-1,1.7224228E0,-1.778704E-3,1.2259065E-2,-1.9930398E0,4.8734903E-1,-4.416977E-1,2.492962E0,-8.956361E-3,7.824227E-5,-5.3299E-4,-1.8632546E-3,6.42091E-5,7.183373E-4,-2.461163E-3,2.286911E-4],"split_indices":[2,8,29,14,28,0,0,0,0,22,29,0,0,26,29,24,29,0,0,0,0,0,0,0,0],"split_type":[0,0,0,0,0,0,0,0,0,0,0,0,0,0,0,0,0,0,0,0,0,0,0,0,0],"sum_hessian":[4.48E2,3.44E2,1.04E2,8E0,3.36E2,9.1E1,1.3E1,1E0,7E0,1.59E2,1.77E2,3E0,1E1,1.23E2,3.6E1,1.66E2,1.1E1,7E0,1.16E2,2.6E1,1E1,5.6E1,1.1E2,8E0,3E0],"tree_param":{"num_deleted":"0","num_feature":"31","num_nodes":"25","size_leaf_vector":"1"}},{"base_weights":[5.4421768E-2,8.595988E-3,2.2580644E-1,2.9017856E-2,-4.8214287E-1,2.3626374E-1,-1.6666667E-1,-6.25E-2,4.07855E-2,-0E0,-6.75E-2,1.1111111E-1,2.4698796E-2,-3.75E-2,1.25E-2,-3.550296E-2,1.196319E-1,-3.75E-2,1.875E-2,2.1875E-2,-3.75E-2,4E-3,-2.4444444E-2,1.3043478E-2,-5E-2],"categories":[],"categories_nodes":[],"categories_segments":[],"categories_sizes":[],"default_left":[0,0,0,0,0,0,0,0,0,0,0,0,0,0,0,0,0,0,0,0,0,0,0,0,0],"id":50,"left_children":[1,3,5,7,9,11,13,-1,15,17,-1,19,-1,-1,-1,21,23,-1,-1,-1,-1,-1,-1,-1,-1],"loss_changes":[3.4616008E0,3.5116005E0,4.2106867E-1,2.6114302E0,1.3017857E0,9.469366E-2,2.2916666E-1,0E0,1.9952356E0,4.21875E-1,0E0,5.529514E-1,0E0,0E0,0E0,2.6758711E0,1.1563084E0,0E0,0E0,0E0,0E0,0E0,0E0,0E0,0E0],"parents":[2147483647,0,0,1,1,2,2,3,3,4,4,5,5,6,6,8,8,9,9,11,11,15,15,16,16],"right_children":[2,4,6,8,10,12,14,-1,16,18,-1,20,-1,-1,-1,22,24,-1,-1,-1,-1,-1,-1,-1,-1],"split_conditions":[1.0505258E0,1.1686432E0,2.4019074E0,-2.0745823E0,-6.669245E-1,7.547711E-1,1.1890917E0,-2.944231E-4,-1.6855467E-2,9.215187E-1,-2.450858E-3,1.1237003E0,1.7224109E-2,-7.736445E-4,2.6384903E-2,5.493715E-1,2.6118314E0,-1.585114E-3,9.921015E-4,1.055888E-2,-5.13196E-6,1.5269817E-4,-1.0424778E-3,3.1558052E-4,-1.226756E-3],"split_indices":[26,10,29,9,23,12,0,0,28,0,0,5,0,0,0,29,23,0,0,0,0,0,0,0,0],"split_type":[0,0,0,0,0,0,0,0,0,0,0,0,0,0,0,0,0,0,0,0,0,0,0,0,0],"sum_hessian":[4.4E2,3.48E2,9.2E1,3.35E2,1.3E1,9E1,2E0,5E0,3.3E2,4E0,9E0,8E0,8.2E1,1E0,1E0,1.68E2,1.62E2,1E0,3E0,7E0,1E0,1.24E2,4.4E1,1.6E2,2E0],"tree_param":{"num_deleted":"0","num_feature":"31","num_nodes":"25","size_leaf_vector":"1"}},{"base_weights":[4.9889136E-2,-7.183908E-4,2.1875E-1,2.9166667E-2,-1.8367347E-1,2.3774509E-1,-5E-2,-4.647436E-2,1.1034483E-1,-4.861111E-1,-7.8125E-3,2.4736842E-2,9.375E-2,5.6179777E-2,-1.8014705E-1,-4.0625E-1,1.3949275E-1,1.6666668E-2,-5.78125E-1,-4.5833334E-1,9.259259E-2,-3.75E-2,2.1428572E-2,7.4712643E-3,-5E-2,2.1875E-2,-2.2950819E-2,-6.25E-2,1.6666668E-2,2.4553573E-2,6.6265063E-3,-6.333333E-2,1.25E-2,-6.0000002E-2,1.25E-2,1.5625E-2,-3.125E-2],"categories":[],"categories_nodes":[],"categories_segments":[],"categories_sizes":[],"default_left":[0,0,0,0,0,0,0,0,0,0,0,0,0,0,0,0,0,0,0,0,0,0,0,0,0,0,0,0,0,0,0,0,0,0,0,0,0],"id":51,"left_children":[1,3,5,7,9,11,-1,13,15,17,19,-1,21,23,25,27,29,-1,31,33,35,-1,-1,-1,-1,-1,-1,-1,-1,-1,-1,-1,-1,-1,-1,-1,-1],"loss_changes":[3.8542366E0,1.90809E0,1.5387559E0,1.847248E0,2.602364E0,1.1815214E-1,0E0,2.1507611E0,2.2400308E0,1.1775174E0,1.4899449E0,0E0,5.3236604E-1,9.547333E-1,1.3891258E0,1.1067708E0,1.0553384E0,0E0,7.0026064E-1,5.708333E-1,7.45081E-1,0E0,0E0,0E0,0E0,0E0,0E0,0E0,0E0,0E0,0E0,0E0,0E0,0E0,0E0,0E0,0E0],"parents":[2147483647,0,0,1,1,2,2,3,3,4,4,5,5,7,7,8,8,9,9,10,10,12,12,13,13,14,14,15,15,16,16,18,18,19,19,20,20],"right_children":[2,4,6,8,10,12,-1,14,16,18,20,-1,22,24,26,28,30,-1,32,34,36,-1,-1,-1,-1,-1,-1,-1,-1,-1,-1,-1,-1,-1,-1,-1,-1],"split_conditions":[1.0176528E0,6.560284E-1,2.4019074E0,-1.0415077E-2,-4.2711318E-1,1.586866E0,-1.4965832E-3,-1.400254E0,-1.1707588E0,5.346436E-1,6.3244283E-1,1.2634382E-2,1.0897533E0,-7.381921E-1,-8.231611E-1,6.291957E-1,3.5518533E-1,5.6799534E-3,1.2528887E0,6.811836E-1,1.1456994E0,-4.61936E-6,9.208706E-3,1.559198E-4,-2.6985406E-4,1.3698339E-4,-1.1923321E-3,-1.7011672E-3,1.5004873E-3,2.6859685E-3,1.7057433E-4,-1.4304146E-3,1.2201667E-4,-1.9178413E-3,5.099505E-3,2.5214374E-3,-2.8871954E-3],"split_indices":[0,5,29,17,28,29,0,17,28,13,6,0,0,6,24,3,19,0,11,0,29,0,0,0,0,0,0,0,0,0,0,0,0,0,0,0,0],"split_type":[0,0,0,0,0,0,0,0,0,0,0,0,0,0,0,0,0,0,0,0,0,0,0,0,0,0,0,0,0,0,0,0,0,0,0,0,0],"sum_hessian":[4.5E2,3.47E2,1.03E2,2.99E2,4.8E1,1.01E2,2E0,1.55E2,1.44E2,1.7E1,3.1E1,9.4E1,7E0,8.8E1,6.7E1,7E0,1.37E2,2E0,1.5E1,5E0,2.6E1,1E0,6E0,8.6E1,2E0,7E0,6E1,5E0,2E0,5.5E1,8.2E1,1.4E1,1E0,4E0,1E0,2.3E1,3E0],"tree_param":{"num_deleted":"0","num_feature":"31","num_nodes":"37","size_leaf_vector":"1"}},{"base_weights":[4.8098434E-2,-2.8985508E-3,2.184466E-1,2.6984127E-2,-3.0645162E-1,-3.75E-2,2.2794117E-1,-4.5833334E-1,3.629032E-2,-6.1538464E-1,-7.8947365E-2,2.375E-1,-1.6666667E-1,-6.0000002E-2,1.25E-2,-2.116402E-2,1.25E-1,1.25E-2,-6.875E-2,-4.5833334E-1,8.928572E-2,2.4722222E-2,1.3636364E-1,-3.75E-2,1.25E-2,-1.9852942E-2,1.7628206E-3,1.46186445E-2,-4.0000003E-2,1.25E-2,-6.0000002E-2,2.2916667E-2,-5E-2,-3.75E-2,2.2499999E-2],"categories":[],"categories_nodes":[],"categories_segments":[],"categories_sizes":[],"default_left":[0,0,0,0,0,0,0,0,0,0,0,0,0,0,0,0,0,0,0,0,0,0,0,0,0,0,0,0,0,0,0,0,0,0,0],"id":52,"left_children":[1,3,5,7,9,-1,11,13,15,17,19,21,23,-1,-1,25,27,-1,-1,29,31,-1,33,-1,-1,-1,-1,-1,-1,-1,-1,-1,-1,-1,-1],"loss_changes":[3.883831E0,3.137757E0,6.6583395E-1,1.4393177E0,2.1302078E0,0E0,4.2432594E-1,5.708333E-1,1.5826399E0,7.800479E-1,1.2536027E0,6.461477E-2,2.2916666E-1,0E0,0E0,1.303895E0,1.4154661E0,0E0,0E0,5.708333E-1,1.2686011E0,0E0,5.829546E-1,0E0,0E0,0E0,0E0,0E0,0E0,0E0,0E0,0E0,0E0,0E0,0E0],"parents":[2147483647,0,0,1,1,2,2,3,3,4,4,6,6,7,7,8,8,9,9,10,10,11,11,12,12,15,15,16,16,19,19,20,20,22,22],"right_children":[2,4,6,8,10,-1,12,14,16,18,20,22,24,-1,-1,26,28,-1,-1,30,32,-1,34,-1,-1,-1,-1,-1,-1,-1,-1,-1,-1,-1,-1],"split_conditions":[1.0208572E0,7.96701E-1,7.928039E-1,-2.1067033E0,-4.5434454E-1,-1.1510908E-3,2.4019074E0,-1.1430767E0,1.4671287E-1,4.9933004E-1,9.1382456E-1,1.2086264E0,1.1258035E0,-8.531684E-3,6.154299E-4,-7.7269757E-1,2.4019074E0,1.098156E-4,-1.2988121E-3,5.003859E-1,1.2185594E0,1.2914836E-2,9.3516934E-1,-1.346928E-3,2.3896063E-2,-5.6105404E-4,1.0481477E-4,4.4364334E-4,-6.9097877E-3,6.943524E-4,-2.567403E-3,2.9299557E-3,-7.009059E-3,-5.361796E-4,1.0696194E-2],"split_indices":[0,4,26,0,28,0,29,5,24,0,3,29,0,0,0,28,29,0,0,2,7,0,8,0,0,0,0,0,0,0,0,0,0,0,0],"split_type":[0,0,0,0,0,0,0,0,0,0,0,0,0,0,0,0,0,0,0,0,0,0,0,0,0,0,0,0,0,0,0,0,0,0,0],"sum_hessian":[4.46E2,3.44E2,1.02E2,3.14E2,3E1,1E0,1.01E2,5E0,3.09E2,1.2E1,1.8E1,9.9E1,2E0,4E0,1E0,1.88E2,1.21E2,1E0,1.1E1,5E0,1.3E1,8.9E1,1E1,1E0,1E0,3.3E1,1.55E2,1.17E2,4E0,1E0,4E0,1.1E1,2E0,1E0,9E0],"tree_param":{"num_deleted":"0","num_feature":"31","num_nodes":"35","size_leaf_vector":"1"}},{"base_weights":[4.988662E-2,1.591512E-2,2.4615385E-2,3.481894E-2,-3.4210527E-1,5.859375E-2,-1.5625E-1,2.0833334E-2,-5.535714E-1,-2.0522388E-2,1.1497326E-1,6.521739E-2,-4.3055555E-1,1.25E-2,-6.1538464E-1,1.4112903E-3,-4.0909093E-2,-1.644737E-3,2.0312501E-2,-2.8125001E-2,2.34375E-2,-6.041667E-2,-7.1428576E-3,-6.875E-2,1.25E-2],"categories":[],"categories_nodes":[],"categories_segments":[],"categories_sizes":[],"default_left":[0,0,0,0,0,0,0,0,0,0,0,0,0,0,0,0,0,0,0,0,0,0,0,0,0],"id":53,"left_children":[1,3,-1,5,7,9,11,-1,13,15,17,19,21,-1,23,-1,-1,-1,-1,-1,-1,-1,-1,-1,-1],"loss_changes":[2.9364467E0,2.5634303E0,0E0,1.6399585E0,2.326911E0,1.4297287E0,2.458069E0,0E0,6.6414833E-1,1.8091701E0,2.169728E0,1.4138926E0,1.0791171E0,0E0,7.800479E-1,0E0,0E0,0E0,0E0,0E0,0E0,0E0,0E0,0E0,0E0],"parents":[2147483647,0,0,1,1,3,3,4,4,5,5,6,6,8,8,9,9,10,10,11,11,12,12,14,14],"right_children":[2,4,-1,6,8,10,12,-1,14,16,18,20,22,-1,24,-1,-1,-1,-1,-1,-1,-1,-1,-1,-1],"split_conditions":[1.1500775E0,1.1686432E0,1.6695468E-2,1.2086264E0,-7.6104575E-1,2.182423E-1,1.5947661E-1,6.6563995E-3,4.9933004E-1,3.9852804E-1,-3.3819386E-1,-1.5779662E0,9.3534344E-1,9.8836426E-5,1.1402236E0,4.3588876E-5,-1.1837332E-3,-8.877814E-5,2.0696104E-3,-2.0506382E-3,2.991885E-4,-1.6219079E-3,-8.215159E-5,-1.2633204E-3,6.5155625E-3],"split_indices":[26,10,0,29,24,26,2,0,0,7,30,0,30,0,0,0,0,0,0,0,0,0,0,0,0],"split_type":[0,0,0,0,0,0,0,0,0,0,0,0,0,0,0,0,0,0,0,0,0,0,0,0,0],"sum_hessian":[4.4E2,3.76E2,6.4E1,3.58E2,1.8E1,3.19E2,3.9E1,5E0,1.3E1,1.33E2,1.86E2,2.2E1,1.7E1,1E0,1.2E1,1.23E2,1E1,7.5E1,1.11E2,7E0,1.5E1,1.1E1,6E0,1.1E1,1E0],"tree_param":{"num_deleted":"0","num_feature":"31","num_nodes":"25","size_leaf_vector":"1"}},{"base_weights":[4.6770602E-2,1.9181585E-2,2.2881356E-1,-5.263158E-2,1.010929E-1,-3.75E-2,2.4568966E-2,-1.5873017E-2,-3.809524E-1,-8.974359E-2,1.5172414E-1,1.6875E-1,-6.5E-2,-5.294118E-1,2.0000001E-2,1.9565217E-1,-4.7058824E-1,-2.2727273E-1,1.8148148E-1,-5E-2,2.1710528E-2,-1.5277778E-2,6.5573766E-3,1.6666668E-2,-6.333333E-2,-3.75E-2,2.3863636E-2,-6.041667E-2,-1.25E-2,2.0000001E-2,-5E-2,1.8843284E-2,-3.75E-2],"categories":[],"categories_nodes":[],"categories_segments":[],"categories_sizes":[],"default_left":[0,0,0,0,0,0,0,0,0,0,0,0,0,0,0,0,0,0,0,0,0,0,0,0,0,0,0,0,0,0,0,0,0],"id":54,"left_children":[1,3,5,7,9,-1,-1,11,13,15,17,19,21,23,-1,25,27,29,31,-1,-1,-1,-1,-1,-1,-1,-1,-1,-1,-1,-1,-1,-1],"loss_changes":[2.2506623E0,2.305304E0,6.933446E-1,2.516291E0,1.7818149E0,0E0,0E0,1.7251935E0,1.9170864E0,4.331038E0,1.6765473E0,1.4020559E0,1.7292395E0,1.3352947E0,0E0,6.5365607E-1,7.092526E-1,1.3818183E0,5.928831E-1,0E0,0E0,0E0,0E0,0E0,0E0,0E0,0E0,0E0,0E0,0E0,0E0,0E0,0E0],"parents":[2147483647,0,0,1,1,2,2,3,3,4,4,7,7,8,8,9,9,10,10,11,11,12,12,13,13,15,15,16,16,17,17,18,18],"right_children":[2,4,6,8,10,-1,-1,12,14,16,18,20,22,24,-1,26,28,30,32,-1,-1,-1,-1,-1,-1,-1,-1,-1,-1,-1,-1,-1,-1],"split_conditions":[1.1500775E0,1.3161826E-1,-1.0498661E0,1.0190202E0,-7.4773395E-1,-1.8154503E-3,1.49661545E-2,-7.371795E-1,3.97494E-1,2.719194E-1,-1.7591759E0,-2.0220563E0,3.339757E-1,-2.2070975E0,8.993268E-4,-2.0254498E0,9.439406E-2,-1.9407091E0,2.6118314E0,-7.1079494E-3,3.872931E-4,-8.24602E-4,1.08990076E-4,8.895397E-5,-1.251188E-3,-1.625681E-3,6.7729055E-4,-7.7238976E-4,-4.217447E-3,8.331895E-4,-2.8171838E-4,1.4911294E-3,-8.752942E-5],"split_indices":[26,27,24,10,28,0,0,20,20,29,18,26,28,20,0,9,24,4,23,0,0,0,0,0,0,0,0,0,0,0,0,0,0],"split_type":[0,0,0,0,0,0,0,0,0,0,0,0,0,0,0,0,0,0,0,0,0,0,0,0,0,0,0,0,0,0,0,0,0],"sum_hessian":[4.48E2,3.9E2,5.8E1,2.08E2,1.82E2,1E0,5.7E1,1.88E2,2E1,3.8E1,1.44E2,3.9E1,1.49E2,1.6E1,4E0,2.2E1,1.6E1,1E1,1.34E2,2E0,3.7E1,8.9E1,6E1,2E0,1.4E1,1E0,2.1E1,1.1E1,5E0,4E0,6E0,1.33E2,1E0],"tree_param":{"num_deleted":"0","num_feature":"31","num_nodes":"33","size_leaf_vector":"1"}}]},"name":"gbtree"},"learner_model_param":{"base_score":"-8.7460464E-1","boost_from_average":"1","num_class":"0","num_feature":"31","num_target":"1"},"objective":{"name":"reg:quantileerror","quantile_loss_param":{"quantile_alpha":"[2.5E-1]"}}},"version":[3,0,0]}