{"learner":{"attributes":{"best_iteration":"12","best_score":"0.04429747584684611"},"feature_names":[],"feature_types":[],"gradient_booster":{"model":{"gbtree_model_param":{"num_parallel_tree":"1","num_trees":"33"},"iteration_indptr":[0,1,2,3,4,5,6,7,8,9,10,11,12,13,14,15,16,17,18,19,20,21,22,23,24,25,26,27,28,29,30,31,32,33],"tree_info":[0,0,0,0,0,0,0,0,0,0,0,0,0,0,0,0,0,0,0,0,0,0,0,0,0,0,0,0,0,0,0,0,0],"trees":[{"base_weights":[-0E0,-4.323144E-1,4.6478873E-1,-4.868421E-1,-1.625E-1,1.75E-1,4.9226806E-1,-4.920635E-2,2.5E-2,4.375E-2,-3.030303E-1,4E-1,-4.1666668E-2,2E-1,4.9736843E-2,2.5E-1,-4.107143E-1,4.6428572E-2,-2.5E-2,3.75E-2,-2.5E-2,4.0000003E-2,-2.5E-2,2.5E-2,-4.4444446E-2],"categories":[],"categories_nodes":[],"categories_segments":[],"categories_sizes":[],"default_left":[0,0,0,0,0,0,0,0,0,0,0,0,0,0,0,0,0,0,0,0,0,0,0,0,0],"id":0,"left_children":[1,3,5,7,9,11,13,-1,-1,-1,15,17,-1,19,-1,21,23,-1,-1,-1,-1,-1,-1,-1,-1],"loss_changes":[8.881321E1,3.29002E0,1.610012E0,8.5401154E-1,3.505303E0,2.8291667E0,1.8972015E-1,0E0,0E0,0E0,2.0679111E0,7.42857E-1,0E0,4.875E-1,0E0,5.5E-1,7.3511934E-1,0E0,0E0,0E0,0E0,0E0,0E0,0E0,0E0],"parents":[2147483647,0,0,1,1,2,2,3,3,4,4,5,5,6,6,10,10,11,11,13,13,15,15,16,16],"right_children":[2,4,6,8,10,12,14,-1,-1,-1,16,18,-1,20,-1,22,24,-1,-1,-1,-1,-1,-1,-1,-1],"split_conditions":[4.2883176E-1,3.2308432E-1,4.3784517E-1,5.0677294E-1,-7.7440625E-1,6.702434E-1,2.6203212E-1,-1.4026247E-1,3.3711137E-3,9.150169E-3,2.4250837E-1,6.6527504E-1,-1.1317313E-2,6.2653035E-1,6.172351E-2,4.002744E-1,-1.4090557E-2,7.063288E-3,-1.6855568E-3,6.019849E-3,-6.2606423E-3,7.825804E-3,-8.347523E-3,2.6487322E-3,-5.8994517E-3],"split_indices":[0,0,26,2,29,29,11,0,0,0,2,15,0,2,0,9,10,0,0,0,0,0,0,0,0],"split_type":[0,0,0,0,0,0,0,0,0,0,0,0,0,0,0,0,0,0,0,0,0,0,0,0,0],"sum_hessian":[4.4E2,2.28E2,2.12E2,1.89E2,3.9E1,1.9E1,1.93E2,1.88E2,1E0,7E0,3.2E1,1.4E1,5E0,4E0,1.89E2,5E0,2.7E1,1.3E1,1E0,3E0,1E0,4E0,1E0,1E0,2.6E1],"tree_param":{"num_deleted":"0","num_feature":"31","num_nodes":"25","size_leaf_vector":"1"}},{"base_weights":[3.2332562E-2,-4.4354838E-1,3.891129E-1,-4.642857E-1,4.0000003E-2,8.77193E-2,4.765625E-1,-4.9679488E-2,-2.5925925E-1,2.857143E-1,-2.173913E-1,-2.5E-2,4.816754E-1,5E-2,-4.1666666E-1,4.7368422E-2,5.882353E-2,-3.611111E-1,2.5E-1,1.4285715E-1,4.918919E-2,-4.0000003E-2,4.1666668E-2,-4.7058824E-2,2.5E-2,-1.818182E-2,4.2857144E-2,1.25E-2,-4.6666667E-2,4.0000003E-2,-2.5E-2,4.0000003E-2,-3.3333335E-2],"categories":[],"categories_nodes":[],"categories_segments":[],"categories_sizes":[],"default_left":[0,0,0,0,0,0,0,0,0,0,0,0,0,0,0,0,0,0,0,0,0,0,0,0,0,0,0,0,0,0,0,0,0],"id":1,"left_children":[1,3,5,7,-1,9,11,-1,13,15,17,-1,19,21,23,-1,25,27,29,31,-1,-1,-1,-1,-1,-1,-1,-1,-1,-1,-1,-1,-1],"loss_changes":[7.3689476E1,3.4393997E0,6.494667E0,1.0842743E0,0E0,3.505503E0,8.3366776E-1,0E0,1.3351853E0,1.4648385E0,1.6352658E0,0E0,5.9088135E-1,1.8166667E0,7.647059E-1,0E0,1.590527E0,9.819443E-1,5.5E-1,9.904762E-1,0E0,0E0,0E0,0E0,0E0,0E0,0E0,0E0,0E0,0E0,0E0,0E0,0E0],"parents":[2147483647,0,0,1,1,2,2,3,3,5,5,6,6,8,8,9,9,10,10,12,12,13,13,14,14,16,16,17,17,18,18,19,19],"right_children":[2,4,6,8,-1,10,12,-1,14,16,18,-1,20,22,24,-1,26,28,30,32,-1,-1,-1,-1,-1,-1,-1,-1,-1,-1,-1,-1,-1],"split_conditions":[3.337732E-1,4.0479824E-1,4.793021E-1,2.182423E-1,3.3089102E-3,4.354567E-1,-1.7628821E0,-1.5717824E-1,-6.7151105E-1,2.3777094E-3,5.946708E-1,-5.931556E-3,2.3976108E-1,-9.280786E-1,7.454305E-1,7.669285E-3,5.0545555E-2,-5.8419394E-1,4.7129095E-1,2.0165701E-1,5.7718296E-2,-3.2707818E-3,6.802431E-3,-6.4974204E-3,2.9497296E-3,-1.5771985E-3,6.637885E-3,1.9424021E-3,-6.6338717E-3,3.644015E-3,-2.0788522E-3,7.1515786E-3,-1.3163403E-3],"split_indices":[26,0,0,26,0,3,23,0,29,29,16,0,7,30,14,0,30,29,0,7,0,0,0,0,0,0,0,0,0,0,0,0,0],"split_type":[0,0,0,0,0,0,0,0,0,0,0,0,0,0,0,0,0,0,0,0,0,0,0,0,0,0,0,0,0,0,0,0,0],"sum_hessian":[4.32E2,1.85E2,2.47E2,1.81E2,4E0,5.6E1,1.91E2,1.55E2,2.6E1,3.4E1,2.2E1,1E0,1.9E2,9E0,1.7E1,1.8E1,1.6E1,1.7E1,5E0,6E0,1.84E2,4E0,5E0,1.6E1,1E0,1E1,6E0,3E0,1.4E1,4E0,1E0,4E0,2E0],"tree_param":{"num_deleted":"0","num_feature":"31","num_nodes":"33","size_leaf_vector":"1"}},{"base_weights":[3.0023094E-2,-4.8175183E-1,2.6599327E-1,-4.8897058E-1,2.5E-2,2.4305556E-2,4.9025974E-1,-4.9615383E-2,-2.857143E-1,-1.5068494E-1,2.013889E-1,-2.5E-2,4.9673203E-2,2.5E-2,-4.1666668E-2,-1.0416667E-2,-4.0384614E-1,3.3333334E-1,-1.1363637E-1,2.857143E-2,-2.3214286E-2,-4.4E-2,2.5E-2,3.8297873E-2,-2.0000001E-2,-2.5E-2,4.0000003E-2],"categories":[],"categories_nodes":[],"categories_segments":[],"categories_sizes":[],"default_left":[0,0,0,0,0,0,0,0,0,0,0,0,0,0,0,0,0,0,0,0,0,0,0,0,0,0,0],"id":2,"left_children":[1,3,5,7,-1,9,11,-1,13,15,17,-1,-1,-1,-1,19,21,23,25,-1,-1,-1,-1,-1,-1,-1,-1],"loss_changes":[5.241879E1,8.459244E-1,1.608621E1,5.680847E-2,0E0,4.4926033E0,8.620224E-1,0E0,5.9523803E-1,2.588059E0,3.0306187E0,0E0,0E0,0E0,0E0,3.218006E0,7.246156E-1,1.4269505E0,1.6409091E0,0E0,0E0,0E0,0E0,0E0,0E0,0E0,0E0],"parents":[2147483647,0,0,1,1,2,2,3,3,5,5,6,6,8,8,9,9,10,10,15,15,16,16,17,17,18,18],"right_children":[2,4,6,8,-1,10,12,-1,14,16,18,-1,-1,-1,-1,20,22,24,26,-1,-1,-1,-1,-1,-1,-1,-1],"split_conditions":[1.476397E-1,4.8759413E-1,6.1013204E-1,5.1505674E-2,1.0721353E-2,-4.7042377E-2,-2.748646E0,-1.6096471E-1,-5.129636E-2,4.6544454E-1,4.8423058E-1,-2.5532187E-3,5.7404466E-2,5.102828E-3,-9.264543E-3,-1.4263462E-1,1.121004E0,1.3803641E0,6.719682E-1,8.443442E-3,-4.298574E-3,-3.0968115E-3,3.8173855E-3,4.9268464E-3,-5.0278786E-3,-2.071631E-3,5.9295506E-3],"split_indices":[0,14,26,0,0,28,20,0,2,1,5,0,0,0,0,29,16,29,13,0,0,0,0,0,0,0,0],"split_type":[0,0,0,0,0,0,0,0,0,0,0,0,0,0,0,0,0,0,0,0,0,0,0,0,0,0,0],"sum_hessian":[4.32E2,1.36E2,2.96E2,1.35E2,1E0,1.43E2,1.53E2,1.29E2,6E0,7.2E1,7.1E1,1E0,1.52E2,1E0,5E0,4.7E1,2.5E1,5E1,2.1E1,2E1,2.7E1,2.4E1,1E0,4.6E1,4E0,1.7E1,4E0],"tree_param":{"num_deleted":"0","num_feature":"31","num_nodes":"27","size_leaf_vector":"1"}},{"base_weights":[1.5801355E-2,-2.3601398E-1,4.71519E-1,-4.962687E-2,-6.535948E-3,-1.25E-1,4.8387095E-1,1.6455697E-1,-1.8666667E-1,-3.3333335E-2,2.5E-2,1.875E-1,4.966216E-2,5.8333334E-2,4.75E-2,-3.452381E-1,1.4705882E-2,4.1666668E-2,-3.3333335E-2,1.4285715E-2,-2.9166667E-2,2.5E-2,-3.658537E-2,1.48148155E-2,-4.375E-2],"categories":[],"categories_nodes":[],"categories_segments":[],"categories_sizes":[],"default_left":[0,0,0,0,0,0,0,0,0,0,0,0,0,0,0,0,0,0,0,0,0,0,0,0,0],"id":3,"left_children":[1,3,5,-1,7,9,11,13,15,-1,-1,17,-1,19,-1,21,23,-1,-1,-1,-1,-1,-1,-1,-1],"loss_changes":[5.09485E1,1.7077456E1,1.2246552E0,0E0,4.746038E0,3.9583334E-1,4.9261856E-1,2.5774262E0,2.399972E0,0E0,0E0,1.09375E0,0E0,1.8166668E0,0E0,6.0685253E-1,2.11649E0,0E0,0E0,0E0,0E0,0E0,0E0,0E0,0E0],"parents":[2147483647,0,0,1,1,2,2,4,4,5,5,6,6,7,7,8,8,11,11,13,13,15,15,16,16],"right_children":[2,4,6,-1,8,10,12,14,16,-1,-1,18,-1,20,-1,22,24,-1,-1,-1,-1,-1,-1,-1,-1],"split_conditions":[5.5464E-1,-2.0324951E-1,-2.2070975E0,-1.5738952E-1,3.7566072E-1,6.4673555E-1,5.8504957E-1,7.1815014E-1,-4.7042377E-2,-2.1935494E-3,3.8901944E-2,5.430198E-1,5.310878E-2,6.7175794E-1,6.032026E-3,-1.7352724E-2,7.715298E-1,9.779888E-3,-3.3672408E-3,2.2094585E-3,-3.658423E-3,8.321482E-3,-3.6581114E-3,2.2331E-3,-4.7314614E-3],"split_indices":[26,0,20,0,3,0,0,27,28,0,0,1,0,29,0,9,28,0,0,0,0,0,0,0,0],"split_type":[0,0,0,0,0,0,0,0,0,0,0,0,0,0,0,0,0,0,0,0,0,0,0,0,0],"sum_hessian":[4.42E2,2.85E2,1.57E2,1.33E2,1.52E2,3E0,1.54E2,7.8E1,7.4E1,2E0,1E0,7E0,1.47E2,5.9E1,1.9E1,4.1E1,3.3E1,5E0,2E0,4.8E1,1.1E1,1E0,4E1,2.6E1,7E0],"tree_param":{"num_deleted":"0","num_feature":"31","num_nodes":"25","size_leaf_vector":"1"}},{"base_weights":[1.8722467E-2,-4.962687E-2,2.3364486E-1,4.3243244E-2,4.890511E-1,2.03125E-1,-1.2777779E-1,-0E0,4.962963E-2,-9.52381E-2,2.8289473E-1,-2.542373E-1,1.09375E-1,2.5E-2,-2.5E-2,-3.636364E-2,1.818182E-2,3.125E-2,-2.0000001E-2,9.09091E-3,-3.265306E-2,-6.8181823E-3,4.5454547E-2],"categories":[],"categories_nodes":[],"categories_segments":[],"categories_sizes":[],"default_left":[0,0,0,0,0,0,0,0,0,0,0,0,0,0,0,0,0,0,0,0,0,0,0],"id":4,"left_children":[1,-1,3,5,7,9,11,13,-1,15,17,19,21,-1,-1,-1,-1,-1,-1,-1,-1,-1,-1],"loss_changes":[5.036609E1,0E0,1.55890045E1,5.084436E0,4.8542786E-1,2.3117757E0,2.7269278E0,2.5E-1,0E0,1.6277057E0,1.149013E0,1.5018394E0,1.9921875E0,0E0,0E0,0E0,0E0,0E0,0E0,0E0,0E0,0E0,0E0],"parents":[2147483647,0,0,2,2,3,3,4,4,5,5,6,6,7,7,9,9,10,10,11,11,12,12],"right_children":[2,-1,4,6,8,10,12,14,-1,16,18,20,22,-1,-1,-1,-1,-1,-1,-1,-1,-1,-1],"split_conditions":[-6.0470414E-1,-1.409282E-1,6.742192E-1,3.9699775E-1,4.6441633E-1,-5.669873E-1,1.2034437E-1,6.1869645E-1,4.996506E-2,-9.789606E-2,4.625642E-1,-6.331805E-1,5.019827E-1,7.103735E-3,-3.972781E-3,-1.4190435E-3,2.6128516E-3,3.8464123E-3,-7.945055E-3,2.0105944E-3,-3.6420205E-3,-2.5838317E-4,3.887439E-3],"split_indices":[6,0,26,4,7,28,27,0,0,24,3,29,2,0,0,0,0,0,0,0,0,0,0],"split_type":[0,0,0,0,0,0,0,0,0,0,0,0,0,0,0,0,0,0,0,0,0,0,0],"sum_hessian":[4.53E2,1.33E2,3.2E2,1.84E2,1.36E2,9.5E1,8.9E1,2E0,1.34E2,2E1,7.5E1,5.8E1,3.1E1,1E0,1E0,1E1,1E1,7.1E1,4E0,1E1,4.8E1,2.1E1,1E1],"tree_param":{"num_deleted":"0","num_feature":"31","num_nodes":"23","size_leaf_vector":"1"}},{"base_weights":[3.2894737E-3,-4.964539E-2,2.2626582E-1,4.5212764E-2,4.883721E-1,-7.5E-2,1.7977528E-1,-2.5E-2,4.9609374E-2,3.2142857E-1,-1.3793103E-1,3.255814E-1,4.255319E-2,4.5833334E-2,-3.3333335E-2,3.125E-2,-1.8125001E-2,-3.75E-2,3.875E-2,-1.1111111E-2,2.3809524E-2],"categories":[],"categories_nodes":[],"categories_segments":[],"categories_sizes":[],"default_left":[0,0,0,0,0,0,0,0,0,0,0,0,0,0,0,0,0,0,0,0,0],"id":5,"left_children":[1,-1,3,5,7,9,11,-1,-1,13,15,17,19,-1,-1,-1,-1,-1,-1,-1,-1],"loss_changes":[5.0924847E1,0E0,1.4973743E1,3.054596E0,8.595104E-1,2.5391011E0,1.7668412E0,0E0,0E0,1.407738E0,1.7542025E0,2.0106106E0,1.4387032E0,0E0,0E0,0E0,0E0,0E0,0E0,0E0,0E0],"parents":[2147483647,0,0,2,2,3,3,4,4,5,5,6,6,9,9,10,10,11,11,12,12],"right_children":[2,-1,4,6,8,10,12,-1,-1,14,16,18,20,-1,-1,-1,-1,-1,-1,-1,-1],"split_conditions":[-4.9405497E-1,-1.1925037E-1,7.355613E-1,1.2034437E-1,4.5843178E-1,1.9866459E-1,-9.203725E-2,-2.2270621E-3,4.6252783E-2,6.0327446E-1,1.53346155E-2,-1.3142887E0,1.9952054E-1,4.701314E-3,-3.0596016E-2,1.2651355E-3,-2.7529688E-3,-1.6582549E-3,6.0236626E-3,-3.8083643E-4,2.8008425E-3],"split_indices":[0,0,26,27,6,3,29,0,0,29,12,23,28,0,0,0,0,0,0,0,0],"split_type":[0,0,0,0,0,0,0,0,0,0,0,0,0,0,0,0,0,0,0,0,0],"sum_hessian":[4.55E2,1.4E2,3.15E2,1.87E2,1.28E2,9.9E1,8.8E1,1E0,1.27E2,1.3E1,8.6E1,4.2E1,4.6E1,1.1E1,2E0,7E0,7.9E1,3E0,3.9E1,2.6E1,2E1],"tree_param":{"num_deleted":"0","num_feature":"31","num_nodes":"21","size_leaf_vector":"1"}},{"base_weights":[1.5801355E-2,-4.9612403E-2,2.2539683E-1,5.6410257E-2,4.9586777E-2,-8.080808E-2,1.9587629E-1,1.4285715E-1,-2E-1,2.2580644E-1,-4.0000003E-2,-2.2222223E-2,2.5925925E-2,2.727273E-2,-2.909091E-2,1.4084508E-2,4.782609E-2],"categories":[],"categories_nodes":[],"categories_segments":[],"categories_sizes":[],"default_left":[0,0,0,0,0,0,0,0,0,0,0,0,0,0,0,0,0],"id":6,"left_children":[1,-1,3,5,-1,7,9,11,13,15,-1,-1,-1,-1,-1,-1,-1],"loss_changes":[4.76445E1,0E0,1.4369404E1,3.747601E0,0E0,2.6678212E0,1.820286E0,1.5449735E0,2.8727274E0,1.9273849E0,0E0,0E0,0E0,0E0,0E0,0E0,0E0],"parents":[2147483647,0,0,2,2,3,3,5,5,6,6,7,7,8,8,9,9],"right_children":[2,-1,4,6,-1,8,10,12,14,16,-1,-1,-1,-1,-1,-1,-1],"split_conditions":[-7.6003474E-1,-1.15391925E-1,8.341969E-1,-2.4903776E-1,4.2791344E-2,3.9196876E-1,1.4841453E0,2.9362544E-1,-7.7440625E-1,9.117769E-1,-9.292702E-3,-2.4635048E-4,3.763615E-3,2.8266998E-3,-3.245605E-3,1.8365756E-3,2.7934702E-3],"split_indices":[22,0,0,24,0,5,29,14,29,24,0,0,0,0,0,0,0],"split_type":[0,0,0,0,0,0,0,0,0,0,0,0,0,0,0,0,0],"sum_hessian":[4.42E2,1.28E2,3.14E2,1.94E2,1.2E2,9.8E1,9.6E1,3.4E1,6.4E1,9.2E1,4E0,8E0,2.6E1,1E1,5.4E1,7E1,2.2E1],"tree_param":{"num_deleted":"0","num_feature":"31","num_nodes":"17","size_leaf_vector":"1"}},{"base_weights":[1.8973215E-2,-4.9590167E-2,2.1100917E-1,3.7128713E-2,4.8809522E-1,-1.6923077E-1,1.3405797E-1,-2.5E-2,4.96E-2,3.5E-1,-2.5892857E-1,3.4042552E-1,2.7173912E-2,4.4444446E-2,-2.5E-2,2.857143E-2,-3.3000004E-2,-0E0,4.3243244E-2,-1.9148936E-2,2.5E-2],"categories":[],"categories_nodes":[],"categories_segments":[],"categories_sizes":[],"default_left":[0,0,0,0,0,0,0,0,0,0,0,0,0,0,0,0,0,0,0,0,0],"id":7,"left_children":[1,-1,3,5,7,9,11,-1,-1,13,15,17,19,-1,-1,-1,-1,-1,-1,-1,-1],"loss_changes":[4.440041E1,0E0,1.5736689E1,4.0631456E0,8.591442E-1,3.1179261E0,3.0346708E0,0E0,0E0,6.7777777E-1,2.2619646E0,1.4721107E0,4.5304694E0,0E0,0E0,0E0,0E0,0E0,0E0,0E0,0E0],"parents":[2147483647,0,0,2,2,3,3,4,4,5,5,6,6,9,9,10,10,11,11,12,12],"right_children":[2,-1,4,6,8,10,12,-1,-1,14,16,18,20,-1,-1,-1,-1,-1,-1,-1,-1],"split_conditions":[-6.917052E-1,-9.903686E-2,8.341969E-1,-5.3887296E-1,-7.757805E-1,2.3419048E-4,3.3021575E-1,-2.9444813E-3,3.991684E-2,5.706488E-1,-1.1760175E0,-5.3127277E-1,4.7617978E-1,4.889539E-3,-3.7979483E-4,3.9058567E-3,-3.7987828E-3,1.4801596E-3,4.3173786E-3,-1.4123403E-3,2.1664202E-3],"split_indices":[26,0,0,27,23,0,3,0,0,23,29,28,26,0,0,0,0,0,0,0,0],"split_type":[0,0,0,0,0,0,0,0,0,0,0,0,0,0,0,0,0,0,0,0,0],"sum_hessian":[4.47E2,1.21E2,3.26E2,2.01E2,1.25E2,6.4E1,1.37E2,1E0,1.24E2,9E0,5.5E1,4.6E1,9.1E1,8E0,1E0,6E0,4.9E1,1E1,3.6E1,4.6E1,4.5E1],"tree_param":{"num_deleted":"0","num_feature":"31","num_nodes":"21","size_leaf_vector":"1"}},{"base_weights":[1.659292E-2,-4.9596775E-2,2.0972644E-1,5.373832E-2,4.9568966E-2,-1.0795455E-1,1.6535433E-1,4.5454547E-2,-1.8589744E-1,1.1363637E-1,4.7222223E-2,-3.4285717E-2,-5.6818184E-3,-2.9166667E-2,1.6161617E-2],"categories":[],"categories_nodes":[],"categories_segments":[],"categories_sizes":[],"default_left":[0,0,0,0,0,0,0,0,0,0,0,0,0,0,0],"id":8,"left_children":[1,-1,3,5,-1,7,9,-1,11,13,-1,-1,-1,-1,-1],"loss_changes":[4.4848694E1,0E0,1.4649021E1,3.8800185E0,0E0,3.9426718E0,1.9619024E0,0E0,1.5608187E0,2.1862373E0,0E0,0E0,0E0,0E0,0E0],"parents":[2147483647,0,0,2,2,3,3,5,5,6,6,8,8,9,9],"right_children":[2,-1,4,6,-1,8,10,-1,12,14,-1,-1,-1,-1,-1],"split_conditions":[-7.512485E-1,-9.7801745E-2,9.2679226E-1,-2.6032686E-1,3.5925157E-2,5.1505674E-2,9.117769E-1,4.17904E-3,4.6350756E-1,-9.923157E-1,2.404386E-3,-4.088209E-3,-2.1737219E-4,-6.629348E-4,3.0054897E-3],"split_indices":[26,0,26,27,0,0,24,0,19,28,0,0,0,0,0],"split_type":[0,0,0,0,0,0,0,0,0,0,0,0,0,0,0],"sum_hessian":[4.51E2,1.23E2,3.28E2,2.13E2,1.15E2,8.7E1,1.26E2,1E1,7.7E1,1.09E2,1.7E1,3.4E1,4.3E1,1.1E1,9.8E1],"tree_param":{"num_deleted":"0","num_feature":"31","num_nodes":"15","size_leaf_vector":"1"}},{"base_weights":[2.2371365E-3,-4.7265625E-1,1.921875E-1,-4.8770493E-1,-1.4285715E-1,7.7319588E-3,4.7244096E-1,-4.957265E-2,-2.5E-1,-4.0000003E-2,3.3333335E-2,1.0489511E-1,-2.596154E-1,-2.5E-2,4.8015872E-1,2.5E-2,-4.0000003E-2,2.9508197E-1,-3.6144577E-2,-3.0208334E-1,2E-1,-0E0,4.8790324E-1,3.4821432E-2,-2.5E-2,-4.5454547E-2,2.739726E-3,3.3333335E-2,-3.3695653E-2,-2.5E-2,3.75E-2,2.5E-2,-2.5E-2,-0E0,4.9590167E-2],"categories":[],"categories_nodes":[],"categories_segments":[],"categories_sizes":[],"default_left":[0,0,0,0,0,0,0,0,0,0,0,0,0,0,0,0,0,0,0,0,0,0,0,0,0,0,0,0,0,0,0,0,0,0,0],"id":9,"left_children":[1,3,5,7,9,11,13,-1,15,-1,-1,17,19,-1,21,-1,-1,23,25,27,29,31,33,-1,-1,-1,-1,-1,-1,-1,-1,-1,-1,-1,-1],"loss_changes":[4.0413E1,5.655956E-1,1.6538525E1,1.0869408E-1,9.904762E-1,5.066636E0,8.28146E-1,0E0,5.5E-1,0E0,0E0,3.8464823E0,1.0754006E0,0E0,4.685421E-1,0E0,0E0,1.8537035E0,2.219088E0,1.175951E0,4.875E-1,2.5E-1,4.8390388E-1,0E0,0E0,0E0,0E0,0E0,0E0,0E0,0E0,0E0,0E0,0E0,0E0],"parents":[2147483647,0,0,1,1,2,2,3,3,4,4,5,5,6,6,8,8,11,11,12,12,14,14,17,17,18,18,19,19,20,20,21,21,22,22],"right_children":[2,4,6,8,10,12,14,-1,16,-1,-1,18,20,-1,22,-1,-1,24,26,28,30,32,34,-1,-1,-1,-1,-1,-1,-1,-1,-1,-1,-1,-1],"split_conditions":[-7.512485E-1,1.9775449E0,7.8212434E-1,-8.30142E-1,-1.1285396E0,4.6122462E-1,-7.757805E-1,-9.881716E-2,-8.978179E-1,-6.479987E-2,2.5169433E-3,3.6609334E-1,1.5638098E0,-2.6282966E-3,7.82601E-1,3.4979582E-4,-1.2211618E-2,3.9699775E-1,-1.0103791E0,-9.9550444E-1,1.5402693E-1,7.9654443E-1,-1.9850531E0,3.6661222E-3,-1.3271868E-3,-2.3231283E-3,2.2852421E-4,6.522602E-3,-2.4442018E-3,-2.3697407E-3,5.33579E-3,1.3561785E-3,-6.273538E-3,7.0492774E-3,3.1771906E-2],"split_indices":[26,28,0,1,0,29,23,0,0,0,0,3,30,0,26,0,0,4,28,24,7,0,30,0,0,0,0,0,0,0,0,0,0,0,0],"split_type":[0,0,0,0,0,0,0,0,0,0,0,0,0,0,0,0,0,0,0,0,0,0,0,0,0,0,0,0,0,0,0,0,0,0,0],"sum_hessian":[4.46E2,1.27E2,3.19E2,1.21E2,6E0,1.93E2,1.26E2,1.16E2,5E0,4E0,2E0,1.42E2,5.1E1,1E0,1.25E2,1E0,4E0,6E1,8.2E1,4.7E1,4E0,2E0,1.23E2,5.5E1,5E0,1E1,7.2E1,2E0,4.5E1,1E0,3E0,1E0,1E0,2E0,1.21E2],"tree_param":{"num_deleted":"0","num_feature":"31","num_nodes":"35","size_leaf_vector":"1"}},{"base_weights":[1.8558951E-2,-4.7807017E-1,1.826087E-1,-4.8672566E-1,2.5E-2,3.72807E-2,4.618644E-1,-4.9541287E-2,-2E-1,-3.2692307E-1,8.374384E-2,-2.5E-2,4.7008547E-1,-3.75E-2,2.5E-2,-4.7058824E-2,-5E-2,-1.1940298E-1,1.8248175E-1,-0E0,4.7826087E-1,2.5E-2,-4.0000003E-2,-3.269231E-2,1.1904762E-3,2.6168225E-2,-9.677419E-3,2.5E-2,-2.5E-2,4.8660714E-2,1.25E-2],"categories":[],"categories_nodes":[],"categories_segments":[],"categories_sizes":[],"default_left":[0,0,0,0,0,0,0,0,0,0,0,0,0,0,0,0,0,0,0,0,0,0,0,0,0,0,0,0,0,0,0],"id":10,"left_children":[1,3,5,7,-1,9,11,-1,13,15,17,-1,19,-1,-1,-1,21,23,25,27,29,-1,-1,-1,-1,-1,-1,-1,-1,-1,-1],"loss_changes":[3.740142E1,8.40086E-1,1.3984149E1,1.8238258E-1,0E0,3.8856058E0,8.080902E-1,0E0,4.875E-1,1.0108597E0,4.093622E0,0E0,4.496479E-1,0E0,0E0,0E0,1.15E0,1.8295748E0,3.0553818E0,2.5E-1,2.782421E-1,0E0,0E0,0E0,0E0,0E0,0E0,0E0,0E0,0E0,0E0],"parents":[2147483647,0,0,1,1,2,2,3,3,5,5,6,6,8,8,9,9,10,10,12,12,16,16,17,17,18,18,19,19,20,20],"right_children":[2,4,6,8,-1,10,12,-1,14,16,18,-1,20,-1,-1,-1,22,24,26,28,30,-1,-1,-1,-1,-1,-1,-1,-1,-1,-1],"split_conditions":[-9.242548E-1,-9.105748E-1,9.2679226E-1,2.4827664E0,4.693258E-3,-1.2672156E0,-1.57364E0,-9.0059154E-2,-1.1621865E0,3.653896E-1,-3.9132375E-1,-1.4253795E-3,2.7983072E-1,-4.3285172E-2,1.783663E-3,-4.180194E-3,3.3733812E-1,-3.5380626E-1,6.482061E-1,9.143086E-1,2.4019074E0,1.1544466E-3,-1.9525856E-3,-3.8779646E-3,8.220375E-5,2.5708259E-3,-1.0593132E-3,3.390497E-3,-9.437919E-4,3.0038362E-2,2.3135597E-2],"split_indices":[0,22,26,28,0,27,27,0,0,19,28,0,19,0,0,0,13,24,29,0,29,0,0,0,0,0,0,0,0,0,0],"split_type":[0,0,0,0,0,0,0,0,0,0,0,0,0,0,0,0,0,0,0,0,0,0,0,0,0,0,0,0,0,0,0],"sum_hessian":[4.57E2,1.13E2,3.44E2,1.12E2,1E0,2.27E2,1.17E2,1.08E2,4E0,2.5E1,2.02E2,1E0,1.16E2,3E0,1E0,1.6E1,9E0,6.6E1,1.36E2,2E0,1.14E2,5E0,4E0,2.5E1,4.1E1,1.06E2,3E1,1E0,1E0,1.11E2,3E0],"tree_param":{"num_deleted":"0","num_feature":"31","num_nodes":"31","size_leaf_vector":"1"}},{"base_weights":[3.309693E-2,-4.7340426E-1,1.7727272E-1,-4.9444444E-2,-0E0,4.2035397E-2,4.6666667E-1,-3.3333335E-2,3.3333335E-2,-1.4285715E-1,1.12804875E-1,-2.5E-2,4.7596154E-1,6.818182E-2,-2.5E-1,1.503268E-1,-3.75E-1,-2.5E-2,4.854369E-1,-2.5E-2,3.0769233E-2,-4.375E-2,-0E0,4.347826E-2,9.923665E-3,-4.5454547E-2,2.5E-2,4.950495E-2,-0E0],"categories":[],"categories_nodes":[],"categories_segments":[],"categories_sizes":[],"default_left":[0,0,0,0,0,0,0,0,0,0,0,0,0,0,0,0,0,0,0,0,0,0,0,0,0,0,0,0,0],"id":11,"left_children":[1,3,5,-1,7,9,11,-1,-1,13,15,-1,17,19,21,23,25,-1,27,-1,-1,-1,-1,-1,-1,-1,-1,-1,-1],"loss_changes":[3.0973587E1,9.362869E-1,1.2895548E1,0E0,6.666667E-1,2.973268E0,8.1842995E-1,0E0,0E0,1.4415585E0,3.0581264E0,0E0,8.367481E-1,1.7534965E0,1.96875E0,2.1803858E0,7.1022725E-1,0E0,4.8063087E-1,0E0,0E0,0E0,0E0,0E0,0E0,0E0,0E0,0E0,0E0],"parents":[2147483647,0,0,1,1,2,2,4,4,5,5,6,6,9,9,10,10,12,12,13,13,14,14,15,15,16,16,18,18],"right_children":[2,4,6,-1,8,10,12,-1,-1,14,16,-1,18,20,22,24,26,-1,28,-1,-1,-1,-1,-1,-1,-1,-1,-1,-1],"split_conditions":[-9.8748803E-1,-7.6202166E-1,9.215187E-1,-8.261839E-2,-2.2605178E0,-7.3595315E-1,7.82601E-1,-1.3445556E-1,3.1824976E-3,-8.0921495E-1,1.4841453E0,-5.903262E-3,-1.57364E0,3.9440385E-1,-2.6470006E-1,-6.0823935E-1,6.667635E-1,-1.282841E-3,2.4689603E0,-1.7553658E-3,8.553383E-3,-3.8061799E-3,-3.536979E-4,2.7052108E-3,7.6805055E-4,-6.912681E-3,1.3817489E-3,2.8318757E-2,9.143534E-3],"split_indices":[26,12,0,0,0,30,26,0,0,29,29,0,27,10,24,20,0,0,29,0,0,0,0,0,0,0,0,0,0],"split_type":[0,0,0,0,0,0,0,0,0,0,0,0,0,0,0,0,0,0,0,0,0,0,0,0,0,0,0,0,0],"sum_hessian":[4.22E2,9.3E1,3.29E2,8.9E1,4E0,2.25E2,1.04E2,2E0,2E0,6.2E1,1.63E2,1E0,1.03E2,2.1E1,4.1E1,1.52E2,1.1E1,1E0,1.02E2,9E0,1.2E1,2.3E1,1.8E1,2.2E1,1.3E2,1E1,1E0,1E2,2E0],"tree_param":{"num_deleted":"0","num_feature":"31","num_nodes":"29","size_leaf_vector":"1"}},{"base_weights":[3.160271E-2,-4.943182E-2,1.6151686E-1,1.4957265E-2,4.390244E-1,-9.507042E-2,1.827957E-1,1.7857143E-1,4.6818182E-1,1.388889E-1,-2.3595506E-1,3.4042552E-1,2.1276595E-2,3.6363637E-1,-3.75E-2,-2.5E-2,4.7706422E-1,2.1276597E-2,-3.125E-2,-4.21875E-2,-1.2931034E-2,4.53125E-2,9.375E-3,-2.666667E-2,1.5151516E-2,4.4999998E-2,-2.5E-2,4.8584905E-2,1.25E-2],"categories":[],"categories_nodes":[],"categories_segments":[],"categories_sizes":[],"default_left":[0,0,0,0,0,0,0,0,0,0,0,0,0,0,0,0,0,0,0,0,0,0,0,0,0,0,0,0,0],"id":12,"left_children":[1,-1,3,5,7,9,11,13,15,17,19,21,23,25,-1,-1,27,-1,-1,-1,-1,-1,-1,-1,-1,-1,-1,-1,-1],"loss_changes":[3.034762E1,0E0,1.4472449E1,4.338627E0,8.504753E-1,4.713272E0,2.360558E0,1.570617E0,8.2097435E-1,1.8672429E0,1.710084E0,1.2641292E0,1.8029659E0,6.954546E-1,0E0,0E0,2.7638817E-1,0E0,0E0,0E0,0E0,0E0,0E0,0E0,0E0,0E0,0E0,0E0,0E0],"parents":[2147483647,0,0,2,2,3,3,4,4,5,5,6,6,7,7,8,8,9,9,10,10,11,11,12,12,13,13,16,16],"right_children":[2,-1,4,6,8,10,12,14,16,18,20,22,24,26,-1,-1,28,-1,-1,-1,-1,-1,-1,-1,-1,-1,-1,-1,-1],"split_conditions":[-1.0812737E0,-7.580133E-2,8.7330353E-1,1.2034437E-1,9.215187E-1,2.0430465E-1,-7.828643E-2,9.2129904E-1,-1.57364E0,9.0820134E-1,-3.0173266E-1,4.7129095E-1,2.6315126E-1,1.268143E-1,-2.0544827E-3,-1.154554E-3,2.4689603E0,8.4025116E-4,-5.631763E-3,-3.4196377E-3,-4.300475E-4,4.214889E-3,2.1380007E-3,-1.7724626E-3,1.8749296E-3,3.4080686E-3,-8.140445E-4,2.50053E-2,1.9907683E-2],"split_indices":[0,0,26,27,0,11,29,1,27,29,28,0,13,29,0,0,29,0,0,0,0,0,0,0,0,0,0,0,0],"split_type":[0,0,0,0,0,0,0,0,0,0,0,0,0,0,0,0,0,0,0,0,0,0,0,0,0,0,0,0,0],"sum_hessian":[4.42E2,8.7E1,3.55E2,2.33E2,1.22E2,1.41E2,9.2E1,1.3E1,1.09E2,5.3E1,8.8E1,4.6E1,4.6E1,1E1,3E0,1E0,1.08E2,4.6E1,7E0,3.1E1,5.7E1,3.1E1,1.5E1,1.4E1,3.2E1,9E0,1E0,1.05E2,3E0],"tree_param":{"num_deleted":"0","num_feature":"31","num_nodes":"29","size_leaf_vector":"1"}},{"base_weights":[5.5684455E-2,-4.9425285E-2,1.942029E-1,8.669355E-2,4.642857E-1,-9.411765E-2,1.7987806E-1,-2.5E-2,4.742268E-1,-3.3333334E-1,-1.5384615E-2,2.6732674E-1,3.90625E-2,4.8404258E-2,1.25E-1,-3.75E-2,2.5E-2,4.375E-2,-7.7586207E-3,-3.125E-3,3.1976745E-2,-1.9354839E-2,2.5E-2,3.3333335E-2,-2.5E-2],"categories":[],"categories_nodes":[],"categories_segments":[],"categories_sizes":[],"default_left":[0,0,0,0,0,0,0,0,0,0,0,0,0,0,0,0,0,0,0,0,0,0,0,0,0],"id":13,"left_children":[1,-1,3,5,7,9,11,-1,13,15,17,19,21,-1,23,-1,-1,-1,-1,-1,-1,-1,-1,-1,-1],"loss_changes":[3.2928043E1,0E0,9.977317E0,4.195432E0,8.1443214E-1,1.5957768E0,2.0090756E0,0E0,2.7200317E-1,6.0416675E-1,1.8650032E0,1.5914083E0,3.188634E0,0E0,3.9583334E-1,0E0,0E0,0E0,0E0,0E0,0E0,0E0,0E0,0E0,0E0],"parents":[2147483647,0,0,2,2,3,3,4,4,5,5,6,6,8,8,9,9,10,10,11,11,12,12,14,14],"right_children":[2,-1,4,6,8,10,12,-1,14,16,18,20,22,-1,24,-1,-1,-1,-1,-1,-1,-1,-1,-1,-1],"split_conditions":[-1.0334781E0,-6.966595E-2,9.840058E-1,-3.9132375E-1,7.928039E-1,-6.665063E-1,4.513658E-1,-5.3914427E-3,2.4689603E0,8.742528E-1,-8.493359E-1,-1.2672156E0,6.2299365E-1,2.2986352E-2,1.2419244E0,-3.0637474E-3,8.1223254E-5,5.3216517E-3,-8.305609E-4,-1.1492119E-3,3.0381025E-3,-1.51954E-3,1.3956011E-3,2.9715825E-2,-5.440086E-3],"split_indices":[26,0,0,28,26,27,18,0,29,0,1,27,16,0,23,0,0,0,0,0,0,0,0,0,0],"split_type":[0,0,0,0,0,0,0,0,0,0,0,0,0,0,0,0,0,0,0,0,0,0,0,0,0],"sum_hessian":[4.3E2,8.6E1,3.44E2,2.47E2,9.7E1,8.4E1,1.63E2,1E0,9.6E1,2E1,6.4E1,1E2,6.3E1,9.3E1,3E0,1.9E1,1E0,7E0,5.7E1,1.5E1,8.5E1,3E1,3.3E1,2E0,1E0],"tree_param":{"num_deleted":"0","num_feature":"31","num_nodes":"25","size_leaf_vector":"1"}},{"base_weights":[1.6317016E-2,-4.9438205E-2,1.4956012E-1,2.2177419E-2,4.8404258E-2,7.1794875E-2,-1.574074E-1,-7.594936E-2,1.7094018E-1,-3.6E-1,1.6666668E-2,-1.3043478E-2,2.727273E-2,3.902439E-2,5.194805E-3,3.3333335E-2,-4.347826E-2,-3.75E-2,2.6315792E-2],"categories":[],"categories_nodes":[],"categories_segments":[],"categories_sizes":[],"default_left":[0,0,0,0,0,0,0,0,0,0,0,0,0,0,0,0,0,0,0],"id":14,"left_children":[1,-1,3,5,-1,7,9,11,13,15,17,-1,-1,-1,-1,-1,-1,-1,-1],"loss_changes":[2.9266155E1,0E0,1.4518345E1,2.2211154E0,0E0,2.8693714E0,1.9103705E0,1.5363985E0,3.032891E0,1.4411595E0,2.994956E0,0E0,0E0,0E0,0E0,0E0,0E0,0E0,0E0],"parents":[2147483647,0,0,2,2,3,3,5,5,6,6,7,7,8,8,9,9,10,10],"right_children":[2,-1,4,6,-1,8,10,12,14,16,18,-1,-1,-1,-1,-1,-1,-1,-1],"split_conditions":[-1.202789E0,-6.7394845E-2,1.0032326E0,6.7175794E-1,2.1329839E-2,-5.003728E-1,3.9534074E-1,6.78787E-1,3.0410403E-1,-1.2149346E0,-3.0173266E-1,-1.2476139E-3,3.8894953E-3,3.501606E-3,3.7918688E-4,4.5119557E-3,-2.9342645E-3,-1.8571556E-3,2.3991615E-3],"split_indices":[26,0,0,29,0,30,14,26,22,6,28,0,0,0,0,0,0,0,0],"split_type":[0,0,0,0,0,0,0,0,0,0,0,0,0,0,0,0,0,0,0],"sum_hessian":[4.28E2,8.8E1,3.4E2,2.47E2,9.3E1,1.94E2,5.3E1,7.8E1,1.16E2,2.4E1,2.9E1,6.8E1,1E1,4E1,7.6E1,2E0,2.2E1,1.1E1,1.8E1],"tree_param":{"num_deleted":"0","num_feature":"31","num_nodes":"19","size_leaf_vector":"1"}},{"base_weights":[3.490991E-2,-4.9382716E-2,1.5247253E-1,3.448276E-2,4.471154E-1,-3.3333334E-1,6.6390045E-2,1.1111111E-1,4.7395834E-1,-3.75E-1,2.5E-2,4.1666666E-1,3.794643E-2,-2E-1,4.0000003E-2,4.8404256E-1,-0E0,-4.2105265E-2,2.5E-2,-2.5E-2,4.7058824E-2,-9.638554E-3,1.1619719E-2,-3.75E-2,2.5E-2,4.9425285E-2,3.125E-2,-2.5E-2,2.5E-2],"categories":[],"categories_nodes":[],"categories_segments":[],"categories_sizes":[],"default_left":[0,0,0,0,0,0,0,0,0,0,0,0,0,0,0,0,0,0,0,0,0,0,0,0,0,0,0,0,0],"id":15,"left_children":[1,-1,3,5,7,9,11,13,15,17,-1,19,21,23,-1,25,27,-1,-1,-1,-1,-1,-1,-1,-1,-1,-1,-1,-1],"loss_changes":[2.7674208E1,0E0,1.2638985E1,3.0852294E0,8.853493E-1,6.0416675E-1,2.385304E0,8.888889E-1,4.588318E-1,6.809211E-1,0E0,7.647059E-1,2.3657932E0,4.875E-1,0E0,1.0189056E-2,2.5E-1,0E0,0E0,0E0,0E0,0E0,0E0,0E0,0E0,0E0,0E0,0E0,0E0],"parents":[2147483647,0,0,2,2,3,3,4,4,5,5,6,6,7,7,8,8,9,9,11,11,12,12,13,13,15,15,16,16],"right_children":[2,-1,4,6,8,10,12,14,16,18,-1,20,22,24,-1,26,28,-1,-1,-1,-1,-1,-1,-1,-1,-1,-1,-1,-1],"split_conditions":[-1.2846369E0,-6.310343E-2,1.0032326E0,-1.2672156E0,9.799932E-1,9.449185E-1,-9.884915E-1,8.6849546E-1,2.4019074E0,1.4032273E0,1.417017E-3,-2.0394456E0,-3.8955274E-1,1.1324316E0,1.1951238E-2,1.586866E0,1.1890917E0,-2.135907E-3,2.540201E-4,-5.3600194E-3,3.1661273E-3,-8.9581165E-4,1.32882E-3,-6.985283E-3,3.063655E-3,2.0360691E-2,1.7270505E-2,-1.8513203E-5,3.6410164E-2],"split_indices":[26,0,0,27,26,3,1,28,29,20,0,12,28,1,0,29,0,0,0,0,0,0,0,0,0,0,0,0,0],"split_type":[0,0,0,0,0,0,0,0,0,0,0,0,0,0,0,0,0,0,0,0,0,0,0,0,0,0,0,0,0],"sum_hessian":[4.43E2,8E1,3.63E2,2.6E2,1.03E2,2E1,2.4E2,8E0,9.5E1,1.9E1,1E0,1.7E1,2.23E2,4E0,4E0,9.3E1,2E0,1.8E1,1E0,1E0,1.6E1,8.2E1,1.41E2,3E0,1E0,8.6E1,7E0,1E0,1E0],"tree_param":{"num_deleted":"0","num_feature":"31","num_nodes":"29","size_leaf_vector":"1"}},{"base_weights":[2.2727273E-2,-4.9253732E-2,1.2073863E-1,3.8910506E-3,4.3229166E-1,6.0096152E-2,-2.3E-1,4.9324326E-2,2.173913E-1,-1.8333334E-1,1.0055866E-1,-3.068182E-1,2.857143E-1,-9.090909E-2,4.6153847E-2,-4.6875E-2,1.3333335E-2,6.927711E-3,4.6428572E-2,1.25E-2,-3.4146342E-2,-2.5E-2,4.1666668E-2,4.0000003E-2,-4.2857144E-2],"categories":[],"categories_nodes":[],"categories_segments":[],"categories_sizes":[],"default_left":[0,0,0,0,0,0,0,0,0,0,0,0,0,0,0,0,0,0,0,0,0,0,0,0,0],"id":16,"left_children":[1,-1,3,5,7,9,11,-1,13,15,17,19,21,23,-1,-1,-1,-1,-1,-1,-1,-1,-1,-1,-1],"loss_changes":[2.1169212E1,0E0,1.2812603E1,3.3923109E0,1.1502304E0,2.0671873E0,2.0684743E0,0E0,1.7731833E0,2.7739582E0,2.004488E0,7.009425E-1,5.9523803E-1,1.9948052E0,0E0,0E0,0E0,0E0,0E0,0E0,0E0,0E0,0E0,0E0,0E0],"parents":[2147483647,0,0,2,2,3,3,4,4,5,5,6,6,8,8,9,9,10,10,11,11,12,12,13,13],"right_children":[2,-1,4,6,8,10,12,-1,14,16,18,20,22,24,-1,-1,-1,-1,-1,-1,-1,-1,-1,-1,-1],"split_conditions":[-1.4939377E0,-5.8077317E-2,1.0208572E0,6.7175794E-1,8.775792E-1,-1.0466857E0,1.6753066E0,1.8204225E-2,1.1500775E0,5.9865105E-1,1.0434852E0,-1.0252798E0,1.664983E-1,1.0204674E0,1.9081116E-2,-2.2892803E-3,2.5491088E-3,4.7028065E-4,6.6013816E-3,1.9654154E-3,-1.5610196E-3,-2.0696612E-3,3.9672377E-3,7.4367286E-3,-3.9138137E-3],"split_indices":[26,0,0,29,29,23,30,0,26,10,28,1,9,1,0,0,0,0,0,0,0,0,0,0,0],"split_type":[0,0,0,0,0,0,0,0,0,0,0,0,0,0,0,0,0,0,0,0,0,0,0,0,0],"sum_hessian":[4.17E2,6.6E1,3.51E2,2.56E2,9.5E1,2.07E2,4.9E1,7.3E1,2.2E1,2.9E1,1.78E2,4.3E1,6E0,1E1,1.2E1,1.5E1,1.4E1,1.65E2,1.3E1,3E0,4E1,1E0,5E0,4E0,6E0],"tree_param":{"num_deleted":"0","num_feature":"31","num_nodes":"25","size_leaf_vector":"1"}},{"base_weights":[6.960557E-3,-4.9324326E-2,1.1033519E-1,1.25E-2,4.556962E-1,-8.387097E-2,1.3095239E-1,-0E0,4.8E-2,3.846154E-1,-1.2587413E-1,3.472222E-1,4.3956045E-2,3.3333335E-2,-3.3333335E-2,4.5833334E-2,-2.5E-2,-2.6315792E-2,-3.4482758E-3,-1.25E-2,3.9393943E-2,-3.90625E-3,2.3214286E-2],"categories":[],"categories_nodes":[],"categories_segments":[],"categories_sizes":[],"default_left":[0,0,0,0,0,0,0,0,0,0,0,0,0,0,0,0,0,0,0,0,0,0,0],"id":17,"left_children":[1,-1,3,5,7,9,11,13,-1,15,17,19,21,-1,-1,-1,-1,-1,-1,-1,-1,-1,-1],"loss_changes":[2.2340736E1,0E0,1.2090574E1,3.207287E0,8.7493706E-1,3.0984888E0,2.3553874E0,6.666667E-1,0E0,7.227564E-1,1.7850823E0,8.4343433E-1,1.4307606E0,0E0,0E0,0E0,0E0,0E0,0E0,0E0,0E0,0E0,0E0],"parents":[2147483647,0,0,2,2,3,3,4,4,5,5,6,6,7,7,9,9,10,10,11,11,12,12],"right_children":[2,-1,4,6,8,10,12,14,-1,16,18,20,22,-1,-1,-1,-1,-1,-1,-1,-1,-1,-1],"split_conditions":[-1.3824936E0,-5.2991964E-2,1.0897533E0,2.43309E-2,9.799932E-1,-9.884915E-1,-4.0481296E-1,1.1137867E0,1.8025512E-2,-8.3507764E-1,-3.0173266E-1,-9.280786E-1,4.7856537E-1,4.5057237E-3,-5.917257E-3,3.761685E-3,-3.8532557E-3,-2.2162304E-3,-1.4348925E-4,-4.1426765E-3,4.5223446E-3,-2.438426E-4,2.0118833E-3],"split_indices":[0,0,0,27,26,1,29,0,0,8,28,30,26,0,0,0,0,0,0,0,0,0,0],"split_type":[0,0,0,0,0,0,0,0,0,0,0,0,0,0,0,0,0,0,0,0,0,0,0],"sum_hessian":[4.3E2,7.3E1,3.57E2,2.79E2,7.8E1,1.54E2,1.25E2,4E0,7.4E1,1.2E1,1.42E2,3.5E1,9E1,2E0,2E0,1.1E1,1E0,5.6E1,8.6E1,3E0,3.2E1,6.3E1,2.7E1],"tree_param":{"num_deleted":"0","num_feature":"31","num_nodes":"23","size_leaf_vector":"1"}},{"base_weights":[2.895323E-2,-4.7945204E-1,1.2732096E-1,-4.9305554E-2,2.5E-2,2.6041666E-2,4.5E-1,-1.1857707E-2,2.9166666E-1,4.6067417E-1,-2.5E-2,3.9408866E-2,-2.1568628E-1,3.382353E-1,-3.3333335E-2,-2.5E-2,4.715909E-1,1.0582011E-3,4.0000003E-2,-3.478261E-2,-1.03448285E-2,-0E0,4.107143E-2,4.8275862E-2,-2.5E-2],"categories":[],"categories_nodes":[],"categories_segments":[],"categories_sizes":[],"default_left":[0,0,0,0,0,0,0,0,0,0,0,0,0,0,0,0,0,0,0,0,0,0,0,0,0],"id":18,"left_children":[1,3,5,-1,-1,7,9,11,13,15,-1,17,19,21,-1,-1,23,-1,-1,-1,-1,-1,-1,-1,-1],"loss_changes":[2.2515837E1,8.476486E-1,1.2308907E1,0E0,0E0,2.9027605E0,7.876396E-1,2.652247E0,1.1605392E0,8.0838203E-1,0E0,2.1058931E0,7.204046E-1,8.3350825E-1,0E0,0E0,8.298397E-1,0E0,0E0,0E0,0E0,0E0,0E0,0E0,0E0],"parents":[2147483647,0,0,1,1,2,2,5,5,6,6,7,7,8,8,9,9,11,11,12,12,13,13,16,16],"right_children":[2,4,6,-1,-1,8,10,12,14,16,-1,18,20,22,-1,-1,24,-1,-1,-1,-1,-1,-1,-1,-1],"split_conditions":[-1.4939377E0,-1.147941E0,1.0897533E0,-4.7692765E-2,2.2572398E-3,1.0067633E0,1.6085294E0,6.7175794E-1,2.362803E0,7.928039E-1,-1.988876E-3,1.1815894E0,-3.0173266E-1,-4.8970985E-1,-1.8998549E-3,-5.303645E-3,2.4019074E0,1.154542E-4,5.2774134E-3,-3.193623E-3,-1.714006E-4,3.407251E-3,4.575086E-3,1.5370453E-2,-5.347419E-3],"split_indices":[26,3,0,0,0,27,8,29,27,26,0,28,28,28,0,0,29,0,0,0,0,0,0,0,0],"split_type":[0,0,0,0,0,0,0,0,0,0,0,0,0,0,0,0,0,0,0,0,0,0,0,0,0],"sum_hessian":[4.48E2,7.2E1,3.76E2,7.1E1,1E0,2.87E2,8.9E1,2.52E2,3.5E1,8.8E1,1E0,2.02E2,5E1,3.3E1,2E0,1E0,8.7E1,1.88E2,1.4E1,2.2E1,2.8E1,6E0,2.7E1,8.6E1,1E0],"tree_param":{"num_deleted":"0","num_feature":"31","num_nodes":"25","size_leaf_vector":"1"}},{"base_weights":[2.3972603E-2,-4.9264707E-2,1.1859838E-1,2.4054984E-2,4.5679012E-1,-1.4583333E-1,7.954545E-2,4.6875E-1,-2.5E-2,4.0000003E-2,-1.8382353E-1,2.0555556E-1,-7.633588E-3,-2.5E-2,4.8101267E-1,-2.7906979E-2,-1.923077E-3,3.6250003E-2,7.843138E-3,-4.661017E-3,3.214286E-2,4.935065E-2,-0E0],"categories":[],"categories_nodes":[],"categories_segments":[],"categories_sizes":[],"default_left":[0,0,0,0,0,0,0,0,0,0,0,0,0,0,0,0,0,0,0,0,0,0,0],"id":19,"left_children":[1,-1,3,5,7,9,11,13,-1,-1,15,17,19,-1,21,-1,-1,-1,-1,-1,-1,-1,-1],"loss_changes":[2.1470293E1,0E0,1.185129E1,2.7549107E0,8.018913E-1,1.566544E0,2.418366E0,8.253555E-1,0E0,0E0,1.0606585E0,1.7671976E0,1.695151E0,0E0,4.7476578E-1,0E0,0E0,0E0,0E0,0E0,0E0,0E0,0E0],"parents":[2147483647,0,0,2,2,3,3,4,4,5,5,6,6,7,7,10,10,11,11,12,12,14,14],"right_children":[2,-1,4,6,8,10,12,14,-1,-1,16,18,20,-1,22,-1,-1,-1,-1,-1,-1,-1,-1],"split_conditions":[-1.5611427E0,-4.4609047E-2,1.0760307E0,-7.350124E-1,1.6085294E0,-2.304335E0,-8.4941555E-3,-2.7450304E0,-1.7899871E-3,9.006092E-3,-7.558165E-2,3.389783E-1,1.7238473E0,-1.0726989E-3,2.4019074E0,-2.3642748E-3,-6.322265E-5,2.733171E-3,1.044345E-3,-1.6729832E-4,3.8570464E-3,1.5933728E-2,1.4350063E-2],"split_indices":[0,0,26,30,8,29,29,28,0,0,24,16,30,0,29,0,0,0,0,0,0,0,0],"split_type":[0,0,0,0,0,0,0,0,0,0,0,0,0,0,0,0,0,0,0,0,0,0,0],"sum_hessian":[4.37E2,6.7E1,3.7E2,2.9E2,8E1,7.1E1,2.19E2,7.9E1,1E0,4E0,6.7E1,8.9E1,1.3E2,1E0,7.8E1,4.2E1,2.5E1,3.9E1,5E1,1.17E2,1.3E1,7.6E1,2E0],"tree_param":{"num_deleted":"0","num_feature":"31","num_nodes":"23","size_leaf_vector":"1"}},{"base_weights":[2.4830699E-2,-4.9253732E-2,1.1671088E-1,3.0927835E-2,4.0229884E-1,-7.662835E-3,3.548387E-1,4.779412E-1,1.25E-1,-3.0241935E-2,3.9285713E-1,-8.3333336E-2,4.4230768E-1,2E-1,4.921875E-2,-7.692308E-2,4.375E-2,9.589042E-3,-8.238637E-3,-0E0,4.5833334E-2,-3.3333335E-2,1.25E-2,-0E0,4.7916666E-2,3.75E-2,-2.5E-2,4.1666668E-2,-4.375E-2],"categories":[],"categories_nodes":[],"categories_segments":[],"categories_sizes":[],"default_left":[0,0,0,0,0,0,0,0,0,0,0,0,0,0,0,0,0,0,0,0,0,0,0,0,0,0,0,0,0],"id":20,"left_children":[1,-1,3,5,7,9,11,13,15,17,19,21,23,25,-1,27,-1,-1,-1,-1,-1,-1,-1,-1,-1,-1,-1,-1,-1],"loss_changes":[2.1115871E1,0E0,9.223532E0,3.640201E0,1.7651291E0,2.372203E0,1.2249789E0,1.7081738E-1,1.2956731E0,1.6390207E0,3.6011887E-1,3.541667E-1,4.238782E-1,4.875E-1,0E0,2.4959934E0,0E0,0E0,0E0,0E0,0E0,0E0,0E0,0E0,0E0,0E0,0E0,0E0,0E0],"parents":[2147483647,0,0,2,2,3,3,4,4,5,5,6,6,7,7,8,8,9,9,10,10,11,11,12,12,13,13,15,15],"right_children":[2,-1,4,6,8,10,12,14,16,18,20,22,24,26,-1,28,-1,-1,-1,-1,-1,-1,-1,-1,-1,-1,-1,-1,-1],"split_conditions":[-1.6600167E0,-4.0870525E-2,1.1089801E0,1.1174067E0,8.775792E-1,1.4107065E0,-5.52124E-1,7.546926E-1,1.2651979E0,2.2679147E-1,-1.4951108E0,-5.084873E-1,-8.071572E-1,1.1127452E0,1.5062737E-2,1.0340631E0,1.6901398E-2,8.4596424E-4,-4.632056E-4,2.1720708E-3,3.798175E-3,-1.8311344E-3,2.9475808E-3,3.393683E-3,4.1730152E-3,4.2711855E-3,-1.0704637E-3,3.2048465E-3,-2.3280978E-3],"split_indices":[26,0,0,27,29,28,28,11,0,26,29,23,23,2,0,1,0,0,0,0,0,0,0,0,0,0,0,0,0],"split_type":[0,0,0,0,0,0,0,0,0,0,0,0,0,0,0,0,0,0,0,0,0,0,0,0,0,0,0,0,0],"sum_hessian":[4.42E2,6.6E1,3.76E2,2.9E2,8.6E1,2.6E2,3E1,6.7E1,1.9E1,2.47E2,1.3E1,5E0,2.5E1,4E0,6.3E1,1.2E1,7E0,7.2E1,1.75E2,2E0,1.1E1,2E0,3E0,2E0,2.3E1,3E0,1E0,5E0,7E0],"tree_param":{"num_deleted":"0","num_feature":"31","num_nodes":"29","size_leaf_vector":"1"}},{"base_weights":[3.4444444E-2,-4.9152542E-2,1.13520406E-1,3.834356E-2,4.7761193E-1,-3.5714287E-2,2.3595506E-1,-0E0,4.923077E-2,2.5E-2,-2.2033899E-1,-9.375E-2,3.0405405E-1,-2.5E-2,2.5E-2,-9.027778E-3,1.0091743E-2,-0E0,-3.1707317E-2,1.875E-2,-3.3333335E-2,4.7916666E-2,2.1568628E-2],"categories":[],"categories_nodes":[],"categories_segments":[],"categories_sizes":[],"default_left":[0,0,0,0,0,0,0,0,0,0,0,0,0,0,0,0,0,0,0,0,0,0,0],"id":21,"left_children":[1,-1,3,5,7,9,11,13,-1,15,17,19,21,-1,-1,-1,-1,-1,-1,-1,-1,-1,-1],"loss_changes":[1.8772005E1,0E0,1.0711218E1,4.779333E0,4.7026443E-1,2.6733353E0,2.026785E0,2.5E-1,0E0,1.5843973E0,1.2575443E0,1.140625E0,1.0417495E0,0E0,0E0,0E0,0E0,0E0,0E0,0E0,0E0,0E0,0E0],"parents":[2147483647,0,0,2,2,3,3,4,4,5,5,6,6,7,7,9,9,10,10,11,11,12,12],"right_children":[2,-1,4,6,8,10,12,14,-1,16,18,20,22,-1,-1,-1,-1,-1,-1,-1,-1,-1,-1],"split_conditions":[-1.7081014E0,-3.8228225E-2,1.1500775E0,6.154404E-1,-1.0498661E0,4.9946702E-1,-8.6882554E-2,1.2483743E0,1.643061E-2,-5.219945E-1,2.0914009E-1,-3.3485036E-2,-7.828643E-2,-4.4375658E-4,1.3074875E-2,-4.574165E-4,1.0818377E-3,4.357731E-4,-2.0114973E-3,2.3667873E-3,-2.3714066E-3,5.8452487E-3,2.286771E-3],"split_indices":[26,0,26,30,24,29,28,0,0,30,26,29,29,0,0,0,0,0,0,0,0,0,0],"split_type":[0,0,0,0,0,0,0,0,0,0,0,0,0,0,0,0,0,0,0,0,0,0,0],"sum_hessian":[4.49E2,5.8E1,3.91E2,3.25E2,6.6E1,2.37E2,8.8E1,2E0,6.4E1,1.79E2,5.8E1,1.5E1,7.3E1,1E0,1E0,7.1E1,1.08E2,1.8E1,4E1,7E0,8E0,2.3E1,5E1],"tree_param":{"num_deleted":"0","num_feature":"31","num_nodes":"23","size_leaf_vector":"1"}},{"base_weights":[1.2672811E-2,-4.632353E-1,1.0081744E-1,2.5E-2,-4.7761193E-1,2.2260275E-2,4.0131578E-1,2.5E-2,-4.9242426E-2,-3.2692307E-1,5.6179777E-2,4.913793E-2,1.0526316E-1,-4.7058824E-2,-5E-2,3.1620555E-2,4.6666667E-2,-1.8181819E-1,4.4444446E-2,2.5E-2,-4.0000003E-2,5.439331E-3,-3.3333335E-2,3.75E-2,-4.375E-2],"categories":[],"categories_nodes":[],"categories_segments":[],"categories_sizes":[],"default_left":[0,0,0,0,0,0,0,0,0,0,0,0,0,0,0,0,0,0,0,0,0,0,0,0,0],"id":22,"left_children":[1,3,5,-1,7,9,11,-1,-1,13,15,-1,17,-1,19,21,-1,23,-1,-1,-1,-1,-1,-1,-1],"loss_changes":[1.8252457E1,8.166704E-1,8.654577E0,0E0,8.4520626E-1,3.4768512E0,1.9747057E0,0E0,0E0,1.0108597E0,2.6769345E0,0E0,1.9308878E0,0E0,1.15E0,2.120815E0,0E0,1.7301136E0,0E0,0E0,0E0,0E0,0E0,0E0,0E0],"parents":[2147483647,0,0,1,1,2,2,4,4,5,5,6,6,9,9,10,10,12,12,14,14,15,15,17,17],"right_children":[2,4,6,-1,8,10,12,-1,-1,14,16,-1,18,-1,20,22,-1,24,-1,-1,-1,-1,-1,-1,-1],"split_conditions":[-1.5779662E0,-2.2351637E0,1.1089801E0,2.761197E-3,-2.0536277E0,-1.2672156E0,8.775792E-1,2.8133392E-5,-3.2238256E-2,4.652562E-1,1.7862202E0,1.5284515E-2,1.2651979E0,-2.7445168E-3,4.8544425E-1,1.046859E0,4.0960102E-3,1.0204674E0,1.5889859E-2,5.9690885E-4,-2.134429E-3,5.005807E-4,-8.3496276E-4,2.655685E-3,-1.8941403E-3],"split_indices":[0,6,0,0,7,27,29,0,0,9,30,0,0,0,10,1,0,1,0,0,0,0,0,0,0],"split_type":[0,0,0,0,0,0,0,0,0,0,0,0,0,0,0,0,0,0,0,0,0,0,0,0,0],"sum_hessian":[4.33E2,6.7E1,3.66E2,1E0,6.6E1,2.91E2,7.5E1,1E0,6.5E1,2.5E1,2.66E2,5.7E1,1.8E1,1.6E1,9E0,2.52E2,1.4E1,1E1,8E0,5E0,4E0,2.38E2,1.4E1,3E0,7E0],"tree_param":{"num_deleted":"0","num_feature":"31","num_nodes":"25","size_leaf_vector":"1"}},{"base_weights":[-0E0,-1.610487E-1,2.2994652E-1,-4.4615385E-1,-6.896552E-2,1.1382114E-1,4.4615385E-1,2.5E-2,-4.609375E-1,3.214286E-2,-2.890625E-1,2.1839081E-1,-1.3513513E-1,-2.5E-2,4.609375E-1,-2.2222222E-1,-4.9107146E-2,-3.4782607E-2,3.2692307E-1,-3.2786885E-1,3.75E-2,3.2258064E-2,3.1578946E-1,-4E-1,4.347826E-2,8.3333336E-2,4.9152542E-2,-4.1666668E-2,1.25E-2,6.1728396E-3,-2.5714288E-2,3.9583337E-2,-3.3333335E-2,2.0000001E-2,-3.6842104E-2,4.375E-2,-1.0416667E-2,-2.0000001E-2,3.5849057E-2,2.5E-2,-4.6428572E-2,-4.1666668E-2,1.9444445E-2,-3.3333335E-2,3.75E-2],"categories":[],"categories_nodes":[],"categories_segments":[],"categories_sizes":[],"default_left":[0,0,0,0,0,0,0,0,0,0,0,0,0,0,0,0,0,0,0,0,0,0,0,0,0,0,0,0,0,0,0,0,0,0,0,0,0,0,0,0,0,0,0,0,0],"id":23,"left_children":[1,3,5,7,9,11,13,-1,15,17,19,21,23,-1,25,27,-1,29,31,33,-1,35,37,39,41,43,-1,-1,-1,-1,-1,-1,-1,-1,-1,-1,-1,-1,-1,-1,-1,-1,-1,-1,-1],"loss_changes":[1.6812794E1,6.9788847E0,4.6442575E0,7.8419495E-1,4.526782E0,3.2316055E0,7.8419495E-1,0E0,3.5125256E-1,2.7733338E0,1.7722206E0,1.5670428E0,1.7678027E0,0E0,6.982479E-1,6.597222E-1,0E0,2.4837973E0,1.3149037E0,1.3794651E0,0E0,1.7594086E0,1.3271103E0,7.42857E-1,1.678744E0,8.541667E-1,0E0,0E0,0E0,0E0,0E0,0E0,0E0,0E0,0E0,0E0,0E0,0E0,0E0,0E0,0E0,0E0,0E0,0E0,0E0],"parents":[2147483647,0,0,1,1,2,2,3,3,4,4,5,5,6,6,8,8,9,9,10,10,11,11,12,12,14,14,15,15,17,17,18,18,19,19,21,21,22,22,23,23,24,24,25,25],"right_children":[2,4,6,8,10,12,14,-1,16,18,20,22,24,-1,26,28,-1,30,32,34,-1,36,38,40,42,44,-1,-1,-1,-1,-1,-1,-1,-1,-1,-1,-1,-1,-1,-1,-1,-1,-1,-1,-1],"split_conditions":[4.780714E-1,-1.7081014E0,1.1640656E0,-2.0536277E0,3.5174233E-1,1.046859E0,-5.4911983E-1,2.5320054E-5,-2.000966E0,9.9247015E-1,1.4083993E0,-3.9132375E-1,-2.6381118E-2,-1.4158249E-3,-1.7505171E0,-2.0279322E0,-3.1181574E-2,3.8934883E-1,1.1076252E0,1.3924342E-1,2.08005E-3,6.2653035E-1,-1.2672156E0,1.0892454E0,1.0729297E0,1.3435643E0,1.5321225E-2,-1.5048385E-2,1.807189E-3,4.9266074E-4,-9.944014E-4,3.4382583E-3,-1.9033976E-3,1.651682E-3,-2.2367954E-3,2.670598E-3,-5.148411E-4,-1.1658728E-3,2.6827573E-3,6.174481E-3,-1.9365788E-3,-1.388371E-3,1.244259E-3,-5.82701E-4,2.3147022E-2],"split_indices":[26,26,26,7,3,1,23,0,8,27,27,28,27,0,28,8,0,29,29,13,0,2,27,1,0,1,0,0,0,0,0,0,0,0,0,0,0,0,0,0,0,0,0,0,0],"split_type":[0,0,0,0,0,0,0,0,0,0,0,0,0,0,0,0,0,0,0,0,0,0,0,0,0,0,0,0,0,0,0,0,0,0,0,0,0,0,0,0,0,0,0,0,0],"sum_hessian":[4.52E2,2.66E2,1.86E2,6.4E1,2.02E2,1.22E2,6.4E1,1E0,6.3E1,1.39E2,6.3E1,8.6E1,3.6E1,1E0,6.3E1,8E0,5.5E1,1.14E2,2.5E1,6E1,3E0,3E1,5.6E1,1.4E1,2.2E1,5E0,5.8E1,5E0,3E0,8E1,3.4E1,2.3E1,2E0,4E0,5.6E1,7E0,2.3E1,4E0,5.2E1,1E0,1.3E1,5E0,1.7E1,2E0,3E0],"tree_param":{"num_deleted":"0","num_feature":"31","num_nodes":"45","size_leaf_vector":"1"}},{"base_weights":[4.454343E-3,-4.6212122E-1,8.4635414E-2,-4.9152542E-2,-1.875E-1,1.8691588E-2,4.140625E-1,3.3333335E-2,-4.1666668E-2,-1.1986301E-2,3.1666666E-1,-1.25E-1,4.4262296E-1,1.7045455E-2,-2.7586207E-1,7.692308E-2,4.7222223E-2,2.5E-2,-3.3333335E-2,-0E0,4.7368422E-1,-3.214286E-2,3.5856576E-3,-9.375E-3,-4.6428572E-2,4.1666668E-2,-1.875E-2,-3.3333335E-2,3.3333335E-2,-2.5E-2,4.9107146E-2],"categories":[],"categories_nodes":[],"categories_segments":[],"categories_sizes":[],"default_left":[0,0,0,0,0,0,0,0,0,0,0,0,0,0,0,0,0,0,0,0,0,0,0,0,0,0,0,0,0,0,0],"id":24,"left_children":[1,3,5,-1,7,9,11,-1,-1,13,15,17,19,21,23,25,-1,-1,-1,27,29,-1,-1,-1,-1,-1,-1,-1,-1,-1,-1],"loss_changes":[1.683644E1,4.4079018E-1,8.334154E0,0E0,1.09375E0,2.938136E0,1.0406637E0,0E0,0E0,2.241649E0,1.0824783E0,3.9583334E-1,8.3865356E-1,1.6924332E0,9.5158553E-1,1.2459935E0,0E0,0E0,0E0,6.666667E-1,8.399906E-1,0E0,0E0,0E0,0E0,0E0,0E0,0E0,0E0,0E0,0E0],"parents":[2147483647,0,0,1,1,2,2,4,4,5,5,6,6,9,9,10,10,11,11,12,12,13,13,14,14,15,15,19,19,20,20],"right_children":[2,4,6,-1,8,10,12,-1,-1,14,16,18,20,22,24,26,-1,-1,-1,28,30,-1,-1,-1,-1,-1,-1,-1,-1,-1,-1],"split_conditions":[-1.7081014E0,1.1985291E0,1.1500775E0,-2.6458127E-2,-1.9099436E0,1.4083993E0,7.452911E-1,1.8672645E-3,-3.2237183E-2,1.1456994E0,2.0770629E-1,1.1089801E0,-1.7505171E0,-1.2589407E0,4.657755E-2,-1.2680311E0,4.411054E-3,2.681494E-4,-1.6183614E-3,1.3435643E0,-5.4911983E-1,-2.1035285E-3,1.187712E-4,-1.0870397E-4,-5.146259E-3,3.422177E-3,-1.1433006E-3,-5.2443147E-4,1.4571684E-2,-1.2742401E-3,1.3668704E-2],"split_indices":[26,28,26,0,7,27,12,0,0,29,9,0,28,23,23,2,0,0,0,1,23,0,0,0,0,0,0,0,0,0,0],"split_type":[0,0,0,0,0,0,0,0,0,0,0,0,0,0,0,0,0,0,0,0,0,0,0,0,0,0,0,0,0,0,0],"sum_hessian":[4.48E2,6.5E1,3.83E2,5.8E1,7E0,3.2E2,6.3E1,2E0,5E0,2.91E2,2.9E1,3E0,6E1,2.63E2,2.8E1,1.2E1,1.7E1,1E0,2E0,4E0,5.6E1,1.3E1,2.5E2,1.5E1,1.3E1,5E0,7E0,2E0,2E0,1E0,5.5E1],"tree_param":{"num_deleted":"0","num_feature":"31","num_nodes":"31","size_leaf_vector":"1"}},{"base_weights":[2.111111E-2,-4.3636364E-1,8.4595956E-2,3.3333335E-2,-4.716981E-1,2.359882E-2,4.3965518E-1,-1.25E-1,-4.9000002E-2,-1.02564104E-1,8.9686096E-2,-2.5E-2,4.5614034E-1,-3.3333335E-2,2.5E-2,4.2857144E-2,-1.3513513E-1,2.3026315E-2,2.2916667E-1,-2.5E-2,4.732143E-1,-3.125E-2,-3.4722225E-3,3.4375E-2,-1.4598541E-3,7.3529417E-3,3.5897437E-2,4.9056605E-2,1.25E-2],"categories":[],"categories_nodes":[],"categories_segments":[],"categories_sizes":[],"default_left":[0,0,0,0,0,0,0,0,0,0,0,0,0,0,0,0,0,0,0,0,0,0,0,0,0,0,0,0,0],"id":25,"left_children":[1,3,5,-1,7,9,11,13,-1,15,17,-1,19,-1,-1,-1,21,23,25,-1,27,-1,-1,-1,-1,-1,-1,-1,-1],"loss_changes":[1.3106135E1,1.653059E0,8.566032E0,0E0,2.750473E-1,2.8357008E0,7.7344227E-1,3.9583334E-1,0E0,2.0819721E0,2.0681202E0,0E0,8.055296E-1,0E0,0E0,0E0,1.9660285E0,1.83923E0,1.4282146E0,0E0,2.7703857E-1,0E0,0E0,0E0,0E0,0E0,0E0,0E0,0E0],"parents":[2147483647,0,0,1,1,2,2,4,4,5,5,6,6,7,7,9,9,10,10,12,12,16,16,17,17,18,18,20,20],"right_children":[2,4,6,-1,8,10,12,14,-1,16,18,-1,20,-1,-1,-1,22,24,26,-1,28,-1,-1,-1,-1,-1,-1,-1,-1],"split_conditions":[-1.7582175E0,-2.0563853E0,1.1640656E0,2.3488104E-3,-2.0306065E0,-2.536933E-1,6.694515E-1,-1.8567549E0,-2.6862372E-2,-8.952033E-1,5.1868993E-1,-2.9603243E-4,-5.4911983E-1,-2.505641E-2,1.9213319E-3,3.955984E-3,3.6325198E-1,-8.403316E-1,4.1964373E-1,-1.1468172E-3,1.8338588E0,-1.8382296E-3,-4.8090817E-4,5.178869E-4,-1.1321008E-4,2.522409E-4,3.0003362E-3,1.19291125E-2,7.7036857E-3],"split_indices":[0,6,26,0,7,27,12,0,0,3,28,0,23,0,0,0,26,20,27,0,29,0,0,0,0,0,0,0,0],"split_type":[0,0,0,0,0,0,0,0,0,0,0,0,0,0,0,0,0,0,0,0,0,0,0,0,0,0,0,0,0],"sum_hessian":[4.49E2,5.4E1,3.95E2,2E0,5.2E1,3.38E2,5.7E1,3E0,4.9E1,1.16E2,2.22E2,1E0,5.6E1,2E0,1E0,6E0,1.1E2,1.51E2,7.1E1,1E0,5.5E1,3.9E1,7.1E1,1.5E1,1.36E2,3.3E1,3.8E1,5.2E1,3E0],"tree_param":{"num_deleted":"0","num_feature":"31","num_nodes":"29","size_leaf_vector":"1"}},{"base_weights":[-2.4193548E-2,-9.919571E-2,4.2741936E-1,-4.6031746E-1,-2.5723472E-2,4.5833334E-1,-3.3333335E-2,-4.916667E-2,1.25E-1,-4.778157E-2,3.1578946E-1,4.9107146E-2,-0E0,3.3333335E-2,-2.5E-2,-2.0992367E-2,-2.65625E-1,1.1111111E-1,4.5454547E-2,-3.3333335E-2,3.3333335E-2,-4.489796E-3,3.0555556E-2,-0E0,-3.5416666E-2,4.1666668E-2,-3.75E-2],"categories":[],"categories_nodes":[],"categories_segments":[],"categories_sizes":[],"default_left":[0,0,0,0,0,0,0,0,0,0,0,0,0,0,0,0,0,0,0,0,0,0,0,0,0,0,0],"id":26,"left_children":[1,3,5,7,9,11,-1,-1,13,15,17,-1,19,-1,-1,21,23,25,-1,-1,-1,-1,-1,-1,-1,-1,-1],"loss_changes":[1.4742822E1,9.884752E0,1.6108875E0,1.2174606E0,2.357891E0,9.0029716E-1,0E0,0E0,3.9583334E-1,1.7043285E0,4.8910153E-1,0E0,6.666667E-1,0E0,0E0,2.0589752E0,7.5260425E-1,1.4930555E0,0E0,0E0,0E0,0E0,0E0,0E0,0E0,0E0,0E0],"parents":[2147483647,0,0,1,1,2,2,3,3,4,4,5,5,8,8,9,9,10,10,12,12,15,15,16,16,17,17],"right_children":[2,4,6,8,10,12,-1,-1,14,16,18,-1,20,-1,-1,22,24,26,-1,-1,-1,-1,-1,-1,-1,-1,-1],"split_conditions":[1.164257E0,-1.7081014E0,1.4713753E0,2.1257224E0,1.4307305E0,1.8338588E0,-1.4630437E-3,-2.1286607E-2,-1.5779662E0,1.1076252E0,2.0770629E-1,1.1349714E-2,1.341304E0,1.8010617E-3,-4.732478E-3,9.728346E-1,-6.0823935E-1,3.831681E-1,6.189123E-3,-1.2817205E-3,1.3249993E-2,-2.524048E-4,2.465394E-3,7.9322424E-5,-4.383707E-3,3.8650513E-3,-1.017648E-3],"split_indices":[0,26,19,30,27,29,0,0,0,29,9,0,0,0,0,30,20,0,0,0,0,0,0,0,0,0,0],"split_type":[0,0,0,0,0,0,0,0,0,0,0,0,0,0,0,0,0,0,0,0,0,0,0,0,0,0,0],"sum_hessian":[4.33E2,3.72E2,6.1E1,6.2E1,3.1E2,5.9E1,2E0,5.9E1,3E0,2.92E2,1.8E1,5.5E1,4E0,2E0,1E0,2.61E2,3.1E1,8E0,1E1,2E0,2E0,2.44E2,1.7E1,8E0,2.3E1,5E0,3E0],"tree_param":{"num_deleted":"0","num_feature":"31","num_nodes":"27","size_leaf_vector":"1"}},{"base_weights":[8.752735E-3,-3.8636363E-1,7.52551E-2,3.75E-2,-4.2857143E-1,3.7709497E-2,4.5714286E-1,-4.5833334E-1,1.25E-1,2.0714286E-1,-3.4602077E-3,4.8529413E-2,-2.5E-2,-4.7457626E-1,2.5E-2,-2.5E-2,3.3333335E-2,-1.1363637E-1,3.469388E-1,3.529412E-1,-2.5641026E-2,-4.9122807E-2,-0E0,-3.75E-2,1.818182E-2,6.6666673E-3,4.5714285E-2,4.6428572E-2,-1.25E-2,-1.0596027E-2,7.317073E-3],"categories":[],"categories_nodes":[],"categories_segments":[],"categories_sizes":[],"default_left":[0,0,0,0,0,0,0,0,0,0,0,0,0,0,0,0,0,0,0,0,0,0,0,0,0,0,0,0,0,0,0],"id":27,"left_children":[1,3,5,-1,7,9,11,13,15,17,19,-1,-1,21,-1,-1,-1,23,25,27,29,-1,-1,-1,-1,-1,-1,-1,-1,-1,-1],"loss_changes":[1.2037287E1,2.2816553E0,5.6033382E0,0E0,1.0952387E0,2.4979534E0,8.180671E-1,8.0896854E-1,3.9583334E-1,3.1784787E0,2.2936742E0,0E0,0E0,4.6625042E-1,0E0,0E0,0E0,1.7670456E0,1.4829931E0,9.627099E-1,2.1744137E0,0E0,0E0,0E0,0E0,0E0,0E0,0E0,0E0,0E0,0E0],"parents":[2147483647,0,0,1,1,2,2,4,4,5,5,6,6,7,7,8,8,9,9,10,10,13,13,17,17,18,18,19,19,20,20],"right_children":[2,4,6,-1,8,10,12,14,16,18,20,-1,-1,22,-1,-1,-1,24,26,28,30,-1,-1,-1,-1,-1,-1,-1,-1,-1,-1],"split_conditions":[-1.6236298E0,-2.0563853E0,1.2773268E0,3.0382157E-3,1.2550178E0,-7.466052E-1,1.6112359E0,1.867412E0,-1.7774444E0,2.2975771E-1,-1.7525215E0,1.2863481E-2,-1.3939143E-4,1.338126E0,3.463626E-4,-1.0983944E-3,2.7284145E-3,-5.3516626E-1,-1.1401576E0,1.862619E0,4.780714E-1,-2.2085948E-2,-2.494198E-2,-6.896526E-4,2.1217615E-4,3.0064478E-3,5.253175E-3,2.6575567E-3,-4.6788575E-3,-6.8763405E-4,3.3344328E-4],"split_indices":[0,6,26,0,30,29,4,20,0,14,13,0,0,28,0,0,0,30,30,29,26,0,0,0,0,0,0,0,0,0,0],"split_type":[0,0,0,0,0,0,0,0,0,0,0,0,0,0,0,0,0,0,0,0,0,0,0,0,0,0,0,0,0,0,0],"sum_hessian":[4.56E2,6.5E1,3.91E2,3E0,6.2E1,3.57E2,3.4E1,5.9E1,3E0,6.9E1,2.88E2,3.3E1,1E0,5.8E1,1E0,1E0,2E0,2.1E1,4.8E1,1.6E1,2.72E2,5.6E1,2E0,1.1E1,1E1,1.4E1,3.4E1,1.3E1,3E0,1.5E2,1.22E2],"tree_param":{"num_deleted":"0","num_feature":"31","num_nodes":"31","size_leaf_vector":"1"}},{"base_weights":[-0E0,-1.4484127E-1,2.0277777E-1,-4.888889E-2,-6.9711536E-2,1.3028169E-1,4.6153846E-1,-1.1299435E-2,-3.90625E-1,-3.6363635E-2,2.3295455E-1,4.868421E-2,-2.5E-2,-6.168831E-2,3.125E-1,-4.7916666E-2,-1.1111111E-1,3.0769232E-1,-1.3953489E-1,4.75E-2,1.594203E-1,-1.0227273E-2,1.7391305E-2,3.809524E-2,-1.25E-2,-2.857143E-2,3.3333335E-2,4.5454547E-2,-3.3333335E-2,-4.6428572E-2,1.6666668E-3,2.4528302E-2,-1.1764706E-2],"categories":[],"categories_nodes":[],"categories_segments":[],"categories_sizes":[],"default_left":[0,0,0,0,0,0,0,0,0,0,0,0,0,0,0,0,0,0,0,0,0,0,0,0,0,0,0,0,0,0,0,0,0],"id":28,"left_children":[1,3,5,-1,7,9,11,13,15,17,19,-1,-1,21,23,-1,25,27,29,-1,31,-1,-1,-1,-1,-1,-1,-1,-1,-1,-1,-1,-1],"loss_changes":[1.2688095E1,6.479666E0,3.316515E0,0E0,3.894594E0,2.438084E0,8.238869E-1,2.90719E0,7.387152E-1,1.9952513E0,1.4905548E0,0E0,0E0,1.490295E0,7.663691E-1,0E0,7.936508E-1,1.3752912E0,2.1889813E0,0E0,1.6703501E0,0E0,0E0,0E0,0E0,0E0,0E0,0E0,0E0,0E0,0E0,0E0,0E0],"parents":[2147483647,0,0,1,1,2,2,4,4,5,5,6,6,7,7,8,8,9,9,10,10,13,13,14,14,16,16,17,17,18,18,20,20],"right_children":[2,4,6,-1,8,10,12,14,16,18,20,-1,-1,22,24,-1,26,28,30,-1,32,-1,-1,-1,-1,-1,-1,-1,-1,-1,-1,-1,-1],"split_conditions":[4.7617978E-1,-1.8802614E0,1.2773268E0,-2.1203374E-2,4.3905294E-1,-3.0173266E-1,1.6112359E0,9.9247015E-1,9.481643E-1,4.876733E-1,-6.7151105E-1,1.181792E-2,-1.2545586E-4,3.759303E-1,3.3021575E-1,-2.1990836E-3,3.6609295E-1,1.0657227E0,9.682052E-1,5.317837E-3,1.1918111E0,-5.2142795E-4,6.229758E-4,2.1445334E-3,-4.8311503E-4,-1.399684E-3,1.7086416E-4,1.5791834E-3,-3.6857799E-3,-1.7648012E-3,1.9202828E-4,1.4345319E-3,-9.188056E-4],"split_indices":[26,26,26,0,1,28,4,27,27,16,29,0,0,26,3,0,12,23,11,0,16,0,0,0,0,0,0,0,0,0,0,0,0],"split_type":[0,0,0,0,0,0,0,0,0,0,0,0,0,0,0,0,0,0,0,0,0,0,0,0,0,0,0,0,0,0,0,0,0],"sum_hessian":[4.3E2,2.51E2,1.79E2,4.4E1,2.07E2,1.41E2,3.8E1,1.76E2,3.1E1,5.4E1,8.7E1,3.7E1,1E0,1.53E2,2.3E1,2.3E1,8E0,1.2E1,4.2E1,1.9E1,6.8E1,1.31E2,2.2E1,2E1,3E0,6E0,2E0,1E1,2E0,1.3E1,2.9E1,5.2E1,1.6E1],"tree_param":{"num_deleted":"0","num_feature":"31","num_nodes":"33","size_leaf_vector":"1"}},{"base_weights":[-2.3542602E-2,-4.051724E-1,3.3419024E-2,3.3333335E-2,-4.375E-1,-1.396648E-3,4.21875E-1,2.5E-2,-4.5454547E-1,-1.2109375E-1,6.4935066E-2,4.8214287E-2,-0E0,-1.875E-1,-4.8958335E-2,-7.964602E-2,-4.0625E-1,4.117647E-1,3.7209302E-2,3.3333335E-2,-3.3333335E-2,1.25E-2,-4.0000003E-2,-1.7763158E-2,1.1842106E-2,-4.6666667E-2,2.5E-2,-0E0,4.6666667E-2,-2.6315792E-2,6.5989844E-3],"categories":[],"categories_nodes":[],"categories_segments":[],"categories_sizes":[],"default_left":[0,0,0,0,0,0,0,0,0,0,0,0,0,0,0,0,0,0,0,0,0,0,0,0,0,0,0,0,0,0,0],"id":29,"left_children":[1,3,5,-1,7,9,11,-1,13,15,17,-1,19,21,-1,23,25,27,29,-1,-1,-1,-1,-1,-1,-1,-1,-1,-1,-1,-1],"loss_changes":[9.708802E0,1.5305309E0,5.2615633E0,0E0,7.69886E-1,2.8502808E0,8.136163E-1,0E0,4.22822E-1,1.4804859E0,2.2060013E0,0E0,6.666667E-1,5.8125E-1,0E0,2.214107E0,7.5104165E-1,3.8431382E-1,1.875983E0,0E0,0E0,0E0,0E0,0E0,0E0,0E0,0E0,0E0,0E0,0E0,0E0],"parents":[2147483647,0,0,1,1,2,2,4,4,5,5,6,6,8,8,9,9,10,10,12,12,13,13,15,15,16,16,17,17,18,18],"right_children":[2,4,6,-1,8,10,12,-1,14,16,18,-1,20,22,-1,24,26,28,30,-1,-1,-1,-1,-1,-1,-1,-1,-1,-1,-1,-1],"split_conditions":[-1.7582175E0,-2.0563853E0,1.2773268E0,2.3745776E-3,-2.1998703E0,-3.344196E-1,1.4440292E0,3.6387445E-4,-1.979801E0,3.5742536E-1,-1.7897047E0,1.3284862E-2,-6.755839E-1,-1.9338559E0,-1.8200124E-2,-3.6178854E-1,1.1630433E0,-1.8765136E0,-1.1302333E0,1.1644459E-2,-8.150935E-5,1.0633826E-3,-5.668187E-3,-9.841323E-4,6.055683E-4,-2.467513E-3,1.6846777E-3,-2.1858753E-3,1.9996644E-3,-1.020275E-3,2.8204342E-4],"split_indices":[0,6,26,0,18,28,4,0,7,30,5,0,24,10,0,30,2,26,23,0,0,0,0,0,0,0,0,0,0,0,0],"split_type":[0,0,0,0,0,0,0,0,0,0,0,0,0,0,0,0,0,0,0,0,0,0,0,0,0,0,0,0,0,0,0],"sum_hessian":[4.45E2,5.7E1,3.88E2,2E0,5.5E1,3.57E2,3.1E1,1E0,5.4E1,1.27E2,2.3E2,2.7E1,4E0,7E0,4.7E1,1.12E2,1.5E1,1.6E1,2.14E2,2E0,2E0,3E0,4E0,7.5E1,3.7E1,1.4E1,1E0,2E0,1.4E1,1.8E1,1.96E2],"tree_param":{"num_deleted":"0","num_feature":"31","num_nodes":"31","size_leaf_vector":"1"}},{"base_weights":[-5.5555557E-3,-4.4791666E-1,4.7146402E-2,-0E0,-4.886364E-2,-2.7855153E-3,4.4444445E-1,-3.3333335E-2,3.3333335E-2,-1.3181818E-1,5.4E-2,4.659091E-1,-2.5E-2,-0E0,-2.9E-1,-3.2142857E-1,7.594936E-2,-2.5E-2,4.883721E-2,-2.5E-2,1.0227273E-2,1.25E-2,-3.1914894E-2,2.5E-2,-3.846154E-2,9.170306E-3,-3.3333335E-2],"categories":[],"categories_nodes":[],"categories_segments":[],"categories_sizes":[],"default_left":[0,0,0,0,0,0,0,0,0,0,0,0,0,0,0,0,0,0,0,0,0,0,0,0,0,0,0],"id":30,"left_children":[1,3,5,7,-1,9,11,-1,-1,13,15,17,-1,19,21,23,25,-1,-1,-1,-1,-1,-1,-1,-1,-1,-1],"loss_changes":[1.05121E1,8.75474E-1,7.9958935E0,6.666667E-1,0E0,2.6375782E0,7.872467E-1,0E0,0E0,2.2936363E0,2.084517E0,8.296776E-1,0E0,1.5852273E0,6.447339E-1,6.0164833E-1,1.5586755E0,0E0,0E0,0E0,0E0,0E0,0E0,0E0,0E0,0E0,0E0],"parents":[2147483647,0,0,1,1,2,2,3,3,5,5,6,6,9,9,10,10,11,11,13,13,14,14,15,15,16,16],"right_children":[2,4,6,8,-1,10,12,-1,-1,14,16,18,-1,20,22,24,26,-1,-1,-1,-1,-1,-1,-1,-1,-1,-1],"split_conditions":[-1.8744777E0,-1.9623367E0,1.2219375E0,-1.952889E0,-1.6540647E-2,-4.5401388E-1,1.6112359E0,-2.5043214E-2,9.824574E-4,1.2038811E-1,-1.3849212E0,9.3516934E-1,-1.0476112E-4,-1.3430223E0,-8.543829E-1,-2.0472524E0,1.9103494E0,-6.454551E-3,1.0110295E-2,-2.0418407E-3,7.380545E-4,1.0231495E-3,-1.481755E-3,3.2749175E-4,-2.078709E-3,3.2206773E-4,-3.8637654E-3],"split_indices":[26,7,0,0,0,27,4,0,0,29,23,8,0,30,24,2,29,0,0,0,0,0,0,0,0,0,0],"split_type":[0,0,0,0,0,0,0,0,0,0,0,0,0,0,0,0,0,0,0,0,0,0,0,0,0,0,0],"sum_hessian":[4.49E2,4.7E1,4.02E2,4E0,4.3E1,3.58E2,4.4E1,2E0,2E0,1.09E2,2.49E2,4.3E1,1E0,6E1,4.9E1,1.3E1,2.36E2,1E0,4.2E1,1.7E1,4.3E1,3E0,4.6E1,1E0,1.2E1,2.28E2,8E0],"tree_param":{"num_deleted":"0","num_feature":"31","num_nodes":"27","size_leaf_vector":"1"}},{"base_weights":[-1.8973215E-2,-4.659091E-1,2.962963E-2,2.5E-2,-4.883721E-2,-1.0958904E-2,3.902439E-1,-3.8348082E-2,3.3333334E-1,4.3421054E-1,-1.25E-1,-2.0535715E-1,-5.28169E-3,-0E0,4.2857143E-1,-2.5E-2,4.5945945E-1,2.5E-2,-3.3333335E-2,-3.3333335E-2,-2.0833334E-3,1.4743591E-2,-6.2801936E-3,3.3333335E-2,-2.0000001E-2,-2.5E-2,4.75E-2,-0E0,4.857143E-2],"categories":[],"categories_nodes":[],"categories_segments":[],"categories_sizes":[],"default_left":[0,0,0,0,0,0,0,0,0,0,0,0,0,0,0,0,0,0,0,0,0,0,0,0,0,0,0,0,0],"id":31,"left_children":[1,3,5,-1,-1,7,9,11,13,15,17,19,21,23,25,-1,27,-1,-1,-1,-1,-1,-1,-1,-1,-1,-1,-1,-1],"loss_changes":[9.7454195E0,8.296776E-1,5.9321823E0,0E0,0E0,3.4546895E0,9.830713E-1,1.8710046E0,8.571429E-1,7.713375E-1,3.9583334E-1,1.3154764E0,2.5040152E0,5.3333336E-1,7.803569E-1,0E0,4.4633198E-1,0E0,0E0,0E0,0E0,0E0,0E0,0E0,0E0,0E0,0E0,0E0,0E0],"parents":[2147483647,0,0,1,1,2,2,5,5,6,6,7,7,8,8,9,9,10,10,11,11,12,12,13,13,14,14,16,16],"right_children":[2,4,6,-1,-1,8,10,12,14,16,18,20,22,24,26,-1,28,-1,-1,-1,-1,-1,-1,-1,-1,-1,-1,-1,-1],"split_conditions":[-1.8744777E0,-2.0484312E0,1.2219375E0,9.096265E-4,-1.4404989E-2,1.4595196E0,1.4440292E0,-9.3678945E-1,-4.4491512E-1,9.3516934E-1,1.3450745E0,3.953228E-1,-2.987829E-1,-1.3002974E0,-8.071572E-1,-5.8090924E-3,-1.7505171E0,1.9055594E-2,-5.8529974E-4,-1.7026797E-3,-6.8604946E-5,5.0500035E-4,-2.3961067E-4,8.344352E-4,-1.9081921E-3,-3.7588717E-3,3.182459E-3,6.0930075E-3,8.697945E-3],"split_indices":[26,9,0,0,0,27,4,27,20,8,2,12,20,13,23,0,28,0,0,0,0,0,0,0,0,0,0,0,0],"split_type":[0,0,0,0,0,0,0,0,0,0,0,0,0,0,0,0,0,0,0,0,0,0,0,0,0,0,0,0,0],"sum_hessian":[4.47E2,4.3E1,4.04E2,1E0,4.2E1,3.64E2,4E1,3.38E2,2.6E1,3.7E1,3E0,5.5E1,2.83E2,6E0,2E1,1E0,3.6E1,1E0,2E0,3.2E1,2.3E1,7.7E1,2.06E2,2E0,4E0,1E0,1.9E1,2E0,3.4E1],"tree_param":{"num_deleted":"0","num_feature":"31","num_nodes":"29","size_leaf_vector":"1"}},{"base_weights":[-2.4830699E-2,-4.4444445E-1,2.255639E-2,-4.883721E-2,3.3333335E-2,-2.6385225E-3,4.761905E-2,-1.6867469E-1,4.3771043E-2,2E-1,-2.4637681E-1,1.6842106E-1,-1.4778325E-2,-3.3333335E-2,3.0769233E-2,-1.4772727E-2,-4.0384617E-2,2.5373135E-2,-3.4482758E-3,9.868422E-3,-8.203126E-3],"categories":[],"categories_nodes":[],"categories_segments":[],"categories_sizes":[],"default_left":[0,0,0,0,0,0,0,0,0,0,0,0,0,0,0,0,0,0,0,0,0],"id":32,"left_children":[1,3,5,-1,-1,7,-1,9,11,13,15,17,19,-1,-1,-1,-1,-1,-1,-1,-1],"loss_changes":[8.818759E0,1.7002573E0,4.5615354E0,0E0,0E0,2.9278307E0,0E0,2.4269602E0,2.1700482E0,9.641026E-1,1.0122061E0,1.6531787E0,1.5571247E0,0E0,0E0,0E0,0E0,0E0,0E0,0E0,0E0],"parents":[2147483647,0,0,1,1,2,2,5,5,7,7,8,8,9,9,10,10,11,11,12,12],"right_children":[2,4,6,-1,-1,8,-1,10,12,14,16,18,20,-1,-1,-1,-1,-1,-1,-1,-1],"split_conditions":[-1.8744777E0,-1.6909237E0,1.3462309E0,-1.3606608E-2,9.074509E-4,-7.238123E-1,9.714365E-3,-1.0466359E0,-4.5969436E-1,-7.28697E-1,5.7160985E-1,6.9835436E-1,3.134729E-1,-1.1678726E-3,4.712403E-4,-1.972407E-3,-1.011467E-3,2.5157034E-3,-1.0980964E-4,3.6595724E-4,-3.3621193E-4],"split_indices":[26,0,26,0,0,28,0,20,29,29,22,20,3,0,0,0,0,0,0,0,0],"split_type":[0,0,0,0,0,0,0,0,0,0,0,0,0,0,0,0,0,0,0,0,0],"sum_hessian":[4.42E2,4.4E1,3.98E2,4.2E1,2E0,3.78E2,2E1,8.2E1,2.96E2,1.4E1,6.8E1,9.4E1,2.02E2,2E0,1.2E1,4.3E1,2.5E1,6.6E1,2.8E1,7.5E1,1.27E2],"tree_param":{"num_deleted":"0","num_feature":"31","num_nodes":"21","size_leaf_vector":"1"}}]},"name":"gbtree"},"learner_model_param":{"base_score":"4.0401107E-1","boost_from_average":"1","num_class":"0","num_feature":"31","num_target":"1"},"objective":{"name":"reg:quantileerror","quantile_loss_param":{"quantile_alpha":"[5E-1]"}}},"version":[3,0,0]}