{"learner":{"attributes":{"best_iteration":"17","best_score":"0.06672988901045232"},"feature_names":[],"feature_types":[],"gradient_booster":{"model":{"gbtree_model_param":{"num_parallel_tree":"1","num_trees":"38"},"iteration_indptr":[0,1,2,3,4,5,6,7,8,9,10,11,12,13,14,15,16,17,18,19,20,21,22,23,24,25,26,27,28,29,30,31,32,33,34,35,36,37,38],"tree_info":[0,0,0,0,0,0,0,0,0,0,0,0,0,0,0,0,0,0,0,0,0,0,0,0,0,0,0,0,0,0,0,0,0,0,0,0,0,0],"trees":[{"base_weights":[2.2675775E-3,-8.0930233E-1,8.972431E-2,6.6666673E-3,-8.536585E-1,-3.2E-1,9.468354E-2,5.0000004E-3,-8.775E-2,-6E-2,6.6666673E-3,-4.4999998E-2,9.720812E-2,-4.4999998E-2,9.974555E-3],"categories":[],"categories_nodes":[],"categories_segments":[],"categories_sizes":[],"default_left":[0,0,0,0,0,0,0,0,0,0,0,0,0,0,0],"id":0,"left_children":[1,3,5,-1,7,9,11,-1,-1,-1,-1,-1,13,-1,-1],"loss_changes":[3.137358E1,1.7276611E0,8.410342E-1,0E0,9.272003E-1,5.813333E-1,5.869062E-1,0E0,0E0,0E0,0E0,0E0,5.9195423E-1,0E0,0E0],"parents":[2147483647,0,0,1,1,2,2,4,4,5,5,6,6,12,12],"right_children":[2,4,6,-1,8,10,12,-1,-1,-1,-1,-1,14,-1,-1],"split_conditions":[-1.8663683E0,-2.1998703E0,-1.9097975E0,1.5169978E-3,-2.0563853E0,-1.7714629E0,-2.2142165E0,1.7409397E-2,-2.4007142E-2,-6.4291954E-3,7.055259E-3,-6.4291954E-3,-4.347504E0,-4.640099E-2,7.37311E-2],"split_indices":[0,18,1,0,6,13,13,0,0,0,0,0,20,0,0],"split_type":[0,0,0,0,0,0,0,0,0,0,0,0,0,0,0],"sum_hessian":[4.4E2,4.2E1,3.98E2,2E0,4E1,4E0,3.94E2,1E0,3.9E1,2E0,2E0,1E0,3.93E2,1E0,3.92E2],"tree_param":{"num_deleted":"0","num_feature":"31","num_nodes":"15","size_leaf_vector":"1"}},{"base_weights":[-1.5704384E-2,-7.263158E-1,9.177719E-2,-8.775E-2,-3.5E-1,-3.2E-1,9.705094E-2,8.571429E-3,-5.75E-1,6.6666673E-3,-6E-2,-2.6666665E-1,9.973046E-3,6.6666673E-3,-7.1E-1,-4.4999998E-2,5.0000004E-3,-7.875E-2,-2.6666665E-2],"categories":[],"categories_nodes":[],"categories_segments":[],"categories_sizes":[],"default_left":[0,0,0,0,0,0,0,0,0,0,0,0,0,0,0,0,0,0,0],"id":1,"left_children":[1,3,5,-1,7,9,11,-1,13,-1,-1,15,-1,-1,17,-1,-1,-1,-1],"loss_changes":[3.3138176E1,2.9357758E0,8.497534E-1,0E0,1.8139286E0,5.813333E-1,3.901162E-1,0E0,1.086833E0,0E0,0E0,1.9666664E-1,0E0,0E0,1.3358355E-1,0E0,0E0,0E0,0E0],"parents":[2147483647,0,0,1,1,2,2,4,4,5,5,6,6,8,8,11,11,14,14],"right_children":[2,4,6,-1,8,10,12,-1,14,-1,-1,16,-1,-1,18,-1,-1,-1,-1],"split_conditions":[-1.7582175E0,-1.8802614E0,-1.8765136E0,-3.6535647E-2,-1.918553E0,-1.7068619E0,-1.8912011E0,6.501675E-5,-1.239117E0,4.4177654E-3,-1.7626047E-3,-1.6708957E0,8.545295E-2,1.365304E-3,-1.6015186E0,-3.2073737E-3,2.6891863E-2,-2.0643258E-2,-1.0402323E-3],"split_indices":[0,26,26,0,5,19,22,0,29,0,0,0,0,0,4,0,0,0,0],"split_type":[0,0,0,0,0,0,0,0,0,0,0,0,0,0,0,0,0,0,0],"sum_hessian":[4.32E2,5.6E1,3.76E2,3.9E1,1.7E1,4E0,3.72E2,6E0,1.1E1,2E0,2E0,2E0,3.7E2,2E0,9E0,1E0,1E0,7E0,2E0],"tree_param":{"num_deleted":"0","num_feature":"31","num_nodes":"19","size_leaf_vector":"1"}},{"base_weights":[2.7713662E-3,-5.9016395E-1,9.973191E-3,-7.717391E-1,-3.1249996E-2,6.6666673E-3,-8.1136364E-1,-6E-2,9.2857145E-3,-8.325581E-1,5.0000004E-3,-8.5365854E-2,-2.6666665E-2],"categories":[],"categories_nodes":[],"categories_segments":[],"categories_sizes":[],"default_left":[0,0,0,0,0,0,0,0,0,0,0,0,0],"id":2,"left_children":[1,3,-1,5,7,-1,9,-1,-1,11,-1,-1,-1],"loss_changes":[2.49526E1,6.166462E0,0E0,1.5822792E0,1.1850892E0,0E0,8.448963E-1,0E0,0E0,2.8580093E-1,0E0,0E0,0E0],"parents":[2147483647,0,0,1,1,3,3,4,4,6,6,9,9],"right_children":[2,4,-1,6,8,-1,10,-1,-1,12,-1,-1,-1],"split_conditions":[-1.6164198E0,4.6492133E-1,7.986943E-2,-2.062531E0,-1.967915E0,1.5032887E-3,-1.6275743E0,-3.8107324E-2,5.1152707E-5,6.981001E-1,1.5919615E-2,-1.9469874E-2,-1.0067105E-2],"split_indices":[0,27,0,4,26,0,26,0,0,30,0,0,0],"split_type":[0,0,0,0,0,0,0,0,0,0,0,0,0],"sum_hessian":[4.32E2,6E1,3.72E2,4.5E1,1.5E1,2E0,4.3E1,2E0,1.3E1,4.2E1,1E0,4E1,2E0],"tree_param":{"num_deleted":"0","num_feature":"31","num_nodes":"13","size_leaf_vector":"1"}},{"base_weights":[4.51471E-4,-6.470588E-1,8.447837E-2,-7.9999995E-1,-1.3846153E-1,-2.2105262E-1,9.973334E-3,-1.75E-1,-8.472222E-1,8.888889E-3,-5.2E-1,8.333337E-3,-5.3749996E-1,-4.4999998E-2,6.6666673E-3,-8.7272726E-2,-4.2499998E-1,-6.7499995E-2,5.0000004E-3,-4.4999998E-2,9.09091E-3,-7.5E-2,6.6666673E-3,-6E-2,5.0000004E-3],"categories":[],"categories_nodes":[],"categories_segments":[],"categories_sizes":[],"default_left":[0,0,0,0,0,0,0,0,0,0,0,0,0,0,0,0,0,0,0,0,0,0,0,0,0],"id":3,"left_children":[1,3,5,7,9,11,-1,13,15,-1,17,19,21,-1,-1,-1,23,-1,-1,-1,-1,-1,-1,-1,-1],"loss_changes":[2.4157534E1,3.856289E0,1.8537657E0,1.0027771E0,1.1738803E0,1.3836622E0,0E0,2.958333E-1,1.6767502E-2,0E0,4.7549987E-1,4.9507573E-1,1.0770831E0,0E0,0E0,0E0,3.6249995E-1,0E0,0E0,0E0,0E0,0E0,0E0,0E0,0E0],"parents":[2147483647,0,0,1,1,2,2,3,3,4,4,5,5,7,7,8,8,10,10,11,11,12,12,16,16],"right_children":[2,4,6,8,10,12,-1,14,16,-1,18,20,22,-1,-1,-1,24,-1,-1,-1,-1,-1,-1,-1,-1],"split_conditions":[-1.8740005E0,4.1964373E-1,-1.7081014E0,-1.975819E0,1.7872926E0,-1.7582175E0,6.97956E-2,-2.0297961E0,1.9371603E-1,5.340576E-5,-1.5611427E0,-2.0521522E0,1.387519E0,-8.3587173E-4,3.6064387E-4,-3.2452103E-2,-1.7210764E0,-3.42966E-2,1.1480129E-2,-1.7749667E-3,7.5238233E-4,-9.060395E-3,6.7833546E-3,-1.3258434E-2,1.5720725E-3],"split_indices":[26,27,26,5,27,0,0,0,27,0,0,1,27,0,0,0,6,0,0,0,0,0,0,0,0],"split_type":[0,0,0,0,0,0,0,0,0,0,0,0,0,0,0,0,0,0,0,0,0,0,0,0,0],"sum_hessian":[4.42E2,5E1,3.92E2,3.8E1,1.2E1,1.8E1,3.74E2,3E0,3.5E1,8E0,4E0,1.1E1,7E0,1E0,2E0,3.2E1,3E0,3E0,1E0,1E0,1E1,5E0,2E0,2E0,1E0],"tree_param":{"num_deleted":"0","num_feature":"31","num_nodes":"25","size_leaf_vector":"1"}},{"base_weights":[7.268726E-3,-4.8714283E-1,9.714286E-2,-6.1886793E-1,-7.222222E-2,-4.4999998E-2,9.973958E-3,-3.1764704E-1,-7.405405E-1,9.2857145E-3,-5.2E-1,-7.875E-2,9.000001E-3,-1.75E-1,-7.852941E-1,5.0000004E-3,-6.7499995E-2,-4.4999998E-2,6.6666673E-3,-8.3448276E-2,-4.1666668E-2],"categories":[],"categories_nodes":[],"categories_segments":[],"categories_sizes":[],"default_left":[0,0,0,0,0,0,0,0,0,0,0,0,0,0,0,0,0,0,0,0,0],"id":4,"left_children":[1,3,5,7,9,-1,-1,11,13,-1,15,-1,-1,17,19,-1,-1,-1,-1,-1,-1],"loss_changes":[2.0220726E1,3.781187E0,5.918832E-1,1.7072353E0,1.3788254E0,0E0,0E0,3.3269558E0,7.9904175E-1,0E0,4.7549987E-1,0E0,0E0,2.958333E-1,2.68795E-1,0E0,0E0,0E0,0E0,0E0,0E0],"parents":[2147483647,0,0,1,1,2,2,3,3,4,4,7,7,8,8,10,10,13,13,14,14],"right_children":[2,4,6,8,10,-1,-1,12,14,-1,16,-1,-1,18,20,-1,-1,-1,-1,-1,-1],"split_conditions":[-1.5611427E0,4.6492133E-1,-2.2202492E0,-1.9131188E0,-1.720258E0,-3.9043427E-3,6.4204626E-2,-1.9029318E0,-1.239117E0,4.0770532E-4,-1.9789277E0,-9.290839E-3,3.2458306E-4,-2.2605178E0,-1.7554468E0,3.965533E-3,-3.0866934E-2,-3.419132E-2,3.1005263E-3,-2.7906602E-2,-1.1932588E-2],"split_indices":[0,27,11,7,1,0,0,18,29,0,4,0,0,0,1,0,0,0,0,0,0],"split_type":[0,0,0,0,0,0,0,0,0,0,0,0,0,0,0,0,0,0,0,0,0],"sum_hessian":[4.53E2,6.9E1,3.84E2,5.2E1,1.7E1,1E0,3.83E2,1.6E1,3.6E1,1.3E1,4E0,7E0,9E0,3E0,3.3E1,1E0,3E0,1E0,2E0,2.8E1,5E0],"tree_param":{"num_deleted":"0","num_feature":"31","num_nodes":"21","size_leaf_vector":"1"}},{"base_weights":[3.1798247E-2,-3.3194444E-1,9.974026E-3,-5.885714E-1,-8.68421E-2,-1.625E-1,-6.892857E-1,5.4166667E-2,-3.0666664E-1,8.333334E-3,-6E-2,-1.75E-1,-7.4399996E-1,-2.6666665E-1,9.545455E-3,-2.2222219E-2,-6.285714E-1,6.6666673E-3,-4.4999998E-2,5.0000004E-3,-7.791667E-2,-4.4999998E-2,5.0000004E-3,8.75E-3,-4.4999998E-2,-2.6666665E-2,-7.2E-2],"categories":[],"categories_nodes":[],"categories_segments":[],"categories_sizes":[],"default_left":[0,0,0,0,0,0,0,0,0,0,0,0,0,0,0,0,0,0,0,0,0,0,0,0,0,0,0],"id":5,"left_children":[1,3,-1,5,7,9,11,13,15,-1,-1,17,19,21,-1,23,25,-1,-1,-1,-1,-1,-1,-1,-1,-1,-1],"loss_changes":[1.13024235E1,4.4776783E0,0E0,1.3898935E0,1.1945044E0,9.104166E-1,6.5768623E-1,3.433712E-1,1.359492E0,0E0,0E0,2.958333E-1,7.370157E-1,1.9666664E-1,0E0,4.6180552E-1,3.961897E-2,0E0,0E0,0E0,0E0,0E0,0E0,0E0,0E0,0E0,0E0],"parents":[2147483647,0,0,1,1,3,3,4,4,5,5,6,6,7,7,8,8,11,11,12,12,13,13,15,15,16,16],"right_children":[2,4,-1,6,8,10,12,14,16,-1,-1,18,20,22,-1,24,26,-1,-1,-1,-1,-1,-1,-1,-1,-1,-1],"split_conditions":[-1.5611427E0,-3.1784776E-1,5.6756776E-2,-1.333949E0,-1.5060427E0,-1.9109378E0,-1.998076E0,-2.0333426E0,6.270124E-2,5.403757E-4,-8.043647E-3,-1.8086879E0,-4.6439213E-1,-1.9352643E0,6.4710143E-4,-1.7582175E0,-1.967309E0,2.2360087E-4,-3.0744195E-3,8.657217E-4,-2.8366668E-2,-3.8854002E-3,1.5540838E-2,1.6683579E-3,-1.3713598E-3,-9.969997E-3,-2.7780248E-2],"split_indices":[0,30,0,23,15,3,19,6,29,0,0,0,24,0,0,0,0,0,0,0,0,0,0,0,0,0,0],"split_type":[0,0,0,0,0,0,0,0,0,0,0,0,0,0,0,0,0,0,0,0,0,0,0,0,0,0,0],"sum_hessian":[4.55E2,7.1E1,3.84E2,3.4E1,3.7E1,7E0,2.7E1,2.3E1,1.4E1,5E0,2E0,3E0,2.4E1,2E0,2.1E1,8E0,6E0,2E0,1E0,1E0,2.3E1,1E0,1E0,7E0,1E0,2E0,4E0],"tree_param":{"num_deleted":"0","num_feature":"31","num_nodes":"27","size_leaf_vector":"1"}},{"base_weights":[3.4311514E-2,-3.0985916E-1,9.973191E-3,-1.5636364E-1,-7.8823525E-1,-6.2142855E-1,2.380956E-3,5.0000004E-3,-8.4375E-2,-7.416667E-1,6.6666673E-3,-3.5555553E-1,9.7058825E-3,5.0000004E-3,-8.1818186E-2,8E-3,-7.2E-2],"categories":[],"categories_nodes":[],"categories_segments":[],"categories_sizes":[],"default_left":[0,0,0,0,0,0,0,0,0,0,0,0,0,0,0,0,0],"id":6,"left_children":[1,3,-1,5,7,9,11,-1,-1,13,-1,15,-1,-1,-1,-1,-1],"loss_changes":[1.0005393E1,5.0901794E0,0E0,4.0619392E0,8.33271E-1,1.2077384E0,1.4578339E0,0E0,0E0,7.6780224E-1,0E0,1.486222E0,0E0,0E0,0E0,0E0,0E0],"parents":[2147483647,0,0,1,1,3,3,4,4,5,5,6,6,9,9,11,11],"right_children":[2,4,-1,6,8,10,12,-1,-1,14,-1,16,-1,-1,-1,-1,-1],"split_conditions":[-1.5928516E0,-1.3585902E0,5.372181E-2,-7.505294E-1,-1.4528109E0,-1.7139599E0,-1.9900706E0,1.8611861E-2,-2.7012333E-2,-1.2684277E0,7.791519E-4,-1.9113956E-1,6.951595E-4,1.5648485E-3,-8.667796E-3,1.5015245E-3,-3.938246E-3],"split_indices":[26,17,0,27,18,15,26,0,0,29,0,23,0,0,0,0,0],"split_type":[0,0,0,0,0,0,0,0,0,0,0,0,0,0,0,0,0],"sum_hessian":[4.42E2,7E1,3.72E2,5.4E1,1.6E1,1.3E1,4.1E1,1E0,1.5E1,1.1E1,2E0,8E0,3.3E1,1E0,1E1,4E0,4E0],"tree_param":{"num_deleted":"0","num_feature":"31","num_nodes":"17","size_leaf_vector":"1"}},{"base_weights":[4.1741073E-2,-2.7826086E-1,9.973685E-3,-1.898305E-1,-7.272727E-1,-1.0199999E-1,-6.0999995E-1,-8.1E-2,5.0000004E-3,-3.0499998E-1,3.2258067E-2,6.6666673E-3,-7.875E-2,-6.285714E-2,-1.2142857E-2,-4.25E-2,9.642857E-3],"categories":[],"categories_nodes":[],"categories_segments":[],"categories_sizes":[],"default_left":[0,0,0,0,0,0,0,0,0,0,0,0,0,0,0,0,0],"id":7,"left_children":[1,3,-1,5,7,9,11,-1,-1,13,15,-1,-1,-1,-1,-1,-1],"loss_changes":[8.342077E0,2.6016746E0,0E0,2.1150985E0,7.47818E-1,1.3725581E0,1.2535832E0,0E0,0E0,1.1116427E0,9.50599E-1,0E0,0E0,0E0,0E0,0E0,0E0],"parents":[2147483647,0,0,1,1,3,3,4,4,5,5,6,6,9,9,10,10],"right_children":[2,4,-1,6,8,10,12,-1,-1,14,16,-1,-1,-1,-1,-1,-1],"split_conditions":[-1.4933289E0,-1.3653729E0,4.9561627E-2,-1.6554787E0,-1.0696425E0,-1.8332378E0,-2.428961E-1,-2.5234295E-2,2.877829E-2,-7.917615E-1,-2.0220563E0,2.70108E-3,-6.488347E-3,-7.952142E-3,-3.9793802E-3,-6.271768E-3,4.4181346E-4],"split_indices":[26,7,0,1,4,19,24,0,0,28,26,0,0,0,0,0,0],"split_type":[0,0,0,0,0,0,0,0,0,0,0,0,0,0,0,0,0],"sum_hessian":[4.47E2,6.8E1,3.79E2,5.8E1,1E1,4.9E1,9E0,9E0,1E0,1.9E1,3E1,2E0,7E0,6E0,1.3E1,3E0,2.7E1],"tree_param":{"num_deleted":"0","num_feature":"31","num_nodes":"17","size_leaf_vector":"1"}},{"base_weights":[4.889381E-2,-2.0394737E-1,9.973475E-3,-8.8135585E-2,-5.7222223E-1,-8.510634E-3,-3.6923075E-1,-8.1818186E-2,-1.625E-1,-4.125E-1,7.2500005E-2,-6.285714E-1,-5.7142854E-2,-6E-2,8.333334E-3,7.5000003E-3,-7.2E-2,-8.333333E-3,9.714286E-3,-7.5E-2,5.0000004E-3,-4.4999998E-2,8.333334E-3],"categories":[],"categories_nodes":[],"categories_segments":[],"categories_sizes":[],"default_left":[0,0,0,0,0,0,0,0,0,0,0,0,0,0,0,0,0,0,0,0,0,0,0],"id":8,"left_children":[1,3,-1,5,7,9,11,-1,13,15,17,19,21,-1,-1,-1,-1,-1,-1,-1,-1,-1,-1],"loss_changes":[5.830657E0,3.1910093E0,0E0,1.3174069E0,1.6809969E0,1.5680957E0,1.0162637E0,0E0,9.104166E-1,1.2532499E0,1.6170236E-1,6.142857E-1,4.238095E-1,0E0,0E0,0E0,0E0,0E0,0E0,0E0,0E0,0E0,0E0],"parents":[2147483647,0,0,1,1,3,3,4,4,5,5,6,6,8,8,9,9,10,10,11,11,12,12],"right_children":[2,4,-1,6,8,10,12,-1,14,16,18,20,22,-1,-1,-1,-1,-1,-1,-1,-1,-1,-1],"split_conditions":[-1.3650981E0,2.028138E0,4.4509146E-2,-1.7378523E0,-1.78836E0,-1.9107089E0,-5.4424405E-1,-2.2557005E-2,-2.2293851E0,-1.9853632E0,-2.0047383E0,-1.6556617E0,-1.7598197E0,-8.3785056E-4,2.4080754E-3,1.5665413E-3,-2.7492046E-3,-7.1569206E-3,4.9844384E-4,-4.851079E-3,1.8482804E-3,-1.977756E-2,1.1372566E-4],"split_indices":[26,24,0,1,26,22,23,0,8,5,16,4,0,0,0,0,0,0,0,0,0,0,0],"split_type":[0,0,0,0,0,0,0,0,0,0,0,0,0,0,0,0,0,0,0,0,0,0,0],"sum_hessian":[4.51E2,7.5E1,3.76E2,5.8E1,1.7E1,4.6E1,1.2E1,1E1,7E0,7E0,3.9E1,6E0,6E0,2E0,5E0,3E0,4E0,5E0,3.4E1,5E0,1E0,1E0,5E0],"tree_param":{"num_deleted":"0","num_feature":"31","num_nodes":"23","size_leaf_vector":"1"}},{"base_weights":[4.161074E-2,-1.9529411E-1,9.69697E-2,-1.1267605E-1,-5.733333E-1,-2.6666665E-1,9.972299E-3,-2.6999998E-1,2.380956E-3,-6.7692304E-1,6.6666673E-3,-4.4999998E-2,5.0000004E-3,-6.3157886E-2,-5.75E-1,-3.2E-1,4.4736844E-2,6.6666673E-3,-8.1818186E-2,3.529412E-3,-6E-2,6.6666673E-3,-7.1E-2,-6E-2,6.6666673E-3,-4.4999998E-2,7.027027E-3],"categories":[],"categories_nodes":[],"categories_segments":[],"categories_sizes":[],"default_left":[0,0,0,0,0,0,0,0,0,0,0,0,0,0,0,0,0,0,0,0,0,0,0,0,0,0,0],"id":9,"left_children":[1,3,5,7,9,11,-1,13,15,17,-1,-1,-1,19,21,23,25,-1,-1,-1,-1,-1,-1,-1,-1,-1,-1],"loss_changes":[5.881255E0,2.5901928E0,3.9002776E-1,1.2858297E0,1.0395894E0,1.9666664E-1,0E0,1.8562894E0,5.878145E-1,1.4200463E0,0E0,0E0,0E0,1.0253869E0,1.086833E0,5.813333E-1,5.1165E-1,0E0,0E0,0E0,0E0,0E0,0E0,0E0,0E0,0E0,0E0],"parents":[2147483647,0,0,1,1,2,2,3,3,4,4,5,5,7,7,8,8,9,9,13,13,14,14,15,15,16,16],"right_children":[2,4,6,8,10,12,-1,14,16,18,-1,-1,-1,20,22,24,26,-1,-1,-1,-1,-1,-1,-1,-1,-1,-1],"split_conditions":[-1.275144E0,-4.3864254E-2,-3.39561E0,-7.4190326E-2,-1.3123882E0,-1.0812737E0,4.4745687E-2,-1.779483E0,-2.0328326E0,-2.0888064E0,1.67166E-3,-4.231799E-3,1.4550126E-2,-1.2037129E0,-2.057034E0,-1.5617292E0,-2.0333426E0,2.657771E-3,-2.0301303E-2,-1.6639207E-3,-4.0674806E-3,1.2018919E-3,-6.4412355E-3,-4.2173746E-3,1.1355877E-3,-2.4301887E-3,3.054619E-4],"split_indices":[0,23,28,28,1,0,0,10,11,4,0,0,0,19,0,3,6,0,0,0,0,0,0,0,0,0,0],"split_type":[0,0,0,0,0,0,0,0,0,0,0,0,0,0,0,0,0,0,0,0,0,0,0,0,0,0,0],"sum_hessian":[4.46E2,8.4E1,3.62E2,7E1,1.4E1,2E0,3.6E2,2.9E1,4.1E1,1.2E1,2E0,1E0,1E0,1.8E1,1.1E1,4E0,3.7E1,2E0,1E1,1.6E1,2E0,2E0,9E0,2E0,2E0,1E0,3.6E1],"tree_param":{"num_deleted":"0","num_feature":"31","num_nodes":"27","size_leaf_vector":"1"}},{"base_weights":[4.519651E-2,-1.6702127E-1,9.972603E-3,-1.1046511E-1,-6.8888885E-1,-5.6338023E-2,-3.4375E-1,-7.875E-2,5.0000004E-3,-3.5555553E-1,-1.2698409E-2,-4.9166664E-1,8E-3,-5.8333334E-2,7.5000003E-3,-2E-2,5.5319155E-3,6.6666673E-3,-6.0999997E-2],"categories":[],"categories_nodes":[],"categories_segments":[],"categories_sizes":[],"default_left":[0,0,0,0,0,0,0,0,0,0,0,0,0,0,0,0,0,0,0],"id":10,"left_children":[1,3,-1,5,7,9,11,-1,-1,13,15,17,-1,-1,-1,-1,-1,-1,-1],"loss_changes":[5.3166933E0,2.6982956E0,0E0,1.0665585E0,6.9513893E-1,9.2258453E-1,1.0422083E0,0E0,0E0,9.2638874E-1,8.1367105E-1,8.3350015E-1,0E0,0E0,0E0,0E0,0E0,0E0,0E0],"parents":[2147483647,0,0,1,1,3,3,4,4,5,5,6,6,9,9,10,10,11,11],"right_children":[2,4,-1,6,8,10,12,-1,-1,14,16,18,-1,-1,-1,-1,-1,-1,-1],"split_conditions":[-1.0334781E0,-1.1218457E0,4.727822E-2,-1.5928516E0,-1.1540387E0,-1.9930398E0,-1.2213657E0,-1.8425036E-2,1.5044928E-3,-1.9539909E0,-1.948596E0,-1.9521018E0,1.7011523E-3,-5.0503016E-3,1.3150693E-3,-4.315709E-3,3.0774355E-4,5.523205E-4,-4.3965103E-3],"split_indices":[26,11,0,26,1,26,10,0,0,3,12,17,0,0,0,0,0,0,0],"split_type":[0,0,0,0,0,0,0,0,0,0,0,0,0,0,0,0,0,0,0],"sum_hessian":[4.57E2,9.3E1,3.64E2,8.5E1,8E0,7E1,1.5E1,7E0,1E0,8E0,6.2E1,1.1E1,4E0,5E0,3E0,1.6E1,4.6E1,2E0,9E0],"tree_param":{"num_deleted":"0","num_feature":"31","num_nodes":"19","size_leaf_vector":"1"}},{"base_weights":[5.2482273E-2,-1.4216867E-1,9.970675E-3,-3.7894735E-1,-7.076923E-2,-2.2222219E-2,-6.363636E-1,-3.278688E-2,-5.2E-1,8.571429E-3,-2.6666665E-1,-1.75E-1,-7.875E-2,3.4042556E-2,-2.4E-1,-6.7499995E-2,5.0000004E-3,-4.4999998E-2,5.0000004E-3,-4.4999998E-2,6.6666673E-3,-1.2142857E-2,9.7058825E-3,-5.8333334E-2,-9.999996E-4],"categories":[],"categories_nodes":[],"categories_segments":[],"categories_sizes":[],"default_left":[0,0,0,0,0,0,0,0,0,0,0,0,0,0,0,0,0,0,0,0,0,0,0,0,0],"id":11,"left_children":[1,3,-1,5,7,9,11,13,15,-1,17,19,-1,21,23,-1,-1,-1,-1,-1,-1,-1,-1,-1,-1],"loss_changes":[3.9025133E0,1.3763691E0,0E0,1.7305686E0,1.0920353E0,2.6031744E-1,6.2920475E-1,8.528943E-1,4.7549987E-1,0E0,1.9666664E-1,2.958333E-1,0E0,4.7225457E-1,1.1786665E0,0E0,0E0,0E0,0E0,0E0,0E0,0E0,0E0,0E0,0E0],"parents":[2147483647,0,0,1,1,3,3,4,4,5,5,6,6,7,7,8,8,10,10,11,11,13,13,14,14],"right_children":[2,4,-1,6,8,10,12,14,16,-1,18,20,-1,22,24,-1,-1,-1,-1,-1,-1,-1,-1,-1,-1],"split_conditions":[-1.0334781E0,-7.5620353E-1,4.315239E-2,-1.728817E0,1.4877642E0,-1.8042312E0,-1.997044E0,-1.4658173E0,-1.2938432E0,3.644705E-4,-1.952889E0,-2.1067033E0,-1.5043879E-2,-1.9029318E0,-9.9385333E-1,-3.9568543E-3,2.1154309E-2,-5.0976514E-3,6.85097E-3,-1.0709572E-2,2.3612143E-3,-2.4710703E-3,5.217862E-4,-4.5452835E-3,-3.229153E-3],"split_indices":[26,30,0,10,28,1,3,16,3,0,0,0,0,18,23,0,0,0,0,0,0,0,0,0,0],"split_type":[0,0,0,0,0,0,0,0,0,0,0,0,0,0,0,0,0,0,0,0,0,0,0,0,0],"sum_hessian":[4.22E2,8.2E1,3.4E2,1.8E1,6.4E1,8E0,1E1,6E1,4E0,6E0,2E0,3E0,7E0,4.6E1,1.4E1,3E0,1E0,1E0,1E0,1E0,2E0,1.3E1,3.3E1,5E0,9E0],"tree_param":{"num_deleted":"0","num_feature":"31","num_nodes":"25","size_leaf_vector":"1"}},{"base_weights":[5.011287E-2,-1.5113635E-1,9.97191E-3,-8.0769226E-2,-6.363636E-1,-1.0937496E-2,-3.7333333E-1,-7.875E-2,-1.75E-1,-2.4166666E-1,4.150944E-2,-6.8888885E-1,8.571429E-3,6.6666673E-3,-4.4999998E-2,8.333334E-3,-4.8571426E-2,-1.0666667E-2,9.74359E-3,5.0000004E-3,-7.875E-2],"categories":[],"categories_nodes":[],"categories_segments":[],"categories_sizes":[],"default_left":[0,0,0,0,0,0,0,0,0,0,0,0,0,0,0,0,0,0,0,0,0],"id":12,"left_children":[1,3,-1,5,7,9,11,-1,13,15,17,19,-1,-1,-1,-1,-1,-1,-1,-1,-1],"loss_changes":[4.4376354E0,2.9532778E0,0E0,1.5894768E0,6.2920475E-1,7.8449786E-1,2.2318733E0,0E0,2.958333E-1,9.9226177E-1,4.496023E-1,6.9513893E-1,0E0,0E0,0E0,0E0,0E0,0E0,0E0,0E0,0E0],"parents":[2147483647,0,0,1,1,3,3,4,4,5,5,6,6,8,8,9,9,10,10,11,11],"right_children":[2,4,-1,6,8,10,12,-1,14,16,18,20,-1,-1,-1,-1,-1,-1,-1,-1,-1],"split_conditions":[-1.0812737E0,-1.1218457E0,3.7199754E-2,6.8546355E-1,-1.1540387E0,-1.995605E0,-1.8699387E0,-1.50781395E-2,-1.1285396E0,-6.8156086E-2,-1.9249272E0,-2.0432863E0,5.6465867E-4,1.6769528E-3,-8.938432E-4,3.280282E-4,-2.9062391E-3,-6.863892E-4,4.991317E-4,3.4840107E-3,-4.3235063E-3],"split_indices":[0,11,0,29,1,10,18,0,0,27,18,3,0,0,0,0,0,0,0,0,0],"split_type":[0,0,0,0,0,0,0,0,0,0,0,0,0,0,0,0,0,0,0,0,0],"sum_hessian":[4.42E2,8.7E1,3.55E2,7.7E1,1E1,6.3E1,1.4E1,7E0,3E0,1.1E1,5.2E1,8E0,6E0,2E0,1E0,5E0,6E0,1.4E1,3.8E1,1E0,7E0],"tree_param":{"num_deleted":"0","num_feature":"31","num_nodes":"21","size_leaf_vector":"1"}},{"base_weights":[5.3364273E-2,-1.2087911E-1,9.970675E-3,-6.987951E-2,-5.7777774E-1,-4.8571426E-1,-3.1168826E-2,-7.714286E-2,6.6666673E-3,6.6666673E-3,-7.2E-2,-3.1E-1,1.0294121E-2,-5.8333334E-2,8E-3,-4.25E-2,3.6923082E-3],"categories":[],"categories_nodes":[],"categories_segments":[],"categories_sizes":[],"default_left":[0,0,0,0,0,0,0,0,0,0,0,0,0,0,0,0,0],"id":13,"left_children":[1,3,-1,5,7,9,11,-1,-1,-1,-1,13,15,-1,-1,-1,-1],"loss_changes":[3.4923215E0,2.0800753E0,0E0,1.3209324E0,1.1746027E0,9.539046E-1,8.9340067E-1,0E0,0E0,0E0,0E0,1.1126666E0,8.039095E-1,0E0,0E0,0E0,0E0],"parents":[2147483647,0,0,1,1,3,3,4,4,5,5,6,6,11,11,12,12],"right_children":[2,4,-1,6,8,10,12,-1,-1,-1,-1,14,16,-1,-1,-1,-1],"split_conditions":[-1.0812737E0,-1.1028668E0,4.7951493E-2,-1.5402311E0,-6.647936E-1,-6.251399E-1,-2.001992E0,-1.3570333E-2,1.5092612E-3,2.7139545E-3,-1.4322281E-3,-1.957298E0,-2.0220563E0,-2.684605E-3,5.314827E-4,-4.14722E-3,2.6367905E-4],"split_indices":[0,11,0,28,9,29,11,0,0,0,0,9,26,0,0,0,0],"split_type":[0,0,0,0,0,0,0,0,0,0,0,0,0,0,0,0,0],"sum_hessian":[4.3E2,9E1,3.4E2,8.2E1,8E0,6E0,7.6E1,6E0,2E0,2E0,4E0,9E0,6.7E1,5E0,4E0,3E0,6.4E1],"tree_param":{"num_deleted":"0","num_feature":"31","num_nodes":"17","size_leaf_vector":"1"}},{"base_weights":[5.5477858E-2,-3.7333333E-1,7.0843376E-2,-2.2222219E-2,-7.714286E-2,-1.7727272E-1,8.451777E-2,-4.4999998E-2,8.75E-3,1.5384618E-2,-4.1E-1,-3.2E-1,8.948718E-2,-4.4999998E-2,9.166667E-3,-5.3749996E-1,6.6666673E-3,6.6666673E-3,-6E-2,-7.4999996E-2,9.44591E-2,6.6666673E-3,-7.5E-2,-4.25E-2,8.888889E-3,-8.333333E-3,9.7058825E-3],"categories":[],"categories_nodes":[],"categories_segments":[],"categories_sizes":[],"default_left":[0,0,0,0,0,0,0,0,0,0,0,0,0,0,0,0,0,0,0,0,0,0,0,0,0,0,0],"id":14,"left_children":[1,3,5,7,-1,9,11,-1,-1,13,15,17,19,-1,-1,21,-1,-1,-1,23,25,-1,-1,-1,-1,-1,-1],"loss_changes":[2.8530889E0,2.0794919E0,1.4230099E0,4.6180552E-1,0E0,9.9271333E-1,8.2066107E-1,0E0,0E0,5.027564E-1,6.435833E-1,5.813333E-1,3.2603312E-1,0E0,0E0,1.0770831E0,0E0,0E0,0E0,7.2611105E-1,1.832664E-1,0E0,0E0,0E0,0E0,0E0,0E0],"parents":[2147483647,0,0,1,1,2,2,3,3,5,5,6,6,9,9,10,10,11,11,12,12,15,15,19,19,20,20],"right_children":[2,4,6,8,-1,10,12,-1,-1,14,16,18,20,-1,-1,22,-1,-1,-1,24,26,-1,-1,-1,-1,-1,-1],"split_conditions":[-1.9900706E0,-2.7384914E-2,-1.9592894E0,-2.2605178E0,-1.0674643E-2,-1.8944359E0,-2.1264536E0,-1.2213302E-2,2.2151471E-4,-2.0484312E0,-1.948596E0,-1.2149346E0,-1.9819312E0,-1.8775463E-5,3.1075E-4,-1.9679792E0,2.7308465E-4,6.847382E-5,-6.773782E-3,-1.2134267E0,-2.014667E0,1.7844796E-3,-4.6641827E-3,-3.2969117E-3,2.0272731E-4,-6.233454E-5,4.97443E-3],"split_indices":[26,29,11,0,0,14,30,0,0,9,12,6,8,0,0,13,0,0,0,23,28,0,0,0,0,0,0],"split_type":[0,0,0,0,0,0,0,0,0,0,0,0,0,0,0,0,0,0,0,0,0,0,0,0,0,0,0],"sum_hessian":[4.28E2,1.4E1,4.14E2,8E0,6E0,2.1E1,3.93E2,1E0,7E0,1.2E1,9E0,4E0,3.89E2,1E0,1.1E1,7E0,2E0,2E0,2E0,1.1E1,3.78E2,2E0,5E0,3E0,8E0,5E0,3.73E2],"tree_param":{"num_deleted":"0","num_feature":"31","num_nodes":"27","size_leaf_vector":"1"}},{"base_weights":[5.4729734E-2,-1.3012047E-1,9.696133E-2,-8.0769226E-2,-7.5E-2,-4.4999998E-2,9.972299E-3,-1.9999999E-1,9.687501E-3,9.09091E-3,-2.8108108E-1,-6E-2,-1.04E-2],"categories":[],"categories_nodes":[],"categories_segments":[],"categories_sizes":[],"default_left":[0,0,0,0,0,0,0,0,0,0,0,0,0],"id":15,"left_children":[1,3,5,7,-1,-1,-1,9,-1,-1,11,-1,-1],"loss_changes":[3.4787107E0,2.4785447E0,5.916853E-1,1.6714664E0,0E0,0E0,0E0,1.1341522E0,0E0,0E0,2.0271568E0,0E0,0E0],"parents":[2147483647,0,0,1,1,2,2,3,3,7,7,10,10],"right_children":[2,4,6,8,-1,-1,-1,10,-1,-1,12,-1,-1],"split_conditions":[-1.2428104E0,-1.0562104E0,-3.367559E0,-1.7678471E0,-1.1179901E-2,-3.7856698E-3,2.5658851E-2,-1.8968842E0,4.1980745E-4,2.502489E-4,-1.8480175E0,-3.8285994E-3,-1.8378497E-4],"split_indices":[1,11,20,7,0,0,0,22,0,0,13,0,0],"split_type":[0,0,0,0,0,0,0,0,0,0,0,0,0],"sum_hessian":[4.43E2,8.2E1,3.61E2,7.7E1,5E0,1E0,3.6E2,4.6E1,3.1E1,1E1,3.6E1,1.2E1,2.4E1],"tree_param":{"num_deleted":"0","num_feature":"31","num_nodes":"13","size_leaf_vector":"1"}},{"base_weights":[3.755981E-2,-1.7888889E-1,9.665654E-2,-1.2738095E-1,-7.714286E-2,-4.4999998E-2,9.969513E-3,-7.5E-2,-7.8481E-2,-3.3571428E-1,-2.2727268E-2,8.333334E-3,-5.7777774E-2,4.6875034E-4,-6E-2],"categories":[],"categories_nodes":[],"categories_segments":[],"categories_sizes":[],"default_left":[0,0,0,0,0,0,0,0,0,0,0,0,0,0,0],"id":16,"left_children":[1,3,5,7,-1,-1,-1,-1,9,11,13,-1,-1,-1,-1],"loss_changes":[5.3640995E0,2.648579E0,5.9135246E-1,2.498606E0,0E0,0E0,0E0,0E0,1.1253657E0,1.4682541E0,1.0473152E0,0E0,0E0,0E0,0E0],"parents":[2147483647,0,0,1,1,2,2,3,3,8,8,9,9,10,10],"right_children":[2,4,6,8,-1,-1,-1,-1,10,12,14,-1,-1,-1,-1],"split_conditions":[-9.9800444E-1,-9.614523E-1,-3.367559E0,-1.8782401E0,-3.84866E-3,-3.407097E-3,5.0567556E-2,-1.0061908E-2,-8.961866E-1,-8.661197E-1,2.5379007E0,3.3749343E-4,-6.3220263E-3,-5.341529E-5,-2.58435E-3],"split_indices":[26,2,20,28,0,0,0,0,27,20,20,0,0,0,0],"split_type":[0,0,0,0,0,0,0,0,0,0,0,0,0,0,0],"sum_hessian":[4.17E2,8.9E1,3.28E2,8.3E1,6E0,1E0,3.27E2,5E0,7.8E1,1.3E1,6.5E1,5E0,8E0,6.3E1,2E0],"tree_param":{"num_deleted":"0","num_feature":"31","num_nodes":"15","size_leaf_vector":"1"}},{"base_weights":[4.1763343E-2,-1.3679245E-1,9.969326E-3,-3.9080456E-2,-5.55E-1,-2.5316419E-3,-3.5555553E-1,-6.2777776E-1,6.6666673E-3,8.974362E-3,-4.4999998E-2,8E-3,-7.2E-2,-7.642857E-1,-1.2E-1,-6.486486E-3,7.3809526E-3,-8.307692E-2,5.0000004E-3,-4.4999998E-2,7.5000003E-3],"categories":[],"categories_nodes":[],"categories_segments":[],"categories_sizes":[],"default_left":[0,0,0,0,0,0,0,0,0,0,0,0,0,0,0,0,0,0,0,0,0],"id":17,"left_children":[1,3,-1,5,7,9,11,13,-1,15,-1,-1,-1,17,19,-1,-1,-1,-1,-1,-1],"loss_changes":[4.471781E0,4.3098826E0,0E0,1.0054106E0,9.467225E-1,4.107757E-1,1.486222E0,1.1559672E0,0E0,3.7820312E-1,0E0,0E0,0E0,7.994509E-1,3.5549998E-1,0E0,0E0,0E0,0E0,0E0,0E0],"parents":[2147483647,0,0,1,1,3,3,4,4,5,5,6,6,7,7,9,9,13,13,14,14],"right_children":[2,4,-1,6,8,10,12,14,-1,16,-1,-1,-1,18,20,-1,-1,-1,-1,-1,-1],"split_conditions":[-9.242548E-1,1.2571623E0,9.694438E-2,1.5579555E0,6.5537435E-1,-9.6751505E-1,-1.982693E0,-8.36863E-1,7.518941E-3,-5.2633387E-1,-2.3590326E-3,2.0617247E-4,-2.3259164E-3,-6.0470414E-1,-1.3071886E0,-2.02582E-3,1.942134E-4,-1.0436045E-2,1.8428504E-2,-1.2758852E-3,8.569718E-4],"split_indices":[0,23,0,20,20,0,3,5,0,23,0,0,0,6,0,0,0,0,0,0,0],"split_type":[0,0,0,0,0,0,0,0,0,0,0,0,0,0,0,0,0,0,0,0,0],"sum_hessian":[4.3E2,1.05E2,3.25E2,8.6E1,1.9E1,7.8E1,8E0,1.7E1,2E0,7.7E1,1E0,4E0,4E0,1.3E1,4E0,3.6E1,4.1E1,1.2E1,1E0,1E0,3E0],"tree_param":{"num_deleted":"0","num_feature":"31","num_nodes":"21","size_leaf_vector":"1"}},{"base_weights":[3.296214E-2,-1.3888888E-1,9.969137E-3,-6.454545E-2,-6.1176467E-1,-3.0612207E-3,-5.230769E-1,-7.0666665E-1,6.6666673E-3,4.204546E-2,-3.6363634E-1,6.6666673E-3,-6.363636E-1,6.6666673E-3,-8.307692E-2,6.2650605E-3,-2.4999999E-2,-7.5E-2,8.333334E-3,-1.75E-2,-7.875E-2],"categories":[],"categories_nodes":[],"categories_segments":[],"categories_sizes":[],"default_left":[0,0,0,0,0,0,0,0,0,0,0,0,0,0,0,0,0,0,0,0,0],"id":18,"left_children":[1,3,-1,5,7,9,11,13,-1,15,17,-1,19,-1,-1,-1,-1,-1,-1,-1,-1],"loss_changes":[5.1627464E0,4.39007E0,0E0,3.0995686E0,1.1416469E0,1.6091952E0,9.109554E-1,1.4949741E0,0E0,5.4521495E-1,1.9621211E0,0E0,6.2920475E-1,0E0,0E0,0E0,0E0,0E0,0E0,0E0,0E0],"parents":[2147483647,0,0,1,1,3,3,4,4,5,5,6,6,7,7,9,9,10,10,12,12],"right_children":[2,4,-1,6,8,10,12,14,-1,16,18,-1,20,-1,-1,-1,-1,-1,-1,-1,-1],"split_conditions":[-8.330108E-1,9.85072E-1,1.0829532E-1,2.7224073E0,-6.1421096E-1,-9.5645565E-1,-2.2416809E0,-1.2704203E0,2.2861643E-2,-7.6285225E-1,-9.7894704E-1,6.3242915E-4,-1.7260072E0,3.107536E-3,-7.852273E-3,1.8205644E-4,-7.6970877E-3,-4.3480694E-3,5.110741E-4,-1.5594602E-3,-4.64623E-3],"split_indices":[18,29,0,24,1,19,4,23,0,7,6,0,11,0,0,0,0,0,0,0,0],"split_type":[0,0,0,0,0,0,0,0,0,0,0,0,0,0,0,0,0,0,0,0,0],"sum_hessian":[4.48E2,1.25E2,3.23E2,1.09E2,1.6E1,9.7E1,1.2E1,1.4E1,2E0,8.7E1,1E1,2E0,1E1,2E0,1.2E1,8.2E1,5E0,5E0,5E0,3E0,7E0],"tree_param":{"num_deleted":"0","num_feature":"31","num_nodes":"21","size_leaf_vector":"1"}},{"base_weights":[1.9863017E-2,-1.991228E-1,9.661539E-2,-4.0506326E-2,-5.416666E-1,-4.4999998E-2,9.969137E-3,-6.5789437E-3,-6.7499995E-2,-8.357143E-2,-3.3913043E-1,-6E-2,1.7567571E-2,-6.0999995E-1,-1.21428564E-1,-1.3846153E-2,5.0000004E-3,-7.875E-2,6.6666673E-3,-6E-2,8.3333364E-4],"categories":[],"categories_nodes":[],"categories_segments":[],"categories_sizes":[],"default_left":[0,0,0,0,0,0,0,0,0,0,0,0,0,0,0,0,0,0,0,0,0],"id":19,"left_children":[1,3,5,7,9,-1,-1,11,-1,-1,13,-1,15,17,19,-1,-1,-1,-1,-1,-1],"loss_changes":[7.381003E0,6.172032E0,5.913079E-1,1.6961691E0,1.8605747E0,0E0,0E0,1.0995483E0,0E0,0E0,1.2822113E0,0E0,3.8139293E-1,1.2535832E0,8.744048E-1,0E0,0E0,0E0,0E0,0E0,0E0],"parents":[2147483647,0,0,1,1,2,2,3,3,4,4,7,7,10,10,12,12,13,13,14,14],"right_children":[2,4,6,8,10,-1,-1,12,-1,-1,14,-1,16,18,20,-1,-1,-1,-1,-1,-1],"split_conditions":[-8.1422377E-1,-1.2623283E0,-2.023121E0,2.5379007E0,-9.948385E-1,-1.3956964E-3,9.212017E-2,-2.2552872E0,-1.0235513E-2,-1.0445597E-2,-1.871757E-3,-4.1815997E-3,-1.9707159E0,-8.30142E-1,-1.1355157E0,-2.4822748E-3,6.088019E-5,-9.831453E-3,2.1351636E-3,-6.927377E-3,-2.6377272E-3],"split_indices":[26,4,18,20,6,0,0,1,0,0,27,0,12,1,9,0,0,0,0,0,0],"split_type":[0,0,0,0,0,0,0,0,0,0,0,0,0,0,0,0,0,0,0,0,0],"sum_hessian":[4.37E2,1.13E2,3.24E2,7.8E1,3.5E1,1E0,3.23E2,7.5E1,3E0,1.3E1,2.2E1,2E0,7.3E1,9E0,1.3E1,1.2E1,6.1E1,7E0,2E0,2E0,1.1E1],"tree_param":{"num_deleted":"0","num_feature":"31","num_nodes":"21","size_leaf_vector":"1"}},{"base_weights":[2.9796842E-2,-1.5080644E-1,9.96875E-3,-2.2471873E-3,-5.138889E-1,2.906977E-2,-6.7499995E-2,-6.64E-1,-1.5833333E-1,5.119048E-2,-6E-2,-7.55E-1,-2.4999999E-1,8.75E-3,-5.2E-1,-5.1282014E-4,9.782609E-3,5.0000004E-3,-8E-2,-6E-2,7.5000003E-3,-6.7499995E-2,5.0000004E-3],"categories":[],"categories_nodes":[],"categories_segments":[],"categories_sizes":[],"default_left":[0,0,0,0,0,0,0,0,0,0,0,0,0,0,0,0,0,0,0,0,0,0,0],"id":20,"left_children":[1,3,-1,5,7,9,-1,11,13,15,-1,17,19,-1,21,-1,-1,-1,-1,-1,-1,-1,-1],"loss_changes":[5.6067934E0,6.687312E0,0E0,1.8947248E0,1.8162899E0,1.2274446E0,0E0,7.5309944E-1,1.1124166E0,2.2112398E-1,0E0,7.645006E-1,7.2749996E-1,0E0,4.7549987E-1,0E0,0E0,0E0,0E0,0E0,0E0,0E0,0E0],"parents":[2147483647,0,0,1,1,3,3,4,4,5,5,7,7,8,8,9,9,11,11,12,12,14,14],"right_children":[2,4,-1,6,8,10,-1,12,14,16,-1,18,20,-1,22,-1,-1,-1,-1,-1,-1,-1,-1],"split_conditions":[-8.04936E-1,-1.2193322E0,8.806115E-2,2.8731453E0,2.4762087E-1,-8.9474106E-1,-9.211957E-3,2.1462743E0,2.104704E-1,-1.1345664E-1,-6.182313E-3,-1.034676E-1,-8.806078E-1,6.8479776E-4,-8.680958E-1,-3.186058E-4,3.2753948E-4,9.627051E-3,-9.870454E-3,-8.231151E-3,1.0168434E-3,-2.8687061E-3,6.9034104E-5],"split_indices":[6,4,0,20,30,12,0,23,29,28,0,23,5,0,3,0,0,0,0,0,0,0,0],"split_type":[0,0,0,0,0,0,0,0,0,0,0,0,0,0,0,0,0,0,0,0,0,0,0],"sum_hessian":[4.42E2,1.23E2,3.19E2,8.8E1,3.5E1,8.5E1,3E0,2.4E1,1.1E1,8.3E1,2E0,1.9E1,5E0,7E0,4E0,3.8E1,4.5E1,1E0,1.8E1,2E0,3E0,3E0,1E0],"tree_param":{"num_deleted":"0","num_feature":"31","num_nodes":"23","size_leaf_vector":"1"}},{"base_weights":[2.4222225E-2,-1.9145298E-1,9.970061E-3,-7.999996E-3,-5.069767E-1,1.643836E-2,-6E-2,-6.6206896E-1,-1.7333333E-1,-1.7333333E-1,6.440678E-2,-6.892857E-1,5.0000004E-3,-6.1538458E-2,-6E-2,8.888889E-3,-4.8571426E-2,-1.0999999E-2,9.800001E-3,5.0000004E-3,-7.185185E-2,-4.25E-2,9.000001E-3],"categories":[],"categories_nodes":[],"categories_segments":[],"categories_sizes":[],"default_left":[0,0,0,0,0,0,0,0,0,0,0,0,0,0,0,0,0,0,0,0,0,0,0],"id":21,"left_children":[1,3,-1,5,7,9,-1,11,13,15,17,19,-1,21,-1,-1,-1,-1,-1,-1,-1,-1,-1],"loss_changes":[7.3445544E0,6.768346E0,0E0,1.094926E0,2.1102972E0,6.7568636E-1,0E0,5.9649086E-1,6.7856413E-1,1.271873E0,3.564542E-1,6.410446E-1,0E0,7.542692E-1,0E0,0E0,0E0,0E0,0E0,0E0,0E0,0E0,0E0],"parents":[2147483647,0,0,1,1,3,3,4,4,5,5,7,7,8,8,9,9,10,10,11,11,13,13],"right_children":[2,4,-1,6,8,10,-1,12,14,16,18,20,-1,22,-1,-1,-1,-1,-1,-1,-1,-1,-1],"split_conditions":[-7.512485E-1,-1.3150506E0,8.002557E-2,3.0536616E0,-8.683887E-1,-1.9544389E0,-8.290768E-3,-5.782288E-1,2.511033E0,-1.7586856E0,-1.9736315E0,-1.4751266E0,4.1202307E-4,2.0355246E0,-8.3613815E-3,1.4305115E-5,-2.718258E-3,-3.6145926E-3,1.7590524E-4,1.6242027E-3,-9.133368E-3,-3.0502677E-3,6.2849524E-4],"split_indices":[26,6,0,20,8,10,0,2,23,5,18,8,0,23,0,0,0,0,0,0,0,0,0],"split_type":[0,0,0,0,0,0,0,0,0,0,0,0,0,0,0,0,0,0,0,0,0,0,0],"sum_hessian":[4.49E2,1.16E2,3.33E2,7.4E1,4.2E1,7.2E1,2E0,2.8E1,1.4E1,1.4E1,5.8E1,2.7E1,1E0,1.2E1,2E0,8E0,6E0,9E0,4.9E1,1E0,2.6E1,3E0,9E0],"tree_param":{"num_deleted":"0","num_feature":"31","num_nodes":"23","size_leaf_vector":"1"}},{"base_weights":[3.5253458E-2,-1.19531244E-1,9.967427E-3,5.1764708E-2,-4.4772726E-1,6.309524E-2,-4.4999998E-2,8.333334E-3,-5.179487E-1,-4.0909085E-2,9.84127E-3,-5.9999996E-1,-5.7142854E-2,4.5000003E-3,-6E-2,-6.814815E-2,-2E-2,-4.4999998E-2,8.333334E-3],"categories":[],"categories_nodes":[],"categories_segments":[],"categories_sizes":[],"default_left":[0,0,0,0,0,0,0,0,0,0,0,0,0,0,0,0,0,0,0],"id":22,"left_children":[1,3,-1,5,7,9,-1,-1,11,13,-1,15,17,-1,-1,-1,-1,-1,-1],"loss_changes":[4.3394823E0,7.219164E0,0E0,5.116401E-1,1.6840038E0,3.125721E-1,0E0,0E0,1.4402924E0,1.0836818E0,0E0,9.392586E-1,4.238095E-1,0E0,0E0,0E0,0E0,0E0,0E0],"parents":[2147483647,0,0,1,1,3,3,4,4,5,5,8,8,9,9,11,11,12,12],"right_children":[2,4,-1,6,8,10,-1,-1,12,14,-1,16,18,-1,-1,-1,-1,-1,-1],"split_conditions":[-7.437201E-1,-1.2963092E0,7.118023E-2,-1.1218457E0,-9.101581E-2,-7.4773395E-1,-7.461691E-3,7.5376034E-4,-8.255862E-1,-8.293022E-1,2.0692707E-4,-8.3507764E-1,-2.2552872E0,4.8792364E-5,-2.446437E-3,-9.708325E-3,-6.571901E-3,-8.882523E-4,5.7735445E-4],"split_indices":[3,7,0,11,23,28,0,0,15,28,0,8,1,0,0,0,0,0,0],"split_type":[0,0,0,0,0,0,0,0,0,0,0,0,0,0,0,0,0,0,0],"sum_hessian":[4.33E2,1.27E2,3.06E2,8.4E1,4.3E1,8.3E1,1E0,5E0,3.8E1,2.1E1,6.2E1,3.2E1,6E0,1.9E1,2E0,2.6E1,6E0,1E0,5E0],"tree_param":{"num_deleted":"0","num_feature":"31","num_nodes":"19","size_leaf_vector":"1"}},{"base_weights":[2.693157E-2,-1.626984E-1,9.969513E-3,3.4615386E-2,-4.7346938E-1,-6.999999E-2,9.795918E-3,8E-3,-5.244444E-1,-1.0714282E-2,-6E-2,-6.814815E-1,-2.736842E-1,5.4166666E-3,-3.2E-2,-7.7391304E-2,-1.2E-2,-7.5E-3,-5.3749997E-2],"categories":[],"categories_nodes":[],"categories_segments":[],"categories_sizes":[],"default_left":[0,0,0,0,0,0,0,0,0,0,0,0,0,0,0,0,0,0,0],"id":23,"left_children":[1,3,-1,5,7,9,-1,-1,11,13,-1,15,17,-1,-1,-1,-1,-1,-1],"loss_changes":[6.2667823E0,7.7426343E0,0E0,5.237425E-1,1.4243984E0,9.362142E-1,0E0,0E0,1.5855274E0,5.7920235E-1,0E0,1.3083935E0,9.5559204E-1,0E0,0E0,0E0,0E0,0E0,0E0],"parents":[2147483647,0,0,1,1,3,3,4,4,5,5,8,8,9,9,11,11,12,12],"right_children":[2,4,-1,6,8,10,-1,-1,12,14,-1,16,18,-1,-1,-1,-1,-1,-1],"split_conditions":[-7.608269E-1,-1.3150506E0,6.3989975E-2,-1.8802614E0,-9.101581E-2,-1.8567549E0,2.0061612E-4,9.0008974E-4,4.0974423E-2,6.8546355E-1,-4.8159363E-4,-8.2007325E-1,-9.39851E-1,8.447648E-5,-3.2580139E-3,-9.729401E-3,-7.994175E-4,-3.304688E-3,-6.912887E-3],"split_indices":[0,6,0,26,23,0,0,0,27,29,0,15,3,0,0,0,0,0,0],"split_type":[0,0,0,0,0,0,0,0,0,0,0,0,0,0,0,0,0,0,0],"sum_hessian":[4.52E2,1.25E2,3.27E2,7.7E1,4.8E1,2.9E1,4.8E1,4E0,4.4E1,2.7E1,2E0,2.6E1,1.8E1,2.3E1,4E0,2.2E1,4E0,1.1E1,7E0],"tree_param":{"num_deleted":"0","num_feature":"31","num_nodes":"19","size_leaf_vector":"1"}},{"base_weights":[2.4053454E-2,-1.6850393E-1,9.969041E-3,4.675325E-2,-4.9019605E-1,-2.8124996E-2,9.782609E-3,-1.7333333E-1,-6.054054E-1,-1.5625E-1,9.411765E-3,-6E-2,-6.1538458E-2,-4.2608693E-1,-8.4E-2,-6E-2,-5E-3,9.000001E-3,-4.25E-2,-5.7222225E-2,8.333334E-3],"categories":[],"categories_nodes":[],"categories_segments":[],"categories_sizes":[],"default_left":[0,0,0,0,0,0,0,0,0,0,0,0,0,0,0,0,0,0,0,0,0],"id":24,"left_children":[1,3,-1,5,7,9,-1,11,13,15,-1,-1,17,19,-1,-1,-1,-1,-1,-1,-1],"loss_changes":[6.5562377E0,8.817229E0,0E0,2.972182E-1,1.7568464E0,5.1590073E-1,0E0,6.7856413E-1,1.1985703E0,7.243749E-1,0E0,0E0,7.542692E-1,1.759903E0,0E0,0E0,0E0,0E0,0E0,0E0,0E0],"parents":[2147483647,0,0,1,1,3,3,4,4,5,5,7,7,8,8,9,9,12,12,13,13],"right_children":[2,4,-1,6,8,10,-1,12,14,16,-1,-1,18,20,-1,-1,-1,-1,-1,-1,-1],"split_conditions":[-7.6845545E-1,-1.5267612E0,5.7566892E-2,-1.1345664E-1,-4.9787554E-1,-1.886859E0,1.4240741E-4,-1.0037665E0,3.728766E-1,-3.4761897E-1,6.3743355E-4,-6.9257203E-3,-8.753645E-1,9.7862095E-1,-1.2345719E-2,-2.9322149E-3,-9.774923E-4,2.7527215E-4,-3.1645298E-3,-6.8738917E-3,1.7077565E-3],"split_indices":[8,22,0,28,24,26,0,2,29,24,0,0,4,28,0,0,0,0,0,0,0],"split_type":[0,0,0,0,0,0,0,0,0,0,0,0,0,0,0,0,0,0,0,0,0],"sum_hessian":[4.48E2,1.26E2,3.22E2,7.6E1,5E1,3.1E1,4.5E1,1.4E1,3.6E1,1.5E1,1.6E1,2E0,1.2E1,2.2E1,1.4E1,2E0,1.3E1,9E0,3E0,1.7E1,5E0],"tree_param":{"num_deleted":"0","num_feature":"31","num_nodes":"21","size_leaf_vector":"1"}},{"base_weights":[1.977778E-2,-1.7557251E-1,9.96875E-3,3.2894738E-2,-4.5535713E-1,-1.5833333E-1,6.769231E-2,-3.275E-1,-7.294117E-1,8.75E-3,-5.2E-1,8.28125E-2,-4.4999998E-2,8.888889E-3,-4.34375E-1,-8.4E-2,6.6666673E-3,-6.7499995E-2,5.0000004E-3,-3.7499995E-3,9.824562E-3,-5.333333E-2,8.333334E-3],"categories":[],"categories_nodes":[],"categories_segments":[],"categories_sizes":[],"default_left":[0,0,0,0,0,0,0,0,0,0,0,0,0,0,0,0,0,0,0,0,0,0,0],"id":25,"left_children":[1,3,-1,5,7,9,11,13,15,-1,17,19,-1,-1,21,-1,-1,-1,-1,-1,-1,-1,-1],"loss_changes":[7.0421762E0,7.6556754E0,0E0,5.1644266E-1,1.7233496E0,1.1124166E0,5.460601E-1,1.8186736E0,1.5526276E0,0E0,4.7549987E-1,1.22519165E-1,0E0,0E0,1.6838536E0,0E0,0E0,0E0,0E0,0E0,0E0,0E0,0E0],"parents":[2147483647,0,0,1,1,3,3,4,4,5,5,6,6,7,7,8,8,10,10,11,11,14,14],"right_children":[2,4,-1,6,8,10,12,14,16,-1,18,20,-1,-1,22,-1,-1,-1,-1,-1,-1,-1,-1],"split_conditions":[-5.728033E-1,-1.3150506E0,5.414591E-2,-1.9707159E0,-8.441774E-1,-1.7061918E0,-5.5492556E-1,1.5208635E-1,1.602175E-2,4.5610667E-4,-1.6050948E0,-2.0047383E0,-5.5010202E-3,2.477467E-4,1.9775449E0,-9.74708E-3,2.155906E-3,-1.9170046E-3,2.6260377E-3,-2.6389838E-3,2.8951882E-4,-9.389241E-3,9.4649795E-4],"split_indices":[5,6,0,12,3,5,18,23,28,0,1,16,0,0,28,0,0,0,0,0,0,0,0],"split_type":[0,0,0,0,0,0,0,0,0,0,0,0,0,0,0,0,0,0,0,0,0,0,0],"sum_hessian":[4.49E2,1.3E2,3.19E2,7.5E1,5.5E1,1.1E1,6.4E1,3.9E1,1.6E1,7E0,4E0,6.3E1,1E0,8E0,3.1E1,1.4E1,2E0,3E0,1E0,7E0,5.6E1,2.6E1,5E0],"tree_param":{"num_deleted":"0","num_feature":"31","num_nodes":"23","size_leaf_vector":"1"}},{"base_weights":[3.0645164E-2,-1.5982142E-1,9.659443E-2,3.2E-2,-5.342105E-1,-1.75E-1,9.96875E-3,-1.4117646E-1,8.135594E-2,7.5000003E-3,-5.885714E-1,6.6666673E-3,-4.4999998E-2,9.000001E-3,-4.125E-1,-1.2E-1,9.818182E-3,6.6666673E-3,-6.30303E-1,7.5000003E-3,-7.2E-2,-4.4999998E-2,7.5000003E-3,-7.44E-2,-2.4444444E-2],"categories":[],"categories_nodes":[],"categories_segments":[],"categories_sizes":[],"default_left":[0,0,0,0,0,0,0,0,0,0,0,0,0,0,0,0,0,0,0,0,0,0,0,0,0],"id":26,"left_children":[1,3,5,7,9,11,-1,13,15,-1,17,-1,-1,-1,19,21,-1,-1,23,-1,-1,-1,-1,-1,-1],"loss_changes":[5.4669685E0,8.06047E0,2.8878522E-1,6.52532E-1,1.302598E0,2.958333E-1,0E0,1.1034265E0,2.1167329E-1,0E0,9.990654E-1,0E0,0E0,0E0,1.2532499E0,3.5549998E-1,0E0,0E0,1.2658749E0,0E0,0E0,0E0,0E0,0E0,0E0],"parents":[2147483647,0,0,1,1,2,2,3,3,4,4,5,5,7,7,8,8,10,10,14,14,15,15,18,18],"right_children":[2,4,6,8,10,12,-1,14,16,-1,18,-1,-1,-1,20,22,-1,-1,24,-1,-1,-1,-1,-1,-1],"split_conditions":[-8.914759E-1,-1.5267612E0,-1.106987E0,-6.598154E-1,-9.101581E-2,-2.1067033E0,4.2952266E-2,-3.987582E-1,-8.961866E-1,7.5778365E-4,-8.897098E-1,9.0682507E-4,-1.2106895E-3,4.104972E-4,-1.8395218E0,-1.9348159E0,2.1430255E-4,6.70892E-4,9.456217E-1,3.3513904E-3,-1.2713909E-3,-2.3750782E-3,4.198909E-4,-8.523396E-3,-8.117968E-3],"split_indices":[14,22,9,20,23,0,0,30,27,0,24,0,0,0,16,6,0,0,28,0,0,0,0,0,0],"split_type":[0,0,0,0,0,0,0,0,0,0,0,0,0,0,0,0,0,0,0,0,0,0,0,0,0],"sum_hessian":[4.33E2,1.11E2,3.22E2,7.4E1,3.7E1,3E0,3.19E2,1.6E1,5.8E1,3E0,3.4E1,2E0,1E0,9E0,7E0,4E0,5.4E1,2E0,3.2E1,3E0,4E0,1E0,3E0,2.4E1,8E0],"tree_param":{"num_deleted":"0","num_feature":"31","num_nodes":"25","size_leaf_vector":"1"}},{"base_weights":[1.8818384E-2,-1.7686567E-1,9.969137E-3,4.0000003E-2,-5.42E-1,5.119048E-2,-4.4999998E-2,-2.9565215E-1,-7.2499996E-1,-1.7142853E-2,9.800001E-3,-3.1249996E-2,-7.875E-2,-8.1363636E-1,-3.4285712E-1,-1.5625E-2,9.5E-3,9.09091E-3,-2.4999999E-2,-8.5499994E-2,-2.6666665E-2,-6.7499995E-2,7.5000003E-3],"categories":[],"categories_nodes":[],"categories_segments":[],"categories_sizes":[],"default_left":[0,0,0,0,0,0,0,0,0,0,0,0,0,0,0,0,0,0,0,0,0,0,0],"id":27,"left_children":[1,3,-1,5,7,9,-1,11,13,15,-1,17,-1,19,21,-1,-1,-1,-1,-1,-1,-1,-1],"loss_changes":[7.249909E0,1.0632483E1,0E0,4.89119E-1,2.0397348E0,2.703666E-1,0E0,2.9664402E0,6.694479E-1,5.6083924E-1,0E0,4.5028406E-1,0E0,2.69742E-1,1.0221429E0,0E0,0E0,0E0,0E0,0E0,0E0,0E0,0E0],"parents":[2147483647,0,0,1,1,3,3,4,4,5,5,7,7,8,8,9,9,11,11,13,13,14,14],"right_children":[2,4,-1,6,8,10,-1,12,14,16,-1,18,-1,20,22,-1,-1,-1,-1,-1,-1,-1,-1],"split_conditions":[-7.6003474E-1,-1.3005581E0,4.4018716E-2,-7.1989137E-1,7.5728106E-1,-1.886859E0,-4.1391253E-3,-8.7167996E-1,-9.412874E-1,-1.1345664E-1,1.1680126E-4,-9.659427E-1,-5.261481E-3,-7.512135E-1,-9.9752575E-1,-1.914835E-3,2.4210215E-4,6.1024906E-4,-3.4274997E-3,-8.871413E-3,-1.137414E-2,-3.5950243E-3,4.5950414E-4],"split_indices":[22,5,0,18,23,26,0,6,22,28,0,8,0,0,5,0,0,0,0,0,0,0,0],"split_type":[0,0,0,0,0,0,0,0,0,0,0,0,0,0,0,0,0,0,0,0,0,0,0],"sum_hessian":[4.56E2,1.33E2,3.23E2,8.4E1,4.9E1,8.3E1,1E0,2.2E1,2.7E1,3.4E1,4.9E1,1.5E1,7E0,2.1E1,6E0,1.5E1,1.9E1,1E1,5E0,1.9E1,2E0,3E0,3E0],"tree_param":{"num_deleted":"0","num_feature":"31","num_nodes":"23","size_leaf_vector":"1"}},{"base_weights":[2.3201859E-2,-1.5658914E-1,9.966997E-3,4.938272E-2,-4.9387753E-1,6.125E-2,-4.4999998E-2,-7.4999996E-2,-6.1315787E-1,-1.4814811E-2,9.814816E-3,8.888889E-3,-4.2499998E-1,-6.742857E-1,7.5000003E-3,5.4166666E-3,-4.25E-2,5.0000004E-3,-6E-2,-6.970588E-2,5.0000004E-3],"categories":[],"categories_nodes":[],"categories_segments":[],"categories_sizes":[],"default_left":[0,0,0,0,0,0,0,0,0,0,0,0,0,0,0,0,0,0,0,0,0],"id":28,"left_children":[1,3,-1,5,7,9,-1,11,13,15,-1,-1,17,19,-1,-1,-1,-1,-1,-1,-1],"loss_changes":[5.9411154E0,8.986266E0,0E0,5.075941E-1,2.4022427E0,2.2598603E-1,0E0,7.2611105E-1,1.6490641E0,7.8699076E-1,0E0,0E0,3.6249995E-1,6.1214924E-1,0E0,0E0,0E0,0E0,0E0,0E0,0E0],"parents":[2147483647,0,0,1,1,3,3,4,4,5,5,7,7,8,8,9,9,12,12,13,13],"right_children":[2,4,-1,6,8,10,-1,12,14,16,-1,-1,18,20,-1,-1,-1,-1,-1,-1,-1],"split_conditions":[-7.3212236E-1,-1.2886276E0,3.955263E-2,2.6141884E0,1.5208635E-1,-1.952889E0,-6.175041E-6,-9.3330586E-1,-8.214723E-1,6.8546355E-1,2.0061972E-4,2.5202634E-4,-8.8052595E-1,-5.3319275E-1,4.384917E-3,2.0103932E-4,-1.9460917E-3,5.4277777E-4,-4.735333E-3,-7.684982E-3,5.585444E-3],"split_indices":[10,5,0,27,23,0,0,17,16,29,0,0,1,6,0,0,0,0,0,0,0],"split_type":[0,0,0,0,0,0,0,0,0,0,0,0,0,0,0,0,0,0,0,0,0],"sum_hessian":[4.3E2,1.28E2,3.02E2,8E1,4.8E1,7.9E1,1E0,1.1E1,3.7E1,2.6E1,5.3E1,8E0,3E0,3.4E1,3E0,2.3E1,3E0,1E0,2E0,3.3E1,1E0],"tree_param":{"num_deleted":"0","num_feature":"31","num_nodes":"21","size_leaf_vector":"1"}},{"base_weights":[2.1300452E-2,-1.5251797E-1,9.967533E-3,-1.9090906E-2,-6.3666666E-1,3.7113406E-2,-4.0714285E-1,-7.4399996E-1,-8.333333E-2,-2.4999999E-1,5.5434786E-2,-1.3333333E-1,-7.5E-2,-7.7916664E-1,5.0000004E-3,-4.4999998E-2,8E-3,-6E-2,7.5000003E-3,6.593407E-3,-4.4999998E-2,8.571429E-3,-6E-2,-8.136364E-2,-2.6666665E-2],"categories":[],"categories_nodes":[],"categories_segments":[],"categories_sizes":[],"default_left":[0,0,0,0,0,0,0,0,0,0,0,0,0,0,0,0,0,0,0,0,0,0,0,0,0],"id":29,"left_children":[1,3,-1,5,7,9,11,13,15,17,19,21,-1,23,-1,-1,-1,-1,-1,-1,-1,-1,-1,-1,-1],"loss_changes":[6.091059E0,8.967042E0,0E0,2.4142318E0,1.7197342E0,5.2410907E-1,1.2142856E0,7.370157E-1,3.9533332E-1,7.2749996E-1,5.17887E-1,9.714285E-1,0E0,2.0700741E-1,0E0,0E0,0E0,0E0,0E0,0E0,0E0,0E0,0E0,0E0,0E0],"parents":[2147483647,0,0,1,1,3,3,4,4,5,5,6,6,7,7,8,8,9,9,10,10,11,11,13,13],"right_children":[2,4,-1,6,8,10,12,14,16,18,20,22,-1,24,-1,-1,-1,-1,-1,-1,-1,-1,-1,-1,-1],"split_conditions":[-4.990477E-1,1.105272E0,3.5501048E-2,-9.394842E-1,-8.6128473E-1,-2.0509326E0,-9.7199404E-1,-6.0470414E-1,-8.8052595E-1,-1.78836E0,-4.9405497E-1,-6.5032756E-1,-2.7971386E-3,-7.4159926E-1,5.0269007E-3,-9.4448926E-4,2.8059483E-4,-2.2482873E-5,5.251646E-4,1.0024787E-4,-9.468228E-3,5.6601764E-4,-7.933808E-3,-5.550127E-3,-2.087307E-3],"split_indices":[1,23,0,16,26,8,10,6,1,26,0,19,0,4,0,0,0,0,0,0,0,0,0,0,0],"split_type":[0,0,0,0,0,0,0,0,0,0,0,0,0,0,0,0,0,0,0,0,0,0,0,0,0],"sum_hessian":[4.45E2,1.38E2,3.07E2,1.09E2,2.9E1,9.6E1,1.3E1,2.4E1,5E0,5E0,9.1E1,8E0,5E0,2.3E1,1E0,1E0,4E0,2E0,3E0,9E1,1E0,6E0,2E0,2.1E1,2E0],"tree_param":{"num_deleted":"0","num_feature":"31","num_nodes":"25","size_leaf_vector":"1"}},{"base_weights":[3.0888893E-2,-1.3923076E-1,9.968848E-3,-3.1775698E-2,-6.125E-1,3.6884062E-9,-4.8571426E-1,-7.8823525E-1,-1.625E-1,-4.1666666E-1,2.604167E-2,-7.2E-2,6.6666673E-3,-8.4375E-2,5.0000004E-3,-6E-2,8.333334E-3,-6.7499995E-2,6.6666673E-3,-1.5625E-2,6.1728396E-3],"categories":[],"categories_nodes":[],"categories_segments":[],"categories_sizes":[],"default_left":[0,0,0,0,0,0,0,0,0,0,0,0,0,0,0,0,0,0,0,0,0],"id":30,"left_children":[1,3,-1,5,7,9,11,13,15,17,19,-1,-1,-1,-1,-1,-1,-1,-1,-1,-1],"loss_changes":[5.280752E0,6.591709E0,0E0,1.5433911E0,1.7698545E0,1.1067708E0,9.539046E-1,8.33271E-1,9.104166E-1,7.9416656E-1,6.341628E-1,0E0,0E0,0E0,0E0,0E0,0E0,0E0,0E0,0E0,0E0],"parents":[2147483647,0,0,1,1,3,3,4,4,5,5,6,6,7,7,8,8,9,9,10,10],"right_children":[2,4,-1,6,8,10,12,14,16,18,20,-1,-1,-1,-1,-1,-1,-1,-1,-1,-1],"split_conditions":[-2.0324951E-1,1.2796086E0,3.3548217E-2,-8.192383E-1,-9.242548E-1,-2.0509326E0,-6.15E-1,-8.330108E-1,-9.8768777E-1,-1.381966E0,-8.961866E-1,-7.140428E-3,3.1555892E-4,-3.6302947E-3,6.366223E-3,-1.9120098E-3,2.5253298E-4,-2.9312135E-3,6.545067E-4,-8.658085E-3,7.9667574E-5],"split_indices":[0,23,0,6,0,8,4,18,3,1,27,0,0,0,0,0,0,0,0,0,0],"split_type":[0,0,0,0,0,0,0,0,0,0,0,0,0,0,0,0,0,0,0,0,0],"sum_hessian":[4.49E2,1.29E2,3.2E2,1.06E2,2.3E1,1E2,6E0,1.6E1,7E0,5E0,9.5E1,4E0,2E0,1.5E1,1E0,2E0,5E0,3E0,2E0,1.5E1,8E1],"tree_param":{"num_deleted":"0","num_feature":"31","num_nodes":"21","size_leaf_vector":"1"}},{"base_weights":[2.3883931E-2,-1.4532374E-1,9.9677425E-3,4.5161292E-2,-5.1914895E-1,7.5E-2,-2.1E-1,-3.111111E-1,-7.619047E-1,-2.3529408E-2,9.852941E-3,-3.7499994E-2,-6E-2,-6.0999995E-1,-1.2777777E-1,-8.05E-1,5.0000004E-3,-3.2E-2,9.230769E-3,-4.4999998E-2,8.571429E-3,6.6666673E-3,-7.875E-2,8.888889E-3,-3.1000001E-2,-8.5263155E-2,5.0000004E-3],"categories":[],"categories_nodes":[],"categories_segments":[],"categories_sizes":[],"default_left":[0,0,0,0,0,0,0,0,0,0,0,0,0,0,0,0,0,0,0,0,0,0,0,0,0,0,0],"id":31,"left_children":[1,3,-1,5,7,9,11,13,15,17,-1,19,-1,21,23,25,-1,-1,-1,-1,-1,-1,-1,-1,-1,-1,-1],"loss_changes":[5.7600136E0,9.921371E0,0E0,7.238226E-1,2.1365747E0,1.9705886E-1,6.5024996E-1,1.4015555E0,7.750244E-1,6.133574E-1,0E0,4.4517857E-1,0E0,1.2535832E0,7.382222E-1,8.5713005E-1,0E0,0E0,0E0,0E0,0E0,0E0,0E0,0E0,0E0,0E0,0E0],"parents":[2147483647,0,0,1,1,3,3,4,4,5,5,6,6,7,7,8,8,9,9,11,11,13,13,14,14,15,15],"right_children":[2,4,-1,6,8,10,12,14,16,18,-1,20,-1,22,24,26,-1,-1,-1,-1,-1,-1,-1,-1,-1,-1,-1],"split_conditions":[-2.0324951E-1,4.4363487E-1,2.917403E-2,-9.3670356E-1,-9.268697E-1,-1.9707159E0,-8.489498E-1,-1.858356E0,-4.9405497E-1,-1.9493734E0,2.3895025E-4,-1.2699513E0,-4.2797923E-3,-1.2249185E0,-3.2609606E-1,-6.018999E-1,1.1157981E-2,-7.3916913E-4,2.5149944E-4,-2.6380897E-3,4.2393207E-4,9.566498E-3,-7.997299E-3,5.014539E-4,-6.5208673E-3,-5.2384627E-3,3.607273E-4],"split_indices":[0,23,0,18,10,12,0,19,0,9,0,14,0,2,29,8,0,0,0,0,0,0,0,0,0,0,0],"split_type":[0,0,0,0,0,0,0,0,0,0,0,0,0,0,0,0,0,0,0,0,0,0,0,0,0,0,0],"sum_hessian":[4.47E2,1.38E2,3.09E2,9.2E1,4.6E1,8.3E1,9E0,2.6E1,2E1,1.6E1,6.7E1,7E0,2E0,9E0,1.7E1,1.9E1,1E0,4E0,1.2E1,1E0,6E0,2E0,7E0,8E0,9E0,1.8E1,1E0],"tree_param":{"num_deleted":"0","num_feature":"31","num_nodes":"27","size_leaf_vector":"1"}},{"base_weights":[3.656885E-2,-1.11718744E-1,9.6518986E-2,4.938272E-2,-3.8125E-1,8.333337E-3,9.9672135E-3,7.3076926E-2,-4.2499998E-1,-5.9999996E-1,-1.7307691E-1,9.09091E-3,-4.4999998E-2,-2.3529408E-2,9.838711E-3,-6E-2,5.0000004E-3,7.5000003E-3,-7.05E-1,-2.3529408E-2,-4.1E-1,9.2857145E-3,-4.25E-2,-7.882353E-2,-1.75E-2,-6E-2,9.333334E-3,-5.3749997E-2,6.6666673E-3],"categories":[],"categories_nodes":[],"categories_segments":[],"categories_sizes":[],"default_left":[0,0,0,0,0,0,0,0,0,0,0,0,0,0,0,0,0,0,0,0,0,0,0,0,0,0,0,0,0],"id":32,"left_children":[1,3,5,7,9,11,-1,13,15,17,19,-1,-1,21,-1,-1,-1,-1,23,25,27,-1,-1,-1,-1,-1,-1,-1,-1],"loss_changes":[3.9489918E0,5.5768275E0,8.703709E-2,9.415076E-1,2.0819707E0,4.9507573E-1,0E0,1.9303459E-1,3.6249995E-1,1.6829996E0,9.115657E-1,0E0,0E0,8.338025E-1,0E0,0E0,0E0,0E0,7.4435425E-1,1.2012548E0,6.435833E-1,0E0,0E0,0E0,0E0,0E0,0E0,0E0,0E0],"parents":[2147483647,0,0,1,1,2,2,3,3,4,4,5,5,7,7,8,8,9,9,10,10,13,13,18,18,19,19,20,20],"right_children":[2,4,6,8,10,12,-1,14,16,18,20,-1,-1,22,-1,-1,-1,-1,24,26,28,-1,-1,-1,-1,-1,-1,-1,-1],"split_conditions":[-8.214723E-1,1.1875385E-1,3.8134158E-2,-8.7167996E-1,-9.843385E-1,2.7472166E-2,2.7621126E-2,-1.9881381E0,-7.608269E-1,-1.7797867E0,1.2038811E-1,2.3920834E-4,-1.6754683E-3,6.8546355E-1,2.230835E-4,-3.851813E-3,9.069443E-4,5.66901E-3,-8.030876E-1,-1.3709458E0,-7.6285225E-1,3.8410188E-4,-9.1958046E-4,-5.4905186E-3,-3.4584999E-4,-7.197571E-3,1.1832118E-4,-6.8558636E-3,2.0609319E-3],"split_indices":[16,23,26,6,0,0,0,0,0,9,29,0,0,29,0,0,0,0,13,29,7,0,0,0,0,0,0,0,0],"split_type":[0,0,0,0,0,0,0,0,0,0,0,0,0,0,0,0,0,0,0,0,0,0,0,0,0,0,0,0,0],"sum_hessian":[4.42E2,1.27E2,3.15E2,8E1,4.7E1,1.1E1,3.04E2,7.7E1,3E0,2.2E1,2.5E1,1E1,1E0,1.6E1,6.1E1,2E0,1E0,3E0,1.9E1,1.6E1,9E0,1.3E1,3E0,1.6E1,3E0,2E0,1.4E1,7E0,2E0],"tree_param":{"num_deleted":"0","num_feature":"31","num_nodes":"29","size_leaf_vector":"1"}},{"base_weights":[4.632517E-2,-6.736111E-2,9.967321E-3,-5.6451573E-3,-4.285714E-1,4.351852E-2,-3.1764704E-1,-9.999996E-3,-7.416667E-1,-1.05E-1,7.64045E-2,-4.9166664E-1,8.333334E-3,8.888889E-3,-4.4999998E-2,-8.1818186E-2,5.0000004E-3,-6E-2,-1.6666662E-3,-1.75E-2,8.720931E-3,-8.333333E-3,-7.714286E-2],"categories":[],"categories_nodes":[],"categories_segments":[],"categories_sizes":[],"default_left":[0,0,0,0,0,0,0,0,0,0,0,0,0,0,0,0,0,0,0,0,0,0,0],"id":33,"left_children":[1,3,-1,5,7,9,11,13,15,17,19,21,-1,-1,-1,-1,-1,-1,-1,-1,-1,-1,-1],"loss_changes":[2.7298717E0,3.2076912E0,0E0,1.9158795E0,2.744691E0,5.355135E-1,1.2272059E0,4.751111E-1,7.6780224E-1,8.644999E-1,2.5701928E-1,1.3065472E0,0E0,0E0,0E0,0E0,0E0,0E0,0E0,0E0,0E0,0E0,0E0],"parents":[2147483647,0,0,1,1,3,3,4,4,5,5,6,6,7,7,8,8,9,9,10,10,11,11],"right_children":[2,4,-1,6,8,10,12,14,16,18,20,22,-1,-1,-1,-1,-1,-1,-1,-1,-1,-1,-1],"split_conditions":[1.284129E-1,1.5095589E0,2.802144E-2,-8.330108E-1,2.719194E-1,-8.961866E-1,2.891956E-1,-6.15E-1,-6.1043596E-1,-1.9830581E0,-2.0521522E0,-1.0020388E0,1.0296087E-3,1.0071993E-4,-1.6676188E-4,-5.9003006E-3,1.603365E-4,-6.170279E-3,-8.3714304E-4,-7.080555E-4,2.4657013E-4,-1.8252254E-3,-3.4666301E-3],"split_indices":[0,23,0,18,29,27,13,4,7,18,1,3,0,0,0,0,0,0,0,0,0,0,0],"split_type":[0,0,0,0,0,0,0,0,0,0,0,0,0,0,0,0,0,0,0,0,0,0,0],"sum_hessian":[4.48E2,1.43E2,3.05E2,1.23E2,2E1,1.07E2,1.6E1,9E0,1.1E1,1.9E1,8.8E1,1.1E1,5E0,8E0,1E0,1E1,1E0,2E0,1.7E1,3E0,8.5E1,5E0,6E0],"tree_param":{"num_deleted":"0","num_feature":"31","num_nodes":"23","size_leaf_vector":"1"}},{"base_weights":[4.5647062E-2,-6.618705E-2,9.965157E-3,-1.1023618E-2,-5.9999996E-1,3.173077E-2,-1.9583333E-1,-8E-2,-1.2E-1,4.0776704E-2,-4.4999998E-2,-3.7333333E-1,9.000001E-3,-4.4999998E-2,7.5000003E-3,-1.333333E-3,8.1355935E-3,-5.454545E-2,8E-3],"categories":[],"categories_nodes":[],"categories_segments":[],"categories_sizes":[],"default_left":[0,0,0,0,0,0,0,0,0,0,0,0,0,0,0,0,0,0,0],"id":34,"left_children":[1,3,-1,5,7,9,11,-1,13,15,-1,17,-1,-1,-1,-1,-1,-1,-1],"loss_changes":[2.5734026E0,4.086512E0,0E0,1.009695E0,1.152E0,4.7155055E-1,1.25125E0,0E0,3.5549998E-1,2.2724633E-1,0E0,1.2140605E0,0E0,0E0,0E0,0E0,0E0,0E0,0E0],"parents":[2147483647,0,0,1,1,3,3,4,4,5,5,6,6,8,8,9,9,11,11],"right_children":[2,4,-1,6,8,10,12,-1,14,16,-1,18,-1,-1,-1,-1,-1,-1,-1],"split_conditions":[2.3419048E-4,-7.731085E-1,2.5251402E-2,-9.088058E-1,1.6540168E-1,-6.1855525E-1,-7.437201E-1,-2.3061752E-3,-8.390604E-1,-1.511455E-2,-1.642704E-3,-8.3350354E-1,1.9596815E-4,-3.321302E-3,4.5565367E-4,-8.243322E-6,1.3893725E-4,-6.214007E-3,6.113052E-5],"split_indices":[0,11,0,4,20,18,3,0,7,20,0,7,0,0,0,0,0,0,0],"split_type":[0,0,0,0,0,0,0,0,0,0,0,0,0,0,0,0,0,0,0],"sum_hessian":[4.24E2,1.38E2,2.86E2,1.26E2,1.2E1,1.03E2,2.3E1,8E0,4E0,1.02E2,1E0,1.4E1,9E0,1E0,3E0,4.4E1,5.8E1,1E1,4E0],"tree_param":{"num_deleted":"0","num_feature":"31","num_nodes":"19","size_leaf_vector":"1"}},{"base_weights":[5.3930134E-2,-4.2567562E-2,9.967846E-3,3.3644862E-2,-2.3571427E-1,5.096154E-2,-4.2499998E-1,-4.4230768E-1,9.411765E-3,6.0194176E-2,-4.4999998E-2,5.0000004E-3,-6E-2,-2.2222219E-2,-6.2777776E-1,6.9607846E-3,-4.4999998E-2,-4.4999998E-2,8.75E-3,5.0000004E-3,-6.7058824E-2],"categories":[],"categories_nodes":[],"categories_segments":[],"categories_sizes":[],"default_left":[0,0,0,0,0,0,0,0,0,0,0,0,0,0,0,0,0,0,0,0,0],"id":35,"left_children":[1,3,-1,5,7,9,11,13,-1,15,-1,-1,-1,17,19,-1,-1,-1,-1,-1,-1],"loss_changes":[2.0261335E0,2.186517E0,0E0,8.714746E-1,2.9035547E0,5.0810766E-1,3.6249995E-1,2.0117955E0,0E0,5.260118E-1,0E0,0E0,0E0,4.6180552E-1,5.5581665E-1,0E0,0E0,0E0,0E0,0E0,0E0],"parents":[2147483647,0,0,1,1,3,3,4,4,5,5,6,6,7,7,9,9,13,13,14,14],"right_children":[2,4,-1,6,8,10,12,14,-1,16,-1,-1,-1,18,20,-1,-1,-1,-1,-1,-1],"split_conditions":[1.4042966E-1,-9.088058E-1,2.2533625E-2,-6.5032756E-1,-1.871757E-3,-5.8297896E-1,-1.275144E0,-7.061252E-1,1.5788377E-4,-7.3212236E-1,-5.5671455E-3,4.8582556E-4,-5.0566136E-3,-9.784371E-1,-1.2110171E0,2.0516396E-4,-1.3316394E-3,-5.772698E-3,1.7637014E-4,2.4709702E-4,-4.3990533E-3],"split_indices":[0,4,0,19,27,0,0,29,0,10,0,0,0,5,8,0,0,0,0,0,0],"split_type":[0,0,0,0,0,0,0,0,0,0,0,0,0,0,0,0,0,0,0,0,0],"sum_hessian":[4.57E2,1.47E2,3.1E2,1.06E2,4.1E1,1.03E2,3E0,2.5E1,1.6E1,1.02E2,1E0,1E0,2E0,8E0,1.7E1,1.01E2,1E0,1E0,7E0,1E0,1.6E1],"tree_param":{"num_deleted":"0","num_feature":"31","num_nodes":"21","size_leaf_vector":"1"}},{"base_weights":[4.1348316E-2,-7.399999E-2,9.966216E-3,-3.4187997E-3,-3.1470588E-1,2.5688076E-2,-3.5555553E-1,-5.55E-1,2.666667E-2,5E-2,-2.875E-1,7.5000003E-3,-5.833333E-1,-7.0666665E-1,-8.333333E-2,-4.4999998E-2,9.2857145E-3,-9.523809E-3,8.658537E-3,-6.7499995E-2,8E-3,5.0000004E-3,-7.2E-2,-1.75E-2,-8.25E-2,8E-3,-4.4999998E-2],"categories":[],"categories_nodes":[],"categories_segments":[],"categories_sizes":[],"default_left":[0,0,0,0,0,0,0,0,0,0,0,0,0,0,0,0,0,0,0,0,0,0,0,0,0,0,0],"id":36,"left_children":[1,3,-1,5,7,9,11,13,15,17,19,-1,21,23,25,-1,-1,-1,-1,-1,-1,-1,-1,-1,-1,-1,-1],"loss_changes":[3.0006244E0,2.5473204E0,0E0,1.2083368E0,2.8038137E0,8.443234E-1,9.2638874E-1,1.3718333E0,5.150476E-1,5.502323E-1,1.19325E0,0E0,5.553334E-1,7.993336E-1,3.9533332E-1,0E0,0E0,0E0,0E0,0E0,0E0,0E0,0E0,0E0,0E0,0E0,0E0],"parents":[2147483647,0,0,1,1,3,3,4,4,5,5,6,6,7,7,8,8,9,9,10,10,12,12,13,13,14,14],"right_children":[2,4,-1,6,8,10,12,14,16,18,20,-1,22,24,26,-1,-1,-1,-1,-1,-1,-1,-1,-1,-1,-1,-1],"split_conditions":[1.997227E-1,-8.569319E-1,2.0440793E-2,-8.424374E-1,1.6540168E-1,-7.509673E-1,-1.670266E-1,1.602175E-2,-9.8401064E-1,-1.9513816E0,-8.6262494E-1,6.340146E-4,-1.4225495E0,-8.7727445E-1,3.9901927E-1,-2.549267E-3,5.791202E-4,-3.0497313E-5,1.8519878E-4,-5.195427E-3,1.5873314E-4,3.4820437E-3,-4.550952E-3,-4.4696333E-4,-4.7041527E-3,1.1124909E-4,-4.506033E-4],"split_indices":[26,11,0,18,20,1,29,28,12,11,4,0,0,13,8,0,0,0,0,0,0,0,0,0,0,0,0],"split_type":[0,0,0,0,0,0,0,0,0,0,0,0,0,0,0,0,0,0,0,0,0,0,0,0,0,0,0],"sum_hessian":[4.44E2,1.49E2,2.95E2,1.16E2,3.3E1,1.08E2,8E0,1.9E1,1.4E1,1.01E2,7E0,3E0,5E0,1.4E1,5E0,1E0,1.3E1,2E1,8.1E1,3E0,4E0,1E0,4E0,3E0,1.1E1,4E0,1E0],"tree_param":{"num_deleted":"0","num_feature":"31","num_nodes":"27","size_leaf_vector":"1"}},{"base_weights":[4.3595508E-2,-7.074829E-2,9.966555E-3,4.3103485E-3,-3.40625E-1,3.4862388E-2,-4.125E-1,-6.705882E-1,3.1250004E-2,5.9803925E-2,-2.875E-1,6.6666673E-3,-5.833333E-1,-7.642857E-1,-1.75E-1,-4.4999998E-2,9.333334E-3,-7.5E-3,7.692308E-3,-6.7499995E-2,8E-3,-7.2E-2,5.0000004E-3,-8.307692E-2,5.0000004E-3,-4.4999998E-2,6.6666673E-3],"categories":[],"categories_nodes":[],"categories_segments":[],"categories_sizes":[],"default_left":[0,0,0,0,0,0,0,0,0,0,0,0,0,0,0,0,0,0,0,0,0,0,0,0,0,0,0],"id":37,"left_children":[1,3,-1,5,7,9,11,13,15,17,19,-1,21,23,25,-1,-1,-1,-1,-1,-1,-1,-1,-1,-1,-1,-1],"loss_changes":[2.8600628E0,2.979185E0,0E0,1.4915718E0,3.947518E0,8.935768E-1,6.937499E-1,6.5565157E-1,5.2004164E-1,2.4115762E-1,1.19325E0,0E0,5.553334E-1,7.994509E-1,2.958333E-1,0E0,0E0,0E0,0E0,0E0,0E0,0E0,0E0,0E0,0E0,0E0,0E0],"parents":[2147483647,0,0,1,1,3,3,4,4,5,5,6,6,7,7,8,8,9,9,10,10,12,12,13,13,14,14],"right_children":[2,4,-1,6,8,10,12,14,16,18,20,-1,22,24,26,-1,-1,-1,-1,-1,-1,-1,-1,-1,-1,-1,-1],"split_conditions":[1.997227E-1,-8.569319E-1,1.9408049E-2,-8.424374E-1,-1.871757E-3,-7.4856806E-1,-1.4225495E0,-6.669062E-2,-1.7598197E0,-1.9896759E0,-8.6262494E-1,3.1338453E-3,-9.05495E-1,5.048793E-1,-7.8486043E-1,-4.0225984E-4,4.4273734E-4,-5.007434E-4,1.7067016E-4,-4.6758833E-3,1.4286042E-4,-2.9567839E-3,1.4029682E-3,-4.1077356E-3,1.00124256E-4,-2.2943378E-3,8.055335E-4],"split_indices":[26,11,0,18,27,1,0,20,0,12,4,0,10,9,0,0,0,0,0,0,0,0,0,0,0,0,0],"split_type":[0,0,0,0,0,0,0,0,0,0,0,0,0,0,0,0,0,0,0,0,0,0,0,0,0,0,0],"sum_hessian":[4.44E2,1.46E2,2.98E2,1.15E2,3.1E1,1.08E2,7E0,1.6E1,1.5E1,1.01E2,7E0,2E0,5E0,1.3E1,3E0,1E0,1.4E1,1.1E1,9E1,3E0,4E0,4E0,1E0,1.2E1,1E0,1E0,2E0],"tree_param":{"num_deleted":"0","num_feature":"31","num_nodes":"27","size_leaf_vector":"1"}}]},"name":"gbtree"},"learner_model_param":{"base_score":"-1.8553582E0","boost_from_average":"1","num_class":"0","num_feature":"31","num_target":"1"},"objective":{"name":"reg:quantileerror","quantile_loss_param":{"quantile_alpha":"[1E-1]"}}},"version":[3,0,0]}